################################################################################
# Neural network connection values (weights and biases).
################################################################################
# Col  Name       Description
################################################################################
# 1    connection Neural network connection value.
# 2    t          Connection type (a = weight, b = bias).
# 3    index      Index enumerating weights.
# 4    l_s        Starting point layer (end point layer for biases).
# 5    n_s        Starting point neuron in starting layer (end point neuron for biases).
# 6    l_e        End point layer.
# 7    n_e        End point neuron in end layer.
################################################################################
#                      1 2         3     4     5     6     7
#             connection t     index   l_s   n_s   l_e   n_e
############################################################
  1.0352032640009956E+00 a         1     0     1     1     1
 -1.0164044785281752E+00 a         2     0     1     1     2
 -4.8008948482842173E-01 a         3     0     1     1     3
  5.5672238357218629E-01 a         4     0     1     1     4
 -7.2037564519151254E-01 a         5     0     1     1     5
 -1.3665643666783451E+00 a         6     0     1     1     6
 -2.3022466630922422E+00 a         7     0     1     1     7
  7.8443412062986895E-01 a         8     0     1     1     8
 -1.2720816659887957E+00 a         9     0     1     1     9
 -5.0781514846006581E-01 a        10     0     1     1    10
 -1.3286133371284725E+00 a        11     0     1     1    11
 -2.9551246855854543E+00 a        12     0     1     1    12
  1.7122594055476730E+00 a        13     0     1     1    13
  9.4136935751462952E-02 a        14     0     1     1    14
  3.0617189929800726E-01 a        15     0     1     1    15
  4.7518387846579141E-01 a        16     0     2     1     1
  3.5940834165927420E+00 a        17     0     2     1     2
 -1.4844016595462390E+00 a        18     0     2     1     3
  3.2147914580045456E-03 a        19     0     2     1     4
  2.1271672968893807E+00 a        20     0     2     1     5
 -2.7108350098992302E+00 a        21     0     2     1     6
  2.9302180441432707E-01 a        22     0     2     1     7
  1.1160241779172935E+00 a        23     0     2     1     8
 -2.1284736509364963E+00 a        24     0     2     1     9
 -2.7500586179752031E+00 a        25     0     2     1    10
  3.8895439630339843E+00 a        26     0     2     1    11
  9.0607421685663525E-01 a        27     0     2     1    12
  3.6998621088883983E+00 a        28     0     2     1    13
  6.6823002957828981E-01 a        29     0     2     1    14
 -9.2267571394584980E-01 a        30     0     2     1    15
 -7.2028676787769275E-01 a        31     0     3     1     1
  1.2093198840026211E+00 a        32     0     3     1     2
  4.9410930912474238E-01 a        33     0     3     1     3
 -1.1969074283297376E-01 a        34     0     3     1     4
 -5.4157981475710867E-02 a        35     0     3     1     5
 -2.8546429704309073E-01 a        36     0     3     1     6
 -5.0176682644103732E-01 a        37     0     3     1     7
 -1.8335631170894709E-01 a        38     0     3     1     8
  1.0822241015717120E+00 a        39     0     3     1     9
  3.2065221842862540E-01 a        40     0     3     1    10
 -5.6291132693854706E-01 a        41     0     3     1    11
 -1.4325329102147832E-01 a        42     0     3     1    12
 -1.2231059805668962E+00 a        43     0     3     1    13
  6.1787148943790937E-01 a        44     0     3     1    14
 -2.5979790438584921E-01 a        45     0     3     1    15
  5.1755993347614071E+00 a        46     0     4     1     1
  2.1283741415019022E+00 a        47     0     4     1     2
  1.0445635563150897E+00 a        48     0     4     1     3
  2.0919034353080290E+00 a        49     0     4     1     4
 -6.2573028587288269E+00 a        50     0     4     1     5
  2.3110329074104130E+00 a        51     0     4     1     6
  2.3866173602440846E+00 a        52     0     4     1     7
 -2.4900051588887857E+00 a        53     0     4     1     8
  2.3549932484422738E+00 a        54     0     4     1     9
  7.2450548830192307E+00 a        55     0     4     1    10
 -2.9259642883591193E+00 a        56     0     4     1    11
  1.3328996767048109E+00 a        57     0     4     1    12
 -2.1117369412040010E+00 a        58     0     4     1    13
 -5.4620673997863260E+00 a        59     0     4     1    14
 -3.2667011192540585E+00 a        60     0     4     1    15
 -2.1858962715293806E-01 a        61     0     5     1     1
  4.3255002426684230E-01 a        62     0     5     1     2
 -1.1826305602295306E+00 a        63     0     5     1     3
 -2.2677794308337447E+00 a        64     0     5     1     4
  5.2666678575114023E-01 a        65     0     5     1     5
 -1.1490399097670534E+00 a        66     0     5     1     6
 -1.1929041745315814E+00 a        67     0     5     1     7
  7.5104213883548621E-01 a        68     0     5     1     8
  1.8071023382625697E+00 a        69     0     5     1     9
  7.6582961621416767E-01 a        70     0     5     1    10
  9.3135231040117172E-01 a        71     0     5     1    11
  1.2812854794039110E+00 a        72     0     5     1    12
 -1.7900597455414045E+00 a        73     0     5     1    13
  1.6115077810849032E+00 a        74     0     5     1    14
  2.7895453123760694E-01 a        75     0     5     1    15
 -1.3854572190201161E-02 a        76     0     6     1     1
  3.8278326613424396E-01 a        77     0     6     1     2
 -2.2307332721440529E+00 a        78     0     6     1     3
 -1.2796825306144433E+00 a        79     0     6     1     4
  2.5675335673898730E-01 a        80     0     6     1     5
 -2.4086776995614532E+00 a        81     0     6     1     6
 -1.9876686988335851E-01 a        82     0     6     1     7
  1.6204489521756889E+00 a        83     0     6     1     8
  1.2962988585288342E+00 a        84     0     6     1     9
 -3.5239288685418484E+00 a        85     0     6     1    10
  2.3418065172684703E+00 a        86     0     6     1    11
  9.2201752542445914E-01 a        87     0     6     1    12
  5.3891278674522824E-01 a        88     0     6     1    13
 -5.5477603063817804E-01 a        89     0     6     1    14
 -5.4863132490542650E-02 a        90     0     6     1    15
  6.1358327082415376E-01 a        91     0     7     1     1
  2.9026042602248070E-01 a        92     0     7     1     2
 -1.2377319806104339E+00 a        93     0     7     1     3
 -9.2400048967280779E-01 a        94     0     7     1     4
  1.2257957716731820E+00 a        95     0     7     1     5
 -6.3090378091595278E-01 a        96     0     7     1     6
  4.4554024535608860E-01 a        97     0     7     1     7
  1.0006747680430932E+00 a        98     0     7     1     8
  2.6734467876605303E+00 a        99     0     7     1     9
 -4.5430982190831082E-01 a       100     0     7     1    10
  6.0164253130321987E-01 a       101     0     7     1    11
 -2.9920728962201015E-01 a       102     0     7     1    12
  2.7544020226213883E-01 a       103     0     7     1    13
  2.7680140082056046E+00 a       104     0     7     1    14
  1.7075073057144341E+00 a       105     0     7     1    15
  1.2155921715412978E+00 a       106     0     8     1     1
 -1.2157833509842795E+00 a       107     0     8     1     2
  8.2800149907108067E-01 a       108     0     8     1     3
 -6.6247856440200287E-02 a       109     0     8     1     4
 -2.8185614880693413E+00 a       110     0     8     1     5
 -1.3815212933214646E-01 a       111     0     8     1     6
  4.2115755656575560E-01 a       112     0     8     1     7
 -1.9394536441998855E+00 a       113     0     8     1     8
  8.6176493005363375E-01 a       114     0     8     1     9
  3.7560982423439406E+00 a       115     0     8     1    10
 -2.1568942161707967E+00 a       116     0     8     1    11
 -1.1009134510166139E+00 a       117     0     8     1    12
 -2.3648857584167526E+00 a       118     0     8     1    13
 -5.2508804155621580E-01 a       119     0     8     1    14
 -1.2774103652359206E+00 a       120     0     8     1    15
  1.0585606092717270E+00 a       121     0     9     1     1
 -7.8126857179614051E-01 a       122     0     9     1     2
 -1.9720199977395754E+00 a       123     0     9     1     3
 -3.7925278720411132E-01 a       124     0     9     1     4
  5.7952332146806684E-01 a       125     0     9     1     5
 -5.2068522947371898E-01 a       126     0     9     1     6
  1.1862616977909888E+00 a       127     0     9     1     7
 -1.8113999483633743E-02 a       128     0     9     1     8
 -1.2592900851524566E-01 a       129     0     9     1     9
 -5.0426611661542353E-01 a       130     0     9     1    10
 -4.0426750846060155E-01 a       131     0     9     1    11
  1.5300548851556314E-01 a       132     0     9     1    12
 -1.4040218029977112E+00 a       133     0     9     1    13
  2.1358785910817368E+00 a       134     0     9     1    14
  2.7781098695673534E+00 a       135     0     9     1    15
  3.4901678556504101E-01 a       136     0    10     1     1
 -2.2640588339498406E+00 a       137     0    10     1     2
  5.0293604656401369E-01 a       138     0    10     1     3
  1.2598274606810154E+00 a       139     0    10     1     4
  1.1724568888360987E+00 a       140     0    10     1     5
 -2.1056919627009942E+00 a       141     0    10     1     6
 -6.1437797981615183E-01 a       142     0    10     1     7
  3.8802085071819439E-02 a       143     0    10     1     8
  1.4236465723250051E+00 a       144     0    10     1     9
 -3.8110775351144879E+00 a       145     0    10     1    10
  1.1767937873509959E+00 a       146     0    10     1    11
 -1.7238919661737595E-01 a       147     0    10     1    12
  1.4187692383135215E+00 a       148     0    10     1    13
  9.1113498798768788E-02 a       149     0    10     1    14
 -6.3762822962593968E-01 a       150     0    10     1    15
 -5.5320125493057826E-01 a       151     0    11     1     1
  2.7531103888186141E+00 a       152     0    11     1     2
 -2.1143668984775914E+00 a       153     0    11     1     3
 -1.2891400879527032E-01 a       154     0    11     1     4
 -8.8053108623550413E-01 a       155     0    11     1     5
 -1.9713837150132041E+00 a       156     0    11     1     6
 -5.0067991964659175E-01 a       157     0    11     1     7
 -2.1727608577433912E+00 a       158     0    11     1     8
 -1.2122392820472128E+00 a       159     0    11     1     9
 -2.2359693829193246E+00 a       160     0    11     1    10
 -1.0094330954422521E+00 a       161     0    11     1    11
 -6.4098509818330551E-01 a       162     0    11     1    12
 -4.2702605506322238E+00 a       163     0    11     1    13
  5.6484429066925823E-01 a       164     0    11     1    14
  6.6521134382432912E-01 a       165     0    11     1    15
  1.0122025997061446E+00 a       166     0    12     1     1
 -6.7546960424352076E-01 a       167     0    12     1     2
  7.1257975862226075E-01 a       168     0    12     1     3
 -2.1463590578463898E+00 a       169     0    12     1     4
  4.6862275113590302E-01 a       170     0    12     1     5
  5.0258507017108422E-01 a       171     0    12     1     6
  5.8977832060647284E-01 a       172     0    12     1     7
  2.0426784601207078E+00 a       173     0    12     1     8
  3.1350231860999439E-01 a       174     0    12     1     9
  1.6075195904787269E+00 a       175     0    12     1    10
  2.3357071624694292E+00 a       176     0    12     1    11
  1.3372673306637610E+00 a       177     0    12     1    12
  3.8617436931756194E-01 a       178     0    12     1    13
  1.3511030113201719E+00 a       179     0    12     1    14
 -2.7736153568986810E-01 a       180     0    12     1    15
  9.8741255442565623E-01 a       181     0    13     1     1
  9.0824700268194913E-01 a       182     0    13     1     2
  9.5126809151422353E-01 a       183     0    13     1     3
 -1.5883911810907367E+00 a       184     0    13     1     4
  1.2205435963370367E-01 a       185     0    13     1     5
 -3.6324757754252318E-01 a       186     0    13     1     6
 -2.0246717317716234E+00 a       187     0    13     1     7
  8.0730919409025215E-01 a       188     0    13     1     8
  3.2402834510133122E-01 a       189     0    13     1     9
  1.2140181319052594E+00 a       190     0    13     1    10
  2.1958338860195878E-01 a       191     0    13     1    11
  6.0891108469550459E-01 a       192     0    13     1    12
  3.4052837168177579E+00 a       193     0    13     1    13
  9.8647911313526526E-01 a       194     0    13     1    14
  1.4709429270733292E+00 a       195     0    13     1    15
  1.6298047978952148E+00 a       196     0    14     1     1
 -1.1129931487989937E+00 a       197     0    14     1     2
  1.5278033429896389E+00 a       198     0    14     1     3
 -2.7563730988028112E-01 a       199     0    14     1     4
 -1.5541506390971191E+00 a       200     0    14     1     5
  9.1084850765608427E-01 a       201     0    14     1     6
  2.1316310205785247E+00 a       202     0    14     1     7
 -2.7509905203935499E+00 a       203     0    14     1     8
  1.2110356362520540E+00 a       204     0    14     1     9
 -2.4431669258914388E+00 a       205     0    14     1    10
 -3.0013986959431498E+00 a       206     0    14     1    11
 -9.3347939733259999E-01 a       207     0    14     1    12
 -8.3186979531137007E-03 a       208     0    14     1    13
  7.0593641384169215E-01 a       209     0    14     1    14
  2.1730302276063643E-01 a       210     0    14     1    15
  7.2115924286985933E-02 a       211     0    15     1     1
 -1.4863096420213668E+00 a       212     0    15     1     2
  1.3343099876716269E-01 a       213     0    15     1     3
  1.3615183919343823E+00 a       214     0    15     1     4
 -1.2419541517856574E+00 a       215     0    15     1     5
  6.8524154437971341E-01 a       216     0    15     1     6
  2.5074797892175473E+00 a       217     0    15     1     7
  2.6794719323256055E+00 a       218     0    15     1     8
 -1.4522774600621178E+00 a       219     0    15     1     9
 -1.1859464568559494E-01 a       220     0    15     1    10
  3.2951265850936517E-01 a       221     0    15     1    11
  1.2851150616090712E+00 a       222     0    15     1    12
 -3.2584257459668771E+00 a       223     0    15     1    13
  2.2133619659792516E+00 a       224     0    15     1    14
  2.2122355095716730E+00 a       225     0    15     1    15
 -2.0735520041248054E-01 a       226     0    16     1     1
  1.2721480190852135E+00 a       227     0    16     1     2
 -1.4922491977147381E+00 a       228     0    16     1     3
  1.3291518167421803E+00 a       229     0    16     1     4
  2.8754404330807426E+00 a       230     0    16     1     5
 -1.7784402661787829E-01 a       231     0    16     1     6
 -3.6420244221614650E-01 a       232     0    16     1     7
  3.5469223190488637E+00 a       233     0    16     1     8
 -1.5322634267309172E+00 a       234     0    16     1     9
  1.8981741135797912E+00 a       235     0    16     1    10
  2.6015525332609282E+00 a       236     0    16     1    11
  6.3027523012932862E-01 a       237     0    16     1    12
  2.3886810047122484E+00 a       238     0    16     1    13
 -7.4820507488308041E-02 a       239     0    16     1    14
 -1.5328793026007697E+00 a       240     0    16     1    15
 -1.3404018226911267E+00 a       241     0    17     1     1
  2.3442868859430601E+00 a       242     0    17     1     2
  6.9257053206611296E-01 a       243     0    17     1     3
 -1.3223115120320414E+00 a       244     0    17     1     4
 -2.8801148005624921E-01 a       245     0    17     1     5
 -1.3422653620205063E+00 a       246     0    17     1     6
 -2.3963998493049061E+00 a       247     0    17     1     7
  1.9486612124812568E+00 a       248     0    17     1     8
  1.7631848728339525E+00 a       249     0    17     1     9
  2.1880760540314131E-01 a       250     0    17     1    10
  1.6447668902463637E-02 a       251     0    17     1    11
  1.4655061298647097E-02 a       252     0    17     1    12
  1.8914483213990414E+00 a       253     0    17     1    13
  1.2655330633476711E+00 a       254     0    17     1    14
 -8.4919198701629350E-01 a       255     0    17     1    15
 -7.1185295777740867E-02 a       256     0    18     1     1
 -2.6436026801658752E+00 a       257     0    18     1     2
  4.4986533230782710E-01 a       258     0    18     1     3
  2.4608269732297594E+00 a       259     0    18     1     4
 -2.4824720107303766E+00 a       260     0    18     1     5
  3.2436160819769599E-01 a       261     0    18     1     6
  9.0592693633572086E-01 a       262     0    18     1     7
  3.5491747582406710E-02 a       263     0    18     1     8
  4.2525617390168075E-01 a       264     0    18     1     9
 -8.4135703641716553E-01 a       265     0    18     1    10
  3.7360017200545259E-01 a       266     0    18     1    11
 -2.4903155553089968E+00 a       267     0    18     1    12
  1.5256953618473519E+00 a       268     0    18     1    13
  2.8610346674818349E-01 a       269     0    18     1    14
 -1.0072358922878513E-01 a       270     0    18     1    15
 -1.2480330180153774E+00 a       271     0    19     1     1
 -2.0968497182942216E+00 a       272     0    19     1     2
 -6.7496202726020293E-01 a       273     0    19     1     3
  6.0930320479435118E-01 a       274     0    19     1     4
  2.5116150066154419E-01 a       275     0    19     1     5
 -8.5069698646408357E-02 a       276     0    19     1     6
 -2.0174270768860123E+00 a       277     0    19     1     7
 -1.3240761643903114E+00 a       278     0    19     1     8
  1.4202686086469416E+00 a       279     0    19     1     9
  2.5301187791433515E+00 a       280     0    19     1    10
  4.9074555929095494E-02 a       281     0    19     1    11
  1.4974778948706549E+00 a       282     0    19     1    12
 -1.1701735473236827E+00 a       283     0    19     1    13
  1.2831946861835886E+00 a       284     0    19     1    14
 -9.1690432082212958E-01 a       285     0    19     1    15
  1.4954492229586527E-01 a       286     0    20     1     1
 -4.2524381836465786E-01 a       287     0    20     1     2
  7.7241964696020027E-01 a       288     0    20     1     3
  1.4397111541186434E+00 a       289     0    20     1     4
  4.5225617140469535E-02 a       290     0    20     1     5
  3.3668198963484999E+00 a       291     0    20     1     6
 -7.4396801275642910E-01 a       292     0    20     1     7
  2.5031355167465263E+00 a       293     0    20     1     8
 -4.0978618839234254E-01 a       294     0    20     1     9
  2.9153322014603105E+00 a       295     0    20     1    10
  1.6205919865019949E+00 a       296     0    20     1    11
  1.6010326409937778E+00 a       297     0    20     1    12
 -4.1454110047434968E-02 a       298     0    20     1    13
  9.5662471263634319E-01 a       299     0    20     1    14
  7.7815745822132554E-01 a       300     0    20     1    15
 -2.4501019717194787E+00 a       301     0    21     1     1
 -4.5027025004690691E-02 a       302     0    21     1     2
  5.7570848752590498E-01 a       303     0    21     1     3
 -5.5718836958061790E-01 a       304     0    21     1     4
  4.0588677860527916E-01 a       305     0    21     1     5
 -7.7869890596457700E-02 a       306     0    21     1     6
  1.8886175914482184E-01 a       307     0    21     1     7
  5.0547986030737080E-01 a       308     0    21     1     8
 -1.1602985392456036E+00 a       309     0    21     1     9
 -5.2820054461178834E-01 a       310     0    21     1    10
  7.0875096354364875E-01 a       311     0    21     1    11
 -9.8905920878736814E-02 a       312     0    21     1    12
  9.0415908329699313E-02 a       313     0    21     1    13
  1.6760836511174608E+00 a       314     0    21     1    14
  1.3592114172522025E+00 a       315     0    21     1    15
 -1.2358516077865691E+00 a       316     0    22     1     1
 -1.0436625597628086E+00 a       317     0    22     1     2
 -6.0200037484975322E-01 a       318     0    22     1     3
  1.1105942113212739E+00 a       319     0    22     1     4
 -1.8204940544511278E-01 a       320     0    22     1     5
  8.2276158345136374E-01 a       321     0    22     1     6
 -1.4303022340842459E+00 a       322     0    22     1     7
  6.4942243677008210E-02 a       323     0    22     1     8
  1.2141430708646622E-02 a       324     0    22     1     9
  7.7000640207851245E-01 a       325     0    22     1    10
  7.0259534870650042E-01 a       326     0    22     1    11
  2.7849600267528091E-01 a       327     0    22     1    12
 -1.1619564874942518E+00 a       328     0    22     1    13
 -3.3280406562911410E-02 a       329     0    22     1    14
 -1.8753313605636557E+00 a       330     0    22     1    15
 -2.5568511911945863E-01 a       331     0    23     1     1
  8.4450084522510266E-02 a       332     0    23     1     2
 -6.0785032979312803E-01 a       333     0    23     1     3
  4.5215451113421123E-01 a       334     0    23     1     4
  7.6897637422428911E-01 a       335     0    23     1     5
  1.5227496534206293E+00 a       336     0    23     1     6
 -3.1420038320345250E-01 a       337     0    23     1     7
 -1.1878263443453549E+00 a       338     0    23     1     8
 -1.1563704781752240E+00 a       339     0    23     1     9
 -2.5285546735083844E+00 a       340     0    23     1    10
  5.7954219719525346E-01 a       341     0    23     1    11
  1.3351034797483472E+00 a       342     0    23     1    12
 -1.0185665856694566E+00 a       343     0    23     1    13
  1.4136540462916996E+00 a       344     0    23     1    14
  2.3334945731956305E+00 a       345     0    23     1    15
  2.8180458324236046E-01 a       346     0    24     1     1
  2.4931253333129794E-01 a       347     0    24     1     2
 -1.4361454670574553E-01 a       348     0    24     1     3
  7.7838999714720425E-01 a       349     0    24     1     4
  4.5110211627346292E-01 a       350     0    24     1     5
 -8.4122148814768483E-01 a       351     0    24     1     6
  1.7201668658913307E+00 a       352     0    24     1     7
  2.2049735917188333E+00 a       353     0    24     1     8
 -1.8257525709704467E+00 a       354     0    24     1     9
  1.6284543886666658E-01 a       355     0    24     1    10
 -4.1530528879651829E-01 a       356     0    24     1    11
 -1.5872466454975361E-02 a       357     0    24     1    12
 -4.3587913840889175E-01 a       358     0    24     1    13
 -6.9854484099056025E-01 a       359     0    24     1    14
 -1.3740105339864277E+00 a       360     0    24     1    15
  8.5564482443902079E-02 a       361     0    25     1     1
 -5.1356673982700185E-01 a       362     0    25     1     2
  1.9990205450415823E+00 a       363     0    25     1     3
 -1.0790332939489804E+00 a       364     0    25     1     4
  1.6375241036059243E+00 a       365     0    25     1     5
  6.5571848276075706E-01 a       366     0    25     1     6
 -3.8456519756873003E-01 a       367     0    25     1     7
 -7.2842617429245315E-01 a       368     0    25     1     8
  5.7968886942560999E-02 a       369     0    25     1     9
 -4.2372342484642567E-01 a       370     0    25     1    10
 -7.0661865499843901E-01 a       371     0    25     1    11
 -1.7647063060485730E+00 a       372     0    25     1    12
  3.0348820575400448E-01 a       373     0    25     1    13
  1.0091927229873092E-01 a       374     0    25     1    14
  5.0714775788283595E-02 a       375     0    25     1    15
  2.2504592372313779E+00 a       376     0    26     1     1
  3.0634217175775180E-01 a       377     0    26     1     2
 -4.7314642365172710E-01 a       378     0    26     1     3
  8.1027860759659665E-01 a       379     0    26     1     4
  2.3402831018003128E-01 a       380     0    26     1     5
 -3.7550352349284100E-01 a       381     0    26     1     6
 -7.2918136850814963E-01 a       382     0    26     1     7
 -6.2570123157858304E-01 a       383     0    26     1     8
 -2.1836916171306835E+00 a       384     0    26     1     9
 -1.5776371757636662E+00 a       385     0    26     1    10
 -2.3793282962906551E-01 a       386     0    26     1    11
 -7.4400342831281097E-01 a       387     0    26     1    12
  5.6863305339703973E-01 a       388     0    26     1    13
  1.3218273079554903E+00 a       389     0    26     1    14
 -2.5016586903565213E-01 a       390     0    26     1    15
 -2.9201410858539241E+00 a       391     0    27     1     1
  9.5628865133617313E-01 a       392     0    27     1     2
 -1.0766229033473738E+00 a       393     0    27     1     3
 -8.8881843984283426E-01 a       394     0    27     1     4
  2.0331032611165716E+00 a       395     0    27     1     5
  1.1079586995202437E+00 a       396     0    27     1     6
 -1.7179455711123592E+00 a       397     0    27     1     7
 -6.5858999994201217E-01 a       398     0    27     1     8
 -4.3029867689137297E-01 a       399     0    27     1     9
 -3.9516575083198844E+00 a       400     0    27     1    10
 -4.2942292902760071E-01 a       401     0    27     1    11
  1.7663583707985648E+00 a       402     0    27     1    12
  3.8382653879409478E-01 a       403     0    27     1    13
 -5.8947128304039545E-02 a       404     0    27     1    14
  1.6433838339581113E+00 a       405     0    27     1    15
 -2.9382672970785997E+00 a       406     0    28     1     1
  1.2210358039026610E-01 a       407     0    28     1     2
  2.0823359078763111E+00 a       408     0    28     1     3
 -1.4727992538089281E+00 a       409     0    28     1     4
  6.0351118373693968E-01 a       410     0    28     1     5
 -2.6064239097028968E-01 a       411     0    28     1     6
 -3.4271339326703437E-01 a       412     0    28     1     7
 -6.6933539470852588E-01 a       413     0    28     1     8
 -1.4471172283910816E+00 a       414     0    28     1     9
  3.3152870139186312E+00 a       415     0    28     1    10
 -6.5246204107248545E-02 a       416     0    28     1    11
 -1.2480946076465569E+00 a       417     0    28     1    12
 -2.1323004808654650E-01 a       418     0    28     1    13
 -1.3432112264432019E+00 a       419     0    28     1    14
 -2.2849742723166497E+00 a       420     0    28     1    15
  9.1483326516283614E-01 a       421     0    29     1     1
  9.9359221175995394E-01 a       422     0    29     1     2
  5.3710687166960824E-01 a       423     0    29     1     3
  3.7933418637982352E-01 a       424     0    29     1     4
  1.1321447461813441E+00 a       425     0    29     1     5
  2.0278050267645820E+00 a       426     0    29     1     6
  3.8598590086745355E-01 a       427     0    29     1     7
  2.5528898100533054E-01 a       428     0    29     1     8
  3.7512543846270705E+00 a       429     0    29     1     9
 -5.2514595322868463E-01 a       430     0    29     1    10
 -6.6858873673858243E-01 a       431     0    29     1    11
 -2.9475778581281104E-01 a       432     0    29     1    12
 -1.5613397975001778E-01 a       433     0    29     1    13
  8.8822202027488739E-01 a       434     0    29     1    14
  6.4440408933383808E-01 a       435     0    29     1    15
 -2.8810073607406399E+00 a       436     0    30     1     1
  3.0667111765164175E-02 a       437     0    30     1     2
 -2.5484603757653496E-01 a       438     0    30     1     3
  2.1830315119542407E-01 a       439     0    30     1     4
 -2.8341132798477644E+00 a       440     0    30     1     5
 -1.4616423462373758E+00 a       441     0    30     1     6
 -8.0866758092444901E-01 a       442     0    30     1     7
  6.5621908033243415E-01 a       443     0    30     1     8
  2.4730719845124299E-01 a       444     0    30     1     9
 -2.1163594755017652E+00 a       445     0    30     1    10
 -7.6762490453426147E-01 a       446     0    30     1    11
 -2.8925765441500390E-01 a       447     0    30     1    12
 -1.5915951124806107E+00 a       448     0    30     1    13
 -7.8931928156384834E-01 a       449     0    30     1    14
 -5.2174055534239705E-01 a       450     0    30     1    15
 -1.2318137191990828E+00 a       451     0    31     1     1
 -3.2757713435696516E+00 a       452     0    31     1     2
 -1.8877180213635756E+00 a       453     0    31     1     3
  4.3958050239925706E-01 a       454     0    31     1     4
 -6.4134990383685853E-01 a       455     0    31     1     5
  1.0157568316131854E-01 a       456     0    31     1     6
 -2.5525025978499731E+00 a       457     0    31     1     7
  6.6552163486394389E-01 a       458     0    31     1     8
  6.3345346572387451E-01 a       459     0    31     1     9
  7.8838448089091739E-01 a       460     0    31     1    10
 -4.9709066716473382E-01 a       461     0    31     1    11
  4.7089263027383305E-01 a       462     0    31     1    12
 -8.9957561100253502E-01 a       463     0    31     1    13
  1.6711988870011008E+00 a       464     0    31     1    14
 -2.2937330195879427E-01 a       465     0    31     1    15
  1.9818912434564251E-01 a       466     0    32     1     1
  1.9731076889153026E-01 a       467     0    32     1     2
  4.4063038375251989E-01 a       468     0    32     1     3
  2.2354029485238033E-01 a       469     0    32     1     4
  1.1166861432796509E+00 a       470     0    32     1     5
  2.1298623224655424E+00 a       471     0    32     1     6
 -1.6056449070900672E-01 a       472     0    32     1     7
  1.1271049877991959E+00 a       473     0    32     1     8
 -1.9881652059950632E+00 a       474     0    32     1     9
  5.0693427229983012E-01 a       475     0    32     1    10
  1.4575762553857969E+00 a       476     0    32     1    11
  5.3034049333275723E-01 a       477     0    32     1    12
  8.0492706759454635E-01 a       478     0    32     1    13
  1.8247146940942185E+00 a       479     0    32     1    14
  1.9585769913056879E+00 a       480     0    32     1    15
  4.8115820134075685E-02 a       481     0    33     1     1
 -2.8047996474144277E-01 a       482     0    33     1     2
  1.2971422068414886E+00 a       483     0    33     1     3
  1.1295943837157776E+00 a       484     0    33     1     4
  3.1955315565973602E-01 a       485     0    33     1     5
 -8.7793894410043177E-02 a       486     0    33     1     6
 -9.9925528505703598E-01 a       487     0    33     1     7
  1.5381464108713596E+00 a       488     0    33     1     8
 -1.7647023460605202E-01 a       489     0    33     1     9
 -1.4319690654955379E+00 a       490     0    33     1    10
  4.3537273128639264E-01 a       491     0    33     1    11
 -1.1319312316193959E+00 a       492     0    33     1    12
 -1.5296909855257437E+00 a       493     0    33     1    13
  2.4026981537099912E-01 a       494     0    33     1    14
 -1.2420483689315260E+00 a       495     0    33     1    15
 -1.0299133654131369E+00 a       496     0    34     1     1
 -1.9852797162477014E+00 a       497     0    34     1     2
  4.7156599273973732E-01 a       498     0    34     1     3
  4.1232625369282200E-01 a       499     0    34     1     4
 -4.6699585479795719E-01 a       500     0    34     1     5
 -1.8333059596115825E-01 a       501     0    34     1     6
 -1.6344939834049130E+00 a       502     0    34     1     7
  6.6714505269457558E-01 a       503     0    34     1     8
  4.1425683623284137E-02 a       504     0    34     1     9
 -1.8935569014266057E-01 a       505     0    34     1    10
 -7.2250674970733963E-01 a       506     0    34     1    11
  1.4342700559070221E+00 a       507     0    34     1    12
 -7.2596418470538870E-01 a       508     0    34     1    13
  1.6495216906823158E+00 a       509     0    34     1    14
 -2.0307286388938754E+00 a       510     0    34     1    15
  4.2680580912990002E-01 a       511     0    35     1     1
  8.5854029797754960E-01 a       512     0    35     1     2
  7.8406570380877019E-02 a       513     0    35     1     3
 -9.4045381932823391E-01 a       514     0    35     1     4
 -1.8771783479487308E-01 a       515     0    35     1     5
  1.1376896812885555E+00 a       516     0    35     1     6
 -9.0848695795843082E-01 a       517     0    35     1     7
 -3.6606094171990006E-01 a       518     0    35     1     8
 -9.1245955771066911E-01 a       519     0    35     1     9
  1.9051740488994966E+00 a       520     0    35     1    10
 -4.0160291595071129E-01 a       521     0    35     1    11
 -3.2166987488578386E-01 a       522     0    35     1    12
 -6.7861194116382451E-01 a       523     0    35     1    13
 -6.5080832935865737E-02 a       524     0    35     1    14
  1.5640526540102002E+00 a       525     0    35     1    15
  3.5563466870303734E-01 a       526     0    36     1     1
  6.4663115704395591E-01 a       527     0    36     1     2
  3.0533051598002146E-02 a       528     0    36     1     3
  6.9426534917452387E-01 a       529     0    36     1     4
  3.1569444711378306E-02 a       530     0    36     1     5
  2.2208377118151108E+00 a       531     0    36     1     6
  1.3411487451821198E+00 a       532     0    36     1     7
  1.2752896495004300E+00 a       533     0    36     1     8
 -1.9371834487860513E+00 a       534     0    36     1     9
  1.0437896820259556E+00 a       535     0    36     1    10
 -9.7130798254976156E-02 a       536     0    36     1    11
  4.8471124028465096E-02 a       537     0    36     1    12
 -8.9162587389388304E-01 a       538     0    36     1    13
 -4.2897126164691421E-02 a       539     0    36     1    14
 -3.6369304329720422E+00 a       540     0    36     1    15
 -2.3232432995304281E-01 a       541     0    37     1     1
 -9.5108093903924151E-01 a       542     0    37     1     2
 -1.1524233318181698E+00 a       543     0    37     1     3
 -3.0459191116308104E-01 a       544     0    37     1     4
 -6.4795769147786819E-01 a       545     0    37     1     5
 -9.9007803759094981E-01 a       546     0    37     1     6
 -1.3996996568828051E+00 a       547     0    37     1     7
 -2.5956007184641048E+00 a       548     0    37     1     8
 -3.5482688080465852E-01 a       549     0    37     1     9
  6.3321730062285708E-01 a       550     0    37     1    10
  1.5809016138420753E+00 a       551     0    37     1    11
  1.2758083021833519E+00 a       552     0    37     1    12
  7.5235514950345217E-01 a       553     0    37     1    13
  1.0012928732581778E+00 a       554     0    37     1    14
  8.6066477978359812E-01 a       555     0    37     1    15
 -3.5573910214414766E+00 a       556     0    38     1     1
  1.0997230448181750E+00 a       557     0    38     1     2
 -2.3079852148317309E-01 a       558     0    38     1     3
 -1.0929775432437809E+00 a       559     0    38     1     4
 -1.4527978377421644E+00 a       560     0    38     1     5
  1.8095067514544889E+00 a       561     0    38     1     6
  5.2876260392061183E-02 a       562     0    38     1     7
  9.9152090436402363E-01 a       563     0    38     1     8
  2.3526966268520297E+00 a       564     0    38     1     9
  8.9252522673544354E-01 a       565     0    38     1    10
 -1.7476240963836021E+00 a       566     0    38     1    11
 -6.0961565474740353E-01 a       567     0    38     1    12
  5.6919172453007250E-01 a       568     0    38     1    13
 -2.5463559760133796E+00 a       569     0    38     1    14
  7.2363309250892693E-01 a       570     0    38     1    15
  1.8384474190785376E+00 a       571     0    39     1     1
 -9.5027663818489094E-01 a       572     0    39     1     2
  7.7907594704350969E-01 a       573     0    39     1     3
 -1.4426352152422803E+00 a       574     0    39     1     4
 -4.8335255928461696E-01 a       575     0    39     1     5
 -1.6736397661424356E+00 a       576     0    39     1     6
 -7.1756356244543407E-01 a       577     0    39     1     7
  3.0495507427762978E+00 a       578     0    39     1     8
  1.0786388217747676E+00 a       579     0    39     1     9
  2.7025269026196850E+00 a       580     0    39     1    10
 -9.7354227917198638E-02 a       581     0    39     1    11
  2.2360985793141627E-01 a       582     0    39     1    12
 -4.7717217094558911E-01 a       583     0    39     1    13
  8.1755511786507529E-01 a       584     0    39     1    14
 -1.2827706673866808E+00 a       585     0    39     1    15
 -3.0728429898973881E+00 a       586     0    40     1     1
 -9.2903050585305147E-01 a       587     0    40     1     2
  9.9919608302932816E-01 a       588     0    40     1     3
 -7.6682772306165847E-01 a       589     0    40     1     4
  7.0858505345382838E-01 a       590     0    40     1     5
 -3.3976769801752482E-01 a       591     0    40     1     6
 -1.0769971027392835E+00 a       592     0    40     1     7
  1.2236736146485545E+00 a       593     0    40     1     8
 -1.4297344025707863E+00 a       594     0    40     1     9
  5.5887419691487206E-01 a       595     0    40     1    10
  3.8318924450008396E-01 a       596     0    40     1    11
 -5.0744437913015961E-01 a       597     0    40     1    12
  2.9126709437586912E-01 a       598     0    40     1    13
  2.3225902362117926E-01 a       599     0    40     1    14
 -2.5859919387682857E+00 a       600     0    40     1    15
  5.9645496489714200E-01 a       601     0    41     1     1
 -3.3475725991969724E-01 a       602     0    41     1     2
  1.7867098649699678E+00 a       603     0    41     1     3
  1.3756937954692502E-01 a       604     0    41     1     4
  9.1575958149022352E-01 a       605     0    41     1     5
  2.5907901230565400E-01 a       606     0    41     1     6
  1.5770659770614794E+00 a       607     0    41     1     7
  3.1507630335079206E-01 a       608     0    41     1     8
  3.1319814389906062E+00 a       609     0    41     1     9
  3.2705796285366597E+00 a       610     0    41     1    10
 -6.4261168519066392E-01 a       611     0    41     1    11
 -3.2247930627842586E-01 a       612     0    41     1    12
  1.0727753360945611E+00 a       613     0    41     1    13
 -1.6147804470637642E-01 a       614     0    41     1    14
  1.0093636293266954E+00 a       615     0    41     1    15
  6.3855460518780582E-01 a       616     0    42     1     1
 -2.0074873376568285E+00 a       617     0    42     1     2
 -1.2405546032722210E-01 a       618     0    42     1     3
  9.5134124216113536E-01 a       619     0    42     1     4
 -8.1126853254088149E-01 a       620     0    42     1     5
  1.2092766883108941E+00 a       621     0    42     1     6
 -1.3134226359716733E-01 a       622     0    42     1     7
  1.3117626760874965E-01 a       623     0    42     1     8
  3.8686468580608374E-01 a       624     0    42     1     9
  6.5155742392571947E-01 a       625     0    42     1    10
  2.7316077083154033E-02 a       626     0    42     1    11
 -1.8181181084570974E+00 a       627     0    42     1    12
 -1.2104454725746734E-01 a       628     0    42     1    13
  1.0321263432413532E+00 a       629     0    42     1    14
  9.3362604747568678E-01 a       630     0    42     1    15
 -3.0252713718372863E+00 a       631     0    43     1     1
  2.2622405871872320E+00 a       632     0    43     1     2
  2.2903432139085989E+00 a       633     0    43     1     3
  2.9491566606708614E-03 a       634     0    43     1     4
  1.3722713543859821E-01 a       635     0    43     1     5
  7.8498052003268926E-01 a       636     0    43     1     6
 -1.5728511137807371E+00 a       637     0    43     1     7
  2.0084680959672823E+00 a       638     0    43     1     8
 -4.8477825544745828E-01 a       639     0    43     1     9
  3.3164164911917298E+00 a       640     0    43     1    10
  2.2030546411999499E-01 a       641     0    43     1    11
  4.4932495176916504E-01 a       642     0    43     1    12
  9.7974434764576279E-01 a       643     0    43     1    13
 -5.3603854030255471E-01 a       644     0    43     1    14
  3.0754950469084021E+00 a       645     0    43     1    15
 -1.9146754544113647E+00 a       646     0    44     1     1
  1.7874946135892371E+00 a       647     0    44     1     2
 -6.1197559601753304E-01 a       648     0    44     1     3
 -1.5603138426367158E+00 a       649     0    44     1     4
  2.2509895952009482E+00 a       650     0    44     1     5
  1.5419587174650367E+00 a       651     0    44     1     6
 -9.2923285876590475E-02 a       652     0    44     1     7
 -2.0107905835403410E+00 a       653     0    44     1     8
 -4.8411588397519156E-01 a       654     0    44     1     9
  6.2912825414601581E-01 a       655     0    44     1    10
 -5.5179472015364694E-01 a       656     0    44     1    11
 -1.5047114939924815E+00 a       657     0    44     1    12
  1.4090732354415192E+00 a       658     0    44     1    13
 -1.5958173055214957E+00 a       659     0    44     1    14
 -6.5654968657976520E-01 a       660     0    44     1    15
 -2.0212156849205853E+00 a       661     0    45     1     1
 -1.5048743696054441E+00 a       662     0    45     1     2
  1.7763083128770749E-01 a       663     0    45     1     3
  2.3078802162430345E-01 a       664     0    45     1     4
 -1.8302168313559521E+00 a       665     0    45     1     5
 -1.0620059370936505E+00 a       666     0    45     1     6
 -1.1079599325266181E+00 a       667     0    45     1     7
 -6.5063354553529018E-01 a       668     0    45     1     8
 -1.9808094776718715E-01 a       669     0    45     1     9
  3.4784495859025960E-01 a       670     0    45     1    10
 -9.3558419164386494E-02 a       671     0    45     1    11
 -2.0163191877485835E+00 a       672     0    45     1    12
 -1.4401623210621439E+00 a       673     0    45     1    13
  7.3696438402989450E-01 a       674     0    45     1    14
 -8.6200080917015820E-01 a       675     0    45     1    15
  4.5166787675708409E-01 a       676     0    46     1     1
  1.3384403078785796E+00 a       677     0    46     1     2
  1.7315598496976790E+00 a       678     0    46     1     3
 -6.3077916438126336E-01 a       679     0    46     1     4
  1.5594195822780021E+00 a       680     0    46     1     5
  4.6277454115030398E-01 a       681     0    46     1     6
 -6.4302073314093044E-01 a       682     0    46     1     7
  8.3378224009913637E-01 a       683     0    46     1     8
 -5.9051577511155917E-01 a       684     0    46     1     9
 -6.6466873956023853E-01 a       685     0    46     1    10
  5.8401570967455363E-01 a       686     0    46     1    11
 -1.4124705753932492E+00 a       687     0    46     1    12
  1.3760381293942829E+00 a       688     0    46     1    13
 -5.3096378806396405E-01 a       689     0    46     1    14
  1.4233845747618474E+00 a       690     0    46     1    15
 -5.5355331466740421E-01 a       691     0    47     1     1
 -9.0171510451520964E-01 a       692     0    47     1     2
 -1.6396272027956371E+00 a       693     0    47     1     3
 -8.4094089792519289E-01 a       694     0    47     1     4
  1.9692988444497102E+00 a       695     0    47     1     5
  2.8910818387394284E+00 a       696     0    47     1     6
 -2.7792387355165222E-02 a       697     0    47     1     7
  1.3374661531505017E+00 a       698     0    47     1     8
 -5.7920894008271029E-01 a       699     0    47     1     9
 -8.7847547880817856E-01 a       700     0    47     1    10
  1.0445657001133308E+00 a       701     0    47     1    11
  5.0564665462120954E-02 a       702     0    47     1    12
  9.5616855543994650E-01 a       703     0    47     1    13
 -1.9160954045496146E+00 a       704     0    47     1    14
 -1.8392837104598236E+00 a       705     0    47     1    15
 -1.6195100319338047E+00 a       706     0    48     1     1
 -1.7519704864694639E+00 a       707     0    48     1     2
 -6.4768535054539067E-01 a       708     0    48     1     3
 -1.8275629876879915E-01 a       709     0    48     1     4
  1.8887940506475096E+00 a       710     0    48     1     5
 -2.7446673150590719E+00 a       711     0    48     1     6
  3.4449492861576803E-01 a       712     0    48     1     7
  4.0020915593525236E-01 a       713     0    48     1     8
  2.8001391948845598E+00 a       714     0    48     1     9
  5.1030452916264701E-01 a       715     0    48     1    10
 -1.0430004991567562E-01 a       716     0    48     1    11
 -3.7853957761322021E-01 a       717     0    48     1    12
  1.5042542766227632E-01 a       718     0    48     1    13
  1.0446564036762236E+00 a       719     0    48     1    14
  1.5316263124293454E+00 a       720     0    48     1    15
 -2.3420468085991941E-01 a       721     0    49     1     1
  4.9785378196776336E-02 a       722     0    49     1     2
  2.5625152893861354E+00 a       723     0    49     1     3
 -6.7638666931080693E-01 a       724     0    49     1     4
 -1.4128240426106118E+00 a       725     0    49     1     5
  2.9376128741662195E+00 a       726     0    49     1     6
 -2.5790323542796592E+00 a       727     0    49     1     7
 -1.9466941035470955E+00 a       728     0    49     1     8
 -1.5114447049032682E+00 a       729     0    49     1     9
 -1.9983309414565382E+00 a       730     0    49     1    10
  1.0659373024696877E+00 a       731     0    49     1    11
 -3.1091046060139582E-01 a       732     0    49     1    12
 -6.1084555965795595E-01 a       733     0    49     1    13
 -2.5220085105551835E+00 a       734     0    49     1    14
 -1.3605312916453731E+00 a       735     0    49     1    15
 -2.8546685511120282E+00 a       736     0    50     1     1
 -5.4586766227769257E-01 a       737     0    50     1     2
  3.9850703873360172E-01 a       738     0    50     1     3
 -1.2616947572373560E+00 a       739     0    50     1     4
 -5.0135535007111687E-01 a       740     0    50     1     5
 -3.2946172986795430E-01 a       741     0    50     1     6
  3.1222739201325536E+00 a       742     0    50     1     7
 -3.5022175478723323E+00 a       743     0    50     1     8
  9.1027413801212168E-02 a       744     0    50     1     9
 -4.0179994704916644E-01 a       745     0    50     1    10
  9.3542543718947591E-01 a       746     0    50     1    11
  1.0758886987302807E+00 a       747     0    50     1    12
 -1.0433602300778555E+00 a       748     0    50     1    13
  1.4093221283460176E+00 a       749     0    50     1    14
 -2.3468053303282357E+00 a       750     0    50     1    15
 -7.0192890488822213E-01 a       751     0    51     1     1
 -1.1993969804732176E+00 a       752     0    51     1     2
  8.7965640361945485E-01 a       753     0    51     1     3
 -3.3822996523529447E-01 a       754     0    51     1     4
 -1.3843060864677320E-01 a       755     0    51     1     5
 -7.0570301830357463E-01 a       756     0    51     1     6
 -1.8183991342859627E+00 a       757     0    51     1     7
 -4.5311673746863991E-03 a       758     0    51     1     8
  1.9198173720602583E+00 a       759     0    51     1     9
 -6.5045678691241637E-01 a       760     0    51     1    10
 -1.3072897096169991E+00 a       761     0    51     1    11
 -7.4509642603670778E-01 a       762     0    51     1    12
 -2.7770957322099501E+00 a       763     0    51     1    13
  1.5574660169278493E-03 a       764     0    51     1    14
  2.7737013621254325E-01 a       765     0    51     1    15
  4.5737503080295348E+00 a       766     0    52     1     1
  2.8269514838958737E-01 a       767     0    52     1     2
  1.0400543546673198E+00 a       768     0    52     1     3
 -1.1052367808211077E+00 a       769     0    52     1     4
  6.2179976074950938E-01 a       770     0    52     1     5
 -1.6321006145848194E+00 a       771     0    52     1     6
  5.5071010936233000E-01 a       772     0    52     1     7
  9.3429711035637319E-01 a       773     0    52     1     8
  3.3201975015821339E-01 a       774     0    52     1     9
 -3.2084345453733047E+00 a       775     0    52     1    10
 -1.9290531704624871E+00 a       776     0    52     1    11
 -1.6978196248216983E+00 a       777     0    52     1    12
  1.4361458544283883E+00 a       778     0    52     1    13
  2.2324534988627875E-01 a       779     0    52     1    14
 -1.9658339666735052E+00 a       780     0    52     1    15
 -8.2177946514527667E-01 a       781     0    53     1     1
 -3.7756836534335836E+00 a       782     0    53     1     2
 -5.7173754133598886E-01 a       783     0    53     1     3
  1.0895877835324534E-01 a       784     0    53     1     4
  3.5754108680351659E-01 a       785     0    53     1     5
  4.4792084773887697E-01 a       786     0    53     1     6
  6.8856324972129179E-01 a       787     0    53     1     7
  1.8918417389689972E+00 a       788     0    53     1     8
  9.0813147200347666E-01 a       789     0    53     1     9
  1.0890926850462301E+00 a       790     0    53     1    10
  1.7048427570638784E+00 a       791     0    53     1    11
  1.9251449885856886E-01 a       792     0    53     1    12
  2.1828637035698295E-01 a       793     0    53     1    13
 -6.8221657523969947E-01 a       794     0    53     1    14
 -7.5465202011586219E-01 a       795     0    53     1    15
  1.4342641677232829E-01 a       796     0    54     1     1
  6.1812089567559481E-01 a       797     0    54     1     2
  5.8364928421852746E-01 a       798     0    54     1     3
 -2.6922800370674502E+00 a       799     0    54     1     4
  1.8322684073533808E+00 a       800     0    54     1     5
  1.0247983111759664E+00 a       801     0    54     1     6
 -7.9127051466152554E-01 a       802     0    54     1     7
 -2.0481483666960933E+00 a       803     0    54     1     8
 -2.1466964613258019E+00 a       804     0    54     1     9
 -1.1081216661681652E+00 a       805     0    54     1    10
  1.5011516863034708E+00 a       806     0    54     1    11
 -2.5925179124127813E+00 a       807     0    54     1    12
 -8.4584175020616215E-01 a       808     0    54     1    13
 -5.2519543801201296E-01 a       809     0    54     1    14
  6.6056101554890623E-01 a       810     0    54     1    15
  1.6149028204490670E+00 a       811     0    55     1     1
 -1.4368205487653560E-01 a       812     0    55     1     2
  3.9009030288434138E-02 a       813     0    55     1     3
  1.9995581848265845E-01 a       814     0    55     1     4
  8.0193290600251854E-01 a       815     0    55     1     5
 -9.0948774272540212E-01 a       816     0    55     1     6
  1.0022928474837506E-01 a       817     0    55     1     7
  9.7302858386822089E-01 a       818     0    55     1     8
  1.4600141614515300E-01 a       819     0    55     1     9
 -3.5851220568640463E-01 a       820     0    55     1    10
 -7.1419600651790738E-01 a       821     0    55     1    11
 -6.8908827885251400E-01 a       822     0    55     1    12
 -7.9326205490880897E-01 a       823     0    55     1    13
 -2.0888018118182883E+00 a       824     0    55     1    14
 -8.5536080478706100E-01 a       825     0    55     1    15
  1.2420955389795152E+00 a       826     0    56     1     1
  9.8347359173669147E-01 a       827     0    56     1     2
 -2.0373385989501140E+00 a       828     0    56     1     3
 -3.7389228389041802E-02 a       829     0    56     1     4
 -5.7950112731695744E-02 a       830     0    56     1     5
 -2.8890236118261231E-01 a       831     0    56     1     6
 -8.4596531555301624E-01 a       832     0    56     1     7
  1.5601538385156630E+00 a       833     0    56     1     8
  5.5262848838146617E-01 a       834     0    56     1     9
 -7.3687637338807488E-01 a       835     0    56     1    10
  6.1027719140134762E-01 a       836     0    56     1    11
 -1.4087791679981918E+00 a       837     0    56     1    12
 -1.3812611752945261E+00 a       838     0    56     1    13
 -8.8653525414789713E-01 a       839     0    56     1    14
  1.4501776162023405E+00 a       840     0    56     1    15
 -1.4553005907191803E+00 a       841     0    57     1     1
  9.4577496682968096E-02 a       842     0    57     1     2
  2.1033360766124680E+00 a       843     0    57     1     3
  1.7059943632488070E+00 a       844     0    57     1     4
 -1.1995275746847503E-01 a       845     0    57     1     5
 -6.1409246445476318E-01 a       846     0    57     1     6
  9.7064664041531101E-01 a       847     0    57     1     7
  1.0801440577292458E-01 a       848     0    57     1     8
  6.4880441190210192E-01 a       849     0    57     1     9
 -4.2571354469845710E-02 a       850     0    57     1    10
 -5.8312833939298447E-01 a       851     0    57     1    11
  2.4050034536788845E-01 a       852     0    57     1    12
  6.9917975207631022E-01 a       853     0    57     1    13
 -1.7066416458028035E+00 a       854     0    57     1    14
 -9.3344595459514249E-02 a       855     0    57     1    15
  1.1157097588767140E-01 a       856     0    58     1     1
  1.2749819890749705E+00 a       857     0    58     1     2
  1.6473160245137280E-01 a       858     0    58     1     3
 -8.9943738000440776E-01 a       859     0    58     1     4
 -7.8554326673011488E-01 a       860     0    58     1     5
 -1.0031913379919617E-01 a       861     0    58     1     6
  2.1814113420778889E+00 a       862     0    58     1     7
 -1.0132159375167982E-01 a       863     0    58     1     8
 -9.8211147042430180E-01 a       864     0    58     1     9
 -4.5379798752906373E+00 a       865     0    58     1    10
 -1.4855795709984030E-02 a       866     0    58     1    11
 -1.2367985052976356E+00 a       867     0    58     1    12
 -1.7585646956410785E+00 a       868     0    58     1    13
  2.4228438875646958E+00 a       869     0    58     1    14
  2.3545975820241707E+00 a       870     0    58     1    15
  1.8130313223705510E+00 a       871     0    59     1     1
  1.6978599508675656E+00 a       872     0    59     1     2
 -3.4917355274948070E-01 a       873     0    59     1     3
  1.8073642704189712E+00 a       874     0    59     1     4
  4.7179495007761713E-01 a       875     0    59     1     5
  6.7272818309654303E-01 a       876     0    59     1     6
 -3.4235542812761616E-01 a       877     0    59     1     7
 -4.1453655573252735E-01 a       878     0    59     1     8
 -7.6341476313358769E-01 a       879     0    59     1     9
  1.1149989486351357E+00 a       880     0    59     1    10
  1.5887089309225530E-01 a       881     0    59     1    11
 -6.1170208008092819E-01 a       882     0    59     1    12
 -5.8163459967325037E-01 a       883     0    59     1    13
 -2.0139325373145156E+00 a       884     0    59     1    14
 -4.0534926214695077E-01 a       885     0    59     1    15
 -5.9741858990877172E-01 a       886     0    60     1     1
 -9.7082236712725933E-01 a       887     0    60     1     2
  1.7808198419669954E+00 a       888     0    60     1     3
 -3.4134796670517409E-01 a       889     0    60     1     4
 -1.3129780823662252E+00 a       890     0    60     1     5
 -4.3792682991946008E-01 a       891     0    60     1     6
  4.5558643857719106E-01 a       892     0    60     1     7
  2.8414987749416976E-01 a       893     0    60     1     8
  9.3428270141733105E-02 a       894     0    60     1     9
  4.2270295812238849E+00 a       895     0    60     1    10
 -4.0138446615853302E-01 a       896     0    60     1    11
 -3.6031121810457817E-01 a       897     0    60     1    12
 -1.1896646136781537E+00 a       898     0    60     1    13
 -1.8460894910869947E+00 a       899     0    60     1    14
 -1.2099168776905382E+00 a       900     0    60     1    15
 -4.6354330596940663E-01 a       901     0    61     1     1
  1.7233150868269791E+00 a       902     0    61     1     2
  1.1366435168321709E+00 a       903     0    61     1     3
 -7.3964130315782228E-01 a       904     0    61     1     4
 -1.9905888201420334E+00 a       905     0    61     1     5
  2.3490735979431998E-01 a       906     0    61     1     6
  1.1055938781549798E-01 a       907     0    61     1     7
 -2.4579031353127041E+00 a       908     0    61     1     8
  5.9708883468757490E-01 a       909     0    61     1     9
  5.0619195246439945E+00 a       910     0    61     1    10
  1.5186248629919645E+00 a       911     0    61     1    11
  1.4308259130157019E+00 a       912     0    61     1    12
  2.3030507328006049E+00 a       913     0    61     1    13
  1.9313679845227187E+00 a       914     0    61     1    14
 -1.7610109577633410E+00 a       915     0    61     1    15
  7.9836937917290718E-01 a       916     0    62     1     1
 -1.1870526961046985E+00 a       917     0    62     1     2
 -1.8403317033769444E+00 a       918     0    62     1     3
 -1.5556368257884126E-01 a       919     0    62     1     4
  5.3670917222980974E-01 a       920     0    62     1     5
 -1.2770932207129200E+00 a       921     0    62     1     6
  1.9578113367537056E+00 a       922     0    62     1     7
  8.0073600670057687E-01 a       923     0    62     1     8
  3.4566604790202315E-01 a       924     0    62     1     9
 -7.8021243738283530E-01 a       925     0    62     1    10
  2.9411316584871972E+00 a       926     0    62     1    11
  1.3567793762811706E+00 a       927     0    62     1    12
  1.1660984423767646E+00 a       928     0    62     1    13
  2.0774109966520853E+00 a       929     0    62     1    14
 -9.2706191494698897E-01 a       930     0    62     1    15
  4.6078693970903445E-02 a       931     0    63     1     1
  3.4922628865778976E-01 a       932     0    63     1     2
 -7.8463044526985659E-01 a       933     0    63     1     3
 -5.6325995528452377E-01 a       934     0    63     1     4
 -1.5013702030432630E-01 a       935     0    63     1     5
 -1.0589843869634848E-01 a       936     0    63     1     6
 -3.1707245259721972E+00 a       937     0    63     1     7
  1.3216844739707836E-01 a       938     0    63     1     8
 -5.7907915425834422E-01 a       939     0    63     1     9
 -1.3431284953425269E+00 a       940     0    63     1    10
 -1.4181671536453533E+00 a       941     0    63     1    11
 -1.0979715181477812E-01 a       942     0    63     1    12
  2.1691434767567447E-01 a       943     0    63     1    13
 -1.7316672972119340E-01 a       944     0    63     1    14
 -8.6487270231962432E-01 a       945     0    63     1    15
  9.1017650619009360E-01 a       946     0    64     1     1
  5.6488654638474731E-02 a       947     0    64     1     2
 -1.4555956058371369E+00 a       948     0    64     1     3
  1.6834161786764870E-01 a       949     0    64     1     4
 -1.2247973988324541E+00 a       950     0    64     1     5
 -8.5259198311319284E-02 a       951     0    64     1     6
 -4.2017774038869143E-01 a       952     0    64     1     7
 -1.2829609186605211E+00 a       953     0    64     1     8
  1.6939040817771174E+00 a       954     0    64     1     9
 -1.3573494928928831E+00 a       955     0    64     1    10
 -4.6385481393405137E-01 a       956     0    64     1    11
 -9.1060078978006997E-01 a       957     0    64     1    12
 -2.9613670676031367E-01 a       958     0    64     1    13
  1.4060203122679277E-01 a       959     0    64     1    14
 -1.5807411584234987E+00 a       960     0    64     1    15
 -3.6234123710223815E-01 a       961     0    65     1     1
  3.4399942342543272E-01 a       962     0    65     1     2
  3.1007519931583960E-01 a       963     0    65     1     3
  1.1231713929198057E+00 a       964     0    65     1     4
  1.7123305996300326E+00 a       965     0    65     1     5
 -4.3113354695890099E-01 a       966     0    65     1     6
 -1.1671227804879714E+00 a       967     0    65     1     7
  2.6397233908928391E-01 a       968     0    65     1     8
 -1.5071891544159755E+00 a       969     0    65     1     9
 -3.5995606168710670E+00 a       970     0    65     1    10
  2.9044953078702712E-01 a       971     0    65     1    11
  7.8747048413302256E-01 a       972     0    65     1    12
  8.6724042620803840E-02 a       973     0    65     1    13
  1.6868204860560805E+00 a       974     0    65     1    14
  1.4872544960527796E+00 a       975     0    65     1    15
 -1.3053310002134710E+00 a       976     0    66     1     1
  2.0735192036906631E+00 a       977     0    66     1     2
  1.8024783541954764E-01 a       978     0    66     1     3
  1.0784556959545306E+00 a       979     0    66     1     4
  1.4315023129642359E+00 a       980     0    66     1     5
 -3.1434025505384584E+00 a       981     0    66     1     6
 -5.3182119345329915E-01 a       982     0    66     1     7
 -7.6979883868827870E-01 a       983     0    66     1     8
  4.9752805385256998E-01 a       984     0    66     1     9
 -3.8141889277834946E+00 a       985     0    66     1    10
 -4.2988414519822460E-01 a       986     0    66     1    11
 -1.1270905653853689E+00 a       987     0    66     1    12
  8.6533617986418288E-02 a       988     0    66     1    13
 -1.8144153942557748E+00 a       989     0    66     1    14
  1.2418022410690610E+00 a       990     0    66     1    15
  1.9600296431127893E+00 a       991     0    67     1     1
  1.1637795058754075E+00 a       992     0    67     1     2
  2.2819782770863162E-01 a       993     0    67     1     3
 -1.6917657284306764E-01 a       994     0    67     1     4
  9.1117357239572971E-01 a       995     0    67     1     5
 -1.9055394930381456E-02 a       996     0    67     1     6
  1.1352948801416769E+00 a       997     0    67     1     7
  5.0394494561974079E-01 a       998     0    67     1     8
 -1.1237784604375203E+00 a       999     0    67     1     9
  1.1558449520429459E-01 a      1000     0    67     1    10
 -9.1135618502712290E-01 a      1001     0    67     1    11
 -1.5075500114297593E+00 a      1002     0    67     1    12
 -5.7021373274195575E-01 a      1003     0    67     1    13
 -1.5673436295808458E+00 a      1004     0    67     1    14
 -8.6309032005660546E-01 a      1005     0    67     1    15
  1.4818798187839464E+00 a      1006     0    68     1     1
  9.7114091798620905E-01 a      1007     0    68     1     2
 -3.2306710744251066E+00 a      1008     0    68     1     3
  1.6428759909983430E+00 a      1009     0    68     1     4
 -3.3692286080732686E-02 a      1010     0    68     1     5
 -7.7167152777415760E-02 a      1011     0    68     1     6
 -6.4638112723664054E-01 a      1012     0    68     1     7
  8.5451328443718000E-01 a      1013     0    68     1     8
  3.3588838085832978E-01 a      1014     0    68     1     9
  9.4957740148191916E-01 a      1015     0    68     1    10
 -1.5482740887942234E-01 a      1016     0    68     1    11
 -1.1093121838560143E+00 a      1017     0    68     1    12
 -1.3547563351152550E+00 a      1018     0    68     1    13
  3.8755260365558092E-01 a      1019     0    68     1    14
  2.1812833411030499E+00 a      1020     0    68     1    15
 -2.5987341607458587E+00 a      1021     0    69     1     1
 -1.5247930438766608E-01 a      1022     0    69     1     2
  1.1063230427941868E+00 a      1023     0    69     1     3
  6.4852068135849572E-01 a      1024     0    69     1     4
 -8.2814399004685646E-01 a      1025     0    69     1     5
 -6.2100142734448216E-01 a      1026     0    69     1     6
  1.2956404193798425E+00 a      1027     0    69     1     7
 -1.2618214371193575E+00 a      1028     0    69     1     8
  1.1070926265889473E-01 a      1029     0    69     1     9
  1.1504685767972951E+00 a      1030     0    69     1    10
 -1.2212879648403459E+00 a      1031     0    69     1    11
  3.4808995123269965E-01 a      1032     0    69     1    12
  1.7796889863846499E+00 a      1033     0    69     1    13
 -1.3284092820313540E+00 a      1034     0    69     1    14
  8.0812129144527933E-01 a      1035     0    69     1    15
  2.1519707270734748E-01 a      1036     0    70     1     1
  5.2775567064445417E-01 a      1037     0    70     1     2
  3.5638135151281281E-01 a      1038     0    70     1     3
 -4.0080616319177320E-01 a      1039     0    70     1     4
 -2.0362773628564784E-02 a      1040     0    70     1     5
 -6.1076995102964515E-01 a      1041     0    70     1     6
  1.2994132304416119E+00 a      1042     0    70     1     7
  7.7527719336043599E-01 a      1043     0    70     1     8
 -1.6843097160154032E+00 a      1044     0    70     1     9
 -3.2756108805913238E+00 a      1045     0    70     1    10
  4.1686670557216998E-01 a      1046     0    70     1    11
 -1.1986920350215866E+00 a      1047     0    70     1    12
 -1.1076703232205918E+00 a      1048     0    70     1    13
  7.3769084238071103E-01 a      1049     0    70     1    14
  1.8431858417653295E+00 a      1050     0    70     1    15
  9.4513027582936249E-01 a      1051     0    71     1     1
  1.0637140035610952E+00 a      1052     0    71     1     2
  1.2389466652171466E-01 a      1053     0    71     1     3
  6.4971074273941304E-02 a      1054     0    71     1     4
 -7.6955503041190099E-01 a      1055     0    71     1     5
 -7.3835501411267568E-01 a      1056     0    71     1     6
 -8.4814131558658401E-01 a      1057     0    71     1     7
  1.2029028599516491E+00 a      1058     0    71     1     8
  2.8217270008800199E-01 a      1059     0    71     1     9
  6.7439312727626355E-01 a      1060     0    71     1    10
  1.6481309480438393E+00 a      1061     0    71     1    11
  9.1877727017738442E-01 a      1062     0    71     1    12
  1.2265996130742966E-01 a      1063     0    71     1    13
 -2.5717022257130977E+00 a      1064     0    71     1    14
  7.0647098867449432E-01 a      1065     0    71     1    15
 -6.5515776690330674E-01 a      1066     0    72     1     1
 -8.5883197268264322E-01 a      1067     0    72     1     2
  1.6251352191350759E+00 a      1068     0    72     1     3
  2.9588549514703483E-01 a      1069     0    72     1     4
 -9.4242173401770524E-01 a      1070     0    72     1     5
 -6.1091097533482308E-01 a      1071     0    72     1     6
  1.2186788162959472E+00 a      1072     0    72     1     7
  4.4470677185014601E-02 a      1073     0    72     1     8
 -2.9673988756161640E-01 a      1074     0    72     1     9
  2.0915336709220336E+00 a      1075     0    72     1    10
 -1.3787847399331815E-01 a      1076     0    72     1    11
  7.4973562431585677E-02 a      1077     0    72     1    12
 -3.6060013254272444E-01 a      1078     0    72     1    13
 -1.0634122882533756E+00 a      1079     0    72     1    14
  1.3537071131598319E-01 a      1080     0    72     1    15
  8.0890010194706374E-01 a      1081     0    73     1     1
  1.1273209771400023E+00 a      1082     0    73     1     2
  2.2455719364565687E+00 a      1083     0    73     1     3
 -5.6363172516894389E-01 a      1084     0    73     1     4
 -2.4207977051561596E+00 a      1085     0    73     1     5
  1.8236563254386787E-01 a      1086     0    73     1     6
 -4.6261757133069803E-01 a      1087     0    73     1     7
 -1.7060997168797105E+00 a      1088     0    73     1     8
  9.7900505450122771E-02 a      1089     0    73     1     9
  2.8159778310734165E+00 a      1090     0    73     1    10
  1.9101590277432232E+00 a      1091     0    73     1    11
  8.9723226759317098E-01 a      1092     0    73     1    12
  2.7985536601938743E+00 a      1093     0    73     1    13
  2.6175357026096402E-01 a      1094     0    73     1    14
 -2.0248482346129664E+00 a      1095     0    73     1    15
  2.0847227428881239E-02 a      1096     0    74     1     1
 -4.9822763282356089E-02 a      1097     0    74     1     2
 -2.7566422365789069E+00 a      1098     0    74     1     3
  8.0380419206130127E-01 a      1099     0    74     1     4
  6.2348884171612173E-01 a      1100     0    74     1     5
 -2.6365021588776599E-01 a      1101     0    74     1     6
  1.5791050443790835E+00 a      1102     0    74     1     7
  1.6800006668115589E-01 a      1103     0    74     1     8
 -1.6259945486548749E-01 a      1104     0    74     1     9
  7.4926666084350024E-01 a      1105     0    74     1    10
  1.3134104571687628E+00 a      1106     0    74     1    11
  1.8856184399079470E+00 a      1107     0    74     1    12
 -1.6861227290500871E-01 a      1108     0    74     1    13
  1.1814911807578248E+00 a      1109     0    74     1    14
 -1.7279686354645196E+00 a      1110     0    74     1    15
  1.2958872855811385E+00 a      1111     0    75     1     1
 -7.7952524004784385E-01 a      1112     0    75     1     2
 -7.3409382025394487E-02 a      1113     0    75     1     3
 -1.4018398578862983E+00 a      1114     0    75     1     4
 -4.2885420372409483E-01 a      1115     0    75     1     5
  1.0065321087501546E+00 a      1116     0    75     1     6
 -2.7076071285381271E+00 a      1117     0    75     1     7
 -3.8863824182736245E-01 a      1118     0    75     1     8
  1.3636087120200874E-01 a      1119     0    75     1     9
  3.1915539732673692E+00 a      1120     0    75     1    10
 -1.0014508254836767E+00 a      1121     0    75     1    11
 -1.0072671865720921E+00 a      1122     0    75     1    12
 -9.1067005366221876E-01 a      1123     0    75     1    13
  1.1663964264369839E+00 a      1124     0    75     1    14
 -2.2544822566837102E+00 a      1125     0    75     1    15
  4.9238114029999086E-01 a      1126     0    76     1     1
 -3.7752428947982902E-01 a      1127     0    76     1     2
 -5.8509977044668049E-01 a      1128     0    76     1     3
  7.6064260304743636E-01 a      1129     0    76     1     4
 -9.0792983251860337E-01 a      1130     0    76     1     5
 -4.1808898915277748E-01 a      1131     0    76     1     6
 -3.6655088865096747E-02 a      1132     0    76     1     7
 -1.7067750922744416E+00 a      1133     0    76     1     8
  1.0602591014893270E+00 a      1134     0    76     1     9
 -2.1994681202022455E+00 a      1135     0    76     1    10
 -2.0591259357785785E-01 a      1136     0    76     1    11
 -1.4718745026346319E-01 a      1137     0    76     1    12
 -1.4548202560606793E+00 a      1138     0    76     1    13
 -7.1161231071650355E-01 a      1139     0    76     1    14
 -1.1853182568814877E+00 a      1140     0    76     1    15
 -2.5645951317411235E+00 a      1141     0    77     1     1
 -6.0641901229650097E-01 a      1142     0    77     1     2
  1.8728654096387998E+00 a      1143     0    77     1     3
 -2.0942871807342561E-01 a      1144     0    77     1     4
 -7.1181951564176293E-01 a      1145     0    77     1     5
  5.4285359918258125E-01 a      1146     0    77     1     6
 -9.3731789077317207E-01 a      1147     0    77     1     7
 -8.4481093165865251E-01 a      1148     0    77     1     8
 -1.5592195393642254E+00 a      1149     0    77     1     9
 -7.5433173801457998E-01 a      1150     0    77     1    10
 -1.0493341445639284E+00 a      1151     0    77     1    11
  7.9510833754726429E-01 a      1152     0    77     1    12
  2.4796998094379169E-01 a      1153     0    77     1    13
  6.4601058949993417E-01 a      1154     0    77     1    14
 -2.9815000257820701E-01 a      1155     0    77     1    15
  2.7623300034281182E+00 a      1156     0    78     1     1
  1.7523344312850058E+00 a      1157     0    78     1     2
 -2.7262219637963714E-01 a      1158     0    78     1     3
  7.5062036015770528E-01 a      1159     0    78     1     4
  1.0545987288006149E+00 a      1160     0    78     1     5
 -2.7491284983202674E-01 a      1161     0    78     1     6
  1.5081771702146078E+00 a      1162     0    78     1     7
 -3.8736623165553580E-01 a      1163     0    78     1     8
  7.9346800848349996E-01 a      1164     0    78     1     9
  1.1849568027246380E+00 a      1165     0    78     1    10
  1.1690261695030180E-02 a      1166     0    78     1    11
 -2.1642731332269540E+00 a      1167     0    78     1    12
  9.3910822075633948E-01 a      1168     0    78     1    13
 -9.9101363967168832E-01 a      1169     0    78     1    14
 -1.8470560136630054E+00 a      1170     0    78     1    15
  3.5349242351790755E-01 a      1171     0    79     1     1
  7.7576088546147659E-01 a      1172     0    79     1     2
  5.3136051006367169E-01 a      1173     0    79     1     3
  9.0976301986718255E-01 a      1174     0    79     1     4
  1.9125192526694508E+00 a      1175     0    79     1     5
 -6.8530009763642563E-01 a      1176     0    79     1     6
  3.4195431310252302E+00 a      1177     0    79     1     7
  1.3683176694176264E+00 a      1178     0    79     1     8
 -1.4943064691162653E+00 a      1179     0    79     1     9
  2.6880312536904336E+00 a      1180     0    79     1    10
 -1.8699264369097734E+00 a      1181     0    79     1    11
  3.4376199988524286E-01 a      1182     0    79     1    12
 -1.3598541546226586E-01 a      1183     0    79     1    13
 -3.5682620619364296E+00 a      1184     0    79     1    14
 -2.0335634759909422E+00 a      1185     0    79     1    15
  2.8735698308327740E+00 a      1186     0    80     1     1
  2.3662781212440018E+00 a      1187     0    80     1     2
 -1.4322735971656628E+00 a      1188     0    80     1     3
  3.4722050059436627E-01 a      1189     0    80     1     4
  3.3239279797686976E-02 a      1190     0    80     1     5
 -1.4463976761179600E+00 a      1191     0    80     1     6
 -1.6067928494744024E+00 a      1192     0    80     1     7
  8.4244356680118115E-01 a      1193     0    80     1     8
 -7.0940823552227772E-01 a      1194     0    80     1     9
 -3.1450049184616979E-01 a      1195     0    80     1    10
 -1.4994663046536574E-01 a      1196     0    80     1    11
  2.7974873211204487E-01 a      1197     0    80     1    12
 -1.2075056837162603E+00 a      1198     0    80     1    13
 -1.3084561296313195E+00 a      1199     0    80     1    14
  3.1304689515748479E-01 a      1200     0    80     1    15
 -7.8641244062266102E-01 a      1201     0    81     1     1
 -2.5133418933594927E+00 a      1202     0    81     1     2
  1.7384744057397812E+00 a      1203     0    81     1     3
  1.3470213858510085E+00 a      1204     0    81     1     4
 -1.8121674389980860E+00 a      1205     0    81     1     5
  1.4510612801142935E+00 a      1206     0    81     1     6
  3.7199148304716856E-01 a      1207     0    81     1     7
 -2.0141616257197374E+00 a      1208     0    81     1     8
  9.6880336962736968E-01 a      1209     0    81     1     9
  2.0357633382161007E+00 a      1210     0    81     1    10
 -1.4516642342820441E+00 a      1211     0    81     1    11
 -2.8068827883479402E-01 a      1212     0    81     1    12
  2.0499657171626828E+00 a      1213     0    81     1    13
  5.0532226214724141E-01 a      1214     0    81     1    14
  4.0095529274308750E-01 a      1215     0    81     1    15
 -1.2998048075991091E+00 a      1216     0    82     1     1
 -6.0558257914876357E-01 a      1217     0    82     1     2
 -1.0849622311754787E+00 a      1218     0    82     1     3
 -6.1054355648995362E-01 a      1219     0    82     1     4
  3.6640317267333654E-02 a      1220     0    82     1     5
 -1.6768742356153421E+00 a      1221     0    82     1     6
  1.8876657501705405E+00 a      1222     0    82     1     7
  1.6027088036138029E-01 a      1223     0    82     1     8
 -3.2166769157387671E+00 a      1224     0    82     1     9
  1.3464802646421430E+00 a      1225     0    82     1    10
 -1.0900647552475418E+00 a      1226     0    82     1    11
 -2.9758098510756831E-01 a      1227     0    82     1    12
 -4.1822803743456377E-01 a      1228     0    82     1    13
 -1.5604396614610672E+00 a      1229     0    82     1    14
  9.1057651467736100E-01 a      1230     0    82     1    15
  2.0454394337286042E+00 a      1231     0    83     1     1
  1.7277890748779263E+00 a      1232     0    83     1     2
 -2.6305759790304242E+00 a      1233     0    83     1     3
 -5.2840227881099577E-01 a      1234     0    83     1     4
 -6.2528263725465982E-01 a      1235     0    83     1     5
 -2.6626770246632923E+00 a      1236     0    83     1     6
 -4.9334540675550220E-01 a      1237     0    83     1     7
  1.1408978755397847E+00 a      1238     0    83     1     8
  7.5781363466552354E-01 a      1239     0    83     1     9
 -1.2189895055282731E+00 a      1240     0    83     1    10
  1.6333737387695166E+00 a      1241     0    83     1    11
 -4.1871356483585737E-01 a      1242     0    83     1    12
  3.2971260263148303E+00 a      1243     0    83     1    13
 -4.9099634639587476E-02 a      1244     0    83     1    14
  3.7858818696457313E+00 a      1245     0    83     1    15
 -7.7457138494249933E-01 a      1246     0    84     1     1
 -1.5226948320850624E+00 a      1247     0    84     1     2
 -1.7995692294777189E-02 a      1248     0    84     1     3
 -8.0255366373706916E-01 a      1249     0    84     1     4
  1.0547150046313636E+00 a      1250     0    84     1     5
  1.7206167114147399E+00 a      1251     0    84     1     6
  1.0120135096366771E+00 a      1252     0    84     1     7
  5.4876832453638502E-01 a      1253     0    84     1     8
 -1.2159146130723819E+00 a      1254     0    84     1     9
 -5.0004839889296404E+00 a      1255     0    84     1    10
  1.4926807618989339E+00 a      1256     0    84     1    11
 -2.5860625999909487E-01 a      1257     0    84     1    12
 -1.6436219502480267E+00 a      1258     0    84     1    13
  1.1586954019376217E+00 a      1259     0    84     1    14
  7.1421956104864237E-01 a      1260     0    84     1    15
  1.5622216690656318E-01 a      1261     0    85     1     1
 -2.5167766520605670E+00 a      1262     0    85     1     2
  1.6582421841491253E+00 a      1263     0    85     1     3
  4.7496776751796608E+00 a      1264     0    85     1     4
 -3.3810118805834053E+00 a      1265     0    85     1     5
 -1.0905311882634237E+00 a      1266     0    85     1     6
  2.5253997774919719E+00 a      1267     0    85     1     7
  1.2934452097887641E-01 a      1268     0    85     1     8
 -5.6708475355726973E-01 a      1269     0    85     1     9
 -4.8121702838547922E+00 a      1270     0    85     1    10
 -2.7638621804078128E-01 a      1271     0    85     1    11
 -1.7613516688980009E+00 a      1272     0    85     1    12
  3.3485013074458023E+00 a      1273     0    85     1    13
  2.7850364113389885E+00 a      1274     0    85     1    14
  1.3667790427883393E+00 a      1275     0    85     1    15
  2.1846262633651903E+00 a      1276     0    86     1     1
  1.2956696104434504E-01 a      1277     0    86     1     2
  1.2640028851561238E+00 a      1278     0    86     1     3
 -2.6877405767909459E+00 a      1279     0    86     1     4
  8.0914350514200872E-01 a      1280     0    86     1     5
 -6.8829083194633800E-01 a      1281     0    86     1     6
 -2.5593179558437013E-01 a      1282     0    86     1     7
 -1.6535154056678636E-01 a      1283     0    86     1     8
  1.3923257233170787E+00 a      1284     0    86     1     9
  2.7488788947742976E-01 a      1285     0    86     1    10
 -1.9115862611392485E+00 a      1286     0    86     1    11
  4.3365277840727989E+00 a      1287     0    86     1    12
 -8.6146034784393033E-02 a      1288     0    86     1    13
 -2.9766713369213567E+00 a      1289     0    86     1    14
 -1.1876213806093070E+00 a      1290     0    86     1    15
 -2.1042922672818246E-01 a      1291     0    87     1     1
  4.3866998598882939E-01 a      1292     0    87     1     2
  1.2040366164563749E+00 a      1293     0    87     1     3
 -2.8413936439681002E+00 a      1294     0    87     1     4
  2.2537082821967966E+00 a      1295     0    87     1     5
  2.0280264390882755E-01 a      1296     0    87     1     6
 -1.4533566084104523E+00 a      1297     0    87     1     7
 -2.7962636483115584E+00 a      1298     0    87     1     8
 -1.1869407845235833E+00 a      1299     0    87     1     9
 -1.5412875390625189E+00 a      1300     0    87     1    10
  1.3108355777257676E+00 a      1301     0    87     1    11
 -1.2412838333342739E+00 a      1302     0    87     1    12
 -1.3867953702455688E-01 a      1303     0    87     1    13
  2.0638349939814016E+00 a      1304     0    87     1    14
  3.3491807796083397E+00 a      1305     0    87     1    15
 -1.1896760414439143E+00 a      1306     0    88     1     1
 -1.6967808874222565E+00 a      1307     0    88     1     2
 -2.9769832348176012E-01 a      1308     0    88     1     3
  1.0649399679140834E+00 a      1309     0    88     1     4
  1.1919842018798497E+00 a      1310     0    88     1     5
  1.8963670676727067E+00 a      1311     0    88     1     6
 -2.1657939603939509E+00 a      1312     0    88     1     7
  1.0556001422045953E+00 a      1313     0    88     1     8
 -9.6308008140302492E-01 a      1314     0    88     1     9
  7.5408727951936061E-01 a      1315     0    88     1    10
 -3.6310213312783407E-01 a      1316     0    88     1    11
  4.9855811000165684E-01 a      1317     0    88     1    12
  4.6044766072498566E-01 a      1318     0    88     1    13
  1.7182934216070940E+00 a      1319     0    88     1    14
 -1.6129899715247126E-01 a      1320     0    88     1    15
 -1.1357493262489387E+00 a      1321     0    89     1     1
 -9.3478565792262558E-01 a      1322     0    89     1     2
 -6.6242186487168883E-02 a      1323     0    89     1     3
 -1.6978317476724747E+00 a      1324     0    89     1     4
 -3.9988624208175798E+00 a      1325     0    89     1     5
 -4.3075144023653102E+00 a      1326     0    89     1     6
 -6.9811714230742195E-01 a      1327     0    89     1     7
 -1.8218646957382705E+00 a      1328     0    89     1     8
 -2.1531601256839599E+00 a      1329     0    89     1     9
 -1.6564423956077345E+00 a      1330     0    89     1    10
 -3.2713210883077251E+00 a      1331     0    89     1    11
  1.3383291914306767E+00 a      1332     0    89     1    12
  3.0003830187792908E+00 a      1333     0    89     1    13
 -1.2338820760363312E+00 a      1334     0    89     1    14
  1.6168606457550885E+00 a      1335     0    89     1    15
  4.0803993959334672E+00 a      1336     0    90     1     1
 -8.3412692453286219E-01 a      1337     0    90     1     2
 -3.4464333321853866E+00 a      1338     0    90     1     3
  4.5716032062828194E-01 a      1339     0    90     1     4
  4.2074325067064496E-02 a      1340     0    90     1     5
  2.6677119960134199E+00 a      1341     0    90     1     6
  2.7846785547085582E+00 a      1342     0    90     1     7
  8.6413918706642323E-01 a      1343     0    90     1     8
 -6.8483628315809275E-01 a      1344     0    90     1     9
  2.8382702491871910E+00 a      1345     0    90     1    10
 -2.1584288122763331E+00 a      1346     0    90     1    11
  2.7028314155755226E+00 a      1347     0    90     1    12
  4.3992438980694377E+00 a      1348     0    90     1    13
  1.4977435744968139E+00 a      1349     0    90     1    14
 -1.2129408585977868E+00 a      1350     0    90     1    15
 -1.9272092929797130E-01 b      1351     1     1
  2.6569910606601521E-01 b      1352     1     2
  1.0842986562222789E+00 b      1353     1     3
 -7.4605901354287618E-01 b      1354     1     4
  1.8753130620278485E-01 b      1355     1     5
  3.2029306239042099E-01 b      1356     1     6
  3.1395610185099282E-01 b      1357     1     7
 -1.3846118521030146E+00 b      1358     1     8
  2.8677728079035553E-01 b      1359     1     9
  3.1245579555398009E+00 b      1360     1    10
 -1.1889768943658925E+00 b      1361     1    11
 -1.8465672464258225E+00 b      1362     1    12
  1.3366239305891041E+00 b      1363     1    13
  3.0620672955066396E-02 b      1364     1    14
  5.4027589825765354E-01 b      1365     1    15
 -1.3799080171388569E+00 a      1366     1     1     2     1
  5.1023907515365889E-02 a      1367     1     1     2     2
 -4.0042142537094544E-01 a      1368     1     1     2     3
  8.9388534857101826E-02 a      1369     1     1     2     4
  5.5595296006994432E-01 a      1370     1     1     2     5
  1.3637734868628692E-02 a      1371     1     1     2     6
 -6.9866175206756906E-02 a      1372     1     1     2     7
  7.6784850579512021E-01 a      1373     1     1     2     8
 -6.6886940532858108E-01 a      1374     1     1     2     9
  3.0572293193893213E-01 a      1375     1     1     2    10
 -1.7021694804742273E+00 a      1376     1     1     2    11
  1.0511977500186482E+00 a      1377     1     1     2    12
 -3.2076096880329313E-01 a      1378     1     1     2    13
 -1.2640108721057650E+00 a      1379     1     1     2    14
  1.0756988960113851E+00 a      1380     1     1     2    15
  2.3231172501742861E-01 a      1381     1     2     2     1
 -2.4652974818821208E-01 a      1382     1     2     2     2
 -2.0944083033321070E-01 a      1383     1     2     2     3
 -1.2822750310856534E+00 a      1384     1     2     2     4
 -1.7679059808990413E-01 a      1385     1     2     2     5
 -1.0734479242550365E+00 a      1386     1     2     2     6
 -2.4411743887810713E-01 a      1387     1     2     2     7
  4.4629680751947626E-01 a      1388     1     2     2     8
 -7.5425589968106055E-01 a      1389     1     2     2     9
 -2.6844548698255227E-01 a      1390     1     2     2    10
 -2.5851250115702190E-02 a      1391     1     2     2    11
  1.1345452512671355E+00 a      1392     1     2     2    12
  2.2865793265413073E-01 a      1393     1     2     2    13
  4.1623406104679789E-01 a      1394     1     2     2    14
 -7.4181891419762735E-01 a      1395     1     2     2    15
 -1.7869408004177916E+00 a      1396     1     3     2     1
 -4.2875763939590666E-01 a      1397     1     3     2     2
  7.5210880181263073E-01 a      1398     1     3     2     3
  1.7159989650781915E-01 a      1399     1     3     2     4
 -2.4749544233328158E-01 a      1400     1     3     2     5
  7.1585749874425064E-01 a      1401     1     3     2     6
 -6.6949395660422711E-02 a      1402     1     3     2     7
  1.6313318234144811E-02 a      1403     1     3     2     8
 -1.5211792945810199E-01 a      1404     1     3     2     9
  1.6769247140405390E+00 a      1405     1     3     2    10
 -1.6210078539681625E-03 a      1406     1     3     2    11
 -3.7578488545612271E-01 a      1407     1     3     2    12
 -1.8156709293923113E-03 a      1408     1     3     2    13
 -5.8769353108368305E-01 a      1409     1     3     2    14
 -3.9137823487701068E-01 a      1410     1     3     2    15
 -1.3796053656559770E-01 a      1411     1     4     2     1
 -4.3489856231024931E-01 a      1412     1     4     2     2
  5.3230126309800280E-03 a      1413     1     4     2     3
  1.0223047069320217E-01 a      1414     1     4     2     4
 -2.5857808291429146E-01 a      1415     1     4     2     5
  6.4773205373479947E-01 a      1416     1     4     2     6
  2.1203735389579709E-01 a      1417     1     4     2     7
 -4.1040121006333669E-01 a      1418     1     4     2     8
  8.2223286074473723E-01 a      1419     1     4     2     9
 -3.6883114259570304E-01 a      1420     1     4     2    10
  3.8161066952697742E-01 a      1421     1     4     2    11
  6.4871703874509268E-01 a      1422     1     4     2    12
  1.4681633289509344E-01 a      1423     1     4     2    13
 -8.4689590439577223E-01 a      1424     1     4     2    14
 -5.4164831999004026E-01 a      1425     1     4     2    15
 -1.2160593043521744E+00 a      1426     1     5     2     1
 -8.9359873362142805E-01 a      1427     1     5     2     2
  1.9244992919665790E-01 a      1428     1     5     2     3
  5.3805829691436984E-02 a      1429     1     5     2     4
 -6.2502900377860060E-01 a      1430     1     5     2     5
  1.4269436694667395E+00 a      1431     1     5     2     6
 -1.3314493638251829E-01 a      1432     1     5     2     7
 -2.0935591349346478E+00 a      1433     1     5     2     8
  4.4307238291991702E-01 a      1434     1     5     2     9
 -3.6825717202541175E-01 a      1435     1     5     2    10
  5.2645625375366056E-01 a      1436     1     5     2    11
 -9.5693165766378729E-01 a      1437     1     5     2    12
  2.4885152697924245E-01 a      1438     1     5     2    13
 -1.9437031503765398E+00 a      1439     1     5     2    14
 -1.4373474944832776E-01 a      1440     1     5     2    15
 -8.6732803091735178E-01 a      1441     1     6     2     1
 -3.5290196178255420E-03 a      1442     1     6     2     2
  4.0779465950491850E-01 a      1443     1     6     2     3
 -3.0288968259898486E-01 a      1444     1     6     2     4
  1.0685077932799880E-01 a      1445     1     6     2     5
 -1.2934038222393611E+00 a      1446     1     6     2     6
 -1.6061160613641712E-01 a      1447     1     6     2     7
 -2.2661588706028128E+00 a      1448     1     6     2     8
 -3.3152126233854584E-01 a      1449     1     6     2     9
  8.7008284910541955E-01 a      1450     1     6     2    10
  1.3302123129729643E-01 a      1451     1     6     2    11
  5.1067843515816902E-01 a      1452     1     6     2    12
  9.4726732979308115E-02 a      1453     1     6     2    13
  3.1480718624843651E+00 a      1454     1     6     2    14
  7.7213173953730174E-01 a      1455     1     6     2    15
 -1.3410621175679807E-01 a      1456     1     7     2     1
  9.2132007127594628E-01 a      1457     1     7     2     2
  2.1676162713937500E-01 a      1458     1     7     2     3
 -6.0649909931637336E-01 a      1459     1     7     2     4
 -1.6543941570832826E-01 a      1460     1     7     2     5
 -4.9108978086811766E-01 a      1461     1     7     2     6
 -2.0021556817296324E-01 a      1462     1     7     2     7
  1.6255268871631094E+00 a      1463     1     7     2     8
  2.2167489096392212E-01 a      1464     1     7     2     9
  5.9228545994100469E-02 a      1465     1     7     2    10
 -1.1572968799648972E-01 a      1466     1     7     2    11
 -4.0718259681839081E-01 a      1467     1     7     2    12
 -4.7794587227439601E-02 a      1468     1     7     2    13
 -8.9019297200862868E-01 a      1469     1     7     2    14
  9.4070122357026609E-01 a      1470     1     7     2    15
 -6.1363658724570969E-01 a      1471     1     8     2     1
 -3.4015363323115572E-01 a      1472     1     8     2     2
  9.6167157154741878E-01 a      1473     1     8     2     3
 -4.5852666173798939E-01 a      1474     1     8     2     4
 -6.8742245428728432E-01 a      1475     1     8     2     5
 -4.0975240583540423E-01 a      1476     1     8     2     6
 -4.3185050753703172E-02 a      1477     1     8     2     7
  1.0814178351777892E+00 a      1478     1     8     2     8
  2.6913579713024061E-01 a      1479     1     8     2     9
  9.1094727780431806E-01 a      1480     1     8     2    10
  8.4153478639310908E-01 a      1481     1     8     2    11
  4.7191524110506056E-01 a      1482     1     8     2    12
 -1.6546935684683955E-01 a      1483     1     8     2    13
 -7.4963894129843722E-01 a      1484     1     8     2    14
  2.2445038285770275E-01 a      1485     1     8     2    15
  1.6951835432048525E+00 a      1486     1     9     2     1
 -8.2579402940670110E-01 a      1487     1     9     2     2
  2.7901243333173970E-01 a      1488     1     9     2     3
 -1.7584819439658526E-02 a      1489     1     9     2     4
  1.5533413969051785E-01 a      1490     1     9     2     5
  6.9802897021924160E-01 a      1491     1     9     2     6
  1.7983943373303427E-01 a      1492     1     9     2     7
  4.3159831699401036E-01 a      1493     1     9     2     8
 -1.1330415048838420E+00 a      1494     1     9     2     9
  1.9490139760329479E+00 a      1495     1     9     2    10
 -2.8645427020917635E-01 a      1496     1     9     2    11
  5.7377843622874569E-02 a      1497     1     9     2    12
  1.8478833480100823E-01 a      1498     1     9     2    13
  1.3392928064117771E+00 a      1499     1     9     2    14
 -9.1281478555816264E-01 a      1500     1     9     2    15
  2.9458098733490292E+00 a      1501     1    10     2     1
  7.0783654175333599E-01 a      1502     1    10     2     2
 -6.7355921728941481E-01 a      1503     1    10     2     3
  8.3514627880742445E-02 a      1504     1    10     2     4
 -3.7652140934540562E-01 a      1505     1    10     2     5
 -1.4689595354811285E+00 a      1506     1    10     2     6
 -9.3564859628736086E-01 a      1507     1    10     2     7
 -9.7254479576230013E-01 a      1508     1    10     2     8
  1.2183759736177895E+00 a      1509     1    10     2     9
  1.4802263025917755E+00 a      1510     1    10     2    10
 -8.6626418721007425E-01 a      1511     1    10     2    11
  6.5009240736743101E-01 a      1512     1    10     2    12
 -8.1497344784824774E-02 a      1513     1    10     2    13
  1.1515835653867141E+00 a      1514     1    10     2    14
  6.2417487299697050E-01 a      1515     1    10     2    15
  7.7668012633855754E-01 a      1516     1    11     2     1
  1.3974934377205313E+00 a      1517     1    11     2     2
  3.9978027065227906E-01 a      1518     1    11     2     3
  7.6623829285721801E-01 a      1519     1    11     2     4
  6.6275667856260878E-01 a      1520     1    11     2     5
  3.7489857395435511E-01 a      1521     1    11     2     6
  5.3231009768895821E-01 a      1522     1    11     2     7
  2.1993747042390277E+00 a      1523     1    11     2     8
 -7.2931892066352177E-01 a      1524     1    11     2     9
  6.4438874068154222E-03 a      1525     1    11     2    10
  4.6884731165611482E-01 a      1526     1    11     2    11
 -7.8562443372919477E-01 a      1527     1    11     2    12
  7.1004606764807654E-01 a      1528     1    11     2    13
  4.0145665570632827E-01 a      1529     1    11     2    14
  2.2776724371810453E-01 a      1530     1    11     2    15
 -3.2779197525532855E-01 a      1531     1    12     2     1
 -1.9885452727279316E+00 a      1532     1    12     2     2
 -1.2589661399500518E+00 a      1533     1    12     2     3
  6.9499833874512895E-01 a      1534     1    12     2     4
  1.4044354775139474E+00 a      1535     1    12     2     5
 -3.9250543361472601E-01 a      1536     1    12     2     6
  1.5780593597526850E-02 a      1537     1    12     2     7
 -1.2064952045837664E-02 a      1538     1    12     2     8
 -2.5997538274682663E-01 a      1539     1    12     2     9
 -1.4708242331879833E+00 a      1540     1    12     2    10
  2.8837273173242378E-01 a      1541     1    12     2    11
 -5.6930597812320383E-01 a      1542     1    12     2    12
  4.1271978722983704E-01 a      1543     1    12     2    13
  1.0198786755899474E+00 a      1544     1    12     2    14
  7.0199284175294852E-01 a      1545     1    12     2    15
  4.8341359507022347E-01 a      1546     1    13     2     1
  1.6081845321814725E-01 a      1547     1    13     2     2
 -1.1177917298281639E-01 a      1548     1    13     2     3
 -7.2549120156344116E-01 a      1549     1    13     2     4
  2.6626249449770084E-01 a      1550     1    13     2     5
 -1.0491985669969957E-01 a      1551     1    13     2     6
  4.0652597393914323E-02 a      1552     1    13     2     7
  1.0158377722695928E+00 a      1553     1    13     2     8
  2.6949583405466625E-02 a      1554     1    13     2     9
 -1.9314530151787618E-01 a      1555     1    13     2    10
 -6.8895707258262784E-01 a      1556     1    13     2    11
 -1.2133572153496099E-01 a      1557     1    13     2    12
 -2.3414790217678658E-01 a      1558     1    13     2    13
  5.3995709249652568E-01 a      1559     1    13     2    14
 -5.8815723729063107E-01 a      1560     1    13     2    15
  8.2781427973409216E-01 a      1561     1    14     2     1
  3.0527706944243854E-01 a      1562     1    14     2     2
  6.7868452050285066E-01 a      1563     1    14     2     3
  3.9467759986747342E-01 a      1564     1    14     2     4
  1.4257227969029662E+00 a      1565     1    14     2     5
  6.2882532966859583E-01 a      1566     1    14     2     6
 -4.8172223497490629E-01 a      1567     1    14     2     7
  2.1852195037958824E+00 a      1568     1    14     2     8
  4.7407829497749981E-01 a      1569     1    14     2     9
 -4.2189607078759556E-01 a      1570     1    14     2    10
 -1.0803117959786692E+00 a      1571     1    14     2    11
 -3.5402778841927729E-01 a      1572     1    14     2    12
  3.3748546640729273E-03 a      1573     1    14     2    13
 -2.1279410409687963E-01 a      1574     1    14     2    14
  5.4447878276080564E-01 a      1575     1    14     2    15
 -7.6773962669443307E-01 a      1576     1    15     2     1
 -2.5806771450875932E+00 a      1577     1    15     2     2
  1.3056778775561739E+00 a      1578     1    15     2     3
 -5.5552491480908205E-02 a      1579     1    15     2     4
 -5.5415166565251084E-01 a      1580     1    15     2     5
 -7.1353947499416948E-01 a      1581     1    15     2     6
  2.8596361377505614E-01 a      1582     1    15     2     7
  1.4140655738163372E+00 a      1583     1    15     2     8
  7.4868959989553041E-01 a      1584     1    15     2     9
  5.8890625500364580E-01 a      1585     1    15     2    10
  6.0222536263682269E-01 a      1586     1    15     2    11
 -2.1945803680987178E-01 a      1587     1    15     2    12
 -1.8456776138350977E+00 a      1588     1    15     2    13
 -1.5700951885844281E+00 a      1589     1    15     2    14
 -1.0809836212807999E+00 a      1590     1    15     2    15
  8.3490812207282450E-01 b      1591     2     1
  2.7228066491085010E+00 b      1592     2     2
  6.7137540773371329E-01 b      1593     2     3
  1.1089513360003957E+00 b      1594     2     4
  2.0885715929614510E+00 b      1595     2     5
 -2.2737845448659280E+00 b      1596     2     6
 -8.2897572452304003E-03 b      1597     2     7
 -1.4657263114174759E+00 b      1598     2     8
 -3.6435025428376122E-01 b      1599     2     9
  1.1431548297738332E+00 b      1600     2    10
 -1.8954652982869691E-01 b      1601     2    11
  1.7919236785336503E+00 b      1602     2    12
 -2.8416107436749063E+00 b      1603     2    13
 -2.3068224729201381E+00 b      1604     2    14
  3.1394717233727274E+00 b      1605     2    15
 -5.5059599520981467E-02 a      1606     2     1     3     1
 -5.0788190738269602E-02 a      1607     2     2     3     1
  5.3454371926344058E-01 a      1608     2     3     3     1
 -3.3495873476155030E-01 a      1609     2     4     3     1
  1.7176041367039716E-01 a      1610     2     5     3     1
  2.3297476797938399E-01 a      1611     2     6     3     1
  1.6911553736002907E+00 a      1612     2     7     3     1
  3.1802856245351792E-02 a      1613     2     8     3     1
 -2.4064346784614615E-01 a      1614     2     9     3     1
 -3.3121477951461126E-01 a      1615     2    10     3     1
 -5.4868368907470233E-01 a      1616     2    11     3     1
 -2.9976487948177932E-01 a      1617     2    12     3     1
 -2.2386843947649999E+00 a      1618     2    13     3     1
  1.9105638991833759E-03 a      1619     2    14     3     1
 -1.9056829126142077E-01 a      1620     2    15     3     1
 -5.1248096053348557E-01 b      1621     3     1
