################################################################################
# Neural network connection values (weights and biases).
################################################################################
# Col  Name       Description
################################################################################
# 1    connection Neural network connection value.
# 2    t          Connection type (a = weight, b = bias).
# 3    index      Index enumerating weights.
# 4    l_s        Starting point layer (end point layer for biases).
# 5    n_s        Starting point neuron in starting layer (end point neuron for biases).
# 6    l_e        End point layer.
# 7    n_e        End point neuron in end layer.
################################################################################
#                      1 2         3     4     5     6     7
#             connection t     index   l_s   n_s   l_e   n_e
############################################################
  2.0330788242830891E+00 a         1     0     1     1     1
 -1.9554351397201304E+00 a         2     0     1     1     2
 -3.2169192983202475E+00 a         3     0     1     1     3
  1.4799350980344301E+00 a         4     0     1     1     4
  6.4442269297193613E-02 a         5     0     1     1     5
  2.7843748232096570E+00 a         6     0     1     1     6
 -8.0836586119037812E-01 a         7     0     1     1     7
 -2.8887423955566977E-01 a         8     0     1     1     8
 -1.8280789722112567E+00 a         9     0     1     1     9
  2.1687282325346970E+00 a        10     0     1     1    10
  3.7127937265018121E+00 a        11     0     1     1    11
  1.5520675842994665E+00 a        12     0     1     1    12
  2.2712618368683235E+00 a        13     0     1     1    13
 -9.4357680045359538E-01 a        14     0     1     1    14
 -2.1872087697854292E+00 a        15     0     1     1    15
 -3.8867575986206543E-01 a        16     0     2     1     1
  6.7445822618018114E-01 a        17     0     2     1     2
 -4.3545916501648678E+00 a        18     0     2     1     3
  7.8292604877891581E-01 a        19     0     2     1     4
 -5.8841196404537954E-01 a        20     0     2     1     5
 -3.3910713652121460E+00 a        21     0     2     1     6
 -2.1993860522261119E+00 a        22     0     2     1     7
  3.1560556486069982E+00 a        23     0     2     1     8
  2.6181139842594106E+00 a        24     0     2     1     9
 -1.0617224535603011E+01 a        25     0     2     1    10
  2.1284462473400834E+00 a        26     0     2     1    11
 -7.3095861572798504E-01 a        27     0     2     1    12
 -4.5811798409503295E+00 a        28     0     2     1    13
  6.8444099528428666E+00 a        29     0     2     1    14
  3.1704871131232686E+00 a        30     0     2     1    15
  2.1905256828092159E+00 a        31     0     3     1     1
 -2.1732949182340828E+00 a        32     0     3     1     2
 -7.9291308332835597E-02 a        33     0     3     1     3
 -3.7541595019198457E+00 a        34     0     3     1     4
 -2.4754794783699485E+00 a        35     0     3     1     5
  3.4474497941626037E-01 a        36     0     3     1     6
 -5.5998553860106060E-01 a        37     0     3     1     7
  2.4807448913723045E+00 a        38     0     3     1     8
 -4.9323698264815130E-01 a        39     0     3     1     9
 -3.1192188095424815E+00 a        40     0     3     1    10
  1.9815511474108187E+00 a        41     0     3     1    11
 -2.5354989397869669E+00 a        42     0     3     1    12
 -4.6252595371699341E+00 a        43     0     3     1    13
  8.2111540015571183E-01 a        44     0     3     1    14
 -2.7786018914936439E+00 a        45     0     3     1    15
  6.4645597023955514E-01 a        46     0     4     1     1
 -2.5541304210585880E-01 a        47     0     4     1     2
 -2.1769179341388343E+00 a        48     0     4     1     3
  1.7403687945017949E+00 a        49     0     4     1     4
 -1.1484661236810381E+00 a        50     0     4     1     5
  5.1827566228298716E-01 a        51     0     4     1     6
  1.8037019326711772E+00 a        52     0     4     1     7
 -2.2596756120678467E+00 a        53     0     4     1     8
  2.8636180181698451E-01 a        54     0     4     1     9
 -8.8215020104529784E-01 a        55     0     4     1    10
  2.6095023704654090E+00 a        56     0     4     1    11
  7.5740451396552633E-01 a        57     0     4     1    12
  3.0842511089368139E+00 a        58     0     4     1    13
  2.2051540236086381E-01 a        59     0     4     1    14
 -2.8668510565783334E-01 a        60     0     4     1    15
  8.9404696574589737E-01 a        61     0     5     1     1
  8.3853549209225098E-01 a        62     0     5     1     2
 -5.0830608130284771E+00 a        63     0     5     1     3
 -7.4837548714590862E-01 a        64     0     5     1     4
  1.6008845329552407E-02 a        65     0     5     1     5
  3.2844978165819643E+00 a        66     0     5     1     6
 -1.0135392636272511E+00 a        67     0     5     1     7
  2.0058264960098575E+00 a        68     0     5     1     8
  2.9060875449711236E+00 a        69     0     5     1     9
 -2.8237035261444081E+00 a        70     0     5     1    10
 -1.6487957516200458E+00 a        71     0     5     1    11
  1.0755436857944147E+00 a        72     0     5     1    12
  4.4839863771429567E+00 a        73     0     5     1    13
 -3.4840425266614183E-01 a        74     0     5     1    14
 -4.5738420755361098E-01 a        75     0     5     1    15
 -1.0149158708485504E+00 a        76     0     6     1     1
 -1.6587438914390068E-01 a        77     0     6     1     2
  3.7588936690172814E-01 a        78     0     6     1     3
 -1.2472970731741155E+00 a        79     0     6     1     4
 -3.0555961751004401E-01 a        80     0     6     1     5
  7.9295115765095836E-01 a        81     0     6     1     6
 -2.4472280404504683E+00 a        82     0     6     1     7
  3.9065615623248049E+00 a        83     0     6     1     8
  1.5447445133533428E+00 a        84     0     6     1     9
 -5.1329193181687831E+00 a        85     0     6     1    10
 -1.6962321376360323E+00 a        86     0     6     1    11
 -2.1042296235997888E+00 a        87     0     6     1    12
 -3.6198685598027858E+00 a        88     0     6     1    13
  2.2070215175660519E+00 a        89     0     6     1    14
  1.5791384646461444E+00 a        90     0     6     1    15
 -4.3927581381246333E-01 a        91     0     7     1     1
  1.9107585409107068E+00 a        92     0     7     1     2
  3.2969487522446097E+00 a        93     0     7     1     3
 -8.3788374791179965E-01 a        94     0     7     1     4
  3.7861071033216204E-01 a        95     0     7     1     5
  1.1966478887719945E+00 a        96     0     7     1     6
  1.4508242825364543E+00 a        97     0     7     1     7
  2.7661435268841189E-01 a        98     0     7     1     8
 -2.6530366789668451E+00 a        99     0     7     1     9
 -9.4427592745186784E-01 a       100     0     7     1    10
 -1.6360450019917141E+00 a       101     0     7     1    11
 -2.0521249652395697E+00 a       102     0     7     1    12
  1.1902034175096523E+00 a       103     0     7     1    13
 -4.5050873068450792E-01 a       104     0     7     1    14
 -4.7777158559388877E-01 a       105     0     7     1    15
 -1.0288899419799376E+00 a       106     0     8     1     1
  6.6155482607351634E-01 a       107     0     8     1     2
  8.2709699680049298E-01 a       108     0     8     1     3
  1.9486947127007193E+00 a       109     0     8     1     4
  1.7019928965281639E-01 a       110     0     8     1     5
 -9.7038091842940188E-01 a       111     0     8     1     6
  8.5696520445596047E-01 a       112     0     8     1     7
 -2.5166287082452157E+00 a       113     0     8     1     8
  1.0028368538362362E-01 a       114     0     8     1     9
  9.6701144237663983E-01 a       115     0     8     1    10
  6.6699181211178382E-01 a       116     0     8     1    11
  2.5737735719727115E+00 a       117     0     8     1    12
  1.5930837538320584E+00 a       118     0     8     1    13
  4.5117665409656227E-01 a       119     0     8     1    14
 -6.3172571295175917E-01 a       120     0     8     1    15
 -8.0590288760399281E-02 a       121     0     9     1     1
 -4.2111962938542941E-01 a       122     0     9     1     2
 -1.5708924668008919E+00 a       123     0     9     1     3
 -1.2566462541073087E+00 a       124     0     9     1     4
 -1.7079377840908299E+00 a       125     0     9     1     5
 -1.1742115668625401E+00 a       126     0     9     1     6
 -2.0393905017530791E+00 a       127     0     9     1     7
  2.0057742734063839E+00 a       128     0     9     1     8
 -1.8064464721065294E+00 a       129     0     9     1     9
  1.9648298597518915E-01 a       130     0     9     1    10
  7.2991634111863657E-01 a       131     0     9     1    11
  1.0445468456933320E+00 a       132     0     9     1    12
 -6.3537324170724174E-01 a       133     0     9     1    13
 -2.2017640059305026E+00 a       134     0     9     1    14
  3.0123653823321855E-01 a       135     0     9     1    15
  2.9026850481091793E-01 a       136     0    10     1     1
 -1.2843087142277003E+00 a       137     0    10     1     2
  5.5633228628293241E-01 a       138     0    10     1     3
 -2.9503881835531578E+00 a       139     0    10     1     4
 -5.5928278634157169E-01 a       140     0    10     1     5
 -2.4609631464449658E-01 a       141     0    10     1     6
 -2.5798725464280019E+00 a       142     0    10     1     7
  5.0926923577724370E-01 a       143     0    10     1     8
  2.4410585229598656E+00 a       144     0    10     1     9
 -2.4427890636106793E+00 a       145     0    10     1    10
 -8.8181234710761114E-01 a       146     0    10     1    11
  2.5829187482374344E-01 a       147     0    10     1    12
 -3.1855600848120842E+00 a       148     0    10     1    13
  2.0678553248365481E+00 a       149     0    10     1    14
  1.3205466439938118E-01 a       150     0    10     1    15
  7.0473584388595323E-01 a       151     0    11     1     1
  1.4689920127982299E+00 a       152     0    11     1     2
  3.5550443285214648E+00 a       153     0    11     1     3
  2.5018717951896119E+00 a       154     0    11     1     4
  7.9622399486460826E-02 a       155     0    11     1     5
  1.8065338971012606E+00 a       156     0    11     1     6
  1.1200647118105640E+00 a       157     0    11     1     7
 -1.2123160046731154E+00 a       158     0    11     1     8
  2.7532242002656071E+00 a       159     0    11     1     9
 -8.8972491125885900E-01 a       160     0    11     1    10
  1.0425418475577000E+00 a       161     0    11     1    11
  2.0643165579015793E-01 a       162     0    11     1    12
  2.2043241730206331E+00 a       163     0    11     1    13
 -7.4050543797299617E-01 a       164     0    11     1    14
 -2.1980544512375008E-01 a       165     0    11     1    15
  1.8500948751259525E+00 a       166     0    12     1     1
 -1.8228426544346297E+00 a       167     0    12     1     2
 -1.9080522523245858E+00 a       168     0    12     1     3
  1.4916439752371016E+00 a       169     0    12     1     4
  1.4299102771427203E+00 a       170     0    12     1     5
  3.3775045107490165E+00 a       171     0    12     1     6
 -7.0985768826145534E-01 a       172     0    12     1     7
 -1.7209173956960231E+00 a       173     0    12     1     8
  1.7992579519204419E+00 a       174     0    12     1     9
  1.0987993005246501E+00 a       175     0    12     1    10
 -2.3061935266452909E+00 a       176     0    12     1    11
  1.5887688659638663E-01 a       177     0    12     1    12
  1.5706498185276316E+00 a       178     0    12     1    13
 -2.7257824444895840E+00 a       179     0    12     1    14
  2.7938009543456865E-01 a       180     0    12     1    15
 -8.9924913205464763E-01 a       181     0    13     1     1
 -1.2158335841133787E+00 a       182     0    13     1     2
 -1.7148722274728245E+00 a       183     0    13     1     3
 -5.6732309476594844E-01 a       184     0    13     1     4
  1.1616036693621114E-01 a       185     0    13     1     5
 -2.4392067978219276E+00 a       186     0    13     1     6
 -3.4006565100861286E-01 a       187     0    13     1     7
  3.2939825404772853E+00 a       188     0    13     1     8
 -2.2130703408894803E+00 a       189     0    13     1     9
 -1.7959663768132787E-02 a       190     0    13     1    10
 -3.0777243898214666E+00 a       191     0    13     1    11
 -1.0925887539635568E+00 a       192     0    13     1    12
  2.1040064304871722E-01 a       193     0    13     1    13
 -8.6097410260974583E-01 a       194     0    13     1    14
 -4.7411888681219783E-01 a       195     0    13     1    15
 -5.0493863416497087E-01 a       196     0    14     1     1
  2.0664564014966453E+00 a       197     0    14     1     2
  1.2863952653694615E+00 a       198     0    14     1     3
 -9.8833913418996844E-01 a       199     0    14     1     4
  3.0593359746018783E-01 a       200     0    14     1     5
 -1.4568467508306004E+00 a       201     0    14     1     6
 -3.0228733811800740E-01 a       202     0    14     1     7
 -3.7449367470009670E-01 a       203     0    14     1     8
 -5.0019893767349233E-01 a       204     0    14     1     9
 -2.9672109607409275E-01 a       205     0    14     1    10
  3.8840027955094036E-01 a       206     0    14     1    11
  1.6434426913776952E+00 a       207     0    14     1    12
 -6.2484536895278275E-01 a       208     0    14     1    13
  1.4206432974460903E+00 a       209     0    14     1    14
  8.5798032003979063E-02 a       210     0    14     1    15
 -1.2402279927903112E-01 a       211     0    15     1     1
  6.3165772422730804E-01 a       212     0    15     1     2
  6.0558711918270491E-01 a       213     0    15     1     3
  9.9946287068501494E-01 a       214     0    15     1     4
 -1.0418569638693005E+00 a       215     0    15     1     5
  1.8643983972461675E-01 a       216     0    15     1     6
 -2.7962205116943917E-01 a       217     0    15     1     7
 -2.0090313252076317E+00 a       218     0    15     1     8
  1.4962822769695143E+00 a       219     0    15     1     9
  1.1286832789327408E-01 a       220     0    15     1    10
  1.9634585458411540E+00 a       221     0    15     1    11
  1.3246647940086818E+00 a       222     0    15     1    12
 -8.1730852205218874E-01 a       223     0    15     1    13
 -1.9576118430630990E-01 a       224     0    15     1    14
  5.4532443687297794E-01 a       225     0    15     1    15
  1.6664190077470560E+00 a       226     0    16     1     1
 -4.8852645997868877E-01 a       227     0    16     1     2
 -8.4040240377504083E-01 a       228     0    16     1     3
 -2.1124131756640057E+00 a       229     0    16     1     4
  7.6037331331117075E-01 a       230     0    16     1     5
  1.9736401519968296E+00 a       231     0    16     1     6
 -2.7322412327713369E-01 a       232     0    16     1     7
 -1.6096210139482245E+00 a       233     0    16     1     8
  1.7769948652076073E+00 a       234     0    16     1     9
  3.3514748628949503E-01 a       235     0    16     1    10
 -1.6475739607588349E+00 a       236     0    16     1    11
  2.4005704845151965E-01 a       237     0    16     1    12
  1.1838058447916648E+00 a       238     0    16     1    13
 -1.6377638973047008E+00 a       239     0    16     1    14
 -1.2277031699618261E-01 a       240     0    16     1    15
 -9.5978426706976472E-01 a       241     0    17     1     1
 -1.1371769557782465E+00 a       242     0    17     1     2
 -1.0408178513997908E-01 a       243     0    17     1     3
 -6.9451514963565242E-01 a       244     0    17     1     4
  8.5477040265599447E-01 a       245     0    17     1     5
 -2.0458136293320512E+00 a       246     0    17     1     6
 -4.9160702719276606E-01 a       247     0    17     1     7
  1.3332962598295852E+00 a       248     0    17     1     8
  2.3717003076127302E-01 a       249     0    17     1     9
  1.8707160159944231E-01 a       250     0    17     1    10
 -1.0390421095466271E+00 a       251     0    17     1    11
 -1.8321099507717903E-02 a       252     0    17     1    12
  1.1401438307872402E-01 a       253     0    17     1    13
  5.6541764478025869E-01 a       254     0    17     1    14
 -2.6534415945983554E+00 a       255     0    17     1    15
 -2.0962012999012409E+00 a       256     0    18     1     1
 -1.8053721526067412E-01 a       257     0    18     1     2
  1.3867837080481076E+00 a       258     0    18     1     3
 -4.7065060288880900E-01 a       259     0    18     1     4
 -3.0052875770872928E-01 a       260     0    18     1     5
  1.8963132187293918E+00 a       261     0    18     1     6
 -1.2878699225105643E+00 a       262     0    18     1     7
 -6.8993236790247803E-01 a       263     0    18     1     8
  5.1351105865474933E-01 a       264     0    18     1     9
  7.8170497007607975E-02 a       265     0    18     1    10
 -3.5496042733759130E+00 a       266     0    18     1    11
  1.3173362659872523E+00 a       267     0    18     1    12
  1.0494700859453658E+00 a       268     0    18     1    13
  6.9273635439599024E-01 a       269     0    18     1    14
 -3.3866246690798874E-01 a       270     0    18     1    15
  1.8573455638481708E+00 a       271     0    19     1     1
  2.4426226554990795E+00 a       272     0    19     1     2
  4.4947868395212759E-01 a       273     0    19     1     3
 -4.9912611832531673E-01 a       274     0    19     1     4
 -2.7966104167411561E+00 a       275     0    19     1     5
  2.0410854321811181E-01 a       276     0    19     1     6
 -2.1051037804020902E+00 a       277     0    19     1     7
  7.4760221013317063E-01 a       278     0    19     1     8
  1.3279976067652979E+00 a       279     0    19     1     9
 -1.0560028368044849E-01 a       280     0    19     1    10
 -2.1302426875086398E+00 a       281     0    19     1    11
  5.5689095770061348E-01 a       282     0    19     1    12
 -2.0465121536510522E+00 a       283     0    19     1    13
  2.2090158872391212E+00 a       284     0    19     1    14
  4.8223440700857900E-01 a       285     0    19     1    15
 -3.7111714366392268E-01 a       286     0    20     1     1
 -5.9901751772068752E-02 a       287     0    20     1     2
  4.9935960821557449E-02 a       288     0    20     1     3
 -3.8760782987756531E-01 a       289     0    20     1     4
  3.8262539565031373E-01 a       290     0    20     1     5
  1.5132726787612736E+00 a       291     0    20     1     6
  1.4401706271722509E-01 a       292     0    20     1     7
 -1.9458162033970530E+00 a       293     0    20     1     8
  1.5456199571511442E-01 a       294     0    20     1     9
  1.9016831388916910E+00 a       295     0    20     1    10
 -1.8530954293781372E+00 a       296     0    20     1    11
  2.9150210507047847E+00 a       297     0    20     1    12
  1.4863933513203846E+00 a       298     0    20     1    13
 -2.1827139320120676E+00 a       299     0    20     1    14
 -4.2015240601988646E-01 a       300     0    20     1    15
  9.2566168182906794E-01 a       301     0    21     1     1
  1.0842609038101592E+00 a       302     0    21     1     2
  6.6754352635401470E-01 a       303     0    21     1     3
 -2.2438892192252484E+00 a       304     0    21     1     4
  7.4069434835634096E-01 a       305     0    21     1     5
 -7.5553306829286548E-01 a       306     0    21     1     6
 -1.3210394366493183E+00 a       307     0    21     1     7
 -4.5889164660271892E-01 a       308     0    21     1     8
  2.2134391461133143E-01 a       309     0    21     1     9
  1.7285759267536567E-02 a       310     0    21     1    10
  9.0130066212437354E-01 a       311     0    21     1    11
  7.1758338973543523E-01 a       312     0    21     1    12
  1.6356449561077333E+00 a       313     0    21     1    13
 -2.9982743770290132E+00 a       314     0    21     1    14
 -1.1500574676058817E+00 a       315     0    21     1    15
 -2.5334901708819073E+00 a       316     0    22     1     1
 -5.8901458040339127E-01 a       317     0    22     1     2
  2.8114789293941872E-01 a       318     0    22     1     3
  1.7599330603487415E+00 a       319     0    22     1     4
 -1.5121217601450465E+00 a       320     0    22     1     5
 -1.6126082068450058E+00 a       321     0    22     1     6
  2.0051201870362547E+00 a       322     0    22     1     7
  3.4063581390835393E+00 a       323     0    22     1     8
 -5.5474787129441161E-01 a       324     0    22     1     9
  5.9510229971793693E-01 a       325     0    22     1    10
  5.6424396024390522E-01 a       326     0    22     1    11
  3.6312852837559606E-01 a       327     0    22     1    12
  3.6474031464684653E-01 a       328     0    22     1    13
 -4.0740798553790980E-01 a       329     0    22     1    14
 -5.1663411732573006E-01 a       330     0    22     1    15
  1.9747725035377717E+00 a       331     0    23     1     1
 -1.2835280376840987E+00 a       332     0    23     1     2
 -1.3699016291462758E+00 a       333     0    23     1     3
 -8.2410262412478419E-01 a       334     0    23     1     4
  9.8749238667178374E-01 a       335     0    23     1     5
  2.1067073176471767E+00 a       336     0    23     1     6
 -7.4860434527682607E-01 a       337     0    23     1     7
 -1.5291502022501502E+00 a       338     0    23     1     8
 -1.2163884252661461E+00 a       339     0    23     1     9
 -2.4856513778329949E+00 a       340     0    23     1    10
  1.2652994576701051E+00 a       341     0    23     1    11
  1.6521136566127237E+00 a       342     0    23     1    12
 -1.5114158037704173E+00 a       343     0    23     1    13
 -7.3479570641917702E-01 a       344     0    23     1    14
 -1.4464876493731846E+00 a       345     0    23     1    15
  1.5774088767018126E+00 a       346     0    24     1     1
  1.0823925594020025E+00 a       347     0    24     1     2
  1.0784875185839409E+00 a       348     0    24     1     3
 -1.3641576443606811E+00 a       349     0    24     1     4
 -6.2147811552921384E-01 a       350     0    24     1     5
 -1.4030467365516655E+00 a       351     0    24     1     6
  4.7865125696064814E-01 a       352     0    24     1     7
 -3.0457431769278831E-01 a       353     0    24     1     8
  8.2640724023087719E-01 a       354     0    24     1     9
 -5.6162450909033845E-01 a       355     0    24     1    10
 -2.1583556776993271E+00 a       356     0    24     1    11
 -1.4373707091703658E-01 a       357     0    24     1    12
 -1.9370188079333814E+00 a       358     0    24     1    13
 -1.0866421681268428E+00 a       359     0    24     1    14
 -1.7642660392158238E-01 a       360     0    24     1    15
  1.1981759325076380E-01 a       361     0    25     1     1
 -1.6451373538754637E+00 a       362     0    25     1     2
  3.2473665158105430E-01 a       363     0    25     1     3
 -1.4567968947623107E+00 a       364     0    25     1     4
  1.1499584486120726E+00 a       365     0    25     1     5
 -3.1512609261420237E+00 a       366     0    25     1     6
  2.4989685599506477E+00 a       367     0    25     1     7
  5.1024564242041692E-01 a       368     0    25     1     8
 -2.4919828238901198E+00 a       369     0    25     1     9
  1.5755558244808605E+00 a       370     0    25     1    10
  7.8914222875638984E-01 a       371     0    25     1    11
 -1.4023258266395555E+00 a       372     0    25     1    12
 -1.6549124510255040E+00 a       373     0    25     1    13
  3.2461410404550208E+00 a       374     0    25     1    14
  6.4013667499484994E-01 a       375     0    25     1    15
 -2.4783111221521867E+00 a       376     0    26     1     1
  1.5052437606059534E+00 a       377     0    26     1     2
 -7.7459651964170306E-01 a       378     0    26     1     3
  1.1992326222134311E+00 a       379     0    26     1     4
 -9.0086217839483895E-01 a       380     0    26     1     5
  1.8913635620473999E+00 a       381     0    26     1     6
 -1.7076629449203855E+00 a       382     0    26     1     7
 -6.5762336118294318E-01 a       383     0    26     1     8
 -1.8363385571850341E+00 a       384     0    26     1     9
 -5.6289484189483585E-01 a       385     0    26     1    10
 -9.0486786723040502E-01 a       386     0    26     1    11
 -9.7023198275280942E-01 a       387     0    26     1    12
 -4.7698307510107224E-01 a       388     0    26     1    13
  1.8392922979326785E+00 a       389     0    26     1    14
  8.3224565237637371E-01 a       390     0    26     1    15
 -7.6897124606499612E-01 a       391     0    27     1     1
  2.2569178940329131E+00 a       392     0    27     1     2
 -1.3803378297974485E+00 a       393     0    27     1     3
  1.2083104817572117E+00 a       394     0    27     1     4
  1.1470431278338589E-01 a       395     0    27     1     5
  1.5342055832391046E+00 a       396     0    27     1     6
 -3.7693574053026584E+00 a       397     0    27     1     7
 -1.4700758030989953E+00 a       398     0    27     1     8
  2.1572878506641202E+00 a       399     0    27     1     9
  7.1416467280912710E-01 a       400     0    27     1    10
 -1.1522026717722416E+00 a       401     0    27     1    11
 -1.0890771594608475E+00 a       402     0    27     1    12
  2.7162084255202821E+00 a       403     0    27     1    13
  9.2084458155509349E-02 a       404     0    27     1    14
 -5.1995600550447985E-01 a       405     0    27     1    15
 -8.1941494462314890E-01 a       406     0    28     1     1
 -1.1713375961989276E+00 a       407     0    28     1     2
 -2.2468867153226832E+00 a       408     0    28     1     3
  6.5279318140196352E-01 a       409     0    28     1     4
  9.5342395824227977E-01 a       410     0    28     1     5
  2.8924380723153942E-01 a       411     0    28     1     6
 -6.3925732416564685E-01 a       412     0    28     1     7
  7.5986992019932798E-01 a       413     0    28     1     8
 -1.5076029135616846E+00 a       414     0    28     1     9
  2.5328885236025771E+00 a       415     0    28     1    10
 -2.3137673251668831E+00 a       416     0    28     1    11
 -3.8399046496026146E-01 a       417     0    28     1    12
 -5.7682409758382769E-01 a       418     0    28     1    13
  1.4738843405574870E-01 a       419     0    28     1    14
  3.3448391836951263E-01 a       420     0    28     1    15
  1.5163177820413265E+00 a       421     0    29     1     1
  3.2676078149815629E-01 a       422     0    29     1     2
 -2.3304799678059909E+00 a       423     0    29     1     3
  5.1340625423383262E-03 a       424     0    29     1     4
 -6.2781269648393978E-01 a       425     0    29     1     5
  1.8927229893846584E-01 a       426     0    29     1     6
  4.9532012631146677E-01 a       427     0    29     1     7
 -8.8434184306404526E-02 a       428     0    29     1     8
  1.7998899928589682E+00 a       429     0    29     1     9
  7.9908967118599161E-01 a       430     0    29     1    10
  7.7665372889043305E-01 a       431     0    29     1    11
 -2.6391119212367427E+00 a       432     0    29     1    12
 -1.5493051382199263E+00 a       433     0    29     1    13
  5.6642254810983150E-01 a       434     0    29     1    14
 -2.9859478062543554E-01 a       435     0    29     1    15
 -9.2733833167608049E-01 a       436     0    30     1     1
  3.6751064311568071E-01 a       437     0    30     1     2
  2.4989879700053317E+00 a       438     0    30     1     3
  1.3550746978506567E+00 a       439     0    30     1     4
  1.5671894574133319E-01 a       440     0    30     1     5
  2.4779040141088688E+00 a       441     0    30     1     6
 -1.2283606185465563E+00 a       442     0    30     1     7
  2.9222534721093119E-01 a       443     0    30     1     8
 -9.2924925425029647E-01 a       444     0    30     1     9
  2.3769540831753306E+00 a       445     0    30     1    10
 -3.4542753664265793E+00 a       446     0    30     1    11
  1.6462824575306689E+00 a       447     0    30     1    12
  2.7229079843873247E+00 a       448     0    30     1    13
  2.4243726872075246E+00 a       449     0    30     1    14
 -3.3745517364213196E-01 a       450     0    30     1    15
  4.2979457716047936E-01 a       451     0    31     1     1
  2.9511495295097906E-01 a       452     0    31     1     2
  3.7310185708820753E-01 a       453     0    31     1     3
 -2.3715052070289239E-01 a       454     0    31     1     4
 -4.1982925644404684E-01 a       455     0    31     1     5
 -1.0175630794734638E+00 a       456     0    31     1     6
 -1.0752670386194683E+00 a       457     0    31     1     7
  1.5182495014170192E+00 a       458     0    31     1     8
  4.6818589382024267E-01 a       459     0    31     1     9
  6.1606691473582398E-01 a       460     0    31     1    10
 -5.3662524510684328E-01 a       461     0    31     1    11
 -1.1232692922678560E+00 a       462     0    31     1    12
  1.2513033185562517E-01 a       463     0    31     1    13
  8.9323709604081578E-02 a       464     0    31     1    14
  1.5170019288511267E-02 a       465     0    31     1    15
 -1.2242065940133862E+00 a       466     0    32     1     1
 -1.1111880389827433E+00 a       467     0    32     1     2
 -2.5843233476222598E+00 a       468     0    32     1     3
 -1.5994602398462852E+00 a       469     0    32     1     4
  9.3023428477666692E-01 a       470     0    32     1     5
  1.3189758927672564E+00 a       471     0    32     1     6
 -4.0080901262480145E-01 a       472     0    32     1     7
 -2.3754675414631419E+00 a       473     0    32     1     8
  2.7415380308944781E-01 a       474     0    32     1     9
  2.8159019193728746E-01 a       475     0    32     1    10
  3.6491120903177005E-01 a       476     0    32     1    11
  1.2020294098865176E+00 a       477     0    32     1    12
 -1.2966735838389354E-01 a       478     0    32     1    13
 -2.4783823164589229E+00 a       479     0    32     1    14
 -1.6239846128653603E+00 a       480     0    32     1    15
 -4.0228897935858632E-01 a       481     0    33     1     1
  3.7945995975314512E-01 a       482     0    33     1     2
  4.3764595441146487E-01 a       483     0    33     1     3
 -1.2660344305303179E+00 a       484     0    33     1     4
  2.2253491129140106E+00 a       485     0    33     1     5
  9.3511032656631229E-02 a       486     0    33     1     6
 -3.9246042080207283E-01 a       487     0    33     1     7
 -2.3491878131288058E-01 a       488     0    33     1     8
 -2.1077173276728627E-02 a       489     0    33     1     9
  2.1290655916716172E+00 a       490     0    33     1    10
  3.3928726823858091E-01 a       491     0    33     1    11
  8.0399819070244505E-01 a       492     0    33     1    12
  1.6480889423322829E+00 a       493     0    33     1    13
 -4.0773140840183747E-01 a       494     0    33     1    14
 -1.8909801785255875E-01 a       495     0    33     1    15
 -2.0595497990131180E+00 a       496     0    34     1     1
 -1.7581063048575840E+00 a       497     0    34     1     2
  1.4749299413963363E-01 a       498     0    34     1     3
  2.9455384348148766E-01 a       499     0    34     1     4
 -3.9975608235888721E-01 a       500     0    34     1     5
 -1.4906751386208978E+00 a       501     0    34     1     6
  3.0299948488385509E+00 a       502     0    34     1     7
  3.2056333346150319E+00 a       503     0    34     1     8
  1.5319529592905687E+00 a       504     0    34     1     9
  8.9569579626841223E-01 a       505     0    34     1    10
  1.4635014356276044E+00 a       506     0    34     1    11
 -8.1071013022207095E-01 a       507     0    34     1    12
  1.2656485961655628E-01 a       508     0    34     1    13
 -6.2117140517179892E-01 a       509     0    34     1    14
 -1.4149329735171716E+00 a       510     0    34     1    15
  8.4990216023213905E-01 a       511     0    35     1     1
 -2.2671427556741732E+00 a       512     0    35     1     2
  4.4958346416392896E-02 a       513     0    35     1     3
 -7.3964708316048233E-01 a       514     0    35     1     4
  2.2344373112626772E+00 a       515     0    35     1     5
  1.6671273105367199E+00 a       516     0    35     1     6
 -9.0010941545205003E-01 a       517     0    35     1     7
 -1.5046892702518613E+00 a       518     0    35     1     8
  2.7122310665562477E-01 a       519     0    35     1     9
 -3.8127293588747815E+00 a       520     0    35     1    10
  1.1522587183923161E+00 a       521     0    35     1    11
  6.1828552975461504E-01 a       522     0    35     1    12
 -3.3804385992131807E+00 a       523     0    35     1    13
 -5.0672497558230979E-03 a       524     0    35     1    14
 -1.3964258326777670E+00 a       525     0    35     1    15
  1.3987207404664481E+00 a       526     0    36     1     1
  1.5450958462712330E+00 a       527     0    36     1     2
  8.1701850412485222E-01 a       528     0    36     1     3
  5.6374262016369292E-01 a       529     0    36     1     4
  2.8532348624910941E-01 a       530     0    36     1     5
 -9.6603437967658534E-01 a       531     0    36     1     6
 -1.5104161633392268E+00 a       532     0    36     1     7
  1.0782283803405432E+00 a       533     0    36     1     8
  1.7942976985480352E+00 a       534     0    36     1     9
 -4.9028475620387180E-01 a       535     0    36     1    10
 -1.8481000661702520E+00 a       536     0    36     1    11
 -8.1448502754471197E-01 a       537     0    36     1    12
  7.6246544130687977E-01 a       538     0    36     1    13
  2.9203038113372243E-02 a       539     0    36     1    14
  4.1903193186060655E-01 a       540     0    36     1    15
 -1.3683246129209699E+00 a       541     0    37     1     1
  1.4180402196139514E+00 a       542     0    37     1     2
 -1.8355783114102924E+00 a       543     0    37     1     3
  1.7263884311780067E-01 a       544     0    37     1     4
 -2.1871118120888524E+00 a       545     0    37     1     5
  1.4780875994712164E+00 a       546     0    37     1     6
 -8.8908188330325499E-01 a       547     0    37     1     7
 -2.2704212452278592E+00 a       548     0    37     1     8
 -3.9765153555730568E+00 a       549     0    37     1     9
 -3.4208864670930361E-01 a       550     0    37     1    10
 -5.0760580022222135E-01 a       551     0    37     1    11
  2.7548700604210463E-01 a       552     0    37     1    12
 -1.6725888530443367E+00 a       553     0    37     1    13
 -1.3551303069781004E+00 a       554     0    37     1    14
  5.5378286275966956E-02 a       555     0    37     1    15
  2.1514018676723436E+00 a       556     0    38     1     1
  2.1393401448001823E+00 a       557     0    38     1     2
  5.5878545527408774E-01 a       558     0    38     1     3
  1.7071169460041129E+00 a       559     0    38     1     4
  1.8170582161227034E-01 a       560     0    38     1     5
 -3.0616478802272303E-02 a       561     0    38     1     6
  1.9657179044420277E+00 a       562     0    38     1     7
  9.2541132875878507E-01 a       563     0    38     1     8
 -3.1783412509482634E-03 a       564     0    38     1     9
  4.3661613286531326E-01 a       565     0    38     1    10
 -7.7275891534016738E-01 a       566     0    38     1    11
 -2.0680441551226944E-01 a       567     0    38     1    12
  1.1506795469062792E+00 a       568     0    38     1    13
 -2.7796789839321892E+00 a       569     0    38     1    14
 -1.9762959447816367E-01 a       570     0    38     1    15
 -9.0350752164562231E-01 a       571     0    39     1     1
  1.0288769911651743E+00 a       572     0    39     1     2
  4.9330168951622061E-01 a       573     0    39     1     3
  2.1641252533845532E+00 a       574     0    39     1     4
  1.2627073444887396E+00 a       575     0    39     1     5
  4.4482993979800195E-01 a       576     0    39     1     6
 -1.1785504832364770E+00 a       577     0    39     1     7
 -6.9101036158893792E-01 a       578     0    39     1     8
  7.3170991672308505E-01 a       579     0    39     1     9
  6.1628806453731211E-01 a       580     0    39     1    10
 -7.3929732754114086E-01 a       581     0    39     1    11
 -7.4994887604510674E-01 a       582     0    39     1    12
  2.7602433774173623E+00 a       583     0    39     1    13
 -3.4716043811239311E-01 a       584     0    39     1    14
  2.0048667965145501E+00 a       585     0    39     1    15
  4.4779738887684779E+00 a       586     0    40     1     1
 -1.2231273638874762E+00 a       587     0    40     1     2
 -1.3513696522622765E+00 a       588     0    40     1     3
 -8.2878607282506733E-01 a       589     0    40     1     4
 -2.5417743678374038E-01 a       590     0    40     1     5
 -3.5109033547599249E+00 a       591     0    40     1     6
 -2.6240760957338394E-01 a       592     0    40     1     7
  6.1705101315200017E-01 a       593     0    40     1     8
  4.6794033143198638E-01 a       594     0    40     1     9
 -3.3628402487815845E+00 a       595     0    40     1    10
 -5.4842566826485595E-01 a       596     0    40     1    11
 -7.2833559445993201E-01 a       597     0    40     1    12
 -1.3881695492310393E+00 a       598     0    40     1    13
 -6.2949115981263593E-01 a       599     0    40     1    14
  1.1184190520344499E+00 a       600     0    40     1    15
 -2.3702598165414566E+00 a       601     0    41     1     1
 -1.3509325972896833E+00 a       602     0    41     1     2
  3.7647951749941289E-01 a       603     0    41     1     3
  7.6148465187218872E-01 a       604     0    41     1     4
  1.3879608481686658E+00 a       605     0    41     1     5
  1.5908331405623048E+00 a       606     0    41     1     6
 -1.3383382969115090E+00 a       607     0    41     1     7
 -1.5190335664566266E+00 a       608     0    41     1     8
  2.8687426112429879E+00 a       609     0    41     1     9
  6.5069736331598960E-01 a       610     0    41     1    10
 -1.5758943410078476E-02 a       611     0    41     1    11
 -9.8511282383606258E-01 a       612     0    41     1    12
 -8.3099383223694356E-01 a       613     0    41     1    13
 -4.3165070705226588E-01 a       614     0    41     1    14
  1.8682575417870878E-01 a       615     0    41     1    15
 -1.1228328119920250E+00 a       616     0    42     1     1
 -2.1569773282270779E+00 a       617     0    42     1     2
  9.8710549520625607E-02 a       618     0    42     1     3
 -1.8176555513227730E-01 a       619     0    42     1     4
 -6.8718753072765160E-01 a       620     0    42     1     5
 -1.4281563005763254E+00 a       621     0    42     1     6
  3.1771154404863653E+00 a       622     0    42     1     7
 -1.1334388878627575E+00 a       623     0    42     1     8
 -2.0391289334108422E+00 a       624     0    42     1     9
  5.6889495261328182E-01 a       625     0    42     1    10
 -1.0214437649653190E+00 a       626     0    42     1    11
 -1.4966664626733657E+00 a       627     0    42     1    12
 -2.6264196402221368E-01 a       628     0    42     1    13
  1.3672995922573006E+00 a       629     0    42     1    14
 -5.9099188530102131E-01 a       630     0    42     1    15
  2.1208584577884904E+00 a       631     0    43     1     1
 -1.9230423822829681E+00 a       632     0    43     1     2
 -1.3498122549472735E+00 a       633     0    43     1     3
 -1.0832095504981605E+00 a       634     0    43     1     4
  1.3907528646897795E+00 a       635     0    43     1     5
 -1.2790593371747236E+00 a       636     0    43     1     6
  3.6443298048282918E-01 a       637     0    43     1     7
  4.3734985321212250E-01 a       638     0    43     1     8
 -4.4822328955931310E+00 a       639     0    43     1     9
 -3.5856973376119252E+00 a       640     0    43     1    10
 -1.4542175463096498E+00 a       641     0    43     1    11
 -1.8958384581699312E+00 a       642     0    43     1    12
 -1.1412739430739021E+00 a       643     0    43     1    13
  4.5104218514199421E-02 a       644     0    43     1    14
  2.6252683896489022E+00 a       645     0    43     1    15
 -1.9280056603673765E+00 a       646     0    44     1     1
  2.8282782347279785E+00 a       647     0    44     1     2
  1.3012963032325855E+00 a       648     0    44     1     3
 -1.0111481538648270E+00 a       649     0    44     1     4
 -9.3288270560801234E-01 a       650     0    44     1     5
  8.4469242548182180E-02 a       651     0    44     1     6
 -4.0560462239323181E-01 a       652     0    44     1     7
 -3.4658018800226859E-01 a       653     0    44     1     8
 -9.5942329039107344E-01 a       654     0    44     1     9
  9.6849249174609825E-02 a       655     0    44     1    10
  1.0975749945727271E+00 a       656     0    44     1    11
 -1.3958430495020495E+00 a       657     0    44     1    12
 -3.6319497419507774E-01 a       658     0    44     1    13
  2.3413743320201368E+00 a       659     0    44     1    14
  5.3079915561438806E-01 a       660     0    44     1    15
 -9.3953828192031263E-01 a       661     0    45     1     1
  8.9610370697568575E-01 a       662     0    45     1     2
  2.3549154586602734E+00 a       663     0    45     1     3
 -6.5248285874009637E-01 a       664     0    45     1     4
 -3.6958669308852427E-01 a       665     0    45     1     5
  1.3770764666753910E+00 a       666     0    45     1     6
 -4.2966947027205507E+00 a       667     0    45     1     7
 -3.1188698500322087E-01 a       668     0    45     1     8
  1.2890138490241430E+00 a       669     0    45     1     9
 -4.6522531017227664E-01 a       670     0    45     1    10
  9.0692262388417999E-01 a       671     0    45     1    11
  5.5474320685788836E-01 a       672     0    45     1    12
 -1.0434958166714645E+00 a       673     0    45     1    13
 -2.6013740872919491E+00 a       674     0    45     1    14
 -1.3198917513168212E-01 a       675     0    45     1    15
 -2.1003543129509669E-01 a       676     0    46     1     1
 -1.7889727358412068E-02 a       677     0    46     1     2
 -1.7011045325685905E+00 a       678     0    46     1     3
  5.5966656350150923E-01 a       679     0    46     1     4
 -9.3198384596378789E-02 a       680     0    46     1     5
  1.2928578923735432E+00 a       681     0    46     1     6
 -1.8128688937178743E+00 a       682     0    46     1     7
 -2.3857567824454380E+00 a       683     0    46     1     8
 -2.4360921849896395E+00 a       684     0    46     1     9
  2.5684453180732958E+00 a       685     0    46     1    10
  1.3835512335578406E+00 a       686     0    46     1    11
  2.3327368370130919E+00 a       687     0    46     1    12
  6.7205585603445517E-01 a       688     0    46     1    13
 -1.0337010650813903E+00 a       689     0    46     1    14
 -1.6874713661914047E+00 a       690     0    46     1    15
  3.0649223523585509E+00 a       691     0    47     1     1
  1.7337840321327673E+00 a       692     0    47     1     2
  1.5519810615686245E+00 a       693     0    47     1     3
  2.3160959787474666E-01 a       694     0    47     1     4
  1.1837853518663158E-01 a       695     0    47     1     5
 -1.1110350288813979E+00 a       696     0    47     1     6
  1.0609539712510894E+00 a       697     0    47     1     7
  1.6048804148442530E+00 a       698     0    47     1     8
  4.6577957620627763E-01 a       699     0    47     1     9
 -1.2779842694987575E+00 a       700     0    47     1    10
  4.7528052880808108E-02 a       701     0    47     1    11
  1.4403997169683684E+00 a       702     0    47     1    12
  7.8394214551578287E-02 a       703     0    47     1    13
 -2.2584105671781649E+00 a       704     0    47     1    14
 -3.4027477014177648E-01 a       705     0    47     1    15
 -7.2005423778347055E-01 a       706     0    48     1     1
 -5.2864203719957648E-01 a       707     0    48     1     2
 -1.8033381914496192E+00 a       708     0    48     1     3
  1.2080034233830850E+00 a       709     0    48     1     4
 -6.5082555653866225E-01 a       710     0    48     1     5
 -2.1259701924544658E+00 a       711     0    48     1     6
  3.5222961602629921E+00 a       712     0    48     1     7
  4.2278618148007716E+00 a       713     0    48     1     8
  3.6261934038751736E-01 a       714     0    48     1     9
 -1.0038154137287680E+00 a       715     0    48     1    10
  2.5878271750146005E+00 a       716     0    48     1    11
 -2.0825988905147899E+00 a       717     0    48     1    12
  2.4606456103447609E+00 a       718     0    48     1    13
  1.9625920951634629E-01 a       719     0    48     1    14
 -1.9278204576284064E-01 a       720     0    48     1    15
 -1.7113545494052529E+00 a       721     0    49     1     1
 -1.3191484761927921E+00 a       722     0    49     1     2
 -5.0172793861541587E-01 a       723     0    49     1     3
 -4.4015365999255462E-01 a       724     0    49     1     4
  2.2124780966265569E+00 a       725     0    49     1     5
  1.0322784805550349E+00 a       726     0    49     1     6
  7.0892251095658984E-02 a       727     0    49     1     7
 -1.9226845986236645E+00 a       728     0    49     1     8
 -5.4360819855323805E-01 a       729     0    49     1     9
  3.9488873098096450E-01 a       730     0    49     1    10
  7.4406559456664301E-01 a       731     0    49     1    11
 -3.7318816878983535E-01 a       732     0    49     1    12
  3.2845633511297114E+00 a       733     0    49     1    13
 -4.3007344502068823E-01 a       734     0    49     1    14
 -9.4230132250617082E-01 a       735     0    49     1    15
  7.8108415763027716E-01 a       736     0    50     1     1
 -1.1825911789144421E+00 a       737     0    50     1     2
  2.5623130866934729E+00 a       738     0    50     1     3
  1.4736113325525355E-04 a       739     0    50     1     4
  1.2422912069283045E+00 a       740     0    50     1     5
 -4.6598090455474965E-02 a       741     0    50     1     6
  3.4381616045173230E-01 a       742     0    50     1     7
  3.0941069040610909E+00 a       743     0    50     1     8
  1.7751540365077672E+00 a       744     0    50     1     9
  1.0523404410919736E-01 a       745     0    50     1    10
 -1.9005318330894307E+00 a       746     0    50     1    11
  4.9595896672695328E-01 a       747     0    50     1    12
 -4.7601785935547938E-02 a       748     0    50     1    13
  8.4920208911657663E-02 a       749     0    50     1    14
  5.6268414346612783E-01 a       750     0    50     1    15
  6.1498776159561352E-01 a       751     0    51     1     1
 -1.3356990042011800E+00 a       752     0    51     1     2
 -3.1217088135026123E+00 a       753     0    51     1     3
  1.7181898415238797E+00 a       754     0    51     1     4
  2.8841793825105683E-01 a       755     0    51     1     5
 -1.0481438209460425E+00 a       756     0    51     1     6
  2.0922949491645144E+00 a       757     0    51     1     7
  1.2128208538664316E+00 a       758     0    51     1     8
 -2.2128920543747085E-01 a       759     0    51     1     9
 -2.6999277923418724E-01 a       760     0    51     1    10
  5.0604819437344872E-01 a       761     0    51     1    11
 -1.2463714026977346E+00 a       762     0    51     1    12
 -3.9109694329656758E-01 a       763     0    51     1    13
 -2.9964886895471271E-01 a       764     0    51     1    14
  1.2045955113480930E-01 a       765     0    51     1    15
  2.9380995505829053E+00 a       766     0    52     1     1
  4.2447001048024580E-01 a       767     0    52     1     2
  6.7965156274437699E-01 a       768     0    52     1     3
  1.4217333272385471E+00 a       769     0    52     1     4
 -1.0626068018055725E+00 a       770     0    52     1     5
 -6.4441202447567972E-02 a       771     0    52     1     6
 -5.0126942894436022E-01 a       772     0    52     1     7
  9.5586025911247696E-01 a       773     0    52     1     8
  1.1524283309950367E+00 a       774     0    52     1     9
  1.1452212937810820E+00 a       775     0    52     1    10
  3.5899408599340190E+00 a       776     0    52     1    11
  1.0080428249439641E+00 a       777     0    52     1    12
  1.0430430474963637E-01 a       778     0    52     1    13
 -5.6202528576186683E-01 a       779     0    52     1    14
 -1.9997068739502155E+00 a       780     0    52     1    15
 -7.4329300154396327E-01 a       781     0    53     1     1
  9.0248205905847012E-01 a       782     0    53     1     2
 -1.8952197472203631E+00 a       783     0    53     1     3
 -1.0554688949203848E+00 a       784     0    53     1     4
  1.8834536459206348E+00 a       785     0    53     1     5
 -1.3617894151077303E-01 a       786     0    53     1     6
 -5.9607874925953014E-02 a       787     0    53     1     7
 -1.5934137574301846E-01 a       788     0    53     1     8
 -3.9730015658376455E-01 a       789     0    53     1     9
 -7.5009586912620344E-02 a       790     0    53     1    10
 -5.4968949511959986E-01 a       791     0    53     1    11
  3.9792412825416362E-01 a       792     0    53     1    12
 -1.3632678811806427E+00 a       793     0    53     1    13
  8.7625034305070482E-01 a       794     0    53     1    14
  1.0453177676593286E+00 a       795     0    53     1    15
 -1.6936759888091865E-01 a       796     0    54     1     1
 -1.3224658040236754E+00 a       797     0    54     1     2
 -1.6687618802058339E+00 a       798     0    54     1     3
 -1.3863788343726713E+00 a       799     0    54     1     4
  1.2420867368687991E+00 a       800     0    54     1     5
  1.1124162844183703E+00 a       801     0    54     1     6
  6.9441891864358030E-01 a       802     0    54     1     7
 -2.8160828349680793E+00 a       803     0    54     1     8
  8.8364693187081278E-01 a       804     0    54     1     9
  1.5414847696168457E+00 a       805     0    54     1    10
  2.8107238050065066E+00 a       806     0    54     1    11
  2.2679666412478179E+00 a       807     0    54     1    12
 -1.8321600118741397E+00 a       808     0    54     1    13
  1.4518182782460449E+00 a       809     0    54     1    14
 -1.4682650561533790E+00 a       810     0    54     1    15
  8.8960644165468461E-01 a       811     0    55     1     1
 -3.5502603623497248E-01 a       812     0    55     1     2
  4.7527839044737813E-01 a       813     0    55     1     3
  4.9908777340898147E-01 a       814     0    55     1     4
  5.0388021820699180E-01 a       815     0    55     1     5
 -8.6369078100539431E-01 a       816     0    55     1     6
 -6.1047961199283640E-01 a       817     0    55     1     7
 -2.2531712166963844E-01 a       818     0    55     1     8
 -3.3297606241796629E-01 a       819     0    55     1     9
  1.9426925049454611E+00 a       820     0    55     1    10
 -1.6017391773609362E+00 a       821     0    55     1    11
  2.6023903040321570E-02 a       822     0    55     1    12
 -9.1922986040767402E-02 a       823     0    55     1    13
 -1.3937290823864545E+00 a       824     0    55     1    14
  2.0389485977430036E-01 a       825     0    55     1    15
 -1.7362523661084091E+00 a       826     0    56     1     1
  1.6869217666126131E+00 a       827     0    56     1     2
  1.5502847267593791E+00 a       828     0    56     1     3
 -1.0881609274635415E+00 a       829     0    56     1     4
  2.5321282095588732E-01 a       830     0    56     1     5
 -3.6353388771330214E-01 a       831     0    56     1     6
 -4.5406612159967458E-01 a       832     0    56     1     7
  1.6699488882090618E-01 a       833     0    56     1     8
  4.0902599651627469E-01 a       834     0    56     1     9
 -3.5064297921788579E-01 a       835     0    56     1    10
  2.5287809726111581E+00 a       836     0    56     1    11
 -4.4605712529561825E-01 a       837     0    56     1    12
  7.4957061117132728E-01 a       838     0    56     1    13
  1.2059269934615207E+00 a       839     0    56     1    14
  3.1804853579701936E-01 a       840     0    56     1    15
  2.9328269258770270E+00 a       841     0    57     1     1
 -1.5521469307753490E+00 a       842     0    57     1     2
 -4.4868014430901093E+00 a       843     0    57     1     3
 -5.3391343842088679E-01 a       844     0    57     1     4
 -1.6369999027644480E+00 a       845     0    57     1     5
  1.5688213407054761E+00 a       846     0    57     1     6
 -1.2052112389031757E+00 a       847     0    57     1     7
 -8.2550399757358117E-01 a       848     0    57     1     8
  1.5251000281230622E+00 a       849     0    57     1     9
 -2.2607442805353495E+00 a       850     0    57     1    10
  4.2983801048631409E-01 a       851     0    57     1    11
 -8.4981953993334702E-01 a       852     0    57     1    12
  5.5788428713997784E-01 a       853     0    57     1    13
 -1.1817706975678672E+00 a       854     0    57     1    14
 -1.5243684162130959E+00 a       855     0    57     1    15
 -4.2078421399908383E-01 a       856     0    58     1     1
  1.1756426285569179E+00 a       857     0    58     1     2
 -1.5797869108971521E+00 a       858     0    58     1     3
 -8.4516722321974533E-02 a       859     0    58     1     4
  1.0294567233905600E+00 a       860     0    58     1     5
 -6.5478499780981902E-01 a       861     0    58     1     6
 -9.7237105184134243E-01 a       862     0    58     1     7
  1.6061723493477993E+00 a       863     0    58     1     8
 -2.4562670815962275E-02 a       864     0    58     1     9
  8.4187545703175681E-01 a       865     0    58     1    10
 -5.0370892536939849E-01 a       866     0    58     1    11
  8.8275007962492180E-01 a       867     0    58     1    12
  2.1603825738193416E-03 a       868     0    58     1    13
 -2.4733113032715309E-01 a       869     0    58     1    14
 -1.7764847175436280E+00 a       870     0    58     1    15
  1.0404744744456313E+00 a       871     0    59     1     1
 -8.5842768204768927E-01 a       872     0    59     1     2
  2.3094905870422915E+00 a       873     0    59     1     3
 -1.4225410249242454E+00 a       874     0    59     1     4
 -6.9387420369674513E-01 a       875     0    59     1     5
 -9.4860335056930867E-01 a       876     0    59     1     6
  8.6127830319644194E-01 a       877     0    59     1     7
  7.5097954514697252E-01 a       878     0    59     1     8
 -1.4436338431221214E+00 a       879     0    59     1     9
  5.3919893982203126E-01 a       880     0    59     1    10
 -1.2648946089446195E-01 a       881     0    59     1    11
  1.9537060471254835E+00 a       882     0    59     1    12
  3.2610652673895579E-01 a       883     0    59     1    13
  2.4504844510186006E+00 a       884     0    59     1    14
  5.9111934141843603E-01 a       885     0    59     1    15
  2.6570284126566790E+00 a       886     0    60     1     1
  7.1355479446590653E-01 a       887     0    60     1     2
 -4.9832813378520530E-01 a       888     0    60     1     3
 -8.5592801109672423E-01 a       889     0    60     1     4
  2.5117538900040748E-01 a       890     0    60     1     5
  1.7574031748706659E-01 a       891     0    60     1     6
  1.4167946571609025E+00 a       892     0    60     1     7
  1.5625545799120411E+00 a       893     0    60     1     8
  2.1820106783166668E+00 a       894     0    60     1     9
 -1.8507715539134315E+00 a       895     0    60     1    10
  1.2220266363905370E+00 a       896     0    60     1    11
 -2.1081717990137943E+00 a       897     0    60     1    12
 -1.3040930672939313E+00 a       898     0    60     1    13
 -1.3164421085462628E+00 a       899     0    60     1    14
 -1.5269737930228985E-01 a       900     0    60     1    15
  1.5696896218584271E+00 a       901     0    61     1     1
  2.6600537116207473E-01 a       902     0    61     1     2
 -8.7066024281243926E-01 a       903     0    61     1     3
  1.5873697741178325E+00 a       904     0    61     1     4
  3.8862426914277515E-01 a       905     0    61     1     5
 -1.8316782193629770E+00 a       906     0    61     1     6
  2.6235270994932058E+00 a       907     0    61     1     7
 -1.9946324431289078E+00 a       908     0    61     1     8
 -2.7830491555258239E+00 a       909     0    61     1     9
  1.6886194553316840E+00 a       910     0    61     1    10
 -1.0605423949087691E+00 a       911     0    61     1    11
 -3.0356570626765428E-01 a       912     0    61     1    12
 -2.5990691366667606E+00 a       913     0    61     1    13
  7.4714735207688654E-01 a       914     0    61     1    14
 -2.1582250977059143E+00 a       915     0    61     1    15
 -9.7498797220152367E-01 a       916     0    62     1     1
  7.7286160749970656E-01 a       917     0    62     1     2
 -3.2393945919199973E+00 a       918     0    62     1     3
 -8.5175792788840488E-01 a       919     0    62     1     4
 -2.4971782224658570E-01 a       920     0    62     1     5
 -2.6792091402788404E-01 a       921     0    62     1     6
 -5.8793933286842737E-01 a       922     0    62     1     7
 -2.1381302392277846E+00 a       923     0    62     1     8
 -8.2962139976101912E-01 a       924     0    62     1     9
  5.0190618406536602E-01 a       925     0    62     1    10
  9.1846620313076333E-02 a       926     0    62     1    11
  1.1844672759259585E+00 a       927     0    62     1    12
  1.9004469401507345E+00 a       928     0    62     1    13
 -4.5431447144187964E-01 a       929     0    62     1    14
  2.8134409871849795E+00 a       930     0    62     1    15
 -1.7485152569843272E+00 a       931     0    63     1     1
  5.0112117785227017E-01 a       932     0    63     1     2
  1.0117116629851106E+00 a       933     0    63     1     3
 -5.0864448674555141E-01 a       934     0    63     1     4
 -7.6504614755401490E-01 a       935     0    63     1     5
 -2.9024342011011868E+00 a       936     0    63     1     6
  6.8462123071444303E-01 a       937     0    63     1     7
  2.9546150026183744E+00 a       938     0    63     1     8
 -2.3338716674456642E-01 a       939     0    63     1     9
 -9.9054460835330038E-01 a       940     0    63     1    10
  7.2567565985563076E-01 a       941     0    63     1    11
  4.8579682121899481E-01 a       942     0    63     1    12
 -2.8501041450729261E+00 a       943     0    63     1    13
  3.5722969698936113E+00 a       944     0    63     1    14
  1.2914671020376312E+00 a       945     0    63     1    15
 -1.6021829915584991E+00 a       946     0    64     1     1
  2.2142785764736064E+00 a       947     0    64     1     2
  2.1452575168436190E+00 a       948     0    64     1     3
  3.3964547306736650E+00 a       949     0    64     1     4
  7.1075743747353659E-01 a       950     0    64     1     5
  1.9744948024461079E-01 a       951     0    64     1     6
  3.8962584185881322E-01 a       952     0    64     1     7
  4.8019111187813956E-01 a       953     0    64     1     8
 -1.2948296562443713E+00 a       954     0    64     1     9
  1.1473036289550373E+00 a       955     0    64     1    10
 -1.1902452390513683E+00 a       956     0    64     1    11
 -1.6573258010280689E-01 a       957     0    64     1    12
  3.9907273992897538E+00 a       958     0    64     1    13
  4.0896090195840556E-01 a       959     0    64     1    14
  1.6764407747890067E+00 a       960     0    64     1    15
  6.1544253956049755E-01 a       961     0    65     1     1
  1.6399153387339465E+00 a       962     0    65     1     2
  1.2674392385512639E-01 a       963     0    65     1     3
  2.7659507805299871E-01 a       964     0    65     1     4
 -4.5532991647022697E-01 a       965     0    65     1     5
  3.3706520389228811E-01 a       966     0    65     1     6
  2.8089864938586201E-01 a       967     0    65     1     7
 -1.9662873486866808E-01 a       968     0    65     1     8
 -5.6583864667524608E-01 a       969     0    65     1     9
 -4.6166436002398514E-01 a       970     0    65     1    10
 -2.0313739342342672E+00 a       971     0    65     1    11
 -3.6174750622434476E-01 a       972     0    65     1    12
  1.5806018970297855E+00 a       973     0    65     1    13
 -1.0183190950790795E+00 a       974     0    65     1    14
 -6.0742426495105117E-01 a       975     0    65     1    15
 -2.8227077847018722E+00 a       976     0    66     1     1
 -1.2720115672767549E+00 a       977     0    66     1     2
  7.9105516864495740E-01 a       978     0    66     1     3
 -1.4496788513206411E+00 a       979     0    66     1     4
  4.0874162013540394E-01 a       980     0    66     1     5
  2.4600558265108674E+00 a       981     0    66     1     6
  1.0567537479638844E+00 a       982     0    66     1     7
 -2.4961520569303310E+00 a       983     0    66     1     8
  8.0296234751701179E-01 a       984     0    66     1     9
  2.9364995779032772E+00 a       985     0    66     1    10
  1.9339807569757383E+00 a       986     0    66     1    11
  1.0986919800568733E+00 a       987     0    66     1    12
 -1.9057092268670286E+00 a       988     0    66     1    13
 -2.2660852894984700E-02 a       989     0    66     1    14
 -2.6825900003897540E-01 a       990     0    66     1    15
  2.0453651788255440E+00 a       991     0    67     1     1
  9.3880501093248614E-01 a       992     0    67     1     2
  4.8152980618092950E-01 a       993     0    67     1     3
  3.4253770321689553E-01 a       994     0    67     1     4
  6.9750726158304355E-01 a       995     0    67     1     5
 -1.5888891352316115E+00 a       996     0    67     1     6
  1.3860726451679195E+00 a       997     0    67     1     7
  8.0280453525605311E-01 a       998     0    67     1     8
 -1.3083344612541117E+00 a       999     0    67     1     9
  4.2764634830915782E-01 a      1000     0    67     1    10
 -2.1416610702277703E+00 a      1001     0    67     1    11
 -3.3276908702290525E-02 a      1002     0    67     1    12
 -4.7820903719635799E-01 a      1003     0    67     1    13
 -2.5303314571820223E+00 a      1004     0    67     1    14
 -5.6308086043506800E-01 a      1005     0    67     1    15
 -2.1440670958702119E+00 a      1006     0    68     1     1
  4.8849049538785505E-01 a      1007     0    68     1     2
  8.0518925421271581E-01 a      1008     0    68     1     3
 -9.4712301270064669E-01 a      1009     0    68     1     4
  1.1478059821377924E+00 a      1010     0    68     1     5
  1.5188902180694966E-01 a      1011     0    68     1     6
 -5.4231221373120619E-01 a      1012     0    68     1     7
 -9.5741279114666344E-02 a      1013     0    68     1     8
  5.5177902329782424E-01 a      1014     0    68     1     9
  8.3052118043927287E-02 a      1015     0    68     1    10
  2.6291424143268007E+00 a      1016     0    68     1    11
 -4.8541587614540144E-01 a      1017     0    68     1    12
  1.0742309516411447E-01 a      1018     0    68     1    13
  2.3229110638463899E+00 a      1019     0    68     1    14
  2.5867934768800144E-01 a      1020     0    68     1    15
  8.2360103507481219E-01 a      1021     0    69     1     1
 -9.0637877230912256E-01 a      1022     0    69     1     2
 -2.4901535499726011E+00 a      1023     0    69     1     3
  6.1223611890884844E-01 a      1024     0    69     1     4
 -2.2454653410291585E+00 a      1025     0    69     1     5
  2.5096516884487712E+00 a      1026     0    69     1     6
 -1.3360061909216767E+00 a      1027     0    69     1     7
 -1.2813186374265666E+00 a      1028     0    69     1     8
  3.4446059006532179E-02 a      1029     0    69     1     9
 -1.7669334241768124E+00 a      1030     0    69     1    10
  1.2970829794475036E+00 a      1031     0    69     1    11
 -1.5921274047676117E+00 a      1032     0    69     1    12
  1.5281995099000971E+00 a      1033     0    69     1    13
 -8.2288945136835356E-01 a      1034     0    69     1    14
  5.0662378372810435E-01 a      1035     0    69     1    15
  8.4169238942705482E-01 a      1036     0    70     1     1
 -1.3185201234504962E-01 a      1037     0    70     1     2
 -1.8745308378108596E+00 a      1038     0    70     1     3
 -7.1138535885713650E-01 a      1039     0    70     1     4
 -1.2290191904535466E-01 a      1040     0    70     1     5
  5.4603648884769729E-01 a      1041     0    70     1     6
 -1.9287832916282185E-01 a      1042     0    70     1     7
  7.9896307837071379E-01 a      1043     0    70     1     8
  1.0903427860854586E+00 a      1044     0    70     1     9
  1.1361173629143999E+00 a      1045     0    70     1    10
  1.0880320963636447E-01 a      1046     0    70     1    11
 -6.9227527693442092E-01 a      1047     0    70     1    12
 -1.9119755055610813E-01 a      1048     0    70     1    13
 -2.3804766116304182E-01 a      1049     0    70     1    14
 -1.1341034554457836E+00 a      1050     0    70     1    15
  8.8460683892312153E-01 a      1051     0    71     1     1
 -2.1673671960163961E-02 a      1052     0    71     1     2
  1.9913419695523396E+00 a      1053     0    71     1     3
 -1.6100718895625339E+00 a      1054     0    71     1     4
 -6.1721705951477157E-01 a      1055     0    71     1     5
  5.2344570434039817E-01 a      1056     0    71     1     6
  6.6202251127217171E-02 a      1057     0    71     1     7
  1.5468046864048279E+00 a      1058     0    71     1     8
 -7.7248881994547103E-01 a      1059     0    71     1     9
  2.8439569755376148E-01 a      1060     0    71     1    10
  1.3297975377774240E-01 a      1061     0    71     1    11
  6.5846859159081039E-01 a      1062     0    71     1    12
  4.6622795550041934E-01 a      1063     0    71     1    13
  4.6723299602651718E+00 a      1064     0    71     1    14
  7.4771224802463554E-01 a      1065     0    71     1    15
 -1.5673204782731356E+00 a      1066     0    72     1     1
 -8.9248278709258277E-01 a      1067     0    72     1     2
  9.2783434821083077E-01 a      1068     0    72     1     3
  6.3052134279384220E-01 a      1069     0    72     1     4
  2.6415669457533503E-01 a      1070     0    72     1     5
  1.4459962133220167E-01 a      1071     0    72     1     6
  1.2470720052379798E+00 a      1072     0    72     1     7
 -7.4263659009890570E-01 a      1073     0    72     1     8
  3.7700903530528718E-01 a      1074     0    72     1     9
 -9.5680561514203732E-02 a      1075     0    72     1    10
  1.2740747770258503E+00 a      1076     0    72     1    11
 -1.1874077950575772E+00 a      1077     0    72     1    12
  1.4976932310747312E-01 a      1078     0    72     1    13
 -1.2562402142109828E+00 a      1079     0    72     1    14
  8.9356393207997342E-01 a      1080     0    72     1    15
 -2.9830343307947371E-01 a      1081     0    73     1     1
 -6.2812116674312857E-01 a      1082     0    73     1     2
 -4.8293014480476715E-01 a      1083     0    73     1     3
 -1.1802201013335564E-02 a      1084     0    73     1     4
 -7.8833407021138768E-01 a      1085     0    73     1     5
  2.1629870325014947E-01 a      1086     0    73     1     6
  2.0489571670912512E+00 a      1087     0    73     1     7
 -6.8432261072507372E-01 a      1088     0    73     1     8
 -2.6219911962643563E+00 a      1089     0    73     1     9
 -5.9876059037733420E-01 a      1090     0    73     1    10
 -3.5973703492559593E-02 a      1091     0    73     1    11
 -4.3853456469448626E-01 a      1092     0    73     1    12
 -2.4131492892781070E+00 a      1093     0    73     1    13
 -3.4406635140197306E-01 a      1094     0    73     1    14
  6.4681653688770580E-01 a      1095     0    73     1    15
  9.7066075418755593E-01 a      1096     0    74     1     1
  4.3151054262847799E-01 a      1097     0    74     1     2
 -1.5558769852020933E+00 a      1098     0    74     1     3
 -5.5025057632573804E-01 a      1099     0    74     1     4
  8.3372127297372152E-03 a      1100     0    74     1     5
 -4.9815597061710520E-01 a      1101     0    74     1     6
 -1.0581578590279639E-01 a      1102     0    74     1     7
 -2.6648669907422433E+00 a      1103     0    74     1     8
 -4.6862048157472352E-01 a      1104     0    74     1     9
  7.5315707254631004E-01 a      1105     0    74     1    10
  7.3470172599130978E-01 a      1106     0    74     1    11
  9.9688407539471058E-01 a      1107     0    74     1    12
 -8.0872023294856210E-01 a      1108     0    74     1    13
  8.8097794238907845E-01 a      1109     0    74     1    14
  6.3284493535613906E-01 a      1110     0    74     1    15
 -1.6220976052132996E+00 a      1111     0    75     1     1
  2.3656511663551831E+00 a      1112     0    75     1     2
  3.0453153111804996E+00 a      1113     0    75     1     3
 -5.5020339920957073E-01 a      1114     0    75     1     4
 -1.5255221358971509E+00 a      1115     0    75     1     5
 -2.1820311447095389E+00 a      1116     0    75     1     6
  4.0766753030719984E+00 a      1117     0    75     1     7
  1.5428081960685429E+00 a      1118     0    75     1     8
 -1.8555883509394768E+00 a      1119     0    75     1     9
 -1.5578358713619327E+00 a      1120     0    75     1    10
  1.7794842496021306E+00 a      1121     0    75     1    11
 -9.3478185259308633E-01 a      1122     0    75     1    12
 -2.4268607527290778E+00 a      1123     0    75     1    13
 -5.4693910242468557E-01 a      1124     0    75     1    14
  1.3800178487542474E+00 a      1125     0    75     1    15
  3.1803916484951129E-02 a      1126     0    76     1     1
  2.0743055150100371E+00 a      1127     0    76     1     2
  2.4482852344958141E+00 a      1128     0    76     1     3
  3.0783388576291313E+00 a      1129     0    76     1     4
 -1.2831250750479006E+00 a      1130     0    76     1     5
  1.7435523424234986E-01 a      1131     0    76     1     6
  1.4818111437934365E+00 a      1132     0    76     1     7
  2.2714825589845642E+00 a      1133     0    76     1     8
  5.8422323909154739E-01 a      1134     0    76     1     9
 -3.9494781074512608E+00 a      1135     0    76     1    10
 -1.5237235097806037E-01 a      1136     0    76     1    11
  1.0321142581075377E-01 a      1137     0    76     1    12
  9.1364083843337340E-01 a      1138     0    76     1    13
  1.2034525165870618E+00 a      1139     0    76     1    14
  2.9963256513263752E+00 a      1140     0    76     1    15
  4.6974772287347466E-01 a      1141     0    77     1     1
 -1.4784859594456672E+00 a      1142     0    77     1     2
  1.0161420353884754E+00 a      1143     0    77     1     3
  6.3850677614987916E-01 a      1144     0    77     1     4
 -5.4129358767309022E-01 a      1145     0    77     1     5
  5.0258383009342222E-01 a      1146     0    77     1     6
  1.0814003173570033E+00 a      1147     0    77     1     7
  1.9908751107381371E+00 a      1148     0    77     1     8
  3.5313964069450904E-01 a      1149     0    77     1     9
 -1.9480632246167862E+00 a      1150     0    77     1    10
 -3.4101036487602807E-02 a      1151     0    77     1    11
 -1.4220876102104569E+00 a      1152     0    77     1    12
  1.4356701932847873E+00 a      1153     0    77     1    13
 -3.8451904431026923E-01 a      1154     0    77     1    14
 -4.0087726428364712E-01 a      1155     0    77     1    15
 -2.2411453407524804E+00 a      1156     0    78     1     1
 -7.5034471233845976E-02 a      1157     0    78     1     2
  2.5991009901969155E+00 a      1158     0    78     1     3
 -1.0434951085882687E+00 a      1159     0    78     1     4
  2.1767075547998433E+00 a      1160     0    78     1     5
  1.8152476497496279E+00 a      1161     0    78     1     6
  1.8630946105102302E+00 a      1162     0    78     1     7
 -3.8868703263574953E+00 a      1163     0    78     1     8
 -6.9031268733631812E-01 a      1164     0    78     1     9
  3.1537069601274936E+00 a      1165     0    78     1    10
  6.8601863100336047E-01 a      1166     0    78     1    11
  2.5817103096946874E+00 a      1167     0    78     1    12
 -2.4905513811735189E+00 a      1168     0    78     1    13
 -4.4721766831918961E+00 a      1169     0    78     1    14
  8.9671217410488557E-01 a      1170     0    78     1    15
  3.2637450075038581E+00 a      1171     0    79     1     1
  3.7422718960762791E+00 a      1172     0    79     1     2
  5.5516241607522261E+00 a      1173     0    79     1     3
 -8.9050985595563970E-01 a      1174     0    79     1     4
 -9.1882839930121174E-01 a      1175     0    79     1     5
 -2.3059108663339440E+00 a      1176     0    79     1     6
  3.9122290439839702E-01 a      1177     0    79     1     7
  7.8344003506931514E-01 a      1178     0    79     1     8
  1.3472965725059174E+00 a      1179     0    79     1     9
 -3.4194072761626328E+00 a      1180     0    79     1    10
 -3.0130589165139381E+00 a      1181     0    79     1    11
 -1.4101200947688248E+00 a      1182     0    79     1    12
 -1.9189790973924088E+00 a      1183     0    79     1    13
  2.3417354148018021E-01 a      1184     0    79     1    14
  1.5762042222785437E+00 a      1185     0    79     1    15
 -2.8275523538224685E+00 a      1186     0    80     1     1
 -2.4378702485642405E+00 a      1187     0    80     1     2
  1.7698745041284858E+00 a      1188     0    80     1     3
  8.7852670852870041E-01 a      1189     0    80     1     4
 -4.6014472652768956E-01 a      1190     0    80     1     5
 -6.9418877292592907E-01 a      1191     0    80     1     6
 -1.2962300782736056E+00 a      1192     0    80     1     7
 -2.8704149355520142E-01 a      1193     0    80     1     8
  1.6086557685509952E+00 a      1194     0    80     1     9
 -1.8285552317469438E+00 a      1195     0    80     1    10
  3.6971201670480545E+00 a      1196     0    80     1    11
 -5.9437636532639426E-01 a      1197     0    80     1    12
  3.5171957690354798E+00 a      1198     0    80     1    13
 -9.7713638220658305E-01 a      1199     0    80     1    14
  2.6016408275202738E+00 a      1200     0    80     1    15
  8.0376611683532773E-02 a      1201     0    81     1     1
 -1.1764433298264019E+00 a      1202     0    81     1     2
  1.2264928110779187E+00 a      1203     0    81     1     3
  2.6341265522493151E-01 a      1204     0    81     1     4
 -1.4447306396049169E+00 a      1205     0    81     1     5
  1.9543141584552335E+00 a      1206     0    81     1     6
  8.0812369747670065E-01 a      1207     0    81     1     7
  2.1832768593934668E+00 a      1208     0    81     1     8
 -1.8376575570280278E+00 a      1209     0    81     1     9
 -1.0347810262761810E+00 a      1210     0    81     1    10
 -1.6882707180086818E+00 a      1211     0    81     1    11
 -9.7483644034974759E-01 a      1212     0    81     1    12
  1.4471902479186999E-01 a      1213     0    81     1    13
  8.7145116615159179E-01 a      1214     0    81     1    14
  5.0912862598742903E-01 a      1215     0    81     1    15
 -8.9974206251925737E-01 a      1216     0    82     1     1
 -5.8183879399077887E-01 a      1217     0    82     1     2
  1.4289956202653933E+00 a      1218     0    82     1     3
  1.0098753079149991E-01 a      1219     0    82     1     4
  3.9034896220081170E+00 a      1220     0    82     1     5
 -3.8939281106484097E-01 a      1221     0    82     1     6
 -1.8717766579003252E+00 a      1222     0    82     1     7
 -3.6766321365243737E+00 a      1223     0    82     1     8
 -4.6262922032341197E-01 a      1224     0    82     1     9
  5.1771821840695562E+00 a      1225     0    82     1    10
 -2.1440993544844955E-01 a      1226     0    82     1    11
 -1.1565151574272450E+00 a      1227     0    82     1    12
  2.5678247578856568E+00 a      1228     0    82     1    13
 -4.9097114317920516E+00 a      1229     0    82     1    14
  1.6121409318382500E+00 a      1230     0    82     1    15
 -3.6545209227750974E+00 a      1231     0    83     1     1
 -7.5260803955694094E-02 a      1232     0    83     1     2
 -1.7942559641404967E+00 a      1233     0    83     1     3
  9.7809933176348585E-01 a      1234     0    83     1     4
 -8.3962584415874786E-01 a      1235     0    83     1     5
  1.5703872384350825E+00 a      1236     0    83     1     6
 -1.1707851725282354E+00 a      1237     0    83     1     7
 -8.0559624695290244E-01 a      1238     0    83     1     8
  1.1231043446634830E+00 a      1239     0    83     1     9
 -5.9458289461635372E-01 a      1240     0    83     1    10
 -1.9011229513515122E+00 a      1241     0    83     1    11
  6.2420282865486321E-01 a      1242     0    83     1    12
 -2.1585399021498053E-01 a      1243     0    83     1    13
  1.5830703827497157E+00 a      1244     0    83     1    14
  9.1505433860711871E-01 a      1245     0    83     1    15
 -2.6255198197030949E+00 a      1246     0    84     1     1
 -2.0860562731931651E+00 a      1247     0    84     1     2
 -2.3159687983451036E+00 a      1248     0    84     1     3
  5.1885673723343095E-01 a      1249     0    84     1     4
 -7.9937430100626272E-01 a      1250     0    84     1     5
  1.0117687875717099E-01 a      1251     0    84     1     6
 -2.7854394493987900E-01 a      1252     0    84     1     7
 -4.3306071584859790E-01 a      1253     0    84     1     8
 -3.4117025912302439E+00 a      1254     0    84     1     9
 -3.9738380542041207E-01 a      1255     0    84     1    10
 -1.4966585196014077E+00 a      1256     0    84     1    11
  1.6580040535087333E+00 a      1257     0    84     1    12
  1.3222479918353454E+00 a      1258     0    84     1    13
  4.4615813751991649E+00 a      1259     0    84     1    14
  4.3198795647432531E-01 a      1260     0    84     1    15
 -1.2651020959140362E+00 a      1261     0    85     1     1
  2.9582194633425296E-01 a      1262     0    85     1     2
  2.0633669596818773E+00 a      1263     0    85     1     3
  1.9045879041497238E+00 a      1264     0    85     1     4
  1.5389509579203264E+00 a      1265     0    85     1     5
  1.4723869503667040E+00 a      1266     0    85     1     6
 -1.8724819160441424E+00 a      1267     0    85     1     7
  6.7483669208755659E-01 a      1268     0    85     1     8
  4.0036099755312193E+00 a      1269     0    85     1     9
 -7.0773897060258573E-01 a      1270     0    85     1    10
  2.1550837077657219E+00 a      1271     0    85     1    11
  1.2659479285454158E+00 a      1272     0    85     1    12
  8.2478360890973796E+00 a      1273     0    85     1    13
  1.0037208920349441E+00 a      1274     0    85     1    14
  3.8711684121188861E-01 a      1275     0    85     1    15
  1.3093041067652487E+00 a      1276     0    86     1     1
 -2.3056274688402607E+00 a      1277     0    86     1     2
  1.3286880737363638E+00 a      1278     0    86     1     3
  9.5792893374890509E-01 a      1279     0    86     1     4
 -1.5584030733154508E-01 a      1280     0    86     1     5
 -1.2478742593231220E+00 a      1281     0    86     1     6
  1.7126298214185887E+00 a      1282     0    86     1     7
  2.8202993564093952E+00 a      1283     0    86     1     8
  2.0266926943811834E+00 a      1284     0    86     1     9
 -4.6830023563134437E-01 a      1285     0    86     1    10
  6.6539161652742485E-01 a      1286     0    86     1    11
 -8.3208537130232141E-01 a      1287     0    86     1    12
  6.9626583878128756E-01 a      1288     0    86     1    13
  1.1987002221437300E+00 a      1289     0    86     1    14
 -2.2485934562075336E+00 a      1290     0    86     1    15
  1.9398094735841712E-01 a      1291     0    87     1     1
 -1.7237045660903385E+00 a      1292     0    87     1     2
  3.1412948514990053E+00 a      1293     0    87     1     3
 -2.5727802183460158E+00 a      1294     0    87     1     4
 -6.5059611289687236E-01 a      1295     0    87     1     5
 -4.1010644045906701E-02 a      1296     0    87     1     6
  2.0057137695918326E+00 a      1297     0    87     1     7
 -4.3257626855268239E-01 a      1298     0    87     1     8
 -1.2406597497494904E+00 a      1299     0    87     1     9
 -2.0552105658896341E-01 a      1300     0    87     1    10
 -2.1462275051023534E+00 a      1301     0    87     1    11
  4.6536383036901552E-01 a      1302     0    87     1    12
 -1.4099216708107754E+00 a      1303     0    87     1    13
  1.9250976240960871E+00 a      1304     0    87     1    14
  1.7092404049371857E+00 a      1305     0    87     1    15
 -3.5620574847868700E+00 a      1306     0    88     1     1
  5.4325796117867853E-01 a      1307     0    88     1     2
  1.5848947200398513E+00 a      1308     0    88     1     3
 -2.6823822041075412E-01 a      1309     0    88     1     4
  5.0689697346726195E-02 a      1310     0    88     1     5
  3.0678600564970349E-01 a      1311     0    88     1     6
  3.0673857622938008E+00 a      1312     0    88     1     7
 -3.8642684598054782E+00 a      1313     0    88     1     8
  3.6060795886644370E+00 a      1314     0    88     1     9
  7.5896958774679835E-01 a      1315     0    88     1    10
  2.0818489945507107E-01 a      1316     0    88     1    11
  1.2687921435958944E+00 a      1317     0    88     1    12
 -5.7060070429065225E-02 a      1318     0    88     1    13
  6.0271648299698166E-02 a      1319     0    88     1    14
  3.1100087085916633E-01 a      1320     0    88     1    15
 -1.8563306718918493E-01 a      1321     0    89     1     1
 -5.0528241125912139E+00 a      1322     0    89     1     2
 -5.0225604421984305E-01 a      1323     0    89     1     3
  3.1783279670141860E+00 a      1324     0    89     1     4
 -2.8564292651565748E+00 a      1325     0    89     1     5
  1.2181156097946790E+00 a      1326     0    89     1     6
 -1.7817888549560446E-01 a      1327     0    89     1     7
 -5.2658884682927665E-01 a      1328     0    89     1     8
 -3.0613377097466715E-01 a      1329     0    89     1     9
  5.3020179074079410E+00 a      1330     0    89     1    10
 -8.2844195090240402E-01 a      1331     0    89     1    11
  1.9621858074792415E+00 a      1332     0    89     1    12
 -1.1237601689486862E+00 a      1333     0    89     1    13
 -8.2416339594601040E-01 a      1334     0    89     1    14
 -4.9428665421751228E-01 a      1335     0    89     1    15
  5.2095828007044598E-01 b      1336     1     1
  4.1308496115293619E-01 b      1337     1     2
  9.5744081795490610E-01 b      1338     1     3
 -4.0335424960819627E-01 b      1339     1     4
  4.7642106392981470E-01 b      1340     1     5
  1.7755200758302119E+00 b      1341     1     6
  6.5016390164658888E-01 b      1342     1     7
  9.8323971643165531E-01 b      1343     1     8
  1.7166690402716007E+00 b      1344     1     9
  1.4523646262578114E+00 b      1345     1    10
  1.2482296360129619E-01 b      1346     1    11
 -2.7020943035256878E-01 b      1347     1    12
  1.4771778526858386E+00 b      1348     1    13
  1.6672513651063186E+00 b      1349     1    14
  6.6250917893575767E-01 b      1350     1    15
  2.4338063906908250E-01 a      1351     1     1     2     1
 -1.9983496497487596E+00 a      1352     1     1     2     2
  8.9415990991547664E-02 a      1353     1     1     2     3
 -1.3073959722500192E+00 a      1354     1     1     2     4
 -1.4535643722607787E+00 a      1355     1     1     2     5
 -1.9207393140310700E-01 a      1356     1     1     2     6
 -9.2977560286696570E-01 a      1357     1     1     2     7
  6.7344409571346697E-01 a      1358     1     1     2     8
  5.2640387758367380E-01 a      1359     1     1     2     9
 -1.7885672735814433E+00 a      1360     1     1     2    10
 -5.3372453723585433E-01 a      1361     1     1     2    11
 -6.0332900362312025E-01 a      1362     1     1     2    12
  7.2973764220543835E-01 a      1363     1     1     2    13
 -7.5725312632161992E-03 a      1364     1     1     2    14
 -1.4044682023193000E-01 a      1365     1     1     2    15
 -4.8464635689080759E-01 a      1366     1     2     2     1
 -2.9453513389547126E-01 a      1367     1     2     2     2
  7.1632379195578977E-01 a      1368     1     2     2     3
  2.5680135042956315E-01 a      1369     1     2     2     4
  8.7257198146350162E-02 a      1370     1     2     2     5
  1.3716273824282293E-01 a      1371     1     2     2     6
 -9.6807051687563250E-01 a      1372     1     2     2     7
  2.2939006113225946E-01 a      1373     1     2     2     8
 -3.9280043553700422E-01 a      1374     1     2     2     9
  1.2368697739775971E+00 a      1375     1     2     2    10
  3.6377095037380076E-02 a      1376     1     2     2    11
  1.7440127717506362E-01 a      1377     1     2     2    12
 -6.0865921504972320E-01 a      1378     1     2     2    13
  4.9496419801218876E-02 a      1379     1     2     2    14
  3.9384408914620078E-01 a      1380     1     2     2    15
  3.3684240436035429E-01 a      1381     1     3     2     1
  4.8100694211601125E-02 a      1382     1     3     2     2
  8.9341521165314530E-01 a      1383     1     3     2     3
  1.1738037472454605E+00 a      1384     1     3     2     4
  1.3080338748450895E-01 a      1385     1     3     2     5
  1.2623024510916145E-01 a      1386     1     3     2     6
 -2.6776594851862179E-01 a      1387     1     3     2     7
  1.1791926872698015E-01 a      1388     1     3     2     8
  1.0532181906916485E+00 a      1389     1     3     2     9
  7.5497907018818233E-01 a      1390     1     3     2    10
 -2.6126017576300586E-01 a      1391     1     3     2    11
  1.6942156522975194E-01 a      1392     1     3     2    12
 -3.9658079680326347E-01 a      1393     1     3     2    13
  6.3876147560861218E-01 a      1394     1     3     2    14
  6.4326226170426215E-01 a      1395     1     3     2    15
  4.2144171084348991E-01 a      1396     1     4     2     1
 -1.2766561891224765E-01 a      1397     1     4     2     2
 -2.2778882994764968E-01 a      1398     1     4     2     3
  9.7591253293211322E-01 a      1399     1     4     2     4
 -3.5408186234763672E-01 a      1400     1     4     2     5
 -6.2079042971115994E-01 a      1401     1     4     2     6
  9.9309930382385203E-01 a      1402     1     4     2     7
 -1.0566154359675526E+00 a      1403     1     4     2     8
 -4.2539390529270416E-01 a      1404     1     4     2     9
 -6.7423599545940982E-01 a      1405     1     4     2    10
  6.4147306938104520E-01 a      1406     1     4     2    11
  3.0183501593695111E-01 a      1407     1     4     2    12
 -1.3405069631652982E+00 a      1408     1     4     2    13
  7.0593911376165563E-01 a      1409     1     4     2    14
 -3.6354394349369552E-02 a      1410     1     4     2    15
  4.6595013556540632E-01 a      1411     1     5     2     1
 -3.5141765014845816E-01 a      1412     1     5     2     2
  3.4578921077702668E-01 a      1413     1     5     2     3
  1.5907851233359549E+00 a      1414     1     5     2     4
  6.9807105413998716E-01 a      1415     1     5     2     5
  3.1178681528698426E-01 a      1416     1     5     2     6
 -9.4974957284313999E-01 a      1417     1     5     2     7
 -6.5594355998957643E-01 a      1418     1     5     2     8
  1.6358804038056304E-01 a      1419     1     5     2     9
 -1.7814028013558303E-01 a      1420     1     5     2    10
 -3.3527551297394165E-01 a      1421     1     5     2    11
 -3.8135079718358667E-02 a      1422     1     5     2    12
 -3.9778895764671413E-01 a      1423     1     5     2    13
  5.5145121497619098E-01 a      1424     1     5     2    14
 -1.3927929281241888E-01 a      1425     1     5     2    15
 -1.0207550817373050E+00 a      1426     1     6     2     1
  4.4262595778474823E-01 a      1427     1     6     2     2
 -6.0776082927183436E-02 a      1428     1     6     2     3
 -5.3829595559584276E-01 a      1429     1     6     2     4
 -2.4971906017534357E-01 a      1430     1     6     2     5
  1.3114203261796356E-01 a      1431     1     6     2     6
 -9.1872199386238795E-01 a      1432     1     6     2     7
  2.2651605411964962E-01 a      1433     1     6     2     8
 -7.0118611916705764E-01 a      1434     1     6     2     9
 -5.1212836056851688E-02 a      1435     1     6     2    10
 -7.9740566684465997E-01 a      1436     1     6     2    11
 -2.9422298933054614E-01 a      1437     1     6     2    12
  3.1951084972064459E-01 a      1438     1     6     2    13
  1.0635745113561372E+00 a      1439     1     6     2    14
  1.4462346025584742E+00 a      1440     1     6     2    15
  4.8955924898410075E-01 a      1441     1     7     2     1
  6.5490764314907046E-01 a      1442     1     7     2     2
  1.1558748248188741E-01 a      1443     1     7     2     3
 -1.8546337388449241E+00 a      1444     1     7     2     4
  9.9221638582173555E-01 a      1445     1     7     2     5
  7.8536057873000942E-01 a      1446     1     7     2     6
 -1.7574891678144713E+00 a      1447     1     7     2     7
  1.1813807338026630E+00 a      1448     1     7     2     8
  1.7604640640834827E-02 a      1449     1     7     2     9
  1.7847583128494486E+00 a      1450     1     7     2    10
 -7.9557930555039991E-01 a      1451     1     7     2    11
  4.3678188992005242E-02 a      1452     1     7     2    12
 -3.5053172563871880E-02 a      1453     1     7     2    13
  3.3622266321015171E-01 a      1454     1     7     2    14
 -1.1858595933061741E-01 a      1455     1     7     2    15
  2.9693144912203134E-01 a      1456     1     8     2     1
  7.3745419027426840E-01 a      1457     1     8     2     2
  9.8346300338928772E-01 a      1458     1     8     2     3
 -5.7765666487414302E-01 a      1459     1     8     2     4
  1.0713000147418059E+00 a      1460     1     8     2     5
  6.9340606965270568E-01 a      1461     1     8     2     6
 -3.5670564074687722E-01 a      1462     1     8     2     7
  3.8558302843700337E-01 a      1463     1     8     2     8
 -3.3624536540344113E-01 a      1464     1     8     2     9
 -2.2977198647410875E+00 a      1465     1     8     2    10
 -2.9666544999570749E-01 a      1466     1     8     2    11
 -4.1486852662326534E-01 a      1467     1     8     2    12
 -2.3083719353683951E-01 a      1468     1     8     2    13
 -4.4155846097961249E-01 a      1469     1     8     2    14
 -7.3927748358723744E-01 a      1470     1     8     2    15
  1.3095107435105773E+00 a      1471     1     9     2     1
 -3.5463578686663383E-01 a      1472     1     9     2     2
 -2.6810474754551589E-01 a      1473     1     9     2     3
 -5.1271274982856807E-01 a      1474     1     9     2     4
  2.2026898012592969E-01 a      1475     1     9     2     5
 -1.1771539726295915E-01 a      1476     1     9     2     6
  9.0676939058303552E-01 a      1477     1     9     2     7
  5.6140148881040475E-01 a      1478     1     9     2     8
  3.0294075156332689E-01 a      1479     1     9     2     9
  2.0823994217580855E+00 a      1480     1     9     2    10
  6.4705695576517019E-01 a      1481     1     9     2    11
  1.4073417690087514E-01 a      1482     1     9     2    12
 -1.8705595187802485E-01 a      1483     1     9     2    13
 -1.0100545648565114E-01 a      1484     1     9     2    14
 -1.4462930209339306E-01 a      1485     1     9     2    15
  1.8549340351729471E+00 a      1486     1    10     2     1
  5.9523577137913203E-02 a      1487     1    10     2     2
 -5.3445858666218338E-01 a      1488     1    10     2     3
  3.6228329818178612E-01 a      1489     1    10     2     4
 -8.5121438275401640E-01 a      1490     1    10     2     5
  1.1065120888947844E+00 a      1491     1    10     2     6
  1.9107673269463112E+00 a      1492     1    10     2     7
  4.1777275579263679E-01 a      1493     1    10     2     8
 -1.9342371690185617E-01 a      1494     1    10     2     9
 -1.5248374408871672E+00 a      1495     1    10     2    10
 -1.6828698434554620E-01 a      1496     1    10     2    11
  6.1873757416744490E-01 a      1497     1    10     2    12
  6.6238596226374680E-01 a      1498     1    10     2    13
  1.7049685935555248E+00 a      1499     1    10     2    14
  8.7527132385064688E-01 a      1500     1    10     2    15
 -1.1305965429265667E+00 a      1501     1    11     2     1
  2.4590400157809583E-01 a      1502     1    11     2     2
  1.4597278302918640E-01 a      1503     1    11     2     3
 -8.8471656358779738E-01 a      1504     1    11     2     4
  5.6688680960850224E-01 a      1505     1    11     2     5
  4.0120052935497336E-01 a      1506     1    11     2     6
 -8.2844978513248568E-01 a      1507     1    11     2     7
  2.5531753046773326E-01 a      1508     1    11     2     8
  1.2337745542913556E-01 a      1509     1    11     2     9
  6.3756507873896417E-01 a      1510     1    11     2    10
 -4.6466786872942301E-01 a      1511     1    11     2    11
 -8.1582291946742561E-02 a      1512     1    11     2    12
 -7.2751005453512607E-01 a      1513     1    11     2    13
 -7.4260032190797742E-01 a      1514     1    11     2    14
  1.0668244627991204E+00 a      1515     1    11     2    15
 -1.5019325027521953E+00 a      1516     1    12     2     1
  3.7677559129590182E-01 a      1517     1    12     2     2
  1.5584730671434377E-01 a      1518     1    12     2     3
  3.4191119903136014E-01 a      1519     1    12     2     4
  1.4276980369752690E-01 a      1520     1    12     2     5
 -8.7002488699496949E-02 a      1521     1    12     2     6
  1.3877888382440889E-01 a      1522     1    12     2     7
 -9.0663013625976885E-01 a      1523     1    12     2     8
 -2.6739476823886749E-01 a      1524     1    12     2     9
  2.0780229397202538E-01 a      1525     1    12     2    10
  1.0028376252192823E+00 a      1526     1    12     2    11
 -4.6422513545357114E-01 a      1527     1    12     2    12
 -5.1091343693516256E-01 a      1528     1    12     2    13
 -2.9240876381186505E+00 a      1529     1    12     2    14
 -2.7088726475255442E-01 a      1530     1    12     2    15
  1.1903321229748143E+00 a      1531     1    13     2     1
 -3.1538371552200012E-01 a      1532     1    13     2     2
  3.7930346820816951E-01 a      1533     1    13     2     3
 -1.0078640809495336E+00 a      1534     1    13     2     4
 -5.6949871752017867E-01 a      1535     1    13     2     5
  9.1796432262204164E-01 a      1536     1    13     2     6
  1.7517175879918065E+00 a      1537     1    13     2     7
 -1.3795081197800305E-01 a      1538     1    13     2     8
 -1.6912845068289864E-01 a      1539     1    13     2     9
 -1.3146278139222434E+00 a      1540     1    13     2    10
 -8.7924683397122305E-01 a      1541     1    13     2    11
 -4.2461065855185715E-01 a      1542     1    13     2    12
  6.4399440733319366E-02 a      1543     1    13     2    13
 -1.0279097263345307E+00 a      1544     1    13     2    14
 -1.2489747416783539E+00 a      1545     1    13     2    15
  2.6192361122797663E+00 a      1546     1    14     2     1
  7.9980756539769748E-01 a      1547     1    14     2     2
  4.9638726579291187E-01 a      1548     1    14     2     3
  2.1318669960954700E-01 a      1549     1    14     2     4
 -1.9520107244978457E+00 a      1550     1    14     2     5
 -5.1531540341687720E-01 a      1551     1    14     2     6
  5.9969932563764587E-02 a      1552     1    14     2     7
  6.6532502046976061E-01 a      1553     1    14     2     8
 -1.0918783333904540E-01 a      1554     1    14     2     9
  8.7828631570244098E-01 a      1555     1    14     2    10
  9.2359464318453199E-01 a      1556     1    14     2    11
  4.7762324791044219E-01 a      1557     1    14     2    12
  7.0600017489873468E-01 a      1558     1    14     2    13
 -8.6988585025650667E-01 a      1559     1    14     2    14
  6.7145719144471450E-01 a      1560     1    14     2    15
  3.9906681233352798E-01 a      1561     1    15     2     1
 -1.6673050508312789E-02 a      1562     1    15     2     2
  2.5703756277936252E-02 a      1563     1    15     2     3
 -3.4203391219319101E-01 a      1564     1    15     2     4
 -1.6737967347264713E+00 a      1565     1    15     2     5
 -4.6007201022364601E-02 a      1566     1    15     2     6
  6.2778257119160574E-01 a      1567     1    15     2     7
  1.4202652778072313E+00 a      1568     1    15     2     8
  3.6509126911509981E-01 a      1569     1    15     2     9
  7.5408197266639299E-01 a      1570     1    15     2    10
 -9.8716615993825502E-02 a      1571     1    15     2    11
  4.5710962201448307E-01 a      1572     1    15     2    12
  6.2498719775911415E-01 a      1573     1    15     2    13
  7.3040652696688094E-02 a      1574     1    15     2    14
  1.7643369136166993E+00 a      1575     1    15     2    15
 -4.5250181990410070E+00 b      1576     2     1
  1.2211746659131586E+00 b      1577     2     2
 -1.4484504985174953E+00 b      1578     2     3
  4.7255115820566929E-01 b      1579     2     4
  4.0311936090991791E+00 b      1580     2     5
  7.2758783603830357E-01 b      1581     2     6
 -1.2437713624735280E+00 b      1582     2     7
 -1.5645129561768423E+00 b      1583     2     8
  1.8133293022831580E+00 b      1584     2     9
  1.5291878565481778E-01 b      1585     2    10
 -1.1677513174378160E-01 b      1586     2    11
 -1.0438631512586156E+00 b      1587     2    12
  4.8402476636050534E-01 b      1588     2    13
  4.4481232715940028E-01 b      1589     2    14
 -2.4734746445650129E+00 b      1590     2    15
 -5.3201897399189617E-02 a      1591     2     1     3     1
 -1.8740813654063362E-01 a      1592     2     2     3     1
 -3.7521595713838329E-01 a      1593     2     3     3     1
  1.2033321535165927E-02 a      1594     2     4     3     1
  2.4404437404470530E-01 a      1595     2     5     3     1
  9.3026024594075640E-01 a      1596     2     6     3     1
  4.2273623594759176E-02 a      1597     2     7     3     1
 -4.0663670733512114E-01 a      1598     2     8     3     1
  4.6241287321059071E-01 a      1599     2     9     3     1
  2.5856300291235281E-02 a      1600     2    10     3     1
 -4.0206344110025417E-02 a      1601     2    11     3     1
  2.9766054971755046E-01 a      1602     2    12     3     1
 -3.0909217186598370E-01 a      1603     2    13     3     1
  3.2576547565995373E-02 a      1604     2    14     3     1
  1.8899691380542163E-01 a      1605     2    15     3     1
 -1.0249619210645646E+00 b      1606     3     1
