################################################################################
# Neural network connection values (weights and biases).
################################################################################
# Col  Name       Description
################################################################################
# 1    connection Neural network connection value.
# 2    t          Connection type (a = weight, b = bias).
# 3    index      Index enumerating weights.
# 4    l_s        Starting point layer (end point layer for biases).
# 5    n_s        Starting point neuron in starting layer (end point neuron for biases).
# 6    l_e        End point layer.
# 7    n_e        End point neuron in end layer.
################################################################################
#                      1 2         3     4     5     6     7
#             connection t     index   l_s   n_s   l_e   n_e
############################################################
 -1.3894363355809431E+00 a         1     0     1     1     1
  1.0252716204092014E+00 a         2     0     1     1     2
 -2.0668236583709172E+00 a         3     0     1     1     3
 -2.0955972003804266E+00 a         4     0     1     1     4
  2.3049867372564594E+00 a         5     0     1     1     5
 -2.8840577760464092E+00 a         6     0     1     1     6
  3.4381087056701025E+00 a         7     0     1     1     7
  1.0544336585397787E+00 a         8     0     1     1     8
  1.0125736976068058E+00 a         9     0     1     1     9
  2.0268708444707269E+00 a        10     0     1     1    10
 -1.5326896537136170E+00 a        11     0     1     1    11
 -1.2308800700460982E+00 a        12     0     1     1    12
  2.7531952098178318E+00 a        13     0     1     1    13
  5.7996944145825802E-01 a        14     0     1     1    14
  7.7486428399500706E-01 a        15     0     1     1    15
  2.4785134903025048E+00 a        16     0     2     1     1
  4.2474715772283450E-01 a        17     0     2     1     2
  2.0064060771051477E+00 a        18     0     2     1     3
  1.4332117125089536E+00 a        19     0     2     1     4
 -2.6658092180761854E+00 a        20     0     2     1     5
  1.1380654907827257E+00 a        21     0     2     1     6
  1.5895926923554109E+00 a        22     0     2     1     7
  1.6167479905240083E+00 a        23     0     2     1     8
 -1.0273989873869471E+00 a        24     0     2     1     9
 -4.0406720538950108E-01 a        25     0     2     1    10
  4.0613474459623189E-01 a        26     0     2     1    11
  3.5430431329896583E+00 a        27     0     2     1    12
  2.3605992516918142E+00 a        28     0     2     1    13
 -8.5176881029125040E-01 a        29     0     2     1    14
 -2.1272422841560421E+00 a        30     0     2     1    15
  2.3153191079262031E-02 a        31     0     3     1     1
 -8.2780462768755370E-01 a        32     0     3     1     2
 -6.2879537992832923E-01 a        33     0     3     1     3
  1.1479535632921858E+00 a        34     0     3     1     4
 -6.4037823777411562E-01 a        35     0     3     1     5
  4.1867462659367277E-01 a        36     0     3     1     6
 -5.5950755161022192E-01 a        37     0     3     1     7
 -1.1407140069518482E+00 a        38     0     3     1     8
 -7.2649785304371006E-01 a        39     0     3     1     9
  1.4750440431242759E+00 a        40     0     3     1    10
 -6.0246245593468506E-01 a        41     0     3     1    11
  1.0392814583060404E+00 a        42     0     3     1    12
 -7.8943141818511731E-01 a        43     0     3     1    13
 -8.3413739491265693E-01 a        44     0     3     1    14
 -1.1467870752468106E+00 a        45     0     3     1    15
 -5.6229982936445175E+00 a        46     0     4     1     1
 -1.7289506461122284E+00 a        47     0     4     1     2
  2.8171015666079100E+00 a        48     0     4     1     3
  7.7599760140800766E-01 a        49     0     4     1     4
 -1.7011014216062392E+00 a        50     0     4     1     5
  2.4381339590847220E+00 a        51     0     4     1     6
  4.0820379112234750E-01 a        52     0     4     1     7
 -1.5325059617621066E+00 a        53     0     4     1     8
  4.6025060547057990E+00 a        54     0     4     1     9
 -1.2626444126766467E-01 a        55     0     4     1    10
 -9.2355030476360978E-01 a        56     0     4     1    11
  7.0390111671716127E-01 a        57     0     4     1    12
 -2.3428986526765816E+00 a        58     0     4     1    13
  1.2557610048548737E+00 a        59     0     4     1    14
  1.0904772801417983E-01 a        60     0     4     1    15
  1.6477997703227770E-01 a        61     0     5     1     1
 -8.1743943591997170E-01 a        62     0     5     1     2
  1.0033186131870144E+00 a        63     0     5     1     3
  1.4504037211535719E+00 a        64     0     5     1     4
 -3.6789057141670922E-01 a        65     0     5     1     5
  1.4036419642342222E+00 a        66     0     5     1     6
 -9.2788490195184359E-01 a        67     0     5     1     7
 -9.8039012380375667E-01 a        68     0     5     1     8
 -6.3424176030579704E-02 a        69     0     5     1     9
  1.0453506020498711E+00 a        70     0     5     1    10
  1.6818622541433237E-01 a        71     0     5     1    11
 -1.3901465508617397E+00 a        72     0     5     1    12
  1.1785476320425059E-01 a        73     0     5     1    13
 -2.1018519117915684E+00 a        74     0     5     1    14
 -1.4042238959329385E+00 a        75     0     5     1    15
  3.1947808068315591E+00 a        76     0     6     1     1
 -3.6803439937157978E-01 a        77     0     6     1     2
  1.2643267899119210E+00 a        78     0     6     1     3
  7.3342518472044205E-01 a        79     0     6     1     4
 -1.7430148247097925E+00 a        80     0     6     1     5
 -5.6040946000270431E-01 a        81     0     6     1     6
 -1.1047831889183886E+00 a        82     0     6     1     7
  1.3561859026586971E+00 a        83     0     6     1     8
  3.5617401623187717E-01 a        84     0     6     1     9
  3.2727482065116520E-01 a        85     0     6     1    10
  3.5809785017651001E+00 a        86     0     6     1    11
  3.8008819881996569E-01 a        87     0     6     1    12
 -6.3156318866382610E-01 a        88     0     6     1    13
  4.2087646117002930E-01 a        89     0     6     1    14
  1.1366750007325783E+00 a        90     0     6     1    15
 -1.9205129437599622E-01 a        91     0     7     1     1
  5.3034729144949089E-01 a        92     0     7     1     2
  1.4512737120228110E+00 a        93     0     7     1     3
  3.8003251829201112E-01 a        94     0     7     1     4
  2.3593465488297474E-01 a        95     0     7     1     5
  1.1073919946529531E+00 a        96     0     7     1     6
 -1.5114580343949775E+00 a        97     0     7     1     7
 -8.0352762255518440E-01 a        98     0     7     1     8
 -7.0698848544874904E-01 a        99     0     7     1     9
 -5.8440355271579936E-01 a       100     0     7     1    10
  4.4112309491639173E-01 a       101     0     7     1    11
 -3.7635208399807807E+00 a       102     0     7     1    12
  5.4077101283901252E-01 a       103     0     7     1    13
 -3.4650151367494625E-01 a       104     0     7     1    14
 -1.6542257747345606E+00 a       105     0     7     1    15
 -2.4133233078846388E+00 a       106     0     8     1     1
 -6.2123699028708279E-01 a       107     0     8     1     2
 -1.9295450588493290E+00 a       108     0     8     1     3
 -2.7620462783956699E+00 a       109     0     8     1     4
  9.2525881111214514E-01 a       110     0     8     1     5
  1.4981377570431667E+00 a       111     0     8     1     6
  3.5313069464681979E-01 a       112     0     8     1     7
 -3.0411663028285751E+00 a       113     0     8     1     8
  1.0904394734263492E+00 a       114     0     8     1     9
  6.1813997526540432E-02 a       115     0     8     1    10
 -2.0719529307333526E+00 a       116     0     8     1    11
  3.8480048860133914E-01 a       117     0     8     1    12
  1.3241546371579827E-01 a       118     0     8     1    13
 -6.2168031109592847E-01 a       119     0     8     1    14
 -1.4395612836132725E+00 a       120     0     8     1    15
 -1.4281729070515543E+00 a       121     0     9     1     1
  5.8706397082223971E-01 a       122     0     9     1     2
 -1.1755697259329132E+00 a       123     0     9     1     3
 -9.1205260846509284E-01 a       124     0     9     1     4
  1.7909973221549604E+00 a       125     0     9     1     5
 -1.0561847210246027E-01 a       126     0     9     1     6
 -8.3508745106913362E-01 a       127     0     9     1     7
  2.3251571218586808E-01 a       128     0     9     1     8
  1.0955999853653611E+00 a       129     0     9     1     9
  8.3328998939505916E-01 a       130     0     9     1    10
 -1.0875818417762595E+00 a       131     0     9     1    11
 -2.3877766130718396E+00 a       132     0     9     1    12
  6.0548523303139512E-01 a       133     0     9     1    13
  5.4565742394269146E-01 a       134     0     9     1    14
  4.8115059114566944E-01 a       135     0     9     1    15
 -1.3627019838935002E+00 a       136     0    10     1     1
  6.8563317845214744E-01 a       137     0    10     1     2
 -1.4537383743138270E+00 a       138     0    10     1     3
 -3.4543931238139836E-01 a       139     0    10     1     4
  1.9428998030886260E+00 a       140     0    10     1     5
 -1.0624782912769037E-01 a       141     0    10     1     6
  1.5985155953103236E-03 a       142     0    10     1     7
  2.0614677226624742E+00 a       143     0    10     1     8
 -2.1135704539091340E+00 a       144     0    10     1     9
  2.9039949043593274E+00 a       145     0    10     1    10
 -5.6669277859104361E-03 a       146     0    10     1    11
 -5.3976482659429337E-01 a       147     0    10     1    12
 -2.1678353504053991E+00 a       148     0    10     1    13
  2.6240184148567192E-01 a       149     0    10     1    14
  1.6111785737844631E+00 a       150     0    10     1    15
 -1.9489399826808280E+00 a       151     0    11     1     1
  1.9329398544438554E+00 a       152     0    11     1     2
  1.9288935841516647E-01 a       153     0    11     1     3
 -1.3453021033325999E-01 a       154     0    11     1     4
 -6.6178824677665637E-01 a       155     0    11     1     5
 -2.2300528359429833E-01 a       156     0    11     1     6
  6.2582554825889369E-01 a       157     0    11     1     7
 -1.8051598871710877E+00 a       158     0    11     1     8
  3.2839113704377532E-01 a       159     0    11     1     9
  2.3708968325955251E+00 a       160     0    11     1    10
  7.3807044626142759E-01 a       161     0    11     1    11
  2.6464615949422710E+00 a       162     0    11     1    12
 -9.2609349611389713E-01 a       163     0    11     1    13
 -1.2427072230659526E+00 a       164     0    11     1    14
 -2.9859245988848095E+00 a       165     0    11     1    15
  6.0519127955968011E-01 a       166     0    12     1     1
  1.3604876060921585E+00 a       167     0    12     1     2
 -3.3262529975333399E-01 a       168     0    12     1     3
 -1.9807559392848278E-01 a       169     0    12     1     4
  1.4598719971820873E+00 a       170     0    12     1     5
 -2.0022463661427872E+00 a       171     0    12     1     6
 -1.2913363271238916E+00 a       172     0    12     1     7
  8.6063213074760492E-01 a       173     0    12     1     8
 -3.8230334136144933E-01 a       174     0    12     1     9
 -4.7515183010796036E-01 a       175     0    12     1    10
  1.6649811486808901E+00 a       176     0    12     1    11
  1.5539959917598312E+00 a       177     0    12     1    12
  5.0282122170289401E-01 a       178     0    12     1    13
 -5.5075012101357901E-01 a       179     0    12     1    14
 -3.2275950003096360E-01 a       180     0    12     1    15
 -6.0106470019707148E-01 a       181     0    13     1     1
 -1.6243464009978081E+00 a       182     0    13     1     2
  2.8245445357964263E+00 a       183     0    13     1     3
  7.6011291172275497E-01 a       184     0    13     1     4
 -2.9577814760517751E+00 a       185     0    13     1     5
  1.9851510268609456E+00 a       186     0    13     1     6
 -8.0127766072868989E-01 a       187     0    13     1     7
  7.4209866898799337E-01 a       188     0    13     1     8
  1.2529417274713242E-01 a       189     0    13     1     9
 -1.4066215775412287E+00 a       190     0    13     1    10
  2.6527618988653163E+00 a       191     0    13     1    11
  8.9161778725157781E-01 a       192     0    13     1    12
 -2.4466269865949014E-01 a       193     0    13     1    13
 -2.4108095710092421E+00 a       194     0    13     1    14
  3.4458061356544956E-01 a       195     0    13     1    15
 -8.1878745620023263E-01 a       196     0    14     1     1
 -3.7821962256489634E+00 a       197     0    14     1     2
 -4.0988281409261423E-01 a       198     0    14     1     3
 -1.2632043754253235E+00 a       199     0    14     1     4
  3.6414876156193554E-01 a       200     0    14     1     5
  2.3505897396253390E+00 a       201     0    14     1     6
 -4.7422509758834763E-01 a       202     0    14     1     7
 -3.5671116870101209E+00 a       203     0    14     1     8
 -5.9789566749238121E-01 a       204     0    14     1     9
 -2.3704347087968469E+00 a       205     0    14     1    10
 -1.0701808994519251E+00 a       206     0    14     1    11
 -1.4247777536625983E+00 a       207     0    14     1    12
 -1.1873172911162091E+00 a       208     0    14     1    13
  6.4589959439503297E-02 a       209     0    14     1    14
 -2.6623617027248542E-01 a       210     0    14     1    15
 -6.0466070408282124E-01 a       211     0    15     1     1
  5.2450153412375700E-01 a       212     0    15     1     2
 -6.0392286450858257E-01 a       213     0    15     1     3
 -4.3946446856501700E+00 a       214     0    15     1     4
  1.4830295251004166E+00 a       215     0    15     1     5
 -2.7679676632950572E+00 a       216     0    15     1     6
  1.4437176738759441E+00 a       217     0    15     1     7
  2.1401527509937077E+00 a       218     0    15     1     8
  4.8059306528707169E-01 a       219     0    15     1     9
 -8.0688525772164243E-01 a       220     0    15     1    10
  4.5174705699219109E-02 a       221     0    15     1    11
  3.0189223227970037E+00 a       222     0    15     1    12
 -8.2800615465598493E-01 a       223     0    15     1    13
  2.6691864223642794E+00 a       224     0    15     1    14
  7.2602926248335797E-01 a       225     0    15     1    15
 -4.7972975804301654E-01 a       226     0    16     1     1
 -2.9269245504594144E-02 a       227     0    16     1     2
 -4.9157602832042463E-01 a       228     0    16     1     3
 -1.8606924450305742E+00 a       229     0    16     1     4
 -8.1857873771582823E-02 a       230     0    16     1     5
 -1.6196173127409375E+00 a       231     0    16     1     6
  6.0922966608633145E-01 a       232     0    16     1     7
  3.3319017031179117E+00 a       233     0    16     1     8
 -2.7662845094537059E-01 a       234     0    16     1     9
  2.7128720747600115E+00 a       235     0    16     1    10
 -3.5621808783501074E-02 a       236     0    16     1    11
 -3.0231148804259660E+00 a       237     0    16     1    12
 -2.1842149329757850E+00 a       238     0    16     1    13
  7.1719121976279643E-01 a       239     0    16     1    14
 -8.1768444168771559E-01 a       240     0    16     1    15
  1.1063223845964976E+00 a       241     0    17     1     1
 -1.2764187434443381E+00 a       242     0    17     1     2
  5.7131678083573756E-01 a       243     0    17     1     3
 -6.7098749691144122E-01 a       244     0    17     1     4
 -1.0386559905841803E+00 a       245     0    17     1     5
  1.2175419371757596E+00 a       246     0    17     1     6
 -1.6119543716857181E+00 a       247     0    17     1     7
 -1.6304605493823210E+00 a       248     0    17     1     8
 -1.4051879122974900E-01 a       249     0    17     1     9
  1.0833090052188783E+00 a       250     0    17     1    10
  1.4579356847465050E+00 a       251     0    17     1    11
  3.3077833346935365E-01 a       252     0    17     1    12
  5.5616362454928792E-01 a       253     0    17     1    13
 -2.4424375310996069E+00 a       254     0    17     1    14
 -2.0707292989150439E+00 a       255     0    17     1    15
  1.1039562386956381E+00 a       256     0    18     1     1
 -1.1070491767174351E-01 a       257     0    18     1     2
 -1.3003719911014557E+00 a       258     0    18     1     3
 -2.9808418833228212E-01 a       259     0    18     1     4
  6.6115614938665590E-01 a       260     0    18     1     5
 -3.3997049720063627E-01 a       261     0    18     1     6
 -1.1350687550594978E+00 a       262     0    18     1     7
  1.1369069060771388E+00 a       263     0    18     1     8
 -4.4709545132824158E-01 a       264     0    18     1     9
 -2.5253573102238480E-01 a       265     0    18     1    10
  1.2900384127570097E-01 a       266     0    18     1    11
 -5.8330556964766189E-01 a       267     0    18     1    12
  2.6723657587525446E-01 a       268     0    18     1    13
 -2.0433474794660572E-01 a       269     0    18     1    14
  8.0947377590091030E-01 a       270     0    18     1    15
  1.8607838448580873E+00 a       271     0    19     1     1
 -2.7656173003223389E-01 a       272     0    19     1     2
 -8.5675365683300142E-01 a       273     0    19     1     3
  8.0726959063810133E-01 a       274     0    19     1     4
 -3.9956722218172347E-01 a       275     0    19     1     5
  2.2373294515807704E-01 a       276     0    19     1     6
 -5.6738382320410741E-01 a       277     0    19     1     7
  1.4709003744967228E+00 a       278     0    19     1     8
 -6.1919311350868078E-01 a       279     0    19     1     9
  1.9465189714631106E+00 a       280     0    19     1    10
  7.2651853744777206E-01 a       281     0    19     1    11
 -1.2196918028330401E+00 a       282     0    19     1    12
  8.3608044699538042E-01 a       283     0    19     1    13
  3.1717201294343422E-01 a       284     0    19     1    14
 -6.9274201326841789E-01 a       285     0    19     1    15
 -5.6123653979445098E-01 a       286     0    20     1     1
 -2.8454864615823705E-01 a       287     0    20     1     2
 -1.8983873913890466E+00 a       288     0    20     1     3
 -1.5666729120455554E+00 a       289     0    20     1     4
  1.8812726815045921E-01 a       290     0    20     1     5
  5.3834360996321806E-01 a       291     0    20     1     6
  1.5013208279106411E+00 a       292     0    20     1     7
  8.0239397236340126E-01 a       293     0    20     1     8
 -8.5387702818806799E-01 a       294     0    20     1     9
 -3.6375120777217065E-02 a       295     0    20     1    10
 -1.0274575391750032E+00 a       296     0    20     1    11
  3.7272379636335109E+00 a       297     0    20     1    12
  7.2275123665914875E-01 a       298     0    20     1    13
  2.0942171086460308E+00 a       299     0    20     1    14
  1.5749359778908549E+00 a       300     0    20     1    15
  4.8110382817260383E-01 a       301     0    21     1     1
  7.4263144130273817E-01 a       302     0    21     1     2
  9.5217615007068424E-01 a       303     0    21     1     3
  7.4717240038179578E-01 a       304     0    21     1     4
  1.0377292922517471E+00 a       305     0    21     1     5
 -2.7345826845749261E+00 a       306     0    21     1     6
 -3.1433830955379499E-01 a       307     0    21     1     7
  1.0010211881259261E+00 a       308     0    21     1     8
 -1.3108356589810770E+00 a       309     0    21     1     9
 -1.9283454863680025E+00 a       310     0    21     1    10
 -1.1061552233066991E+00 a       311     0    21     1    11
  8.9017148692590309E-02 a       312     0    21     1    12
  1.0903612349939495E+00 a       313     0    21     1    13
 -7.6332360084161599E-01 a       314     0    21     1    14
 -1.0153498959675009E+00 a       315     0    21     1    15
  1.1832251634479909E+00 a       316     0    22     1     1
 -3.0155015597546864E-01 a       317     0    22     1     2
  3.6899454148853367E-01 a       318     0    22     1     3
  7.7149628726815922E-01 a       319     0    22     1     4
  7.2856956179780163E-01 a       320     0    22     1     5
  1.1389464877781015E+00 a       321     0    22     1     6
  2.9684855809104482E-01 a       322     0    22     1     7
  6.4970680506205447E-01 a       323     0    22     1     8
 -1.1081897796926419E+00 a       324     0    22     1     9
  1.7131678529241916E+00 a       325     0    22     1    10
  5.7973870440717878E-01 a       326     0    22     1    11
  4.5066523845464890E-01 a       327     0    22     1    12
 -4.3622203836120005E-02 a       328     0    22     1    13
 -3.7672016261560054E-02 a       329     0    22     1    14
  2.2714513202444298E-01 a       330     0    22     1    15
  6.4277941388436688E-01 a       331     0    23     1     1
 -1.8464663369241230E-01 a       332     0    23     1     2
  1.2816651488608163E-01 a       333     0    23     1     3
  1.6760413532844687E-02 a       334     0    23     1     4
  1.1947368387543658E+00 a       335     0    23     1     5
 -9.8216793082346848E-02 a       336     0    23     1     6
 -1.4929170616799867E+00 a       337     0    23     1     7
 -2.3399997718074378E-01 a       338     0    23     1     8
  9.2166106024052219E-01 a       339     0    23     1     9
  1.9003165586088744E-01 a       340     0    23     1    10
 -5.4065891235184305E-01 a       341     0    23     1    11
  1.3478652128714079E+00 a       342     0    23     1    12
  4.8484305556632912E-01 a       343     0    23     1    13
  1.0490399859484949E+00 a       344     0    23     1    14
  1.4674497499725501E+00 a       345     0    23     1    15
 -6.7634712928227714E-01 a       346     0    24     1     1
 -1.6491146302384661E+00 a       347     0    24     1     2
  2.4660968925058664E+00 a       348     0    24     1     3
  2.3183751294175017E+00 a       349     0    24     1     4
  7.4732897352249827E-01 a       350     0    24     1     5
  1.4292643574788557E+00 a       351     0    24     1     6
 -7.8161224277346952E-02 a       352     0    24     1     7
  3.2586943427329457E-02 a       353     0    24     1     8
 -1.1338411189640394E+00 a       354     0    24     1     9
 -1.5087835454055023E+00 a       355     0    24     1    10
 -1.0508496101813629E+00 a       356     0    24     1    11
 -4.6239349064494145E-01 a       357     0    24     1    12
  4.9146712592561470E-01 a       358     0    24     1    13
 -4.8737516422209226E-01 a       359     0    24     1    14
 -1.7147720358446832E+00 a       360     0    24     1    15
 -2.0198391797664267E-01 a       361     0    25     1     1
  1.3833040591794230E+00 a       362     0    25     1     2
  7.9056155809124562E-01 a       363     0    25     1     3
  1.0625906111732970E+00 a       364     0    25     1     4
  1.2808568863933691E+00 a       365     0    25     1     5
  1.5914507411459473E+00 a       366     0    25     1     6
  5.1707485041075951E-01 a       367     0    25     1     7
 -1.2245941511280551E+00 a       368     0    25     1     8
 -9.9040876158858215E-01 a       369     0    25     1     9
 -1.2245326392975919E+00 a       370     0    25     1    10
  4.5382221852215415E-01 a       371     0    25     1    11
  4.9378525269464701E-01 a       372     0    25     1    12
  1.0050551906065890E+00 a       373     0    25     1    13
  7.1234448569609765E-01 a       374     0    25     1    14
 -2.4210437483762348E+00 a       375     0    25     1    15
 -1.6479143777072476E+00 a       376     0    26     1     1
 -1.0472319279396256E+00 a       377     0    26     1     2
 -1.0001406842033507E+00 a       378     0    26     1     3
  1.1287944107967712E-01 a       379     0    26     1     4
 -5.6487325763180363E-01 a       380     0    26     1     5
  1.0182411058244232E+00 a       381     0    26     1     6
 -2.1241226022563668E+00 a       382     0    26     1     7
 -3.5540332964932997E-01 a       383     0    26     1     8
 -1.1882263482056321E-01 a       384     0    26     1     9
 -1.7540990164994534E+00 a       385     0    26     1    10
  9.8319880780843927E-01 a       386     0    26     1    11
 -2.4608864298223296E+00 a       387     0    26     1    12
 -1.7799057047393105E-01 a       388     0    26     1    13
 -1.1052224116320484E+00 a       389     0    26     1    14
  6.5339831959919803E-01 a       390     0    26     1    15
  4.7958839510608958E-01 a       391     0    27     1     1
  1.4869963710444059E+00 a       392     0    27     1     2
 -1.4901915250889561E+00 a       393     0    27     1     3
 -3.7413173010294259E-01 a       394     0    27     1     4
  3.3977519549253055E-01 a       395     0    27     1     5
 -2.0893648729105901E-01 a       396     0    27     1     6
 -6.3282138513418140E-01 a       397     0    27     1     7
 -8.3786042560970153E-01 a       398     0    27     1     8
 -1.0304605165623071E+00 a       399     0    27     1     9
 -7.2168888241082674E-01 a       400     0    27     1    10
 -1.5237327254286459E+00 a       401     0    27     1    11
 -3.4569208893650183E+00 a       402     0    27     1    12
  3.2192361523752155E-01 a       403     0    27     1    13
  6.8691154144733002E-01 a       404     0    27     1    14
 -7.0563335305229224E-01 a       405     0    27     1    15
 -2.1200642945377810E+00 a       406     0    28     1     1
 -4.1478338320103236E-01 a       407     0    28     1     2
  4.6945026279470631E-01 a       408     0    28     1     3
 -6.0676555265787446E-01 a       409     0    28     1     4
  1.6252973863122300E+00 a       410     0    28     1     5
  1.2635177458062308E+00 a       411     0    28     1     6
  1.3581080328204098E+00 a       412     0    28     1     7
  6.4153757449589710E-01 a       413     0    28     1     8
  6.5217994378228439E-01 a       414     0    28     1     9
  2.8787878678699186E-01 a       415     0    28     1    10
 -1.7236944143523933E+00 a       416     0    28     1    11
  1.4183110602586140E+00 a       417     0    28     1    12
 -2.0004454729827121E+00 a       418     0    28     1    13
 -2.1857797164050252E+00 a       419     0    28     1    14
  3.2922437452144631E+00 a       420     0    28     1    15
  1.9993452728154013E+00 a       421     0    29     1     1
 -2.3518538939561497E+00 a       422     0    29     1     2
 -1.9487451885956655E-01 a       423     0    29     1     3
  2.6655186716455892E-01 a       424     0    29     1     4
  1.3498891136749169E+00 a       425     0    29     1     5
 -2.0892388857263589E+00 a       426     0    29     1     6
 -1.0175543384810493E-01 a       427     0    29     1     7
  1.2791673817756162E+00 a       428     0    29     1     8
  5.9245695035629997E-01 a       429     0    29     1     9
  1.1373039658781128E+00 a       430     0    29     1    10
 -1.0085309578871560E-01 a       431     0    29     1    11
 -1.9001941687215738E+00 a       432     0    29     1    12
  2.5814689831608604E+00 a       433     0    29     1    13
 -3.9215633329674920E-01 a       434     0    29     1    14
 -4.5190503448108899E-01 a       435     0    29     1    15
  7.7493250905050415E-01 a       436     0    30     1     1
  2.3302024052707462E+00 a       437     0    30     1     2
 -1.0557158097663475E+00 a       438     0    30     1     3
 -2.4287655266096237E+00 a       439     0    30     1     4
 -2.2920127233638898E+00 a       440     0    30     1     5
 -2.2460946628333744E-01 a       441     0    30     1     6
 -1.9270239298571474E+00 a       442     0    30     1     7
 -2.3015247091701609E+00 a       443     0    30     1     8
  1.6991358991345049E-01 a       444     0    30     1     9
 -2.1288075451706674E+00 a       445     0    30     1    10
  1.2812801048479874E+00 a       446     0    30     1    11
 -5.2895960361273819E-01 a       447     0    30     1    12
 -1.5615102565031730E-01 a       448     0    30     1    13
  1.5208575018946275E+00 a       449     0    30     1    14
  1.0722216412781449E+00 a       450     0    30     1    15
  1.5998239621901940E+00 a       451     0    31     1     1
 -3.6530889118025944E-01 a       452     0    31     1     2
 -2.8144944083605838E-01 a       453     0    31     1     3
  9.8502609571407640E-01 a       454     0    31     1     4
 -1.4598166628750899E+00 a       455     0    31     1     5
 -1.4562190817486655E+00 a       456     0    31     1     6
 -4.1939310008883873E-01 a       457     0    31     1     7
  8.1844078405639120E-01 a       458     0    31     1     8
 -1.1630615814582628E+00 a       459     0    31     1     9
  1.2141581326528983E+00 a       460     0    31     1    10
  4.7139300037687004E-01 a       461     0    31     1    11
 -1.4509035081069803E+00 a       462     0    31     1    12
  5.5972961899809437E-01 a       463     0    31     1    13
 -1.1541594038496248E+00 a       464     0    31     1    14
  6.5014055281753658E-01 a       465     0    31     1    15
  1.5617693217023471E-01 a       466     0    32     1     1
 -2.3217646127660568E-01 a       467     0    32     1     2
 -5.3550087273339542E-01 a       468     0    32     1     3
 -1.0429582079551154E+00 a       469     0    32     1     4
 -3.2978331635603042E-03 a       470     0    32     1     5
  3.7969006195973209E-01 a       471     0    32     1     6
 -9.8258325750576447E-01 a       472     0    32     1     7
  8.0957759158681586E-01 a       473     0    32     1     8
 -1.5571601690772532E-01 a       474     0    32     1     9
  7.3704802518366630E-01 a       475     0    32     1    10
 -1.6865286322301964E+00 a       476     0    32     1    11
  3.0321030537011722E+00 a       477     0    32     1    12
  7.7427384144005662E-01 a       478     0    32     1    13
  2.5020210482602847E+00 a       479     0    32     1    14
  2.7392419988777807E+00 a       480     0    32     1    15
 -8.4885456032621698E-01 a       481     0    33     1     1
  9.4603826109737854E-01 a       482     0    33     1     2
  1.1939014117286759E+00 a       483     0    33     1     3
 -1.8271927915930797E-01 a       484     0    33     1     4
  1.1083809501324524E-02 a       485     0    33     1     5
 -1.7783052711121834E+00 a       486     0    33     1     6
 -1.2159111072643025E+00 a       487     0    33     1     7
 -6.8570542703207893E-02 a       488     0    33     1     8
 -6.3577433840056663E-01 a       489     0    33     1     9
 -1.6841195187332805E+00 a       490     0    33     1    10
 -9.2694109582220519E-01 a       491     0    33     1    11
  6.9778165650903667E-01 a       492     0    33     1    12
  1.7459358649313559E+00 a       493     0    33     1    13
 -2.0368873206159988E+00 a       494     0    33     1    14
  5.3279436747801401E-01 a       495     0    33     1    15
  1.5700360619020095E+00 a       496     0    34     1     1
  4.1619064946356460E-01 a       497     0    34     1     2
  9.2919571981903148E-05 a       498     0    34     1     3
  7.2654740470389612E-01 a       499     0    34     1     4
  3.8940020006962950E-02 a       500     0    34     1     5
 -2.5445242540082097E-01 a       501     0    34     1     6
 -1.5510260814494152E+00 a       502     0    34     1     7
  4.9675427760796959E-01 a       503     0    34     1     8
 -8.3875669310696632E-01 a       504     0    34     1     9
  1.5290292669170280E+00 a       505     0    34     1    10
  5.3791902106808243E-01 a       506     0    34     1    11
 -9.5631257037483908E-01 a       507     0    34     1    12
  6.5214312867385860E-01 a       508     0    34     1    13
 -2.6166460849889117E-01 a       509     0    34     1    14
 -7.0333838755293865E-02 a       510     0    34     1    15
 -1.0207018822938037E+00 a       511     0    35     1     1
 -7.5603374472371010E-01 a       512     0    35     1     2
  5.8146375019726082E-02 a       513     0    35     1     3
 -8.9498075290873824E-01 a       514     0    35     1     4
 -8.3550698236169341E-01 a       515     0    35     1     5
 -5.1309509998097058E-01 a       516     0    35     1     6
 -8.0938374991246853E-01 a       517     0    35     1     7
 -1.5281361480688054E+00 a       518     0    35     1     8
  1.1494115327971972E+00 a       519     0    35     1     9
  1.5946417539168423E-01 a       520     0    35     1    10
 -1.5509791729300529E-01 a       521     0    35     1    11
 -3.4337273159181164E-01 a       522     0    35     1    12
 -1.6182961116429201E-01 a       523     0    35     1    13
  1.5655458319885103E+00 a       524     0    35     1    14
  2.0368685017889350E+00 a       525     0    35     1    15
 -1.3099627174480073E+00 a       526     0    36     1     1
 -2.0362493389681213E+00 a       527     0    36     1     2
  2.0483953789095799E+00 a       528     0    36     1     3
  2.7605394838819581E+00 a       529     0    36     1     4
  8.7460080690304953E-01 a       530     0    36     1     5
  2.1894459724267663E+00 a       531     0    36     1     6
  3.6712128866569904E-01 a       532     0    36     1     7
  7.3406108744384302E-01 a       533     0    36     1     8
 -1.1214185655101194E+00 a       534     0    36     1     9
 -1.6823651692470858E+00 a       535     0    36     1    10
 -1.4493498410121877E+00 a       536     0    36     1    11
 -1.4074099554156205E+00 a       537     0    36     1    12
 -2.3532371682026235E-01 a       538     0    36     1    13
 -2.0478158440201599E+00 a       539     0    36     1    14
 -1.3190417969401831E+00 a       540     0    36     1    15
 -5.9042301487479454E-01 a       541     0    37     1     1
  1.9440680867062482E-01 a       542     0    37     1     2
 -3.7859938848179353E-01 a       543     0    37     1     3
  3.6237951270965485E-01 a       544     0    37     1     4
  6.6328756143907175E-01 a       545     0    37     1     5
  2.5417604629827633E+00 a       546     0    37     1     6
 -1.0325816071647467E+00 a       547     0    37     1     7
  4.9651971262826133E-01 a       548     0    37     1     8
 -1.1886502232776774E+00 a       549     0    37     1     9
 -1.0857915222959141E-01 a       550     0    37     1    10
  1.5802470785931173E+00 a       551     0    37     1    11
  8.2760303149151337E-01 a       552     0    37     1    12
 -1.4617295476786247E+00 a       553     0    37     1    13
 -1.3019472211787093E+00 a       554     0    37     1    14
  1.8174648225409165E-01 a       555     0    37     1    15
  1.3664094187082751E+00 a       556     0    38     1     1
 -2.1249271784056458E+00 a       557     0    38     1     2
 -4.2445464965555901E-02 a       558     0    38     1     3
 -1.4502237280062920E+00 a       559     0    38     1     4
 -3.9028265687625413E-01 a       560     0    38     1     5
  1.8660277498389481E+00 a       561     0    38     1     6
  1.7474163992760960E-01 a       562     0    38     1     7
 -7.1621894709674516E-01 a       563     0    38     1     8
 -1.2338593944012339E+00 a       564     0    38     1     9
 -1.5755417560256995E+00 a       565     0    38     1    10
 -1.4417808401245424E-01 a       566     0    38     1    11
  7.0729938158948263E-02 a       567     0    38     1    12
 -9.5659696512991066E-01 a       568     0    38     1    13
 -2.7481901519006371E+00 a       569     0    38     1    14
 -9.9388180213701616E-01 a       570     0    38     1    15
 -2.1231439088167048E+00 a       571     0    39     1     1
 -5.2632316644177968E-01 a       572     0    39     1     2
 -1.9656815500600566E+00 a       573     0    39     1     3
 -2.0877576701419898E+00 a       574     0    39     1     4
 -5.9552784143494963E-01 a       575     0    39     1     5
  5.7905285271240747E-01 a       576     0    39     1     6
 -1.0245230736337443E+00 a       577     0    39     1     7
 -1.3200555830995588E+00 a       578     0    39     1     8
  1.0998757353179041E+00 a       579     0    39     1     9
 -8.9861095943018376E-01 a       580     0    39     1    10
 -2.6768628855129988E+00 a       581     0    39     1    11
 -2.0006773028074925E+00 a       582     0    39     1    12
  3.1908688539631793E+00 a       583     0    39     1    13
 -1.0795087372629322E+00 a       584     0    39     1    14
  6.4142322565941556E-01 a       585     0    39     1    15
 -1.5391606048183091E+00 a       586     0    40     1     1
  7.5453528196046193E-01 a       587     0    40     1     2
 -1.6435243152157075E-01 a       588     0    40     1     3
 -4.6425849297480287E-01 a       589     0    40     1     4
 -1.5916166056427489E-01 a       590     0    40     1     5
  9.3697800378065077E-01 a       591     0    40     1     6
  1.6010325347377581E+00 a       592     0    40     1     7
  1.2368396268874662E+00 a       593     0    40     1     8
 -2.6463949788488611E-01 a       594     0    40     1     9
 -1.1828284340262434E+00 a       595     0    40     1    10
 -1.2024686482897264E+00 a       596     0    40     1    11
  9.4839332716282709E-01 a       597     0    40     1    12
 -1.7805268965208425E+00 a       598     0    40     1    13
 -1.4739497112217292E+00 a       599     0    40     1    14
  4.4105281322388219E+00 a       600     0    40     1    15
  1.9372225325102586E+00 a       601     0    41     1     1
 -2.6431554829511610E+00 a       602     0    41     1     2
 -1.6453354742789611E-02 a       603     0    41     1     3
  1.6509994443819811E+00 a       604     0    41     1     4
  8.5804893354483769E-01 a       605     0    41     1     5
 -7.3039689903216698E-01 a       606     0    41     1     6
 -9.9865319075643388E-02 a       607     0    41     1     7
  2.1558411607614064E-01 a       608     0    41     1     8
  1.0192132603200807E+00 a       609     0    41     1     9
  1.2325035917301119E-01 a       610     0    41     1    10
 -1.0905414769543516E+00 a       611     0    41     1    11
 -1.8392494964005914E+00 a       612     0    41     1    12
  2.7752308417142921E+00 a       613     0    41     1    13
  7.9131819046582597E-01 a       614     0    41     1    14
 -1.2961621569460755E+00 a       615     0    41     1    15
  1.0202364965482635E+00 a       616     0    42     1     1
  2.8454798868493376E+00 a       617     0    42     1     2
 -4.8793612962579297E-01 a       618     0    42     1     3
 -3.2087988857297345E-01 a       619     0    42     1     4
 -9.8835991398771705E-01 a       620     0    42     1     5
 -3.6486382194651029E-02 a       621     0    42     1     6
 -6.0022905904532420E-01 a       622     0    42     1     7
 -5.2803308718413700E-01 a       623     0    42     1     8
 -4.6326920788873482E-01 a       624     0    42     1     9
 -1.4652650588594425E+00 a       625     0    42     1    10
 -6.8004930854777795E-02 a       626     0    42     1    11
 -4.0835744521629563E-01 a       627     0    42     1    12
  1.7488373868641818E+00 a       628     0    42     1    13
  9.6807096031938045E-01 a       629     0    42     1    14
  1.1191168156946050E+00 a       630     0    42     1    15
  3.1145724670479102E-02 a       631     0    43     1     1
  1.1157885540476919E-01 a       632     0    43     1     2
 -9.6804584034518770E-01 a       633     0    43     1     3
  1.1965891717461155E+00 a       634     0    43     1     4
  8.7113662507389600E-01 a       635     0    43     1     5
 -4.1338251199633014E-01 a       636     0    43     1     6
  1.2244487490951608E+00 a       637     0    43     1     7
 -1.1130702116566358E+00 a       638     0    43     1     8
 -4.6352593271959763E-01 a       639     0    43     1     9
 -1.3641033613913045E+00 a       640     0    43     1    10
 -4.3401324865157753E-01 a       641     0    43     1    11
 -6.4558467329591807E-01 a       642     0    43     1    12
  3.5941885041698924E+00 a       643     0    43     1    13
  2.6557439940789389E+00 a       644     0    43     1    14
 -2.1315365036601461E+00 a       645     0    43     1    15
 -4.3267712604734065E-01 a       646     0    44     1     1
 -4.1981591563969376E+00 a       647     0    44     1     2
  2.0326897945740185E+00 a       648     0    44     1     3
 -5.8706934786241938E-01 a       649     0    44     1     4
 -2.9644267211543420E+00 a       650     0    44     1     5
  3.9935714714995507E-01 a       651     0    44     1     6
 -2.4145756138260781E+00 a       652     0    44     1     7
  1.4422856596873810E+00 a       653     0    44     1     8
 -3.6753828650564752E-01 a       654     0    44     1     9
  1.5929966846841910E+00 a       655     0    44     1    10
  1.2365619830207226E+00 a       656     0    44     1    11
  3.6661546962114651E+00 a       657     0    44     1    12
 -3.0072757810350081E+00 a       658     0    44     1    13
 -2.1940780241085727E+00 a       659     0    44     1    14
  3.4246299411245609E+00 a       660     0    44     1    15
  1.1463190523055433E+00 a       661     0    45     1     1
 -7.9829587169367400E-01 a       662     0    45     1     2
 -1.2772719240316834E+00 a       663     0    45     1     3
  9.3550973027921480E-02 a       664     0    45     1     4
  1.5449358057645330E+00 a       665     0    45     1     5
 -8.7426944721559452E-01 a       666     0    45     1     6
  9.2451933842758038E-01 a       667     0    45     1     7
  1.0322372450998005E+00 a       668     0    45     1     8
  8.8828425511140807E-01 a       669     0    45     1     9
 -5.8349254599238876E-01 a       670     0    45     1    10
  1.1578608624561046E-01 a       671     0    45     1    11
  1.4852532464043766E+00 a       672     0    45     1    12
 -9.6455221586656037E-01 a       673     0    45     1    13
  2.0658404571516713E+00 a       674     0    45     1    14
  1.7738280467257512E+00 a       675     0    45     1    15
  3.4213852154929786E-01 a       676     0    46     1     1
  7.9406612519824915E-01 a       677     0    46     1     2
 -1.6298831763112448E-01 a       678     0    46     1     3
 -8.3004913103165734E-01 a       679     0    46     1     4
  4.2513307909151676E-01 a       680     0    46     1     5
 -7.6410383619446542E-01 a       681     0    46     1     6
  7.5602260364788931E-01 a       682     0    46     1     7
 -4.0333908112218653E-01 a       683     0    46     1     8
 -3.9890929340327336E-01 a       684     0    46     1     9
  6.6608950414918544E-01 a       685     0    46     1    10
 -8.9539418733598730E-01 a       686     0    46     1    11
  1.1720601184088661E+00 a       687     0    46     1    12
  1.4828581993562435E+00 a       688     0    46     1    13
  9.0482725973602063E-01 a       689     0    46     1    14
 -1.5690377972086795E+00 a       690     0    46     1    15
 -8.4738019596214254E-01 a       691     0    47     1     1
  3.3093281662392193E-01 a       692     0    47     1     2
  1.7139289186163753E+00 a       693     0    47     1     3
 -9.9927672416629743E-01 a       694     0    47     1     4
  4.9804198468730554E-01 a       695     0    47     1     5
 -6.5043502958978838E-01 a       696     0    47     1     6
  1.1254053016315129E+00 a       697     0    47     1     7
 -8.3444479466868504E-01 a       698     0    47     1     8
  2.4180421118979850E-01 a       699     0    47     1     9
  1.8605928344474385E+00 a       700     0    47     1    10
  1.1304194450421021E+00 a       701     0    47     1    11
  2.2389738282537910E+00 a       702     0    47     1    12
 -6.9577563497380834E-01 a       703     0    47     1    13
 -8.6616349081042832E-01 a       704     0    47     1    14
  9.6711950330275209E-01 a       705     0    47     1    15
  7.7612065821480747E-01 a       706     0    48     1     1
 -2.4828014493707742E-01 a       707     0    48     1     2
 -1.6189537346533664E+00 a       708     0    48     1     3
 -1.7835031970515058E+00 a       709     0    48     1     4
  3.4228099339932366E-01 a       710     0    48     1     5
 -3.5143701846524705E-01 a       711     0    48     1     6
  1.5507586821610730E-01 a       712     0    48     1     7
  6.3471387534273038E-01 a       713     0    48     1     8
 -1.3968307954224841E+00 a       714     0    48     1     9
 -5.0302485475416303E-01 a       715     0    48     1    10
  5.7717207717415608E-01 a       716     0    48     1    11
  2.1155447528796018E-01 a       717     0    48     1    12
  5.7944568247244055E-01 a       718     0    48     1    13
  1.0581686737622273E+00 a       719     0    48     1    14
  8.1422424169341689E-01 a       720     0    48     1    15
 -1.1929246779739768E+00 a       721     0    49     1     1
  6.7899823379309421E-01 a       722     0    49     1     2
  8.8137212610589866E-01 a       723     0    49     1     3
 -3.7840318999789129E+00 a       724     0    49     1     4
 -1.2936936668873944E+00 a       725     0    49     1     5
  3.9414280426895176E-01 a       726     0    49     1     6
  3.8183022769274784E+00 a       727     0    49     1     7
  1.0941179526561040E+00 a       728     0    49     1     8
 -1.7424735207156410E+00 a       729     0    49     1     9
 -1.0993910924792891E+00 a       730     0    49     1    10
 -1.8342268744121675E+00 a       731     0    49     1    11
  1.6961218662181916E+00 a       732     0    49     1    12
 -2.0741121154550761E+00 a       733     0    49     1    13
 -3.1041845199001137E+00 a       734     0    49     1    14
  3.4610121013145281E+00 a       735     0    49     1    15
  7.8159559100158083E-01 a       736     0    50     1     1
  2.7643333682746372E+00 a       737     0    50     1     2
  3.3197175117110631E+00 a       738     0    50     1     3
  1.3445859445464592E+00 a       739     0    50     1     4
 -1.3033644066629984E+00 a       740     0    50     1     5
 -9.4801187823173083E-01 a       741     0    50     1     6
  4.1164549743754564E-01 a       742     0    50     1     7
 -2.0852550372274337E+00 a       743     0    50     1     8
  7.0220481641010379E-01 a       744     0    50     1     9
  9.1459709109721377E-01 a       745     0    50     1    10
 -1.7237973700422571E+00 a       746     0    50     1    11
  8.4939996702025766E-01 a       747     0    50     1    12
  6.0252100765469585E-01 a       748     0    50     1    13
  2.9477184022721845E+00 a       749     0    50     1    14
 -1.1959597913213642E+00 a       750     0    50     1    15
  1.8605860297342542E+00 a       751     0    51     1     1
  2.6781930689302624E-01 a       752     0    51     1     2
 -4.8351573671050530E-01 a       753     0    51     1     3
 -1.3188927247359721E+00 a       754     0    51     1     4
  5.3672281695323149E-02 a       755     0    51     1     5
 -2.5638138246351694E-02 a       756     0    51     1     6
 -1.5437616197962152E+00 a       757     0    51     1     7
  8.5886087905513941E-01 a       758     0    51     1     8
  7.4319142900621082E-01 a       759     0    51     1     9
 -1.2204945067684265E+00 a       760     0    51     1    10
  2.3599280726033087E+00 a       761     0    51     1    11
 -1.8215816638794422E+00 a       762     0    51     1    12
 -1.4305402810704022E+00 a       763     0    51     1    13
  2.8529752026959265E-01 a       764     0    51     1    14
  2.3511335357442897E+00 a       765     0    51     1    15
 -5.4484212284730726E-01 a       766     0    52     1     1
  2.2078678425525649E+00 a       767     0    52     1     2
  3.8100992036814252E-01 a       768     0    52     1     3
 -2.1095485123535829E+00 a       769     0    52     1     4
  3.2768232959564236E-01 a       770     0    52     1     5
 -1.2278439364946145E+00 a       771     0    52     1     6
  5.2471994302751146E-01 a       772     0    52     1     7
 -1.9298019447986912E+00 a       773     0    52     1     8
  9.7972926797660076E-01 a       774     0    52     1     9
 -7.9332237664386951E-01 a       775     0    52     1    10
  7.4971171314337492E-01 a       776     0    52     1    11
  1.5614140614884953E+00 a       777     0    52     1    12
 -2.5104731047606585E+00 a       778     0    52     1    13
  9.3493007378109794E-01 a       779     0    52     1    14
  1.0460618020947714E+00 a       780     0    52     1    15
  3.5174873314949340E-01 a       781     0    53     1     1
  5.1801644443415207E-01 a       782     0    53     1     2
 -1.3173630366964877E+00 a       783     0    53     1     3
 -1.2887251834371196E+00 a       784     0    53     1     4
  2.3118426007792839E-01 a       785     0    53     1     5
 -9.6291805301194877E-01 a       786     0    53     1     6
  1.3125855140663449E+00 a       787     0    53     1     7
 -3.6977591374392543E-01 a       788     0    53     1     8
 -1.7380191245710910E+00 a       789     0    53     1     9
  7.6957293821299466E-01 a       790     0    53     1    10
 -1.9768411412864029E-01 a       791     0    53     1    11
  1.7343832505182784E+00 a       792     0    53     1    12
  3.8648728266210988E+00 a       793     0    53     1    13
  6.3742362619224535E-01 a       794     0    53     1    14
  1.1511643784453127E+00 a       795     0    53     1    15
  5.3545633348503907E-01 a       796     0    54     1     1
  2.5144884439686654E-01 a       797     0    54     1     2
 -1.8525330474928041E+00 a       798     0    54     1     3
  3.5239542181810224E-01 a       799     0    54     1     4
 -2.6705032656390375E+00 a       800     0    54     1     5
 -1.2386526169278440E+00 a       801     0    54     1     6
  6.2416445985927194E-01 a       802     0    54     1     7
  1.6781893698702796E-01 a       803     0    54     1     8
 -1.5572817705898760E+00 a       804     0    54     1     9
  1.3239731330010664E+00 a       805     0    54     1    10
  3.7585993743536039E-01 a       806     0    54     1    11
  1.4866454556217388E+00 a       807     0    54     1    12
 -1.2965477366648708E+00 a       808     0    54     1    13
  2.1681275910362094E-01 a       809     0    54     1    14
 -5.0959774133918234E-01 a       810     0    54     1    15
 -1.3720143569472398E+00 a       811     0    55     1     1
 -9.1109756521093443E-01 a       812     0    55     1     2
  5.9840048193046214E-01 a       813     0    55     1     3
 -1.1061896639423729E-01 a       814     0    55     1     4
 -3.8095756503310968E-01 a       815     0    55     1     5
 -1.4758078236714517E-01 a       816     0    55     1     6
 -5.7860306662921690E-01 a       817     0    55     1     7
 -8.8631228184758337E-01 a       818     0    55     1     8
  1.7025239915917207E+00 a       819     0    55     1     9
 -4.2404325953544653E-02 a       820     0    55     1    10
 -4.0085687426100253E-01 a       821     0    55     1    11
 -1.0491459373453611E+00 a       822     0    55     1    12
  1.9477615586198784E+00 a       823     0    55     1    13
  5.2448346094657794E-01 a       824     0    55     1    14
  5.8782997189302932E-01 a       825     0    55     1    15
 -2.6705648375448898E-01 a       826     0    56     1     1
  8.4648320586102077E-01 a       827     0    56     1     2
  3.3964975649726509E-01 a       828     0    56     1     3
 -8.9062474481582832E-01 a       829     0    56     1     4
  2.7404824541809036E-02 a       830     0    56     1     5
 -5.4340019548945340E-01 a       831     0    56     1     6
  2.3325265789841509E-02 a       832     0    56     1     7
  7.9035479710702616E-01 a       833     0    56     1     8
 -2.1290087761032299E+00 a       834     0    56     1     9
  4.5490563972488579E-01 a       835     0    56     1    10
  1.8599909776497048E-01 a       836     0    56     1    11
 -1.6833306943142365E+00 a       837     0    56     1    12
 -2.3050865151283628E+00 a       838     0    56     1    13
 -1.3740719344939996E+00 a       839     0    56     1    14
 -1.8033089462683014E+00 a       840     0    56     1    15
  6.4697218580569715E-01 a       841     0    57     1     1
  2.5558066402356355E-01 a       842     0    57     1     2
 -1.2506698734477151E+00 a       843     0    57     1     3
 -1.4431038772993241E+00 a       844     0    57     1     4
  1.0875749676711080E+00 a       845     0    57     1     5
  1.2481751315849927E+00 a       846     0    57     1     6
  1.0817620607762259E+00 a       847     0    57     1     7
 -1.1361921407241200E+00 a       848     0    57     1     8
  6.6900220623915430E-01 a       849     0    57     1     9
  1.1380836565681944E+00 a       850     0    57     1    10
 -2.7140662991852821E-01 a       851     0    57     1    11
  2.0559029845268615E+00 a       852     0    57     1    12
 -1.5909189554428471E+00 a       853     0    57     1    13
  7.8367692396262201E-01 a       854     0    57     1    14
 -4.2847313799208547E-01 a       855     0    57     1    15
  9.9766938309702702E-01 a       856     0    58     1     1
  1.0367917909162503E+00 a       857     0    58     1     2
  3.6608039367317491E-01 a       858     0    58     1     3
 -1.2177624459932554E-01 a       859     0    58     1     4
  3.1801420461082497E-01 a       860     0    58     1     5
 -7.4941973494263348E-01 a       861     0    58     1     6
  6.3299587381390099E-01 a       862     0    58     1     7
 -8.5050963167940669E-02 a       863     0    58     1     8
  3.3687881318209956E-01 a       864     0    58     1     9
  8.5378814649668544E-01 a       865     0    58     1    10
  1.1326161840229905E+00 a       866     0    58     1    11
 -1.1649959889068742E+00 a       867     0    58     1    12
 -7.2804758894569410E-01 a       868     0    58     1    13
 -1.2762153784359378E+00 a       869     0    58     1    14
 -4.0133339409965052E-02 a       870     0    58     1    15
 -1.8323186601099171E+00 a       871     0    59     1     1
  9.5345635650367622E-01 a       872     0    59     1     2
 -1.4817217078152973E+00 a       873     0    59     1     3
 -2.2541112280254767E+00 a       874     0    59     1     4
  1.5250402047875309E+00 a       875     0    59     1     5
  1.1540280774056484E+00 a       876     0    59     1     6
 -4.3672558204912432E-01 a       877     0    59     1     7
 -6.5837546245177392E-01 a       878     0    59     1     8
 -1.0319629377887987E+00 a       879     0    59     1     9
  1.1476029032513859E+00 a       880     0    59     1    10
  1.0129199239386111E+00 a       881     0    59     1    11
  1.1056672445930210E-01 a       882     0    59     1    12
 -1.1175206249982885E+00 a       883     0    59     1    13
  3.8356151785926179E-01 a       884     0    59     1    14
 -1.7731394755568730E+00 a       885     0    59     1    15
  1.4694482877174662E+00 a       886     0    60     1     1
  4.9593815732184278E-02 a       887     0    60     1     2
 -1.1246866293618454E+00 a       888     0    60     1     3
 -9.5749628854423574E-01 a       889     0    60     1     4
  1.4402660957535685E+00 a       890     0    60     1     5
  7.5722362811891619E-01 a       891     0    60     1     6
 -6.6794999570444635E-01 a       892     0    60     1     7
  1.1434917189675051E+00 a       893     0    60     1     8
  3.2451182296223691E-01 a       894     0    60     1     9
 -5.6682665451174719E-01 a       895     0    60     1    10
 -9.6852027483577308E-01 a       896     0    60     1    11
 -1.0671226845327836E-01 a       897     0    60     1    12
 -4.8953948770476929E-02 a       898     0    60     1    13
  4.4445754644865931E-01 a       899     0    60     1    14
  8.1980241866360237E-01 a       900     0    60     1    15
  6.9057453109478484E-01 a       901     0    61     1     1
  1.8953406342587464E+00 a       902     0    61     1     2
 -2.0657015713536691E+00 a       903     0    61     1     3
  1.3401390018478870E-01 a       904     0    61     1     4
 -2.1678659231770756E+00 a       905     0    61     1     5
  2.0810555034605800E+00 a       906     0    61     1     6
 -2.0699535653893788E+00 a       907     0    61     1     7
 -4.2987835789890244E-01 a       908     0    61     1     8
  1.1701511737685660E-01 a       909     0    61     1     9
 -8.2731272227090402E-01 a       910     0    61     1    10
  3.6048523846727115E-01 a       911     0    61     1    11
 -1.6532636979289941E+00 a       912     0    61     1    12
  5.7064968680591099E-01 a       913     0    61     1    13
 -1.0605586948708536E+00 a       914     0    61     1    14
 -2.2012030979716717E+00 a       915     0    61     1    15
 -3.1184846257588319E+00 a       916     0    62     1     1
 -1.2693681562677499E+00 a       917     0    62     1     2
  8.4907346150433272E-02 a       918     0    62     1     3
  7.2161432275692583E-01 a       919     0    62     1     4
 -1.3383656640401598E+00 a       920     0    62     1     5
 -1.1604621544391227E+00 a       921     0    62     1     6
 -1.3829505410683089E+00 a       922     0    62     1     7
 -1.8644103378678747E+00 a       923     0    62     1     8
  2.1995266723889650E-01 a       924     0    62     1     9
  9.1483854415823607E-01 a       925     0    62     1    10
 -1.8732356529906469E+00 a       926     0    62     1    11
  8.0410481266535816E-01 a       927     0    62     1    12
  7.5554207197398693E-02 a       928     0    62     1    13
 -1.6760888255468531E+00 a       929     0    62     1    14
 -5.4573786599237617E-02 a       930     0    62     1    15
 -3.2260414691521355E-01 a       931     0    63     1     1
  6.3042020314177727E-01 a       932     0    63     1     2
  9.8076540898799774E-02 a       933     0    63     1     3
 -3.4898106246093363E-01 a       934     0    63     1     4
 -2.8704075361601884E+00 a       935     0    63     1     5
  1.5364772500077568E+00 a       936     0    63     1     6
  3.4432213305550852E-01 a       937     0    63     1     7
  1.2554394807413960E-01 a       938     0    63     1     8
  2.2439270450067470E+00 a       939     0    63     1     9
 -9.6282536451275746E-01 a       940     0    63     1    10
  1.9573427318733050E+00 a       941     0    63     1    11
  3.8898757544966217E-02 a       942     0    63     1    12
  2.7375393522208240E+00 a       943     0    63     1    13
 -1.0593006000401237E-01 a       944     0    63     1    14
  7.5012776679687987E-01 a       945     0    63     1    15
  2.0683682842619029E+00 a       946     0    64     1     1
  7.0635997319139632E-01 a       947     0    64     1     2
  7.7705381290470599E-01 a       948     0    64     1     3
 -3.5465740964267169E-02 a       949     0    64     1     4
  7.8007537563375473E-01 a       950     0    64     1     5
  3.5131982277292606E-01 a       951     0    64     1     6
  1.3487925161150272E+00 a       952     0    64     1     7
 -1.5589004770667028E+00 a       953     0    64     1     8
  6.6250807978050485E-01 a       954     0    64     1     9
 -3.1661465216250750E-01 a       955     0    64     1    10
 -8.6918469031156320E-01 a       956     0    64     1    11
 -4.1536680787632407E-01 a       957     0    64     1    12
 -7.2018348133532628E-01 a       958     0    64     1    13
  7.0915383820310263E-01 a       959     0    64     1    14
 -4.4483215252993846E-01 a       960     0    64     1    15
  3.7201516095747755E-01 a       961     0    65     1     1
  6.7720906668028791E-01 a       962     0    65     1     2
 -3.1500467073295596E-01 a       963     0    65     1     3
  6.9199267067646675E-01 a       964     0    65     1     4
 -5.6845612271090751E-02 a       965     0    65     1     5
 -2.2666462832341111E-01 a       966     0    65     1     6
  5.2764591043516396E-01 a       967     0    65     1     7
  4.9011645187670388E-01 a       968     0    65     1     8
 -3.8875382687550214E-01 a       969     0    65     1     9
 -2.2698821747214076E-01 a       970     0    65     1    10
 -1.6472513997750507E-01 a       971     0    65     1    11
 -4.3892974296181586E-01 a       972     0    65     1    12
  2.0752673193990828E-01 a       973     0    65     1    13
 -6.7754694153230599E-03 a       974     0    65     1    14
  2.2910808193768789E-01 a       975     0    65     1    15
  1.4837179938895928E+00 a       976     0    66     1     1
 -2.6925147347062892E+00 a       977     0    66     1     2
  1.2767980176562874E+00 a       978     0    66     1     3
 -3.6753356018812799E-01 a       979     0    66     1     4
  4.4094033117338227E-02 a       980     0    66     1     5
 -1.1686445692068743E+00 a       981     0    66     1     6
  1.1472499727636791E+00 a       982     0    66     1     7
  5.9587264977335386E-01 a       983     0    66     1     8
  1.4053275191105026E+00 a       984     0    66     1     9
 -1.8853725571181457E-01 a       985     0    66     1    10
  2.9835035562964285E-01 a       986     0    66     1    11
 -8.6787400703669171E-01 a       987     0    66     1    12
 -1.6505395746637957E-01 a       988     0    66     1    13
 -4.6588572335961587E-01 a       989     0    66     1    14
  1.6712861902323000E+00 a       990     0    66     1    15
 -4.8552862768928701E-02 a       991     0    67     1     1
 -5.7045757009167009E-01 a       992     0    67     1     2
 -3.2270447202298658E-02 a       993     0    67     1     3
  1.0338541424340129E+00 a       994     0    67     1     4
 -2.4481383099347201E-01 a       995     0    67     1     5
 -9.2432400836727535E-01 a       996     0    67     1     6
  8.6956317940610195E-01 a       997     0    67     1     7
 -4.5035100096509251E-01 a       998     0    67     1     8
  4.5656686426344950E-01 a       999     0    67     1     9
 -1.4071653972692229E+00 a      1000     0    67     1    10
 -3.7108809467772125E-01 a      1001     0    67     1    11
 -9.6263737583979281E-01 a      1002     0    67     1    12
  1.1766346090437030E+00 a      1003     0    67     1    13
  1.5843759398280649E-01 a      1004     0    67     1    14
  3.8625007434384773E-01 a      1005     0    67     1    15
 -1.1347182603892614E-02 a      1006     0    68     1     1
  1.3343281001840959E+00 a      1007     0    68     1     2
 -2.4918608486095439E-01 a      1008     0    68     1     3
 -2.4536891645579728E-01 a      1009     0    68     1     4
  7.7894186080079741E-01 a      1010     0    68     1     5
  7.7097121526535251E-02 a      1011     0    68     1     6
  5.5252093236584510E-01 a      1012     0    68     1     7
  1.8150608926807510E+00 a      1013     0    68     1     8
 -9.4752391423883209E-01 a      1014     0    68     1     9
  5.2108062097262864E-01 a      1015     0    68     1    10
  6.5434606994973776E-01 a      1016     0    68     1    11
 -2.2665582246725067E+00 a      1017     0    68     1    12
 -1.3156665541950221E+00 a      1018     0    68     1    13
 -6.0736298071447803E-01 a      1019     0    68     1    14
 -1.5100576899715317E+00 a      1020     0    68     1    15
  1.2529404949525658E-01 a      1021     0    69     1     1
  4.7413381661215737E-01 a      1022     0    69     1     2
 -2.0957826696941066E+00 a      1023     0    69     1     3
 -3.6152086763839458E-01 a      1024     0    69     1     4
  1.2403880863456189E+00 a      1025     0    69     1     5
  1.7502474734729043E+00 a      1026     0    69     1     6
  1.1140444141975830E-01 a      1027     0    69     1     7
 -1.3080935158180504E+00 a      1028     0    69     1     8
  1.1392172684288873E+00 a      1029     0    69     1     9
  2.3577767175779454E+00 a      1030     0    69     1    10
  1.0477261568048843E+00 a      1031     0    69     1    11
  2.0414755605687569E+00 a      1032     0    69     1    12
 -1.4272919884749911E+00 a      1033     0    69     1    13
  1.8191429247259288E+00 a      1034     0    69     1    14
 -1.1842179472435246E+00 a      1035     0    69     1    15
  3.2877142607235932E-01 a      1036     0    70     1     1
  5.9760779770150464E-02 a      1037     0    70     1     2
  7.9449975051218691E-01 a      1038     0    70     1     3
 -1.2194481537010027E+00 a      1039     0    70     1     4
  2.7264318377806152E-01 a      1040     0    70     1     5
 -3.5161397956694662E-01 a      1041     0    70     1     6
  4.2169222090530145E-01 a      1042     0    70     1     7
 -7.6549902125323560E-02 a      1043     0    70     1     8
  3.4200454887428244E-01 a      1044     0    70     1     9
 -8.6653346416465368E-02 a      1045     0    70     1    10
  7.3690855889799356E-01 a      1046     0    70     1    11
 -1.5869730352254865E+00 a      1047     0    70     1    12
  6.2222967415021357E-01 a      1048     0    70     1    13
 -5.4603504259779212E-01 a      1049     0    70     1    14
 -3.6393971930578578E-01 a      1050     0    70     1    15
 -7.3648957938687931E-01 a      1051     0    71     1     1
  6.1468862885277475E-01 a      1052     0    71     1     2
 -6.7215700056485062E-01 a      1053     0    71     1     3
 -9.3015784005653279E-01 a      1054     0    71     1     4
  9.2154323697010976E-01 a      1055     0    71     1     5
  8.8426334715388999E-01 a      1056     0    71     1     6
  4.7485275285374801E-03 a      1057     0    71     1     7
 -8.9519621833383400E-01 a      1058     0    71     1     8
 -5.7807207276375117E-01 a      1059     0    71     1     9
 -3.8014727613198845E-01 a      1060     0    71     1    10
  6.4607616931843004E-01 a      1061     0    71     1    11
  3.6279014668274079E-01 a      1062     0    71     1    12
 -1.4769620747361718E+00 a      1063     0    71     1    13
  1.0888422814002241E+00 a      1064     0    71     1    14
 -1.2616374082211606E+00 a      1065     0    71     1    15
  1.4827536006216797E+00 a      1066     0    72     1     1
 -8.0081177882453769E-01 a      1067     0    72     1     2
 -8.4418990840703612E-01 a      1068     0    72     1     3
  4.9530519065156209E-01 a      1069     0    72     1     4
  5.7123528607848351E-01 a      1070     0    72     1     5
  9.6068882288780980E-02 a      1071     0    72     1     6
  4.6955798475001154E-01 a      1072     0    72     1     7
  1.2910218284698600E+00 a      1073     0    72     1     8
 -4.4047190371566786E-01 a      1074     0    72     1     9
 -4.2389861796872785E-01 a      1075     0    72     1    10
 -1.0550254658470124E+00 a      1076     0    72     1    11
 -1.0121848401123450E+00 a      1077     0    72     1    12
 -3.8801940679530922E-01 a      1078     0    72     1    13
 -4.8762094436435632E-01 a      1079     0    72     1    14
  7.2631525494152049E-01 a      1080     0    72     1    15
  8.8749594608534133E-01 a      1081     0    73     1     1
  6.0612448949340947E-01 a      1082     0    73     1     2
 -4.0804221578613292E-01 a      1083     0    73     1     3
  1.4878354020205016E+00 a      1084     0    73     1     4
 -2.2362761975072800E+00 a      1085     0    73     1     5
  2.0769045323808486E+00 a      1086     0    73     1     6
 -1.7813625294819078E+00 a      1087     0    73     1     7
 -8.0783416403598307E-01 a      1088     0    73     1     8
  5.9186373659395008E-01 a      1089     0    73     1     9
 -1.0239527605844883E+00 a      1090     0    73     1    10
 -7.4262634746855993E-01 a      1091     0    73     1    11
 -5.9691137643799541E-01 a      1092     0    73     1    12
  6.3299975680718024E-01 a      1093     0    73     1    13
 -5.8569024334780806E-01 a      1094     0    73     1    14
 -7.4320636837774567E-01 a      1095     0    73     1    15
 -4.0012546754895624E+00 a      1096     0    74     1     1
 -1.8074412178260528E+00 a      1097     0    74     1     2
 -4.4631094895871898E-01 a      1098     0    74     1     3
 -9.7421163660123611E-01 a      1099     0    74     1     4
 -3.3842870946915022E+00 a      1100     0    74     1     5
 -1.5497991584664499E+00 a      1101     0    74     1     6
  5.0576389732856469E-02 a      1102     0    74     1     7
 -2.1091408923817321E+00 a      1103     0    74     1     8
 -2.6289423428088249E-01 a      1104     0    74     1     9
  3.5668657666641751E-01 a      1105     0    74     1    10
 -6.4857727312262092E-01 a      1106     0    74     1    11
  1.3936018834178414E+00 a      1107     0    74     1    12
  1.4206769538605075E+00 a      1108     0    74     1    13
  5.4517150900774458E-01 a      1109     0    74     1    14
  5.2655230003093495E-02 a      1110     0    74     1    15
 -5.9376046233173518E-01 a      1111     0    75     1     1
  8.4458549717167847E-02 a      1112     0    75     1     2
 -1.3298505029202468E-01 a      1113     0    75     1     3
  1.8218841959625953E-01 a      1114     0    75     1     4
 -1.7556227197708323E+00 a      1115     0    75     1     5
  8.4493482095066663E-01 a      1116     0    75     1     6
  1.4537305555039115E+00 a      1117     0    75     1     7
 -2.1015509850064129E-01 a      1118     0    75     1     8
  1.4389462790010190E+00 a      1119     0    75     1     9
 -1.7779643095092486E+00 a      1120     0    75     1    10
  2.8790793138711566E+00 a      1121     0    75     1    11
  6.9023145601728597E-01 a      1122     0    75     1    12
  2.1580195444141967E+00 a      1123     0    75     1    13
 -6.8144720968215589E-01 a      1124     0    75     1    14
 -2.0120095494978785E-02 a      1125     0    75     1    15
  1.9095329029773234E+00 a      1126     0    76     1     1
 -7.6788875285804381E-01 a      1127     0    76     1     2
 -2.5215521209998426E-01 a      1128     0    76     1     3
 -5.6839972046310624E-02 a      1129     0    76     1     4
  6.0481409790437324E-01 a      1130     0    76     1     5
 -5.8252695594534132E-01 a      1131     0    76     1     6
  4.5818995389115474E-01 a      1132     0    76     1     7
 -4.1803425671980332E-01 a      1133     0    76     1     8
  6.7833432663363158E-01 a      1134     0    76     1     9
  1.5704966097411359E+00 a      1135     0    76     1    10
 -1.0845196918179114E+00 a      1136     0    76     1    11
 -6.9641115501200446E-01 a      1137     0    76     1    12
 -1.1241886856406842E+00 a      1138     0    76     1    13
  1.3418686779925337E-01 a      1139     0    76     1    14
  1.7853964474078809E-01 a      1140     0    76     1    15
  1.1630132571997369E+00 a      1141     0    77     1     1
 -1.0358873670481743E+00 a      1142     0    77     1     2
  8.8348620054840243E-01 a      1143     0    77     1     3
  2.1111855330806695E-01 a      1144     0    77     1     4
 -4.3060836477412301E-01 a      1145     0    77     1     5
  8.8548058974965149E-02 a      1146     0    77     1     6
 -1.0262628424126032E+00 a      1147     0    77     1     7
 -3.5999566839358932E-01 a      1148     0    77     1     8
 -9.5750294439970274E-01 a      1149     0    77     1     9
  9.7730733605860931E-01 a      1150     0    77     1    10
 -4.4592024086265097E-01 a      1151     0    77     1    11
 -1.7912260601530683E-01 a      1152     0    77     1    12
  6.4764154153242048E-01 a      1153     0    77     1    13
  1.4716364801568043E+00 a      1154     0    77     1    14
  3.2267324267820918E-01 a      1155     0    77     1    15
  1.9252272138443915E-01 a      1156     0    78     1     1
 -1.5447446196638197E+00 a      1157     0    78     1     2
  7.5703675602024478E-01 a      1158     0    78     1     3
  1.3145909708207542E+00 a      1159     0    78     1     4
  8.1024741997333993E-01 a      1160     0    78     1     5
  1.4873076223202351E+00 a      1161     0    78     1     6
  2.6849856969665742E-01 a      1162     0    78     1     7
  3.0193324643787651E+00 a      1163     0    78     1     8
  4.1264732859390368E-01 a      1164     0    78     1     9
 -9.0204603996342869E-01 a      1165     0    78     1    10
  1.7779565454240815E+00 a      1166     0    78     1    11
 -1.3033346814535514E+00 a      1167     0    78     1    12
  1.1524263863052235E+00 a      1168     0    78     1    13
 -1.7714625589280804E+00 a      1169     0    78     1    14
  4.2763423184778382E-02 a      1170     0    78     1    15
 -2.6800576327521297E-01 a      1171     0    79     1     1
 -8.1788687637114732E-01 a      1172     0    79     1     2
 -1.4663147886953698E-01 a      1173     0    79     1     3
  2.7437547094368981E+00 a      1174     0    79     1     4
  5.5728736773601817E-01 a      1175     0    79     1     5
 -9.7498415605080346E-01 a      1176     0    79     1     6
  3.2661445862096579E+00 a      1177     0    79     1     7
  9.7615381704234294E-01 a      1178     0    79     1     8
  7.3409994968753489E-01 a      1179     0    79     1     9
 -2.9609134452324128E+00 a      1180     0    79     1    10
 -2.2546135126628486E+00 a      1181     0    79     1    11
 -7.3137794774980536E-01 a      1182     0    79     1    12
  1.3697312479263808E+00 a      1183     0    79     1    13
  4.8341093188369322E-01 a      1184     0    79     1    14
  5.4239957435935193E-01 a      1185     0    79     1    15
  7.7890101817616886E-01 a      1186     0    80     1     1
  2.5348147340619764E+00 a      1187     0    80     1     2
 -1.2217235284083733E-01 a      1188     0    80     1     3
  3.4763228352607212E-01 a      1189     0    80     1     4
 -3.7512056927231252E-01 a      1190     0    80     1     5
 -1.4571673707403121E+00 a      1191     0    80     1     6
  8.0813037112704111E-01 a      1192     0    80     1     7
  1.7695346303808921E+00 a      1193     0    80     1     8
 -3.8480891051916366E-01 a      1194     0    80     1     9
 -2.0082105750432113E+00 a      1195     0    80     1    10
  2.8057979580803050E+00 a      1196     0    80     1    11
 -2.0712068319044175E+00 a      1197     0    80     1    12
 -2.3684666233264768E+00 a      1198     0    80     1    13
  3.3912947570432006E-01 a      1199     0    80     1    14
  1.8266209067734493E+00 a      1200     0    80     1    15
  2.0191414721627243E-01 a      1201     0    81     1     1
  8.3631497432116197E-01 a      1202     0    81     1     2
  4.3397075214776781E-01 a      1203     0    81     1     3
  3.7996007760767203E-01 a      1204     0    81     1     4
  1.2539844335730648E+00 a      1205     0    81     1     5
 -1.9686252354969325E-01 a      1206     0    81     1     6
 -4.9163931592075438E-02 a      1207     0    81     1     7
 -1.4451968063178520E+00 a      1208     0    81     1     8
 -1.0381420829831461E-01 a      1209     0    81     1     9
  2.8411504482034418E+00 a      1210     0    81     1    10
  1.0553424897762431E+00 a      1211     0    81     1    11
  9.8137203391487793E-01 a      1212     0    81     1    12
 -2.2986048069576306E+00 a      1213     0    81     1    13
 -4.2613983377311171E-01 a      1214     0    81     1    14
 -2.9873232621200234E+00 a      1215     0    81     1    15
  2.6779273901603307E-01 a      1216     0    82     1     1
 -8.7069503569824958E-01 a      1217     0    82     1     2
 -7.2243268507572833E-01 a      1218     0    82     1     3
  7.2418616485782017E-01 a      1219     0    82     1     4
  1.0651718709079688E-01 a      1220     0    82     1     5
 -8.7987130078644626E-01 a      1221     0    82     1     6
  1.3045232821899300E+00 a      1222     0    82     1     7
  6.2211307767931934E-01 a      1223     0    82     1     8
  1.2255424133606052E+00 a      1224     0    82     1     9
 -7.6122080233926726E-01 a      1225     0    82     1    10
 -2.7236904701394449E-02 a      1226     0    82     1    11
 -1.1907718508875376E+00 a      1227     0    82     1    12
 -7.6640745423423307E-01 a      1228     0    82     1    13
 -1.3087655190166059E+00 a      1229     0    82     1    14
  1.0614587684249628E+00 a      1230     0    82     1    15
 -1.2314817278576977E+00 a      1231     0    83     1     1
 -1.0515049852638583E+00 a      1232     0    83     1     2
 -7.2759946031860445E-01 a      1233     0    83     1     3
  8.8912709901848075E-01 a      1234     0    83     1     4
  5.7602979010502675E-01 a      1235     0    83     1     5
 -1.3821093823458155E+00 a      1236     0    83     1     6
 -9.1219689802393006E-02 a      1237     0    83     1     7
  1.9494492597229078E+00 a      1238     0    83     1     8
  4.7827838486204544E-01 a      1239     0    83     1     9
  1.2755296026401131E-02 a      1240     0    83     1    10
 -2.9062503009419094E-01 a      1241     0    83     1    11
 -5.5056614217017230E-01 a      1242     0    83     1    12
  3.8942877169067142E-01 a      1243     0    83     1    13
  1.1735925084853038E+00 a      1244     0    83     1    14
 -1.1118069727753772E+00 a      1245     0    83     1    15
  3.3208602153542288E-01 a      1246     0    84     1     1
 -1.9231211303069856E-01 a      1247     0    84     1     2
  2.7791534011420949E-01 a      1248     0    84     1     3
  6.8571108827469440E-01 a      1249     0    84     1     4
  7.9760884320455760E-01 a      1250     0    84     1     5
 -1.3053689227544092E+00 a      1251     0    84     1     6
 -8.7333582063836168E-01 a      1252     0    84     1     7
 -1.3303476553134810E+00 a      1253     0    84     1     8
 -1.0213142640182671E+00 a      1254     0    84     1     9
 -1.0684761452530163E+00 a      1255     0    84     1    10
  3.6011595982041955E-02 a      1256     0    84     1    11
  9.6856441558999817E-01 a      1257     0    84     1    12
 -2.8602190774897429E-01 a      1258     0    84     1    13
  3.8907095066087805E-01 a      1259     0    84     1    14
  6.8399199034545188E-01 a      1260     0    84     1    15
  1.2721965280412060E+00 a      1261     0    85     1     1
  7.7173916421929845E-01 a      1262     0    85     1     2
  3.7094633669281968E-01 a      1263     0    85     1     3
 -4.3223097971819713E-01 a      1264     0    85     1     4
  2.6778899561475233E-01 a      1265     0    85     1     5
  2.4214959371749822E-01 a      1266     0    85     1     6
  4.2574444013301582E-01 a      1267     0    85     1     7
  4.7442605291942455E+00 a      1268     0    85     1     8
 -2.8701939744108476E+00 a      1269     0    85     1     9
  2.6576895351813878E-01 a      1270     0    85     1    10
 -2.0916030384256262E-01 a      1271     0    85     1    11
  1.7484976987758798E+00 a      1272     0    85     1    12
 -1.1799406653874629E+00 a      1273     0    85     1    13
 -1.2925467383618430E+00 a      1274     0    85     1    14
 -3.9176673351970224E+00 a      1275     0    85     1    15
  9.3281633734738212E-01 a      1276     0    86     1     1
 -2.1885103388496470E+00 a      1277     0    86     1     2
  3.4866765834687556E+00 a      1278     0    86     1     3
  3.7325357339242959E-01 a      1279     0    86     1     4
 -6.7587963362760572E-01 a      1280     0    86     1     5
 -3.1423882773728180E+00 a      1281     0    86     1     6
 -1.4190826330080528E+00 a      1282     0    86     1     7
  9.6719521414295656E-02 a      1283     0    86     1     8
  4.8357140523204230E+00 a      1284     0    86     1     9
 -1.5343386586183299E+00 a      1285     0    86     1    10
  2.1562058784620248E+00 a      1286     0    86     1    11
  3.9924908705830067E+00 a      1287     0    86     1    12
 -1.3444362764765392E+00 a      1288     0    86     1    13
  4.9007019285164919E+00 a      1289     0    86     1    14
  5.8381959253098525E-02 a      1290     0    86     1    15
  2.7082759351566152E+00 a      1291     0    87     1     1
  3.3411984154617960E+00 a      1292     0    87     1     2
 -2.2079573693178678E+00 a      1293     0    87     1     3
 -3.0645347182157110E+00 a      1294     0    87     1     4
  1.0454659851482342E+00 a      1295     0    87     1     5
 -4.5783640182795438E-01 a      1296     0    87     1     6
  3.1009753676469326E-01 a      1297     0    87     1     7
  3.7738887936267456E+00 a      1298     0    87     1     8
 -3.2350388861704586E+00 a      1299     0    87     1     9
  2.7298613671566940E+00 a      1300     0    87     1    10
 -4.8268138104293418E-01 a      1301     0    87     1    11
 -2.3107188267393481E+00 a      1302     0    87     1    12
 -2.0511702854539959E+00 a      1303     0    87     1    13
 -4.2478767465976262E+00 a      1304     0    87     1    14
  9.5567512220580922E-02 a      1305     0    87     1    15
 -3.6413684771444838E-01 a      1306     0    88     1     1
 -7.1096555360425751E-01 a      1307     0    88     1     2
  3.4596989737668005E-01 a      1308     0    88     1     3
  2.7323598129036614E-01 a      1309     0    88     1     4
  1.7996073891342240E-01 a      1310     0    88     1     5
 -1.4204155167260397E+00 a      1311     0    88     1     6
 -7.0655003514941006E-01 a      1312     0    88     1     7
  8.5308296428947528E-01 a      1313     0    88     1     8
 -7.0239315711271921E-01 a      1314     0    88     1     9
 -2.9210157194084141E-01 a      1315     0    88     1    10
 -1.2812715446623046E-01 a      1316     0    88     1    11
 -1.6320084049275214E+00 a      1317     0    88     1    12
  1.5680898524795266E+00 a      1318     0    88     1    13
  7.9229234902928147E-01 a      1319     0    88     1    14
 -9.7534146672780730E-01 a      1320     0    88     1    15
  1.1208490394627162E+00 a      1321     0    89     1     1
  1.8388374532788701E-01 a      1322     0    89     1     2
  6.2649518687037831E-01 a      1323     0    89     1     3
  1.9686952607199095E+00 a      1324     0    89     1     4
  6.3059289352564751E-01 a      1325     0    89     1     5
 -5.1046531401458173E-01 a      1326     0    89     1     6
 -1.3139855622097735E-01 a      1327     0    89     1     7
 -2.7973988155914509E-01 a      1328     0    89     1     8
  3.0589009361918560E+00 a      1329     0    89     1     9
  3.5694395036241944E-01 a      1330     0    89     1    10
  1.5632189663771241E+00 a      1331     0    89     1    11
  3.3877180097517978E-01 a      1332     0    89     1    12
 -2.7379833072980331E+00 a      1333     0    89     1    13
  1.7450621155650858E+00 a      1334     0    89     1    14
 -2.5747070539974755E+00 a      1335     0    89     1    15
 -4.0508618452356639E+00 a      1336     0    90     1     1
 -1.7995890569379767E+00 a      1337     0    90     1     2
  2.8185679372591528E+00 a      1338     0    90     1     3
  3.0706350801750593E+00 a      1339     0    90     1     4
  1.4430020841746458E+00 a      1340     0    90     1     5
  3.4319605263273991E+00 a      1341     0    90     1     6
  7.6065911743961934E-01 a      1342     0    90     1     7
 -2.0820678880667769E+00 a      1343     0    90     1     8
  8.7081581237607097E-01 a      1344     0    90     1     9
 -7.4116986035394405E-01 a      1345     0    90     1    10
 -7.1834825889154552E-01 a      1346     0    90     1    11
 -1.3485404290287992E+00 a      1347     0    90     1    12
  5.2928274000913356E-01 a      1348     0    90     1    13
 -7.0587814251883385E-01 a      1349     0    90     1    14
 -1.1757862537739980E+00 a      1350     0    90     1    15
  2.7955519446338348E+00 b      1351     1     1
 -7.4297761700087195E-01 b      1352     1     2
  4.3276395204243551E-01 b      1353     1     3
  2.6996404565332444E-01 b      1354     1     4
 -1.4348630182180022E-01 b      1355     1     5
 -7.8319682362671594E-01 b      1356     1     6
 -1.9188789398349717E+00 b      1357     1     7
 -5.9307877986978186E-01 b      1358     1     8
  8.9957213130059110E-01 b      1359     1     9
 -1.6514371557950036E-01 b      1360     1    10
 -2.3042572601218381E-01 b      1361     1    11
  4.8690759159547947E-01 b      1362     1    12
  1.1764464868881779E+00 b      1363     1    13
 -2.0771157382595806E-01 b      1364     1    14
  8.1332209028859115E-01 b      1365     1    15
 -3.5496873572702470E-01 a      1366     1     1     2     1
  1.9009838782583530E-01 a      1367     1     1     2     2
  1.5465506640370870E+00 a      1368     1     1     2     3
 -4.1555020930210718E-01 a      1369     1     1     2     4
  7.9673328698441126E-01 a      1370     1     1     2     5
 -2.6960953850695892E+00 a      1371     1     1     2     6
  9.2878548994264024E-02 a      1372     1     1     2     7
 -1.0590238904585361E+00 a      1373     1     1     2     8
  1.4795768125700404E+00 a      1374     1     1     2     9
 -2.8172261490581869E+00 a      1375     1     1     2    10
 -5.9989937964439799E-02 a      1376     1     1     2    11
 -4.1082154706438601E-01 a      1377     1     1     2    12
 -4.9904211889095296E-01 a      1378     1     1     2    13
 -5.7987646896886424E-01 a      1379     1     1     2    14
  4.6431061073746072E-01 a      1380     1     1     2    15
 -3.4555345506515775E-02 a      1381     1     2     2     1
 -4.7055790264444491E-01 a      1382     1     2     2     2
  1.4680569361600829E-01 a      1383     1     2     2     3
  2.7221843184960060E+00 a      1384     1     2     2     4
 -1.2151734974733688E+00 a      1385     1     2     2     5
  1.3728611669874307E+00 a      1386     1     2     2     6
 -1.4150482456127841E-01 a      1387     1     2     2     7
 -9.6856541256541817E-01 a      1388     1     2     2     8
  8.3655568498578881E-01 a      1389     1     2     2     9
  4.8902803047180426E-01 a      1390     1     2     2    10
  1.9137043426651368E-01 a      1391     1     2     2    11
 -1.3774747170458599E+00 a      1392     1     2     2    12
  5.0856619514969649E-02 a      1393     1     2     2    13
 -9.4126862432637759E-01 a      1394     1     2     2    14
  5.6495511299426249E-01 a      1395     1     2     2    15
 -3.8456528178968052E-01 a      1396     1     3     2     1
 -5.1682334917255511E-02 a      1397     1     3     2     2
 -1.7583406854486971E-01 a      1398     1     3     2     3
  8.9036791841276330E-02 a      1399     1     3     2     4
 -5.4945816565180694E-01 a      1400     1     3     2     5
  1.3224491274543815E+00 a      1401     1     3     2     6
 -1.6792659791649398E+00 a      1402     1     3     2     7
  7.1517366621469414E-01 a      1403     1     3     2     8
 -1.2309416238713616E-01 a      1404     1     3     2     9
 -3.6490915532696289E-01 a      1405     1     3     2    10
 -3.4069828685791204E-01 a      1406     1     3     2    11
  8.6547819041294771E-02 a      1407     1     3     2    12
  3.5460253740857006E-01 a      1408     1     3     2    13
  4.4932475721319021E-01 a      1409     1     3     2    14
 -9.2189158024562012E-01 a      1410     1     3     2    15
 -4.6682940914655247E-01 a      1411     1     4     2     1
  4.6664545794672135E-02 a      1412     1     4     2     2
 -2.2767104251886516E-01 a      1413     1     4     2     3
  2.7287615675784810E-01 a      1414     1     4     2     4
  2.0490719406880431E-01 a      1415     1     4     2     5
 -5.2582734930002861E-01 a      1416     1     4     2     6
 -5.1858898249997765E-01 a      1417     1     4     2     7
 -1.4004064396617907E-01 a      1418     1     4     2     8
 -7.5272114544845015E-01 a      1419     1     4     2     9
 -9.6868745683104041E-01 a      1420     1     4     2    10
  8.1959989334474670E-01 a      1421     1     4     2    11
 -7.6131937193005941E-02 a      1422     1     4     2    12
  4.5501884556663857E-01 a      1423     1     4     2    13
 -5.4968744841982131E-01 a      1424     1     4     2    14
 -3.9541157854125730E-01 a      1425     1     4     2    15
 -8.4471989103117240E-01 a      1426     1     5     2     1
  2.5078429730980434E-01 a      1427     1     5     2     2
 -2.0179008653947011E-01 a      1428     1     5     2     3
  5.4549256161668880E-01 a      1429     1     5     2     4
 -4.5046702235496866E-01 a      1430     1     5     2     5
 -5.0640141459461163E-02 a      1431     1     5     2     6
 -1.1932605139499541E+00 a      1432     1     5     2     7
  1.4140282073175259E-01 a      1433     1     5     2     8
 -1.0855620676338424E+00 a      1434     1     5     2     9
 -2.1051220506599061E-01 a      1435     1     5     2    10
  7.1879026661823164E-01 a      1436     1     5     2    11
  8.1129533085408390E-01 a      1437     1     5     2    12
 -2.2378479899936771E-02 a      1438     1     5     2    13
 -1.1181044122364991E+00 a      1439     1     5     2    14
 -5.1519095613645283E-01 a      1440     1     5     2    15
  3.7649891630530258E-03 a      1441     1     6     2     1
 -4.1556341755840454E-01 a      1442     1     6     2     2
 -2.0843901904987011E-01 a      1443     1     6     2     3
 -5.2046100859967515E-01 a      1444     1     6     2     4
  7.4798179207469029E-01 a      1445     1     6     2     5
 -4.0035556290656282E-01 a      1446     1     6     2     6
  1.3769260682482174E+00 a      1447     1     6     2     7
 -8.3814552208223292E-01 a      1448     1     6     2     8
  1.0327609508377016E+00 a      1449     1     6     2     9
  8.3030777342353854E-02 a      1450     1     6     2    10
 -2.1767056411922475E-01 a      1451     1     6     2    11
  3.9668688848669065E-01 a      1452     1     6     2    12
  2.8343876742728935E-01 a      1453     1     6     2    13
  2.6422854597557532E-01 a      1454     1     6     2    14
 -5.8062173708992360E-01 a      1455     1     6     2    15
  2.3002625718156244E-01 a      1456     1     7     2     1
  3.9359645564970441E-01 a      1457     1     7     2     2
 -4.5792169526493776E-01 a      1458     1     7     2     3
 -9.9729508742820017E-01 a      1459     1     7     2     4
 -1.1789859960960325E+00 a      1460     1     7     2     5
 -1.5396170608146109E+00 a      1461     1     7     2     6
 -1.4405610992995310E-01 a      1462     1     7     2     7
 -2.6145402120216939E-02 a      1463     1     7     2     8
 -7.9195998467844475E-01 a      1464     1     7     2     9
 -9.0006735619813816E-02 a      1465     1     7     2    10
 -1.6282768248632595E-01 a      1466     1     7     2    11
 -6.5754766219180460E-01 a      1467     1     7     2    12
  1.8884231613127023E-01 a      1468     1     7     2    13
 -1.0214800884173909E+00 a      1469     1     7     2    14
  2.0893484149035572E-02 a      1470     1     7     2    15
  4.0144230185509866E-01 a      1471     1     8     2     1
  4.0234567412896760E-01 a      1472     1     8     2     2
  2.0162045525074075E+00 a      1473     1     8     2     3
 -2.3406682424950094E+00 a      1474     1     8     2     4
 -4.5561983025723884E-01 a      1475     1     8     2     5
  1.3847910460080206E+00 a      1476     1     8     2     6
  6.4566796862404030E-01 a      1477     1     8     2     7
 -3.1834941176675464E+00 a      1478     1     8     2     8
 -1.6300407753684376E+00 a      1479     1     8     2     9
 -7.0587188484689567E-01 a      1480     1     8     2    10
 -3.5504910841457915E-01 a      1481     1     8     2    11
  9.0859491633068834E-01 a      1482     1     8     2    12
 -8.3101257512722870E-01 a      1483     1     8     2    13
  1.0360621647797368E+00 a      1484     1     8     2    14
  3.9803626511131895E-01 a      1485     1     8     2    15
  9.2877121104833771E-01 a      1486     1     9     2     1
 -1.1729741425661749E-01 a      1487     1     9     2     2
  4.3575197463334603E-01 a      1488     1     9     2     3
  1.0029186045831301E-01 a      1489     1     9     2     4
 -5.5244824526036174E-01 a      1490     1     9     2     5
 -1.1316816143718047E+00 a      1491     1     9     2     6
 -1.0993278207069432E+00 a      1492     1     9     2     7
 -5.1875579152054629E-01 a      1493     1     9     2     8
  1.2413037159009039E+00 a      1494     1     9     2     9
  9.7209114641183869E-01 a      1495     1     9     2    10
 -4.4913306919851081E-01 a      1496     1     9     2    11
 -1.9551988859126883E+00 a      1497     1     9     2    12
  1.2685967803913907E+00 a      1498     1     9     2    13
 -1.4631076947735295E+00 a      1499     1     9     2    14
 -1.0823458389490754E+00 a      1500     1     9     2    15
  4.0619734987733747E-01 a      1501     1    10     2     1
 -1.9305567728579490E-01 a      1502     1    10     2     2
  5.6713610469397213E-01 a      1503     1    10     2     3
 -3.4395825057492713E-01 a      1504     1    10     2     4
  3.6795038301284255E-01 a      1505     1    10     2     5
 -5.9864138653698129E-01 a      1506     1    10     2     6
 -4.2923960110468823E-01 a      1507     1    10     2     7
 -9.7222732903549658E-01 a      1508     1    10     2     8
  5.6705827740914183E-01 a      1509     1    10     2     9
  1.1406781312426650E+00 a      1510     1    10     2    10
 -1.3507365519482514E-01 a      1511     1    10     2    11
  4.3329152636907525E-01 a      1512     1    10     2    12
  2.9862766462329476E-01 a      1513     1    10     2    13
  3.1047770233662131E-01 a      1514     1    10     2    14
  2.5174064610502311E-01 a      1515     1    10     2    15
 -4.4994839181171148E-01 a      1516     1    11     2     1
 -3.0447013245579985E-01 a      1517     1    11     2     2
  2.3729019263820803E-02 a      1518     1    11     2     3
  1.4457590240388520E+00 a      1519     1    11     2     4
 -1.1020900157526686E-02 a      1520     1    11     2     5
  1.4045639728928858E+00 a      1521     1    11     2     6
 -9.6367933825646579E-01 a      1522     1    11     2     7
  7.2996026085810420E-02 a      1523     1    11     2     8
 -2.0517529334163664E-01 a      1524     1    11     2     9
  1.6201836402756484E+00 a      1525     1    11     2    10
 -4.3128427571665580E-02 a      1526     1    11     2    11
  2.4078744933856637E-02 a      1527     1    11     2    12
  9.6335216528343626E-01 a      1528     1    11     2    13
 -1.3548125399658437E-01 a      1529     1    11     2    14
 -1.1304380968412736E-01 a      1530     1    11     2    15
 -1.2165769936844217E-01 a      1531     1    12     2     1
 -2.1855794971118689E-01 a      1532     1    12     2     2
  1.3044479706074102E-01 a      1533     1    12     2     3
 -1.2337926980518361E+00 a      1534     1    12     2     4
  1.4890147031342416E+00 a      1535     1    12     2     5
 -5.4250077364731397E-01 a      1536     1    12     2     6
  7.6161943996222989E-02 a      1537     1    12     2     7
 -6.3513303082228495E-02 a      1538     1    12     2     8
 -3.4221048279425242E-01 a      1539     1    12     2     9
 -9.6509802471458250E-01 a      1540     1    12     2    10
 -9.1247941384530656E-02 a      1541     1    12     2    11
  7.7586085865020443E-02 a      1542     1    12     2    12
 -2.9935908023314722E-01 a      1543     1    12     2    13
 -2.9202298563913126E-01 a      1544     1    12     2    14
  2.2845955941526389E-01 a      1545     1    12     2    15
  1.5039474347560153E+00 a      1546     1    13     2     1
  2.7018138736400310E-01 a      1547     1    13     2     2
  5.4021489881791829E-01 a      1548     1    13     2     3
  8.2722125408671621E-01 a      1549     1    13     2     4
 -7.3470203612647267E-01 a      1550     1    13     2     5
 -1.6349668284056906E+00 a      1551     1    13     2     6
  6.2567354067605041E-01 a      1552     1    13     2     7
  2.7543705445028177E-01 a      1553     1    13     2     8
  2.5249813924179570E-01 a      1554     1    13     2     9
  9.6140455917347856E-01 a      1555     1    13     2    10
 -1.3902773863100457E+00 a      1556     1    13     2    11
 -1.7090237352633467E-01 a      1557     1    13     2    12
 -1.0624389642382943E-01 a      1558     1    13     2    13
  5.0757007962387612E-01 a      1559     1    13     2    14
  7.3110872361785395E-01 a      1560     1    13     2    15
  4.6829997184303890E-01 a      1561     1    14     2     1
  4.7427372505060017E-01 a      1562     1    14     2     2
 -8.4403060098338656E-01 a      1563     1    14     2     3
 -2.1964415138539519E+00 a      1564     1    14     2     4
  8.0432205334235762E-01 a      1565     1    14     2     5
  7.3296996336729897E-02 a      1566     1    14     2     6
  1.8776495705323479E-01 a      1567     1    14     2     7
  4.0423304872423632E-01 a      1568     1    14     2     8
 -4.3744333570555349E-01 a      1569     1    14     2     9
  9.1023537520836723E-02 a      1570     1    14     2    10
  1.9457350700596099E-01 a      1571     1    14     2    11
 -6.4522568807284797E-02 a      1572     1    14     2    12
  5.2484300705172915E-01 a      1573     1    14     2    13
 -3.4238454767317222E-01 a      1574     1    14     2    14
  2.6771680823461047E-01 a      1575     1    14     2    15
  1.1062284388916293E+00 a      1576     1    15     2     1
 -1.9614726303872823E-01 a      1577     1    15     2     2
  3.5577427041520276E-01 a      1578     1    15     2     3
 -2.3284998701418114E+00 a      1579     1    15     2     4
  8.3058790505177477E-02 a      1580     1    15     2     5
 -1.2719380312196482E+00 a      1581     1    15     2     6
  8.9132704574917310E-01 a      1582     1    15     2     7
 -7.0086461802261035E-01 a      1583     1    15     2     8
 -2.0351452255761579E-01 a      1584     1    15     2     9
 -1.9767494553928262E+00 a      1585     1    15     2    10
 -1.7575472466233222E-01 a      1586     1    15     2    11
 -3.1242881392488697E-01 a      1587     1    15     2    12
 -1.3366281957946642E+00 a      1588     1    15     2    13
  1.9523723816152880E-01 a      1589     1    15     2    14
 -2.2669551660519491E-01 a      1590     1    15     2    15
  1.1593534014841773E+00 b      1591     2     1
 -9.9809927354865613E-01 b      1592     2     2
  9.8030987018051430E-01 b      1593     2     3
  1.1657856234631936E+00 b      1594     2     4
 -2.8082786550232699E+00 b      1595     2     5
 -5.1400326572285326E-01 b      1596     2     6
  5.7382719951521832E-01 b      1597     2     7
  7.4015891540599354E-01 b      1598     2     8
  2.9435684222139624E-01 b      1599     2     9
  1.4511368502585325E+00 b      1600     2    10
 -1.8611131808535758E-01 b      1601     2    11
  2.9648753751503647E+00 b      1602     2    12
  9.8309869674968020E-01 b      1603     2    13
  1.6266542583992298E+00 b      1604     2    14
  8.1919959140779275E-01 b      1605     2    15
 -9.0717763334687104E-02 a      1606     2     1     3     1
  4.1710056140558910E-01 a      1607     2     2     3     1
  1.5440905697033358E-01 a      1608     2     3     3     1
  1.4073658266078828E-02 a      1609     2     4     3     1
 -1.4982702366286854E-01 a      1610     2     5     3     1
  1.1527672085707835E-01 a      1611     2     6     3     1
  1.2446102416386388E-01 a      1612     2     7     3     1
 -5.2147658128733254E-01 a      1613     2     8     3     1
  8.3643550633935318E-02 a      1614     2     9     3     1
  1.2962323594204829E-02 a      1615     2    10     3     1
 -3.0257198262119278E-01 a      1616     2    11     3     1
  1.3447098824515974E-01 a      1617     2    12     3     1
 -6.4212559073177300E-02 a      1618     2    13     3     1
 -1.5257012032503103E-01 a      1619     2    14     3     1
  1.4935914479950504E-01 a      1620     2    15     3     1
 -1.2763107862053469E+00 b      1621     3     1
