################################################################################
# Neural network connection values (weights and biases).
################################################################################
# Col  Name       Description
################################################################################
# 1    connection Neural network connection value.
# 2    t          Connection type (a = weight, b = bias).
# 3    index      Index enumerating weights.
# 4    l_s        Starting point layer (end point layer for biases).
# 5    n_s        Starting point neuron in starting layer (end point neuron for biases).
# 6    l_e        End point layer.
# 7    n_e        End point neuron in end layer.
################################################################################
#                      1 2         3     4     5     6     7
#             connection t     index   l_s   n_s   l_e   n_e
############################################################
  4.3172637491277639E+00 a         1     0     1     1     1
  1.6708821345787428E-01 a         2     0     1     1     2
  7.1580234466886528E-01 a         3     0     1     1     3
 -2.7330492935691302E+00 a         4     0     1     1     4
  1.7980424552289795E+00 a         5     0     1     1     5
  6.4761428163138446E-01 a         6     0     1     1     6
  1.3772932159880220E+00 a         7     0     1     1     7
  1.9405196355861334E+00 a         8     0     1     1     8
  5.4850618311544723E+00 a         9     0     1     1     9
 -2.6732207659460899E-01 a        10     0     1     1    10
  7.1750328546041375E-01 a        11     0     1     1    11
  7.8190866645601309E-01 a        12     0     1     1    12
  1.7727617895091083E+00 a        13     0     1     1    13
  3.4394303228680680E+00 a        14     0     1     1    14
 -2.7908832240192702E+00 a        15     0     1     1    15
 -2.6460060061788946E+00 a        16     0     2     1     1
  1.4003771968454779E+00 a        17     0     2     1     2
 -4.4186986054674593E-01 a        18     0     2     1     3
 -4.4166773426360111E+00 a        19     0     2     1     4
 -9.3254693790763254E-01 a        20     0     2     1     5
  2.2047338819594660E+00 a        21     0     2     1     6
 -4.6781006096443338E+00 a        22     0     2     1     7
 -1.5747504324601134E+00 a        23     0     2     1     8
 -3.4121280333665305E+00 a        24     0     2     1     9
 -4.2698700923245809E+00 a        25     0     2     1    10
  4.7400284725369328E+00 a        26     0     2     1    11
  2.9863684170779337E-02 a        27     0     2     1    12
 -4.8156635677993469E+00 a        28     0     2     1    13
 -9.7598211539664226E-01 a        29     0     2     1    14
  4.5047252802862046E+00 a        30     0     2     1    15
  5.2905781396623897E-01 a        31     0     3     1     1
 -5.5538665493979011E-01 a        32     0     3     1     2
  5.4253140782627196E-01 a        33     0     3     1     3
 -5.0593965798267337E-01 a        34     0     3     1     4
 -8.2212780784505579E-01 a        35     0     3     1     5
 -1.5059335080597573E+00 a        36     0     3     1     6
  2.2346791623547686E+00 a        37     0     3     1     7
 -4.5677877439973691E-01 a        38     0     3     1     8
 -9.9669383421330471E-01 a        39     0     3     1     9
 -3.0940619296809664E+00 a        40     0     3     1    10
  4.0652309309880383E+00 a        41     0     3     1    11
  3.4298382196047923E+00 a        42     0     3     1    12
  1.4302638516495467E+00 a        43     0     3     1    13
  1.5982939844030641E+00 a        44     0     3     1    14
 -1.8330735934291875E-01 a        45     0     3     1    15
  1.4653398096964836E+00 a        46     0     4     1     1
  1.0659801900688870E-01 a        47     0     4     1     2
 -2.1587745080293717E+00 a        48     0     4     1     3
 -6.2991393169110177E-02 a        49     0     4     1     4
 -4.5173877161748599E-01 a        50     0     4     1     5
 -8.3012233196935237E-01 a        51     0     4     1     6
 -1.1074643159384863E+00 a        52     0     4     1     7
  1.0251937870714376E+00 a        53     0     4     1     8
  2.3103392115313195E+00 a        54     0     4     1     9
  6.4846508353358145E-01 a        55     0     4     1    10
 -9.5372520596599775E-01 a        56     0     4     1    11
 -2.3009083672463069E+00 a        57     0     4     1    12
  1.9674215795382615E+00 a        58     0     4     1    13
 -6.6858326586824968E-01 a        59     0     4     1    14
 -4.7152855652978359E-01 a        60     0     4     1    15
  9.5792724326632017E-01 a        61     0     5     1     1
 -6.8177651009706519E-03 a        62     0     5     1     2
 -1.2520258957066663E+00 a        63     0     5     1     3
 -1.1681326920077448E+00 a        64     0     5     1     4
 -1.0095924020828579E+00 a        65     0     5     1     5
 -1.1688177000854090E+00 a        66     0     5     1     6
 -2.0233840004494308E+00 a        67     0     5     1     7
  4.7377236089096675E+00 a        68     0     5     1     8
  1.8760376978675097E+00 a        69     0     5     1     9
 -2.0760829978501008E+00 a        70     0     5     1    10
  6.3225814195957653E-01 a        71     0     5     1    11
 -1.3927800308955569E+00 a        72     0     5     1    12
 -2.5446965504590611E+00 a        73     0     5     1    13
 -3.2570034497411506E+00 a        74     0     5     1    14
 -8.0499682841490050E-01 a        75     0     5     1    15
  2.2328235415603670E-01 a        76     0     6     1     1
  1.2288021866409273E+00 a        77     0     6     1     2
  7.4124377056471302E-01 a        78     0     6     1     3
 -9.4615784771123002E-01 a        79     0     6     1     4
  9.6972338925334667E-01 a        80     0     6     1     5
 -3.9581657228575823E-01 a        81     0     6     1     6
  2.4060188168836469E+00 a        82     0     6     1     7
 -6.0151660306802124E-01 a        83     0     6     1     8
 -5.6150605834439526E-01 a        84     0     6     1     9
 -2.7274595789478999E+00 a        85     0     6     1    10
  2.2360561186867456E-01 a        86     0     6     1    11
  1.4110109247669798E+00 a        87     0     6     1    12
 -2.2478084134489729E-01 a        88     0     6     1    13
  1.5484872215394632E+00 a        89     0     6     1    14
  8.3957142178981936E-01 a        90     0     6     1    15
  1.5042673023274333E+00 a        91     0     7     1     1
  6.1604943678684909E-01 a        92     0     7     1     2
  8.2759295664594923E-01 a        93     0     7     1     3
 -3.9346532123083899E-01 a        94     0     7     1     4
  6.7518440828235093E-01 a        95     0     7     1     5
 -5.7823421459647417E-01 a        96     0     7     1     6
  1.9130849415034751E-01 a        97     0     7     1     7
 -1.9590246050914433E+00 a        98     0     7     1     8
  1.2005961510807998E-01 a        99     0     7     1     9
 -6.0002946257448730E-01 a       100     0     7     1    10
  1.5875189503030276E+00 a       101     0     7     1    11
  1.5332867003750078E-01 a       102     0     7     1    12
  3.2089980012645341E+00 a       103     0     7     1    13
  1.9228737013136667E+00 a       104     0     7     1    14
 -1.0653056676437207E+00 a       105     0     7     1    15
  8.0626427686539315E-01 a       106     0     8     1     1
 -1.4608313652197564E+00 a       107     0     8     1     2
 -1.0591059694041678E+00 a       108     0     8     1     3
 -4.2201038815660286E-02 a       109     0     8     1     4
  4.7142477838180735E-01 a       110     0     8     1     5
 -3.6376024224947673E-01 a       111     0     8     1     6
 -1.2078106229898398E+00 a       112     0     8     1     7
  4.5600178363285310E-02 a       113     0     8     1     8
  2.2080506331616956E+00 a       114     0     8     1     9
  1.1751115203321849E+00 a       115     0     8     1    10
 -1.2383204013462570E+00 a       116     0     8     1    11
  1.7068872944041105E-01 a       117     0     8     1    12
  1.0486959278034198E+00 a       118     0     8     1    13
 -1.5279596408689008E-01 a       119     0     8     1    14
  2.0071256473401425E-02 a       120     0     8     1    15
 -1.6435385737410251E+00 a       121     0     9     1     1
 -1.7072300700683756E+00 a       122     0     9     1     2
 -4.1186908412792711E-01 a       123     0     9     1     3
 -6.5238414534493605E-01 a       124     0     9     1     4
  2.6068009358609928E-01 a       125     0     9     1     5
  3.0588517967315021E-01 a       126     0     9     1     6
 -1.1885851644472789E+00 a       127     0     9     1     7
  1.6815138647055456E+00 a       128     0     9     1     8
  2.2182322859499881E+00 a       129     0     9     1     9
 -2.6141333970638825E-01 a       130     0     9     1    10
  6.8350780766202224E-01 a       131     0     9     1    11
  5.8438635109081805E-01 a       132     0     9     1    12
 -1.6383751243283682E+00 a       133     0     9     1    13
  2.5845635582106037E+00 a       134     0     9     1    14
 -2.1373604921780092E+00 a       135     0     9     1    15
 -3.8688808664155570E+00 a       136     0    10     1     1
  5.3730699007411253E-01 a       137     0    10     1     2
 -1.0274606556065973E+00 a       138     0    10     1     3
  1.5548564517005237E+00 a       139     0    10     1     4
  1.0105735969340410E+00 a       140     0    10     1     5
 -4.8665868891803232E-01 a       141     0    10     1     6
 -2.3604588923782044E-01 a       142     0    10     1     7
  1.7906569970506208E+00 a       143     0    10     1     8
 -1.5752088601851510E+00 a       144     0    10     1     9
 -1.7694259314072036E+00 a       145     0    10     1    10
 -7.9331321317798298E-01 a       146     0    10     1    11
 -3.3261346395340630E-01 a       147     0    10     1    12
 -1.7711501514068786E+00 a       148     0    10     1    13
 -6.1801526085513436E-01 a       149     0    10     1    14
  2.1836513889591793E+00 a       150     0    10     1    15
 -1.3827622905129289E-01 a       151     0    11     1     1
 -1.1429741690488140E+00 a       152     0    11     1     2
 -2.6669915630139429E-01 a       153     0    11     1     3
  2.4197510951357750E+00 a       154     0    11     1     4
 -2.9166654036882069E+00 a       155     0    11     1     5
  5.0555987351427878E-01 a       156     0    11     1     6
  2.9554981150138553E+00 a       157     0    11     1     7
 -7.4019129173047005E-01 a       158     0    11     1     8
  6.3024405790244720E-01 a       159     0    11     1     9
 -8.4983747565685341E-01 a       160     0    11     1    10
  1.0038104304375086E+00 a       161     0    11     1    11
  7.6908301176871113E-02 a       162     0    11     1    12
  6.9431432928338477E-01 a       163     0    11     1    13
 -3.4919355797032177E+00 a       164     0    11     1    14
 -3.2564210060175380E-01 a       165     0    11     1    15
  2.9533191792444335E+00 a       166     0    12     1     1
  9.7710646443051608E-01 a       167     0    12     1     2
  7.0983818091131168E-01 a       168     0    12     1     3
  2.6008149531462843E-01 a       169     0    12     1     4
 -1.1276060381983171E+00 a       170     0    12     1     5
 -7.6432390057736788E-01 a       171     0    12     1     6
  1.7688672961740570E+00 a       172     0    12     1     7
 -4.9762684243194566E-01 a       173     0    12     1     8
  1.1762312219106601E+00 a       174     0    12     1     9
  2.1624078969056137E+00 a       175     0    12     1    10
 -2.1757590036315406E+00 a       176     0    12     1    11
 -2.1521687732997603E+00 a       177     0    12     1    12
  1.6032955020955044E+00 a       178     0    12     1    13
  4.5205241816644715E-01 a       179     0    12     1    14
 -1.2258652234059282E+00 a       180     0    12     1    15
  2.8042001492415453E-02 a       181     0    13     1     1
  1.1786076669776331E+00 a       182     0    13     1     2
  3.4598773411461212E+00 a       183     0    13     1     3
 -1.6319617202208507E+00 a       184     0    13     1     4
  3.4586894103634545E+00 a       185     0    13     1     5
 -9.2678795328127628E-01 a       186     0    13     1     6
  2.4045175968351522E+00 a       187     0    13     1     7
 -9.0550235655982622E-02 a       188     0    13     1     8
 -6.9958346468950883E-01 a       189     0    13     1     9
  7.5130894144215532E-01 a       190     0    13     1    10
  1.8586166687170413E+00 a       191     0    13     1    11
  1.0032004164147086E+00 a       192     0    13     1    12
  9.1709719257360711E-01 a       193     0    13     1    13
  2.5627848486636093E+00 a       194     0    13     1    14
 -1.7788730364416774E+00 a       195     0    13     1    15
 -1.0843721584556265E+00 a       196     0    14     1     1
 -6.7609808510464542E-01 a       197     0    14     1     2
 -5.0231448098216447E-01 a       198     0    14     1     3
 -3.3022796826056888E-01 a       199     0    14     1     4
  3.2017519800922051E-01 a       200     0    14     1     5
  1.2459373353026118E-01 a       201     0    14     1     6
 -3.2114428876568173E+00 a       202     0    14     1     7
 -5.1425026932969131E-01 a       203     0    14     1     8
 -2.0230421271314272E-01 a       204     0    14     1     9
 -8.5015724490341699E-02 a       205     0    14     1    10
  1.1241351837892661E+00 a       206     0    14     1    11
 -2.6606666386954663E+00 a       207     0    14     1    12
 -7.5349110411583797E-01 a       208     0    14     1    13
  1.7746617304722152E+00 a       209     0    14     1    14
  6.0500524560985602E-01 a       210     0    14     1    15
 -1.0395766588745485E+00 a       211     0    15     1     1
 -8.0538099872728319E-01 a       212     0    15     1     2
 -1.9935087666742819E+00 a       213     0    15     1     3
  8.7706022390681770E-01 a       214     0    15     1     4
 -4.3137633607904891E-01 a       215     0    15     1     5
  2.4271568997640447E+00 a       216     0    15     1     6
 -2.7924383488697377E+00 a       217     0    15     1     7
  5.3833337172446738E-01 a       218     0    15     1     8
  1.4791401288029546E+00 a       219     0    15     1     9
 -3.8876212088103462E-01 a       220     0    15     1    10
 -6.9278539777799697E-01 a       221     0    15     1    11
 -1.7411849772621490E+00 a       222     0    15     1    12
 -3.5569765771247741E-01 a       223     0    15     1    13
 -9.8344624378150569E-01 a       224     0    15     1    14
  6.4368047971370479E-01 a       225     0    15     1    15
  4.2853202242210603E-01 a       226     0    16     1     1
  1.6860297399034871E+00 a       227     0    16     1     2
  2.6472338820184704E-01 a       228     0    16     1     3
 -4.0357973330631597E-02 a       229     0    16     1     4
 -4.4993050566329007E+00 a       230     0    16     1     5
  5.5906007828428028E-01 a       231     0    16     1     6
  4.3152986244039377E+00 a       232     0    16     1     7
  8.4481003847472913E-01 a       233     0    16     1     8
 -3.4095288411663660E-01 a       234     0    16     1     9
  9.0234876161777078E-01 a       235     0    16     1    10
 -1.9475790460360938E+00 a       236     0    16     1    11
 -4.1498429294955441E-01 a       237     0    16     1    12
  5.0161087639562674E-01 a       238     0    16     1    13
 -1.2763053354639164E+00 a       239     0    16     1    14
 -4.7529188431423569E-01 a       240     0    16     1    15
 -3.8298067722733603E-01 a       241     0    17     1     1
 -1.2927191234337703E+00 a       242     0    17     1     2
  1.7738665345615645E+00 a       243     0    17     1     3
 -4.8588664196317027E-01 a       244     0    17     1     4
 -1.8203643969167633E+00 a       245     0    17     1     5
 -3.9665201018084234E-01 a       246     0    17     1     6
  3.7972628493016467E+00 a       247     0    17     1     7
 -6.8458363869946326E-01 a       248     0    17     1     8
 -7.4803837723634703E-01 a       249     0    17     1     9
  8.0547200704480082E-01 a       250     0    17     1    10
  1.1138800231923842E+00 a       251     0    17     1    11
  2.1220508001610416E+00 a       252     0    17     1    12
 -8.6789626442367562E-01 a       253     0    17     1    13
  2.0253342411859374E+00 a       254     0    17     1    14
 -7.5977856629500962E-01 a       255     0    17     1    15
  6.2987687712616769E-01 a       256     0    18     1     1
  4.0601248108109922E-01 a       257     0    18     1     2
 -1.2846648299288166E-02 a       258     0    18     1     3
  5.1848903359298837E-01 a       259     0    18     1     4
  1.9421282163786922E+00 a       260     0    18     1     5
  7.0099665499038089E-01 a       261     0    18     1     6
 -1.3869117208299622E-01 a       262     0    18     1     7
  6.1917691745965253E-01 a       263     0    18     1     8
 -2.1535989305584907E-01 a       264     0    18     1     9
  2.0559496921858522E+00 a       265     0    18     1    10
 -6.1405827048532113E-01 a       266     0    18     1    11
  8.0579860184288088E-01 a       267     0    18     1    12
 -9.8665523420956636E-01 a       268     0    18     1    13
  2.3921296999374855E+00 a       269     0    18     1    14
  8.6982997445686583E-01 a       270     0    18     1    15
  9.9772421181884496E-01 a       271     0    19     1     1
 -2.1666965097955986E+00 a       272     0    19     1     2
  6.5450181533701257E-01 a       273     0    19     1     3
  1.7934837065210585E-01 a       274     0    19     1     4
  1.9164737582839468E+00 a       275     0    19     1     5
  1.4482364801818575E+00 a       276     0    19     1     6
 -9.9076122993110816E-01 a       277     0    19     1     7
 -9.1158920802863297E-01 a       278     0    19     1     8
 -9.6752774005183850E-01 a       279     0    19     1     9
 -6.2460137387117809E-01 a       280     0    19     1    10
  1.0606424689626999E+00 a       281     0    19     1    11
  3.0710229322786198E-01 a       282     0    19     1    12
 -2.3315347378303737E+00 a       283     0    19     1    13
  6.0083907398500624E-01 a       284     0    19     1    14
 -2.2424984519099165E+00 a       285     0    19     1    15
  3.8271236136455444E-01 a       286     0    20     1     1
 -8.1357556874165060E-01 a       287     0    20     1     2
 -5.9071019533959879E-01 a       288     0    20     1     3
 -1.0115030878701530E+00 a       289     0    20     1     4
 -4.5157220829804501E-01 a       290     0    20     1     5
 -1.0454084961643628E-01 a       291     0    20     1     6
  7.1047431712057485E-01 a       292     0    20     1     7
  8.0163381277847945E-01 a       293     0    20     1     8
  1.5385178186071427E+00 a       294     0    20     1     9
  1.1488244666775875E+00 a       295     0    20     1    10
 -2.9221967578527014E-01 a       296     0    20     1    11
  5.7010986163479749E-01 a       297     0    20     1    12
 -2.6994320575644459E-01 a       298     0    20     1    13
 -2.3985458480534211E-02 a       299     0    20     1    14
 -1.2737465506375794E+00 a       300     0    20     1    15
  2.1685745599050810E-01 a       301     0    21     1     1
 -2.2215135283193835E-01 a       302     0    21     1     2
 -1.4515404649173318E+00 a       303     0    21     1     3
 -1.7143718333356484E+00 a       304     0    21     1     4
 -5.5431204725649175E-01 a       305     0    21     1     5
 -7.9163569127368261E-01 a       306     0    21     1     6
 -2.1527555806420498E-01 a       307     0    21     1     7
 -1.7350539767081326E+00 a       308     0    21     1     8
 -1.8485082739670700E-01 a       309     0    21     1     9
  7.6368380110786782E-01 a       310     0    21     1    10
  1.3263921446854550E+00 a       311     0    21     1    11
  4.9703329730826618E-01 a       312     0    21     1    12
 -1.0999798012252524E+00 a       313     0    21     1    13
 -2.5127064630017981E-01 a       314     0    21     1    14
  1.4853108196250990E+00 a       315     0    21     1    15
 -9.2537721090034331E-01 a       316     0    22     1     1
 -1.4371801405716558E+00 a       317     0    22     1     2
 -1.5149138919112213E+00 a       318     0    22     1     3
  1.0339406016615131E+00 a       319     0    22     1     4
  9.6384126256196201E-01 a       320     0    22     1     5
  5.1200275379633842E-01 a       321     0    22     1     6
 -1.1079586305722777E+00 a       322     0    22     1     7
  6.1072934447445804E-01 a       323     0    22     1     8
 -2.2376879187485932E-01 a       324     0    22     1     9
 -3.0872039558280079E-01 a       325     0    22     1    10
  1.1432151354509688E+00 a       326     0    22     1    11
  1.1861393091171162E+00 a       327     0    22     1    12
  9.7307870008928121E-01 a       328     0    22     1    13
 -2.3057033411333490E+00 a       329     0    22     1    14
  1.5275995205693496E+00 a       330     0    22     1    15
 -2.3851152086576684E+00 a       331     0    23     1     1
  1.2794041770598537E+00 a       332     0    23     1     2
 -7.1611935574588642E-02 a       333     0    23     1     3
  1.1665970309382268E+00 a       334     0    23     1     4
 -1.1251519609367677E+00 a       335     0    23     1     5
  1.2735484679346245E+00 a       336     0    23     1     6
  5.1742331030435063E-01 a       337     0    23     1     7
 -7.8726153509143182E-01 a       338     0    23     1     8
 -9.6678312047560533E-01 a       339     0    23     1     9
  5.1205221397716350E-01 a       340     0    23     1    10
 -7.8591363440613438E-01 a       341     0    23     1    11
 -1.0903412088064615E-01 a       342     0    23     1    12
 -7.6835034536109958E-02 a       343     0    23     1    13
 -5.1093984021157790E-01 a       344     0    23     1    14
  3.2600486793422701E-01 a       345     0    23     1    15
 -3.8734748938162372E-01 a       346     0    24     1     1
 -6.3564038497413033E-01 a       347     0    24     1     2
  1.1653369745459918E+00 a       348     0    24     1     3
 -7.1245764718182814E-01 a       349     0    24     1     4
 -2.4370605807026258E+00 a       350     0    24     1     5
 -2.9062697754019096E-01 a       351     0    24     1     6
  1.3307415272056633E+00 a       352     0    24     1     7
  6.5830886693022472E-01 a       353     0    24     1     8
 -1.2749942892469144E+00 a       354     0    24     1     9
 -1.7906786838776971E+00 a       355     0    24     1    10
  9.6032112516172807E-01 a       356     0    24     1    11
  1.4299204782338706E+00 a       357     0    24     1    12
 -1.5525291853614203E+00 a       358     0    24     1    13
  3.8072132589292429E-04 a       359     0    24     1    14
  7.0047653405106525E-01 a       360     0    24     1    15
  1.1435780434549163E+00 a       361     0    25     1     1
  7.9495053725109321E-01 a       362     0    25     1     2
 -7.7568536890480155E-01 a       363     0    25     1     3
  1.8152574384945594E-01 a       364     0    25     1     4
  1.4952164999812294E+00 a       365     0    25     1     5
  7.5319592661451695E-01 a       366     0    25     1     6
 -6.5823481701973940E-01 a       367     0    25     1     7
 -8.9045973252399879E-01 a       368     0    25     1     8
 -1.6563139163015945E+00 a       369     0    25     1     9
 -2.1880808992081882E+00 a       370     0    25     1    10
  9.3149964145819064E-01 a       371     0    25     1    11
 -6.3431241441559760E-01 a       372     0    25     1    12
 -4.0158681470271657E-01 a       373     0    25     1    13
 -1.8584013635350589E+00 a       374     0    25     1    14
  3.6966361370404299E+00 a       375     0    25     1    15
 -1.2750068196210695E+00 a       376     0    26     1     1
 -2.0200776818139443E-01 a       377     0    26     1     2
  2.1323669738270223E+00 a       378     0    26     1     3
  6.6138293630144585E-01 a       379     0    26     1     4
 -1.2509924370160379E+00 a       380     0    26     1     5
 -2.0925936597733372E+00 a       381     0    26     1     6
 -1.6873250798299175E+00 a       382     0    26     1     7
  1.8533198361581726E-01 a       383     0    26     1     8
  6.6128884311356428E-01 a       384     0    26     1     9
  1.0246726887608273E+00 a       385     0    26     1    10
 -3.2169814077302314E+00 a       386     0    26     1    11
 -4.8623440087282599E-01 a       387     0    26     1    12
 -1.5372054414872785E-01 a       388     0    26     1    13
 -1.2524341588677440E-01 a       389     0    26     1    14
  2.2279008988361628E+00 a       390     0    26     1    15
  3.4060702488080336E-01 a       391     0    27     1     1
 -1.3341119632753584E+00 a       392     0    27     1     2
 -3.0115254413135739E-01 a       393     0    27     1     3
 -7.0453978286319408E-01 a       394     0    27     1     4
 -2.4142385593102145E-01 a       395     0    27     1     5
 -1.8952822681873298E+00 a       396     0    27     1     6
 -2.4259184052505481E-01 a       397     0    27     1     7
  1.4031033943592808E-01 a       398     0    27     1     8
  5.1938103206333486E-01 a       399     0    27     1     9
 -5.5630296022166226E-01 a       400     0    27     1    10
  1.3752149864152772E+00 a       401     0    27     1    11
  1.7001591481629299E+00 a       402     0    27     1    12
 -2.6472642541822795E+00 a       403     0    27     1    13
  1.0383696698000584E+00 a       404     0    27     1    14
  2.0799372138753531E+00 a       405     0    27     1    15
  2.2475849257851825E+00 a       406     0    28     1     1
 -1.3311861941155643E+00 a       407     0    28     1     2
  1.1753343253798465E-01 a       408     0    28     1     3
 -1.3362492328673576E+00 a       409     0    28     1     4
 -1.1875726275743081E+00 a       410     0    28     1     5
 -2.3257525519071218E+00 a       411     0    28     1     6
  8.1417349001197969E-01 a       412     0    28     1     7
 -7.9867508766875905E-01 a       413     0    28     1     8
 -4.6430520104215500E-01 a       414     0    28     1     9
 -2.1660219878823639E-01 a       415     0    28     1    10
 -1.6210385128979132E+00 a       416     0    28     1    11
 -1.8927331929868899E-01 a       417     0    28     1    12
  7.3209200595286583E-01 a       418     0    28     1    13
 -2.4850260549950409E-01 a       419     0    28     1    14
 -1.1281623221850881E+00 a       420     0    28     1    15
 -2.7624560661318820E-01 a       421     0    29     1     1
  4.2705510343371955E-01 a       422     0    29     1     2
 -1.8824801078505526E+00 a       423     0    29     1     3
 -1.9400742140945972E+00 a       424     0    29     1     4
  2.0734127386712462E+00 a       425     0    29     1     5
  3.2138609795503426E-01 a       426     0    29     1     6
 -3.4364836507037362E+00 a       427     0    29     1     7
  7.5620702577614252E-01 a       428     0    29     1     8
  1.3984074296277449E-01 a       429     0    29     1     9
 -2.6106239978616506E+00 a       430     0    29     1    10
  9.5388816630770279E-01 a       431     0    29     1    11
  9.4189291289911670E-01 a       432     0    29     1    12
  1.2642994037050355E+00 a       433     0    29     1    13
 -1.0706339417490069E+00 a       434     0    29     1    14
  1.0980833163663419E+00 a       435     0    29     1    15
  4.0861315581994839E-01 a       436     0    30     1     1
 -5.7966922247178632E-01 a       437     0    30     1     2
  4.8490215642392981E-01 a       438     0    30     1     3
  4.4520666533165787E-01 a       439     0    30     1     4
  1.7444110754981539E+00 a       440     0    30     1     5
  5.9052273790300491E-01 a       441     0    30     1     6
  3.9514139586475572E-01 a       442     0    30     1     7
  5.8367395796564203E-01 a       443     0    30     1     8
 -6.4326398897044279E-02 a       444     0    30     1     9
  1.7783574926506878E+00 a       445     0    30     1    10
 -1.2629368664897900E+00 a       446     0    30     1    11
 -1.2979813866740599E+00 a       447     0    30     1    12
  7.2748417388306497E-01 a       448     0    30     1    13
  1.9959809084469422E+00 a       449     0    30     1    14
  1.0770634651776732E+00 a       450     0    30     1    15
  1.7209469086464464E+00 a       451     0    31     1     1
 -1.3694561474787605E+00 a       452     0    31     1     2
 -4.5498317261550092E-01 a       453     0    31     1     3
  9.7064545811114367E-01 a       454     0    31     1     4
  5.2715892588195989E-01 a       455     0    31     1     5
  1.7191134713135963E+00 a       456     0    31     1     6
 -1.3480137000763577E+00 a       457     0    31     1     7
 -3.7378936614119329E-01 a       458     0    31     1     8
 -7.0406267021667079E-01 a       459     0    31     1     9
  1.1826871351927428E+00 a       460     0    31     1    10
  1.8638584394094715E+00 a       461     0    31     1    11
 -4.5292613598475440E-01 a       462     0    31     1    12
 -1.4233021757128903E+00 a       463     0    31     1    13
 -1.0038447426219641E+00 a       464     0    31     1    14
 -1.7416089078144694E+00 a       465     0    31     1    15
  2.5692192649361045E-01 a       466     0    32     1     1
  1.6580083668925378E+00 a       467     0    32     1     2
 -1.7655719892269234E-01 a       468     0    32     1     3
 -2.9899674750867639E-01 a       469     0    32     1     4
 -3.1751141571390329E-01 a       470     0    32     1     5
  2.8970218877592491E-01 a       471     0    32     1     6
  3.4264030917050109E-01 a       472     0    32     1     7
 -1.0925982506867407E+00 a       473     0    32     1     8
  1.9713940839469593E+00 a       474     0    32     1     9
  1.1559082151414002E-01 a       475     0    32     1    10
  6.0336524877142361E-01 a       476     0    32     1    11
 -1.1092029142314000E-01 a       477     0    32     1    12
 -6.2700618956619492E-02 a       478     0    32     1    13
  1.4751114336818354E+00 a       479     0    32     1    14
  6.3495930550942903E-01 a       480     0    32     1    15
 -7.3072731802770252E-01 a       481     0    33     1     1
 -1.2110339898177638E+00 a       482     0    33     1     2
 -2.2825448577652260E-01 a       483     0    33     1     3
 -1.1784268540902059E+00 a       484     0    33     1     4
  1.0206633368323963E+00 a       485     0    33     1     5
  2.5426967770633818E-01 a       486     0    33     1     6
  3.1459498984427192E-01 a       487     0    33     1     7
 -2.1492901606681265E+00 a       488     0    33     1     8
 -9.3017556532776924E-01 a       489     0    33     1     9
 -1.4129622018855914E+00 a       490     0    33     1    10
  1.4113477858394443E+00 a       491     0    33     1    11
 -6.1855668620553184E-01 a       492     0    33     1    12
 -1.2160426701378522E+00 a       493     0    33     1    13
  5.8953595314251106E-01 a       494     0    33     1    14
 -1.4003123777929116E-02 a       495     0    33     1    15
 -1.5409176920521437E+00 a       496     0    34     1     1
 -1.4506621772363981E-01 a       497     0    34     1     2
 -1.4999525874610167E+00 a       498     0    34     1     3
  1.5842681442029696E+00 a       499     0    34     1     4
  4.6885295596217225E-01 a       500     0    34     1     5
  5.7600819831479622E-01 a       501     0    34     1     6
 -5.8125368299320890E-01 a       502     0    34     1     7
  1.0134995515182217E+00 a       503     0    34     1     8
 -1.3360387733892471E+00 a       504     0    34     1     9
  1.4035559808233493E+00 a       505     0    34     1    10
 -2.3570293032941350E-01 a       506     0    34     1    11
  1.0830705396107745E+00 a       507     0    34     1    12
  2.6090727468978709E+00 a       508     0    34     1    13
 -2.0175086242010587E+00 a       509     0    34     1    14
  1.5852847501873240E+00 a       510     0    34     1    15
  2.0837974553356592E-01 a       511     0    35     1     1
  2.2986566648399056E+00 a       512     0    35     1     2
 -2.0848733579968715E-01 a       513     0    35     1     3
  6.7172098586847895E-01 a       514     0    35     1     4
 -1.7889367619947185E+00 a       515     0    35     1     5
  1.8415690649928811E+00 a       516     0    35     1     6
  1.3261163472488608E+00 a       517     0    35     1     7
  1.1009439387913944E-01 a       518     0    35     1     8
 -1.3380487140705027E-01 a       519     0    35     1     9
  6.8574380096521259E-01 a       520     0    35     1    10
  2.4148785026710140E-01 a       521     0    35     1    11
 -8.6821215545410158E-01 a       522     0    35     1    12
 -4.1195270892233915E-01 a       523     0    35     1    13
  2.3858698875511525E-01 a       524     0    35     1    14
  4.5376069874848179E-01 a       525     0    35     1    15
  1.2546063399955258E+00 a       526     0    36     1     1
 -7.1402927873061162E-01 a       527     0    36     1     2
 -7.7503980642999626E-02 a       528     0    36     1     3
  1.5876241785114475E+00 a       529     0    36     1     4
 -5.0897293860318171E-01 a       530     0    36     1     5
 -1.1147348791377694E+00 a       531     0    36     1     6
 -1.1094292247594157E+00 a       532     0    36     1     7
 -2.8092714126712653E-01 a       533     0    36     1     8
 -6.2000490511855544E-01 a       534     0    36     1     9
 -7.2618949724857690E-02 a       535     0    36     1    10
  6.3473671806832632E-01 a       536     0    36     1    11
  1.6787736988335411E-02 a       537     0    36     1    12
  2.0768976090902849E-02 a       538     0    36     1    13
  9.2785286240051557E-01 a       539     0    36     1    14
 -3.2439858943804389E-01 a       540     0    36     1    15
 -3.5967198247762783E-01 a       541     0    37     1     1
  3.4278895166265788E-01 a       542     0    37     1     2
  5.9264263260117811E-01 a       543     0    37     1     3
 -3.0928498595773568E-02 a       544     0    37     1     4
  1.7969374883830984E+00 a       545     0    37     1     5
  1.9252474608691770E+00 a       546     0    37     1     6
 -1.0071722120578888E+00 a       547     0    37     1     7
  1.7879412497844283E+00 a       548     0    37     1     8
  8.1607767969639727E-02 a       549     0    37     1     9
  2.0626929935126928E+00 a       550     0    37     1    10
 -2.8243475899095274E+00 a       551     0    37     1    11
 -8.9872289718033527E-01 a       552     0    37     1    12
 -6.2385311385809494E-01 a       553     0    37     1    13
 -1.4051634345227966E+00 a       554     0    37     1    14
 -2.0380073108773282E+00 a       555     0    37     1    15
  3.1265953047368087E+00 a       556     0    38     1     1
  1.0558582616571943E+00 a       557     0    38     1     2
 -1.0560157231758822E+00 a       558     0    38     1     3
 -1.0062624070940362E+00 a       559     0    38     1     4
 -1.7973388447091685E+00 a       560     0    38     1     5
  1.1700978460326655E-01 a       561     0    38     1     6
 -2.4121990421191848E+00 a       562     0    38     1     7
 -5.0041124651202673E-01 a       563     0    38     1     8
 -2.8242325408870173E-01 a       564     0    38     1     9
 -2.4724698011521107E-01 a       565     0    38     1    10
  3.3867864262637757E+00 a       566     0    38     1    11
 -5.6323521410396660E-01 a       567     0    38     1    12
  6.1233603813312154E-01 a       568     0    38     1    13
 -8.1459030625633466E-01 a       569     0    38     1    14
  2.3468298067956195E-02 a       570     0    38     1    15
 -1.9309345200439967E-01 a       571     0    39     1     1
 -1.9815274633601954E+00 a       572     0    39     1     2
 -1.5661167672974857E-01 a       573     0    39     1     3
  1.8779464253985787E+00 a       574     0    39     1     4
 -9.2714913950311284E-01 a       575     0    39     1     5
 -8.3633223043263616E-01 a       576     0    39     1     6
 -4.3574247303687641E-04 a       577     0    39     1     7
 -3.1927284582010906E-01 a       578     0    39     1     8
 -1.1522121834411505E+00 a       579     0    39     1     9
  1.3871602984288992E-01 a       580     0    39     1    10
 -3.7651056514477810E-01 a       581     0    39     1    11
  3.8579076244002941E-01 a       582     0    39     1    12
  7.7282146246639738E-01 a       583     0    39     1    13
 -1.1113947205929495E+00 a       584     0    39     1    14
 -2.9056117164352600E+00 a       585     0    39     1    15
 -2.4529474304412844E+00 a       586     0    40     1     1
 -9.2061830483263540E-01 a       587     0    40     1     2
 -1.6533852075160755E+00 a       588     0    40     1     3
 -2.6869031517541559E+00 a       589     0    40     1     4
 -4.1617760596759545E-01 a       590     0    40     1     5
 -2.9564250140968173E-01 a       591     0    40     1     6
  8.3402758850633285E-01 a       592     0    40     1     7
 -9.1640772271580129E-02 a       593     0    40     1     8
 -8.7335111279908617E-01 a       594     0    40     1     9
 -1.2005524131230063E+00 a       595     0    40     1    10
  1.3596768960369130E+00 a       596     0    40     1    11
 -1.8340984688117552E+00 a       597     0    40     1    12
 -1.4306294510841417E+00 a       598     0    40     1    13
 -4.6453959715251036E-01 a       599     0    40     1    14
  2.4931137044434601E+00 a       600     0    40     1    15
  1.8678888789339863E+00 a       601     0    41     1     1
  7.8530171428661699E-02 a       602     0    41     1     2
 -9.3733560962138485E-01 a       603     0    41     1     3
 -7.0995790339266507E-01 a       604     0    41     1     4
  2.3540555254734192E+00 a       605     0    41     1     5
  1.6459292693825816E+00 a       606     0    41     1     6
 -3.5565890702413112E+00 a       607     0    41     1     7
  1.3177360129488100E+00 a       608     0    41     1     8
  1.4483140278255964E+00 a       609     0    41     1     9
 -3.6721850995249178E-01 a       610     0    41     1    10
  6.3702050005390021E-01 a       611     0    41     1    11
  6.5388965488692707E-01 a       612     0    41     1    12
  6.1121472989214509E-01 a       613     0    41     1    13
 -1.4714142647944789E-01 a       614     0    41     1    14
 -8.8251051612854536E-01 a       615     0    41     1    15
 -3.0864600290398685E+00 a       616     0    42     1     1
  1.8119706377064231E+00 a       617     0    42     1     2
 -2.1637603536265688E+00 a       618     0    42     1     3
  1.6318224315037536E-01 a       619     0    42     1     4
 -3.6519218463968794E-01 a       620     0    42     1     5
 -5.0792295825371214E-01 a       621     0    42     1     6
  3.5325516388105842E+00 a       622     0    42     1     7
  3.4298723816518328E-01 a       623     0    42     1     8
 -3.8629591511238446E+00 a       624     0    42     1     9
  2.3985827336553820E+00 a       625     0    42     1    10
 -4.9998430120462661E-01 a       626     0    42     1    11
  1.5055820358047294E+00 a       627     0    42     1    12
  3.6362501704729999E-01 a       628     0    42     1    13
 -1.8642582439774489E+00 a       629     0    42     1    14
  1.6780328140272687E+00 a       630     0    42     1    15
  1.3482033813785721E-01 a       631     0    43     1     1
 -1.6762081058510416E+00 a       632     0    43     1     2
  1.8213619111265202E+00 a       633     0    43     1     3
  1.0772876425451683E-01 a       634     0    43     1     4
 -1.5394143514651411E+00 a       635     0    43     1     5
 -3.7505055649344650E+00 a       636     0    43     1     6
 -2.9071606927781624E-01 a       637     0    43     1     7
 -1.6245208346451703E+00 a       638     0    43     1     8
 -5.0281065668052793E-01 a       639     0    43     1     9
  1.7929104917219679E-01 a       640     0    43     1    10
  3.1753273931333825E-01 a       641     0    43     1    11
 -8.5985417538098530E-01 a       642     0    43     1    12
  2.9410825897984219E+00 a       643     0    43     1    13
  2.9098756594178350E+00 a       644     0    43     1    14
 -1.3737208620785655E+00 a       645     0    43     1    15
  7.9787973518917005E-02 a       646     0    44     1     1
  6.0640661533680262E-01 a       647     0    44     1     2
  2.0074408545727223E+00 a       648     0    44     1     3
 -4.7153537951466318E-02 a       649     0    44     1     4
  2.5537400297942074E+00 a       650     0    44     1     5
 -5.5021496458654617E-01 a       651     0    44     1     6
 -3.7137396767263962E+00 a       652     0    44     1     7
 -4.5632762184288322E-01 a       653     0    44     1     8
 -3.4253559468085353E+00 a       654     0    44     1     9
 -2.2591897248307933E+00 a       655     0    44     1    10
  6.9575598252866278E-01 a       656     0    44     1    11
  3.5672161192879130E+00 a       657     0    44     1    12
 -2.1384287447714567E-01 a       658     0    44     1    13
  1.4642104121897861E+00 a       659     0    44     1    14
  6.2081652400384013E-01 a       660     0    44     1    15
  2.3056285500919556E+00 a       661     0    45     1     1
  7.3752544818534771E-01 a       662     0    45     1     2
  2.2019816255620972E+00 a       663     0    45     1     3
  1.0355623538379561E+00 a       664     0    45     1     4
 -5.3650138488384846E-01 a       665     0    45     1     5
 -5.8684965307016856E-01 a       666     0    45     1     6
  1.7831423423762129E+00 a       667     0    45     1     7
  1.5071783009238029E+00 a       668     0    45     1     8
  3.7110268731768699E+00 a       669     0    45     1     9
  4.2369047214766864E-01 a       670     0    45     1    10
 -1.6404811941644177E+00 a       671     0    45     1    11
  1.6180540426899168E+00 a       672     0    45     1    12
  5.5386852700096245E-01 a       673     0    45     1    13
  1.8187810564045326E+00 a       674     0    45     1    14
 -2.1192753263096478E+00 a       675     0    45     1    15
  1.5658994701475946E+00 a       676     0    46     1     1
 -3.4252172998562380E-01 a       677     0    46     1     2
  1.2381317521572623E+00 a       678     0    46     1     3
  3.7177230996117516E-01 a       679     0    46     1     4
 -2.2480664966803471E-01 a       680     0    46     1     5
 -2.2375039109248442E+00 a       681     0    46     1     6
 -9.9061015917630346E-01 a       682     0    46     1     7
 -9.7233298864798501E-01 a       683     0    46     1     8
 -5.0411244765817986E-02 a       684     0    46     1     9
  2.1000133441430288E-01 a       685     0    46     1    10
  2.4637861915934263E+00 a       686     0    46     1    11
  5.6693457408488079E-01 a       687     0    46     1    12
  2.3376095916369213E+00 a       688     0    46     1    13
  8.1578127739518680E-01 a       689     0    46     1    14
 -1.5750500719805864E+00 a       690     0    46     1    15
  1.0094099911112862E+00 a       691     0    47     1     1
 -4.7440727148761025E-01 a       692     0    47     1     2
 -4.2578920682190735E-01 a       693     0    47     1     3
  1.1134314110987877E+00 a       694     0    47     1     4
 -1.3245122694710199E+00 a       695     0    47     1     5
 -1.8264713749082468E+00 a       696     0    47     1     6
 -1.8105975398825369E+00 a       697     0    47     1     7
  1.1710949929987071E+00 a       698     0    47     1     8
  6.2501550200823675E-01 a       699     0    47     1     9
  1.9961723439107688E+00 a       700     0    47     1    10
 -1.0504108544001998E+00 a       701     0    47     1    11
  6.8207352412425992E-01 a       702     0    47     1    12
  4.5343776815677117E-01 a       703     0    47     1    13
 -1.3527822996833985E-02 a       704     0    47     1    14
 -6.1743349599055597E-01 a       705     0    47     1    15
 -1.0028881064933834E+00 a       706     0    48     1     1
  2.4870509508743241E-01 a       707     0    48     1     2
 -3.1874739244365613E-01 a       708     0    48     1     3
  1.8432124355753594E+00 a       709     0    48     1     4
 -7.9182369888341608E-01 a       710     0    48     1     5
 -9.9440580466817641E-01 a       711     0    48     1     6
 -1.3037212525374717E+00 a       712     0    48     1     7
 -2.8925512655648475E+00 a       713     0    48     1     8
  1.6707195168862761E+00 a       714     0    48     1     9
 -1.8884289227422792E+00 a       715     0    48     1    10
 -1.1983405268656602E+00 a       716     0    48     1    11
 -2.7941188191341766E+00 a       717     0    48     1    12
  9.5420469181763756E-01 a       718     0    48     1    13
 -3.3456165799672721E+00 a       719     0    48     1    14
 -1.9353574659630640E-01 a       720     0    48     1    15
 -1.4590781992955226E-01 a       721     0    49     1     1
  1.3339865861794356E+00 a       722     0    49     1     2
 -2.2853294363097212E+00 a       723     0    49     1     3
 -1.0930265100242148E-01 a       724     0    49     1     4
 -2.0937365245503115E+00 a       725     0    49     1     5
  4.2370817125871696E-01 a       726     0    49     1     6
 -1.7760905917737724E+00 a       727     0    49     1     7
 -5.7591886456318320E-01 a       728     0    49     1     8
  2.1778643245789472E-01 a       729     0    49     1     9
  5.9307218907517412E-01 a       730     0    49     1    10
 -4.6118118615072068E-01 a       731     0    49     1    11
 -4.8881013459863887E-01 a       732     0    49     1    12
  2.2821162228783614E+00 a       733     0    49     1    13
  1.4959869280965212E+00 a       734     0    49     1    14
 -4.2413216571732137E-01 a       735     0    49     1    15
 -7.8549671570165880E-01 a       736     0    50     1     1
 -5.1430708282889182E-01 a       737     0    50     1     2
  1.1168099939661560E+00 a       738     0    50     1     3
 -8.9002590670383597E-01 a       739     0    50     1     4
  7.0498353043438777E-01 a       740     0    50     1     5
  2.2349840659821254E+00 a       741     0    50     1     6
  2.5771614493525545E+00 a       742     0    50     1     7
  2.9776467359036451E+00 a       743     0    50     1     8
  6.7099406905423875E-01 a       744     0    50     1     9
 -3.3213577773485536E-01 a       745     0    50     1    10
  3.2527714631808630E-01 a       746     0    50     1    11
  2.8123212138788289E-01 a       747     0    50     1    12
  9.3246186605781145E-01 a       748     0    50     1    13
 -1.2054563390238318E+00 a       749     0    50     1    14
 -7.0020550041030283E-01 a       750     0    50     1    15
 -6.0123062725963683E-02 a       751     0    51     1     1
  1.5076175799543132E+00 a       752     0    51     1     2
  1.4268719362411166E+00 a       753     0    51     1     3
  1.7024283969051712E-01 a       754     0    51     1     4
  1.7541907100798091E+00 a       755     0    51     1     5
  1.5008908445873872E+00 a       756     0    51     1     6
 -7.9618163679947040E-01 a       757     0    51     1     7
  5.0388575850964368E-01 a       758     0    51     1     8
  5.6013009089014365E-01 a       759     0    51     1     9
 -1.2156053226567951E-01 a       760     0    51     1    10
 -8.4158434922655767E-01 a       761     0    51     1    11
 -1.8323517348447620E+00 a       762     0    51     1    12
  2.9726248201853250E-01 a       763     0    51     1    13
 -3.6254427051026000E-01 a       764     0    51     1    14
  1.3313524381624051E+00 a       765     0    51     1    15
  4.4169227091287233E-02 a       766     0    52     1     1
 -4.8590235381982927E-01 a       767     0    52     1     2
 -2.8633828084040225E-01 a       768     0    52     1     3
  3.2786078994136270E-01 a       769     0    52     1     4
  9.5698088066855380E-01 a       770     0    52     1     5
  3.1245145849189018E+00 a       771     0    52     1     6
 -8.4081261926500050E-01 a       772     0    52     1     7
 -2.0312943157124036E-01 a       773     0    52     1     8
  5.3746859052080154E-01 a       774     0    52     1     9
  1.8863342674489316E+00 a       775     0    52     1    10
  5.5707774974412538E-01 a       776     0    52     1    11
 -1.8534797077269194E+00 a       777     0    52     1    12
 -7.7926732536562593E-01 a       778     0    52     1    13
  2.0942992057479304E-01 a       779     0    52     1    14
 -4.4106508568985853E-01 a       780     0    52     1    15
 -1.0624131332943374E+00 a       781     0    53     1     1
 -1.4783195620000096E+00 a       782     0    53     1     2
  1.1000116132178142E+00 a       783     0    53     1     3
 -6.9742738369912582E-01 a       784     0    53     1     4
 -3.3216551626388008E-01 a       785     0    53     1     5
  5.1581803080076871E-02 a       786     0    53     1     6
  1.5405861277713468E+00 a       787     0    53     1     7
  2.3039861875741621E+00 a       788     0    53     1     8
  7.3026768500222639E-01 a       789     0    53     1     9
  4.3905205588967822E-01 a       790     0    53     1    10
 -7.4063274705920057E-01 a       791     0    53     1    11
 -1.2161966397784585E+00 a       792     0    53     1    12
  2.4038174259836426E-01 a       793     0    53     1    13
 -3.7451811444882543E-01 a       794     0    53     1    14
  1.0807373578555175E+00 a       795     0    53     1    15
  1.2605356597244382E+00 a       796     0    54     1     1
  1.1920192170451220E+00 a       797     0    54     1     2
 -1.7288014419422415E+00 a       798     0    54     1     3
  9.7287075578924076E-01 a       799     0    54     1     4
 -5.8632824952643881E-01 a       800     0    54     1     5
 -8.5991701126689857E-01 a       801     0    54     1     6
 -1.6833092180480991E+00 a       802     0    54     1     7
 -1.7447274807616195E+00 a       803     0    54     1     8
  2.1853969942587312E+00 a       804     0    54     1     9
  1.3111058171320509E+00 a       805     0    54     1    10
 -1.5352440506627099E+00 a       806     0    54     1    11
 -1.4696652833451087E+00 a       807     0    54     1    12
  7.5531944557191033E-01 a       808     0    54     1    13
 -2.7122826839548952E-01 a       809     0    54     1    14
  8.7498491250715471E-01 a       810     0    54     1    15
 -3.6047713049950642E-01 a       811     0    55     1     1
  1.4497870661596968E+00 a       812     0    55     1     2
  9.2102605065259202E-01 a       813     0    55     1     3
  1.7809166869660396E+00 a       814     0    55     1     4
 -4.0967098378338057E-01 a       815     0    55     1     5
 -7.8429290595778434E-01 a       816     0    55     1     6
  7.0102179148710975E-01 a       817     0    55     1     7
 -2.2171677233171400E-01 a       818     0    55     1     8
 -1.1614776043655350E+00 a       819     0    55     1     9
 -3.0229011907157377E-01 a       820     0    55     1    10
  1.8778301615775854E+00 a       821     0    55     1    11
  8.6065522754081347E-01 a       822     0    55     1    12
  8.0382052062818787E-01 a       823     0    55     1    13
  2.0752675736460158E+00 a       824     0    55     1    14
  1.8660837295368027E-01 a       825     0    55     1    15
 -1.6467816937366320E+00 a       826     0    56     1     1
  9.7978851956566138E-01 a       827     0    56     1     2
  1.6135764850065533E+00 a       828     0    56     1     3
 -2.3593742705988785E-01 a       829     0    56     1     4
  1.5060808971188786E+00 a       830     0    56     1     5
 -5.9517655897327715E-01 a       831     0    56     1     6
  5.0174867649020460E-02 a       832     0    56     1     7
 -1.6398011972838844E-01 a       833     0    56     1     8
 -1.0009571816256294E-01 a       834     0    56     1     9
 -1.5985930784379896E+00 a       835     0    56     1    10
 -7.0669872659535771E-01 a       836     0    56     1    11
  3.9091059799036731E-01 a       837     0    56     1    12
  1.0713967021402291E+00 a       838     0    56     1    13
  3.7566249757361736E-01 a       839     0    56     1    14
 -1.6787420613449749E-01 a       840     0    56     1    15
  7.1257263549823957E-01 a       841     0    57     1     1
 -8.6994095768566648E-03 a       842     0    57     1     2
 -5.1967459895574253E-01 a       843     0    57     1     3
  2.5242723875181572E-01 a       844     0    57     1     4
 -8.4490287350717719E-01 a       845     0    57     1     5
  2.3704371653388362E-01 a       846     0    57     1     6
  1.1952380850694908E+00 a       847     0    57     1     7
 -1.7677742626486886E-01 a       848     0    57     1     8
  7.3140519618598421E-01 a       849     0    57     1     9
 -5.9522231266682246E-01 a       850     0    57     1    10
 -9.2821876704186912E-01 a       851     0    57     1    11
 -3.9981111957594540E-01 a       852     0    57     1    12
 -1.9138454553285671E+00 a       853     0    57     1    13
 -1.0855526748955990E+00 a       854     0    57     1    14
  1.5356102402770579E+00 a       855     0    57     1    15
 -1.1025034022130196E+00 a       856     0    58     1     1
  2.1389646828538380E+00 a       857     0    58     1     2
 -1.0528851139087498E+00 a       858     0    58     1     3
 -1.4016403456305590E-01 a       859     0    58     1     4
  2.0263461166112334E-01 a       860     0    58     1     5
 -6.2485075228920350E-01 a       861     0    58     1     6
 -4.3357519669370981E-01 a       862     0    58     1     7
 -1.4703598016950836E+00 a       863     0    58     1     8
  7.2037197514860818E-01 a       864     0    58     1     9
 -4.0083828509668262E-01 a       865     0    58     1    10
  8.2844654507911253E-01 a       866     0    58     1    11
  7.1110627081924616E-01 a       867     0    58     1    12
  1.0969630999024060E+00 a       868     0    58     1    13
  9.2233589002320227E-01 a       869     0    58     1    14
 -9.4630314112207548E-01 a       870     0    58     1    15
 -1.5604332061425887E+00 a       871     0    59     1     1
 -1.2269576367660564E+00 a       872     0    59     1     2
  1.6347632149107714E+00 a       873     0    59     1     3
  8.1956118693769597E-01 a       874     0    59     1     4
 -5.9165198676281983E-01 a       875     0    59     1     5
 -1.2404632318714962E-01 a       876     0    59     1     6
  1.4061389056777036E+00 a       877     0    59     1     7
 -8.5316513402734562E-01 a       878     0    59     1     8
  1.8148984123884797E+00 a       879     0    59     1     9
 -4.1687500203930866E-01 a       880     0    59     1    10
 -7.6873102412655048E-01 a       881     0    59     1    11
 -6.8791267124502786E-02 a       882     0    59     1    12
  1.3919086882675149E+00 a       883     0    59     1    13
 -1.8840643028321510E-01 a       884     0    59     1    14
 -5.8580223970362566E-01 a       885     0    59     1    15
 -1.2956012795203213E+00 a       886     0    60     1     1
 -1.6938177659207236E+00 a       887     0    60     1     2
 -8.3443782586190662E-01 a       888     0    60     1     3
  1.3918554476688899E-01 a       889     0    60     1     4
 -1.8307917873174697E+00 a       890     0    60     1     5
 -7.9738854584391894E-01 a       891     0    60     1     6
 -2.1079470899056405E+00 a       892     0    60     1     7
  6.3031421548002231E-01 a       893     0    60     1     8
 -2.1051911872281810E+00 a       894     0    60     1     9
  9.9677895775477054E-01 a       895     0    60     1    10
  8.6852526988042328E-02 a       896     0    60     1    11
 -4.2602373132307703E-01 a       897     0    60     1    12
 -2.0644247379093912E+00 a       898     0    60     1    13
 -1.4744130137320768E+00 a       899     0    60     1    14
 -2.2452615987979280E-01 a       900     0    60     1    15
 -4.3332590404974114E-02 a       901     0    61     1     1
 -2.4437474093915734E-01 a       902     0    61     1     2
 -8.4334396491347730E-01 a       903     0    61     1     3
 -2.4597646330789757E+00 a       904     0    61     1     4
 -1.1245586624767070E+00 a       905     0    61     1     5
  3.2352228577200277E+00 a       906     0    61     1     6
  2.2935375450297166E+00 a       907     0    61     1     7
  1.3513683167746160E+00 a       908     0    61     1     8
 -5.7486106713773555E-01 a       909     0    61     1     9
 -3.9292583792709701E-01 a       910     0    61     1    10
 -1.2046265248075865E+00 a       911     0    61     1    11
 -2.5821576929814114E+00 a       912     0    61     1    12
  4.0942155605679487E-02 a       913     0    61     1    13
  6.8746148451740896E-01 a       914     0    61     1    14
  7.3395469006876035E-01 a       915     0    61     1    15
  2.5728076314291650E+00 a       916     0    62     1     1
 -1.3674208314816767E+00 a       917     0    62     1     2
  3.5582137741480901E-01 a       918     0    62     1     3
  3.0481140835737214E-01 a       919     0    62     1     4
  7.7267779953113369E-01 a       920     0    62     1     5
 -1.7114887258188536E+00 a       921     0    62     1     6
 -3.0621906026318375E+00 a       922     0    62     1     7
  2.2128666397643517E+00 a       923     0    62     1     8
  3.7059291100086178E-01 a       924     0    62     1     9
  2.7778883497428732E+00 a       925     0    62     1    10
 -1.0832495906824369E+00 a       926     0    62     1    11
  1.3303237971393767E+00 a       927     0    62     1    12
 -1.0832406629298879E+00 a       928     0    62     1    13
 -1.0345973455360105E+00 a       929     0    62     1    14
  2.6903216861695896E+00 a       930     0    62     1    15
  1.9957388692453443E-01 a       931     0    63     1     1
  1.4017813129053209E+00 a       932     0    63     1     2
  1.8970563671273264E+00 a       933     0    63     1     3
  4.1055455350378339E-01 a       934     0    63     1     4
  5.8028412035760246E-01 a       935     0    63     1     5
  2.5292065215992330E+00 a       936     0    63     1     6
 -2.5310018223974284E-01 a       937     0    63     1     7
  8.8958371078146370E-01 a       938     0    63     1     8
 -2.0500603075935159E-01 a       939     0    63     1     9
 -1.6115645615554168E+00 a       940     0    63     1    10
  5.4488368252753738E-01 a       941     0    63     1    11
 -5.2645845534638469E-01 a       942     0    63     1    12
 -7.2490731539582454E-01 a       943     0    63     1    13
  2.3503443017781928E-01 a       944     0    63     1    14
  1.7041834462800454E+00 a       945     0    63     1    15
  1.4583315686343727E+00 a       946     0    64     1     1
  3.1472006118252494E-01 a       947     0    64     1     2
  6.0326458922002679E-01 a       948     0    64     1     3
 -8.3233313948339982E-01 a       949     0    64     1     4
  1.4744882382735003E-01 a       950     0    64     1     5
 -1.9525013377894457E-01 a       951     0    64     1     6
  1.3455900305899151E+00 a       952     0    64     1     7
  1.1542893179591790E-01 a       953     0    64     1     8
  1.0375808809608116E+00 a       954     0    64     1     9
 -2.2761572090665849E+00 a       955     0    64     1    10
  9.0385267227783872E-01 a       956     0    64     1    11
  5.6778981425280461E-01 a       957     0    64     1    12
 -1.2128906832231547E+00 a       958     0    64     1    13
  1.8227194619684040E+00 a       959     0    64     1    14
 -2.2393127975369227E+00 a       960     0    64     1    15
  1.0086129854216779E+00 a       961     0    65     1     1
  8.8650729360739133E-01 a       962     0    65     1     2
 -1.9283573016120819E+00 a       963     0    65     1     3
  2.0474703707453987E-01 a       964     0    65     1     4
 -1.4145660320339308E+00 a       965     0    65     1     5
  2.2094150718985772E-01 a       966     0    65     1     6
 -4.0658753976827167E-03 a       967     0    65     1     7
 -3.4026750265481137E-01 a       968     0    65     1     8
 -2.2753371559045212E+00 a       969     0    65     1     9
  1.7192709685385603E+00 a       970     0    65     1    10
 -8.7507373752217232E-01 a       971     0    65     1    11
 -1.9184402227111802E-01 a       972     0    65     1    12
 -1.0056427119763707E+00 a       973     0    65     1    13
  4.4152692752099132E-01 a       974     0    65     1    14
 -1.4096815991755940E-01 a       975     0    65     1    15
 -3.0837763079283043E-01 a       976     0    66     1     1
  2.1539394490080745E+00 a       977     0    66     1     2
 -2.6481149828356632E-01 a       978     0    66     1     3
 -2.8111738088555188E-01 a       979     0    66     1     4
 -7.1836198003708118E-01 a       980     0    66     1     5
 -1.8873111349907135E+00 a       981     0    66     1     6
 -1.1808985036977140E+00 a       982     0    66     1     7
  3.6021613648512379E-01 a       983     0    66     1     8
  3.6586756684950292E+00 a       984     0    66     1     9
  1.3401270351278738E+00 a       985     0    66     1    10
 -1.0182912755474243E+00 a       986     0    66     1    11
 -3.2448522340591829E-01 a       987     0    66     1    12
  3.2224967402225886E+00 a       988     0    66     1    13
 -1.0009495102925283E+00 a       989     0    66     1    14
 -3.3947015479676679E-01 a       990     0    66     1    15
  8.8064439987462273E-01 a       991     0    67     1     1
 -6.3133906998138112E-01 a       992     0    67     1     2
  5.6957295581319722E-01 a       993     0    67     1     3
  1.9150913490416897E+00 a       994     0    67     1     4
 -1.3376539534200937E+00 a       995     0    67     1     5
 -1.8294496082626213E+00 a       996     0    67     1     6
  8.7381398699940926E-01 a       997     0    67     1     7
 -9.1985560540343991E-01 a       998     0    67     1     8
 -2.1557161645834162E+00 a       999     0    67     1     9
 -1.3800341835349337E+00 a      1000     0    67     1    10
  2.3951343148670370E+00 a      1001     0    67     1    11
  1.0206675784545569E+00 a      1002     0    67     1    12
  1.0208298065296146E+00 a      1003     0    67     1    13
  1.5358915687929178E+00 a      1004     0    67     1    14
  3.8946507421981647E-01 a      1005     0    67     1    15
 -6.7569985607845751E-01 a      1006     0    68     1     1
  1.9025375032251577E+00 a      1007     0    68     1     2
  9.6734672396565313E-01 a      1008     0    68     1     3
 -2.0915472805992086E+00 a      1009     0    68     1     4
  1.7769615149997058E+00 a      1010     0    68     1     5
  3.2357956948955796E-02 a      1011     0    68     1     6
 -4.0579215533989776E-01 a      1012     0    68     1     7
 -5.5059144765744739E-01 a      1013     0    68     1     8
 -3.4671905440954809E-01 a      1014     0    68     1     9
 -1.0679065147910667E+00 a      1015     0    68     1    10
 -2.2537785557898906E+00 a      1016     0    68     1    11
  1.3098344355067493E+00 a      1017     0    68     1    12
  2.0215018396104367E-01 a      1018     0    68     1    13
  1.4036842863620791E+00 a      1019     0    68     1    14
 -1.5406691695584754E-01 a      1020     0    68     1    15
  3.3608790134999411E-01 a      1021     0    69     1     1
 -1.2858160023246362E-01 a      1022     0    69     1     2
  1.6380798196707740E+00 a      1023     0    69     1     3
  6.3006077662129023E-01 a      1024     0    69     1     4
  3.5152540561891393E-01 a      1025     0    69     1     5
  2.1046309751125680E-01 a      1026     0    69     1     6
 -3.4387783490859603E-01 a      1027     0    69     1     7
 -1.4583190362161486E-01 a      1028     0    69     1     8
  2.9700105285268014E-01 a      1029     0    69     1     9
  8.9887418535498453E-01 a      1030     0    69     1    10
  1.1681926580666865E-01 a      1031     0    69     1    11
 -4.6439376141129479E-01 a      1032     0    69     1    12
 -2.1019692861486106E+00 a      1033     0    69     1    13
 -9.2870032496335619E-01 a      1034     0    69     1    14
 -8.0962639777533218E-01 a      1035     0    69     1    15
 -2.4692830084776367E+00 a      1036     0    70     1     1
  1.5625473168611286E+00 a      1037     0    70     1     2
 -3.7449581470770471E-01 a      1038     0    70     1     3
  5.6739459703612249E-01 a      1039     0    70     1     4
 -1.8301037990187938E-02 a      1040     0    70     1     5
 -1.6373238954134166E+00 a      1041     0    70     1     6
 -6.7572514884089230E-01 a      1042     0    70     1     7
 -5.0790634267925516E-01 a      1043     0    70     1     8
 -6.5026587485448362E-01 a      1044     0    70     1     9
 -1.8701414417432412E+00 a      1045     0    70     1    10
 -7.1641070889375214E-02 a      1046     0    70     1    11
  1.6887676416682820E+00 a      1047     0    70     1    12
  3.2149581299337915E-01 a      1048     0    70     1    13
 -8.3757754419214037E-01 a      1049     0    70     1    14
  3.4191187990761440E-01 a      1050     0    70     1    15
 -4.9279437586800712E-01 a      1051     0    71     1     1
 -6.2470956833824642E-01 a      1052     0    71     1     2
  2.2337033419390933E+00 a      1053     0    71     1     3
  7.9822791157300710E-01 a      1054     0    71     1     4
 -4.1110489977599135E-01 a      1055     0    71     1     5
 -1.0009705082876221E+00 a      1056     0    71     1     6
  1.7178784339909745E+00 a      1057     0    71     1     7
 -7.2375173779895452E-01 a      1058     0    71     1     8
  5.5532123694015323E-01 a      1059     0    71     1     9
 -2.1302985248297310E-02 a      1060     0    71     1    10
  8.8901162852633475E-01 a      1061     0    71     1    11
 -1.6651124206456763E-01 a      1062     0    71     1    12
  1.1131362179181645E+00 a      1063     0    71     1    13
 -5.0199273121364407E-01 a      1064     0    71     1    14
  6.5858478987194646E-01 a      1065     0    71     1    15
 -1.2973362998528299E+00 a      1066     0    72     1     1
  6.2229706779252603E-01 a      1067     0    72     1     2
 -3.5820533739047528E-01 a      1068     0    72     1     3
 -6.8350666123766357E-01 a      1069     0    72     1     4
 -1.1113085132339395E+00 a      1070     0    72     1     5
  1.5370614383063805E-01 a      1071     0    72     1     6
 -1.4250285926999324E+00 a      1072     0    72     1     7
  5.4062948469880867E-01 a      1073     0    72     1     8
  9.5077968457850792E-01 a      1074     0    72     1     9
 -1.0856576317799624E+00 a      1075     0    72     1    10
 -2.6886310600108149E-01 a      1076     0    72     1    11
 -9.1767731325849267E-01 a      1077     0    72     1    12
  1.1019015375080505E+00 a      1078     0    72     1    13
  4.8564173988608650E-01 a      1079     0    72     1    14
 -4.7806178865652715E-01 a      1080     0    72     1    15
  1.1431786224591851E+00 a      1081     0    73     1     1
 -1.1033590525577108E+00 a      1082     0    73     1     2
  1.5143731085781828E-01 a      1083     0    73     1     3
 -1.7178842418684297E+00 a      1084     0    73     1     4
 -1.5058152321848783E-01 a      1085     0    73     1     5
  1.7823639770394066E+00 a      1086     0    73     1     6
  1.7927125033831612E+00 a      1087     0    73     1     7
  1.2838744254080772E+00 a      1088     0    73     1     8
 -4.5644024306204595E-01 a      1089     0    73     1     9
  6.7709501446972442E-01 a      1090     0    73     1    10
 -4.3116338407200872E-01 a      1091     0    73     1    11
 -1.3553398355270103E+00 a      1092     0    73     1    12
 -9.3229956662097480E-01 a      1093     0    73     1    13
 -1.9027746909852616E-01 a      1094     0    73     1    14
 -5.1946189101506723E-02 a      1095     0    73     1    15
  9.5479733628374786E-01 a      1096     0    74     1     1
 -8.9455380717318234E-01 a      1097     0    74     1     2
 -5.1963805912157657E-01 a      1098     0    74     1     3
 -5.8010092168044136E-01 a      1099     0    74     1     4
  7.1797331695178079E-01 a      1100     0    74     1     5
 -6.2908332740009576E-01 a      1101     0    74     1     6
 -1.4692690955675274E+00 a      1102     0    74     1     7
  2.1196921206218962E+00 a      1103     0    74     1     8
  6.7484592325189563E-01 a      1104     0    74     1     9
  8.5931379373609340E-01 a      1105     0    74     1    10
 -4.5894467898015112E-01 a      1106     0    74     1    11
  1.1223806936779550E+00 a      1107     0    74     1    12
 -2.7506449184199200E+00 a      1108     0    74     1    13
 -1.0367604110139861E+00 a      1109     0    74     1    14
  2.0178096766552120E+00 a      1110     0    74     1    15
  1.4954384434932927E-01 a      1111     0    75     1     1
 -2.1688185181943201E-01 a      1112     0    75     1     2
  1.5226568674284058E+00 a      1113     0    75     1     3
  1.0171279982568180E+00 a      1114     0    75     1     4
  1.2918237624432489E+00 a      1115     0    75     1     5
  2.0263816855164549E+00 a      1116     0    75     1     6
  7.5455120236844822E-02 a      1117     0    75     1     7
  1.4651213765600395E+00 a      1118     0    75     1     8
 -8.4079049128075012E-02 a      1119     0    75     1     9
  1.2470696840092965E+00 a      1120     0    75     1    10
 -1.4414909142628665E+00 a      1121     0    75     1    11
  1.3021819630984699E-02 a      1122     0    75     1    12
  3.4667385600663398E+00 a      1123     0    75     1    13
 -4.0913161327550907E-01 a      1124     0    75     1    14
 -2.2727614491373394E+00 a      1125     0    75     1    15
 -4.3831406029993242E-01 a      1126     0    76     1     1
 -5.1460973381347863E-01 a      1127     0    76     1     2
 -1.0291397914882032E+00 a      1128     0    76     1     3
  2.2243661306141832E-01 a      1129     0    76     1     4
  4.2688262753859463E-01 a      1130     0    76     1     5
  5.2859995731682918E-01 a      1131     0    76     1     6
  1.9395951225885952E+00 a      1132     0    76     1     7
  7.0936789706465642E-01 a      1133     0    76     1     8
 -1.1261840489965251E+00 a      1134     0    76     1     9
  5.8118327762942557E-01 a      1135     0    76     1    10
  2.6721416312137904E+00 a      1136     0    76     1    11
  1.2973964148122652E+00 a      1137     0    76     1    12
 -2.8147688918213398E-01 a      1138     0    76     1    13
  1.9760680975141796E+00 a      1139     0    76     1    14
 -1.0090981192554589E+00 a      1140     0    76     1    15
  8.6840376298295474E-01 a      1141     0    77     1     1
  6.3355251430624715E-01 a      1142     0    77     1     2
 -1.0012340016128467E+00 a      1143     0    77     1     3
 -9.0942447048847297E-02 a      1144     0    77     1     4
 -4.8789709875260706E-01 a      1145     0    77     1     5
  1.1468256477729062E+00 a      1146     0    77     1     6
  2.0462549532072463E+00 a      1147     0    77     1     7
 -1.2870945622448151E+00 a      1148     0    77     1     8
 -1.4959841390668711E+00 a      1149     0    77     1     9
  2.1410742305818466E+00 a      1150     0    77     1    10
 -1.8685575754945662E+00 a      1151     0    77     1    11
 -7.6634394247869131E-01 a      1152     0    77     1    12
 -2.5447551799782193E+00 a      1153     0    77     1    13
  1.2421037660609879E-01 a      1154     0    77     1    14
 -4.3635843796079388E-01 a      1155     0    77     1    15
  3.0914204198292150E-01 a      1156     0    78     1     1
  2.0122884136038919E+00 a      1157     0    78     1     2
 -2.4387343795333267E+00 a      1158     0    78     1     3
  1.3165365772595803E+00 a      1159     0    78     1     4
 -1.4151370888315171E+00 a      1160     0    78     1     5
 -5.7983093641355243E-01 a      1161     0    78     1     6
  2.6000189026775038E+00 a      1162     0    78     1     7
  2.3368936791045321E+00 a      1163     0    78     1     8
 -6.1939636987982849E-01 a      1164     0    78     1     9
  2.5014889799114521E+00 a      1165     0    78     1    10
 -1.9350877709398420E+00 a      1166     0    78     1    11
 -2.7667652560452227E-01 a      1167     0    78     1    12
  2.7130023638539851E+00 a      1168     0    78     1    13
  1.2632814213664927E+00 a      1169     0    78     1    14
  2.5065956081195340E-01 a      1170     0    78     1    15
 -1.5075010931750430E+00 a      1171     0    79     1     1
 -2.1308730397291780E+00 a      1172     0    79     1     2
  5.6782015548384634E-01 a      1173     0    79     1     3
  1.0117936517116592E+00 a      1174     0    79     1     4
 -4.4099308221238287E-01 a      1175     0    79     1     5
 -4.3148020842682044E-01 a      1176     0    79     1     6
  1.0912393611337330E+00 a      1177     0    79     1     7
 -5.2454829120934154E-01 a      1178     0    79     1     8
  8.3298910205864130E-01 a      1179     0    79     1     9
  2.1686482634307382E+00 a      1180     0    79     1    10
 -8.9836061319864102E-02 a      1181     0    79     1    11
  4.6691958589371307E-02 a      1182     0    79     1    12
 -1.2591681921463174E+00 a      1183     0    79     1    13
  7.9709549612165020E-01 a      1184     0    79     1    14
  2.0733085804558296E+00 a      1185     0    79     1    15
 -1.0311446686600743E+00 a      1186     0    80     1     1
  2.9945702437817079E-01 a      1187     0    80     1     2
 -8.3358983765459316E-01 a      1188     0    80     1     3
 -1.0628563416072019E+00 a      1189     0    80     1     4
  2.3990347298369361E+00 a      1190     0    80     1     5
 -1.0308102563892763E+00 a      1191     0    80     1     6
  9.3272867603906207E-01 a      1192     0    80     1     7
 -1.7019298034574276E-01 a      1193     0    80     1     8
 -1.2539937694003294E+00 a      1194     0    80     1     9
  1.8218518286504986E+00 a      1195     0    80     1    10
 -5.3022009247598891E+00 a      1196     0    80     1    11
  8.1270510609995972E-01 a      1197     0    80     1    12
 -1.7756036788039515E+00 a      1198     0    80     1    13
  1.1630203151973877E+00 a      1199     0    80     1    14
  4.4024277103427867E-01 a      1200     0    80     1    15
 -1.8239025218564101E-01 a      1201     0    81     1     1
 -1.2038751580601341E+00 a      1202     0    81     1     2
  1.3507967072365743E+00 a      1203     0    81     1     3
  2.0818553344822655E+00 a      1204     0    81     1     4
  2.6077609905856414E+00 a      1205     0    81     1     5
 -3.5321976528511478E-01 a      1206     0    81     1     6
 -2.8972174315833543E-01 a      1207     0    81     1     7
 -9.6813129193370095E-02 a      1208     0    81     1     8
 -8.6244237734234508E-01 a      1209     0    81     1     9
 -3.3867063338588936E+00 a      1210     0    81     1    10
 -1.4907511676962888E+00 a      1211     0    81     1    11
  1.4432357895796930E-01 a      1212     0    81     1    12
 -1.5310173570826391E+00 a      1213     0    81     1    13
 -1.8479746265605088E+00 a      1214     0    81     1    14
 -2.1262338544376616E+00 a      1215     0    81     1    15
  2.4367469281138254E-02 a      1216     0    82     1     1
 -2.9313520802329984E-01 a      1217     0    82     1     2
  2.0579774718525488E+00 a      1218     0    82     1     3
 -1.1844416426844111E+00 a      1219     0    82     1     4
 -3.7951640289242417E-01 a      1220     0    82     1     5
 -8.6660191647620233E-02 a      1221     0    82     1     6
 -1.5460644669680795E-01 a      1222     0    82     1     7
 -1.6119014405302003E+00 a      1223     0    82     1     8
  1.6431868845817448E+00 a      1224     0    82     1     9
 -3.4511852994093506E-01 a      1225     0    82     1    10
 -4.4780565485543713E+00 a      1226     0    82     1    11
  6.0417806617372860E-01 a      1227     0    82     1    12
 -4.5372320016525830E-01 a      1228     0    82     1    13
  1.2587413096315707E+00 a      1229     0    82     1    14
 -1.5291845552682921E+00 a      1230     0    82     1    15
  1.1258717890293684E+00 a      1231     0    83     1     1
 -3.5001239146857227E-01 a      1232     0    83     1     2
 -6.6786578320221424E-01 a      1233     0    83     1     3
 -1.3250665698710320E+00 a      1234     0    83     1     4
  1.3901301536411579E+00 a      1235     0    83     1     5
  1.0919086168302909E+00 a      1236     0    83     1     6
 -1.1302158351516935E+00 a      1237     0    83     1     7
 -5.4436300298189555E-01 a      1238     0    83     1     8
  5.4164681514892865E-01 a      1239     0    83     1     9
  1.8392211942974062E+00 a      1240     0    83     1    10
  2.1205053564210412E+00 a      1241     0    83     1    11
  1.3308117604435192E+00 a      1242     0    83     1    12
  1.2185967631358333E-01 a      1243     0    83     1    13
  2.1653288517464424E+00 a      1244     0    83     1    14
  1.7262292026763486E+00 a      1245     0    83     1    15
  2.5258615267828928E+00 a      1246     0    84     1     1
 -1.1055713481228551E+00 a      1247     0    84     1     2
  8.9161394918113490E-01 a      1248     0    84     1     3
  2.7452844232260376E-01 a      1249     0    84     1     4
 -2.7555020068612096E-01 a      1250     0    84     1     5
  1.4358223707551991E+00 a      1251     0    84     1     6
  3.0708851540916209E+00 a      1252     0    84     1     7
 -6.2959047625698572E-01 a      1253     0    84     1     8
 -3.9095124913825052E-01 a      1254     0    84     1     9
 -1.1669161973675635E-01 a      1255     0    84     1    10
  2.6402988484470624E-01 a      1256     0    84     1    11
 -3.4028003525608919E-01 a      1257     0    84     1    12
 -7.8517979530811499E-01 a      1258     0    84     1    13
 -7.3925482474475712E-01 a      1259     0    84     1    14
  1.4002059698192868E+00 a      1260     0    84     1    15
 -2.6402804277750325E-01 a      1261     0    85     1     1
  3.0100694388442850E+00 a      1262     0    85     1     2
 -2.8827268756119002E+00 a      1263     0    85     1     3
  1.9232576602161660E+00 a      1264     0    85     1     4
  2.1277414461358551E-01 a      1265     0    85     1     5
 -1.7918606732543605E+00 a      1266     0    85     1     6
 -4.1314286033855385E+00 a      1267     0    85     1     7
 -2.7965696399047162E+00 a      1268     0    85     1     8
  1.2606184993342078E+00 a      1269     0    85     1     9
 -1.6283700219523498E+00 a      1270     0    85     1    10
  9.1681394951597595E-01 a      1271     0    85     1    11
  5.2712270478147438E-01 a      1272     0    85     1    12
 -7.2965228430955542E-02 a      1273     0    85     1    13
 -1.2776917457269525E+00 a      1274     0    85     1    14
 -1.1003874313903503E+00 a      1275     0    85     1    15
 -4.1090848018967217E+00 a      1276     0    86     1     1
  1.2030688238938989E+00 a      1277     0    86     1     2
 -5.9972059615951434E-01 a      1278     0    86     1     3
  1.0899203195376723E+00 a      1279     0    86     1     4
  2.1898219055980608E+00 a      1280     0    86     1     5
  3.3108479031619344E+00 a      1281     0    86     1     6
  4.2044981927544240E+00 a      1282     0    86     1     7
 -1.3161291890075455E+00 a      1283     0    86     1     8
  1.9530159872988401E-01 a      1284     0    86     1     9
 -2.1818246767313294E+00 a      1285     0    86     1    10
  1.2097895778680918E+00 a      1286     0    86     1    11
 -1.4261300656241405E+00 a      1287     0    86     1    12
  2.4442620918935658E+00 a      1288     0    86     1    13
  7.0386596485300934E-02 a      1289     0    86     1    14
 -1.8359898827030343E+00 a      1290     0    86     1    15
  5.0938260432378324E-01 a      1291     0    87     1     1
  1.6762326012267681E+00 a      1292     0    87     1     2
 -2.1394609625810376E-01 a      1293     0    87     1     3
 -2.6073280393683569E+00 a      1294     0    87     1     4
 -7.4193580320415919E-01 a      1295     0    87     1     5
 -3.6372374842144395E-02 a      1296     0    87     1     6
 -1.5100918533770917E+00 a      1297     0    87     1     7
 -7.9111062790950537E-01 a      1298     0    87     1     8
 -1.6078859481327679E+00 a      1299     0    87     1     9
  4.0737592946992238E-02 a      1300     0    87     1    10
  1.7410423215842874E+00 a      1301     0    87     1    11
 -1.9141413220715591E+00 a      1302     0    87     1    12
  4.7503091167713463E-01 a      1303     0    87     1    13
  1.2932221669683583E+00 a      1304     0    87     1    14
 -2.9189271322679633E+00 a      1305     0    87     1    15
  1.4494089173310087E-01 a      1306     0    88     1     1
  2.1150155816417335E-01 a      1307     0    88     1     2
 -1.0350491975172976E-01 a      1308     0    88     1     3
 -8.0301610427279235E-02 a      1309     0    88     1     4
  2.9792094333020627E+00 a      1310     0    88     1     5
 -1.4583430162020300E-01 a      1311     0    88     1     6
  1.0815947087221129E+00 a      1312     0    88     1     7
  2.3666819287466678E+00 a      1313     0    88     1     8
  7.0128192751074681E-01 a      1314     0    88     1     9
  7.5902224070772129E-02 a      1315     0    88     1    10
 -4.9881564709831832E+00 a      1316     0    88     1    11
  2.7823883229677171E+00 a      1317     0    88     1    12
  1.1312344245927912E+00 a      1318     0    88     1    13
 -2.9797506441618253E+00 a      1319     0    88     1    14
 -1.3528552052974470E+00 a      1320     0    88     1    15
  5.6467181120966825E-01 a      1321     0    89     1     1
 -5.4241000913939830E-01 a      1322     0    89     1     2
 -6.4692458209436576E-01 a      1323     0    89     1     3
  2.1090694321215233E+00 a      1324     0    89     1     4
 -1.5013274914762911E+00 a      1325     0    89     1     5
  1.5191563072955099E+00 a      1326     0    89     1     6
  4.1823161560600930E+00 a      1327     0    89     1     7
 -2.9160525938579505E+00 a      1328     0    89     1     8
  2.3359313803294244E+00 a      1329     0    89     1     9
 -1.6969883772528955E+00 a      1330     0    89     1    10
  2.3461739154028032E+00 a      1331     0    89     1    11
 -1.8757806539188784E+00 a      1332     0    89     1    12
 -2.0328682835802843E+00 a      1333     0    89     1    13
 -6.2631897540871850E-01 a      1334     0    89     1    14
 -1.7430032537034494E+00 a      1335     0    89     1    15
 -3.6861699897977732E-02 b      1336     1     1
 -1.2253560522114320E+00 b      1337     1     2
  4.2228410204049133E-01 b      1338     1     3
  1.0055984523478416E+00 b      1339     1     4
 -6.0430026949068949E-01 b      1340     1     5
  1.3550005462448302E+00 b      1341     1     6
 -3.1381562961616238E-01 b      1342     1     7
  4.7496882406266461E-01 b      1343     1     8
  1.1647791916600230E+00 b      1344     1     9
  8.6301815073412858E-01 b      1345     1    10
  8.2632366978674077E-01 b      1346     1    11
  2.4996485802311841E-01 b      1347     1    12
  5.2993829881785892E-01 b      1348     1    13
  9.5556067923635823E-01 b      1349     1    14
  1.8654134575365571E+00 b      1350     1    15
  9.4801792296430121E-01 a      1351     1     1     2     1
 -5.3277773619550106E-01 a      1352     1     1     2     2
 -5.9104408003803099E-01 a      1353     1     1     2     3
  6.2572738395021976E-01 a      1354     1     1     2     4
  1.1232729125431953E+00 a      1355     1     1     2     5
 -5.4514931723975946E-01 a      1356     1     1     2     6
 -3.3699295516623928E-01 a      1357     1     1     2     7
 -4.2990012200492489E-01 a      1358     1     1     2     8
 -1.5508900987874092E+00 a      1359     1     1     2     9
  3.2257999512241531E-01 a      1360     1     1     2    10
 -3.3091677683686205E-01 a      1361     1     1     2    11
  5.2277816927902454E-01 a      1362     1     1     2    12
 -1.0621369075118188E+00 a      1363     1     1     2    13
 -5.1607545127487855E+00 a      1364     1     1     2    14
  4.3561067097218503E-01 a      1365     1     1     2    15
 -2.2872280356398642E-01 a      1366     1     2     2     1
 -1.0801167414113393E+00 a      1367     1     2     2     2
  8.9081382101749129E-01 a      1368     1     2     2     3
 -1.3698082566096415E-01 a      1369     1     2     2     4
  2.4688968058941448E-02 a      1370     1     2     2     5
 -1.2551777480052748E+00 a      1371     1     2     2     6
  8.9648365550079978E-01 a      1372     1     2     2     7
  3.1465908159466269E+00 a      1373     1     2     2     8
  1.7086551114738004E+00 a      1374     1     2     2     9
 -1.0678033850149131E+00 a      1375     1     2     2    10
  6.5174472761938618E-01 a      1376     1     2     2    11
 -6.0892760679369673E-01 a      1377     1     2     2    12
  5.7646061405693327E-01 a      1378     1     2     2    13
 -2.4929420539707445E+00 a      1379     1     2     2    14
 -5.4368425717167079E-01 a      1380     1     2     2    15
  1.2633292594037997E+00 a      1381     1     3     2     1
 -6.6768206841694355E-01 a      1382     1     3     2     2
  5.6066419559417735E-01 a      1383     1     3     2     3
 -7.6425131801589896E-01 a      1384     1     3     2     4
  4.0874032008859201E-01 a      1385     1     3     2     5
  3.6743818039185827E-01 a      1386     1     3     2     6
  1.1045633589624717E+00 a      1387     1     3     2     7
  5.0972271831076954E-01 a      1388     1     3     2     8
 -2.1303388903086054E-01 a      1389     1     3     2     9
  9.0142570651911380E-01 a      1390     1     3     2    10
  1.1401779273463875E+00 a      1391     1     3     2    11
 -6.2720448281590391E-01 a      1392     1     3     2    12
  7.5706530661800897E-01 a      1393     1     3     2    13
 -7.6386099605220692E-01 a      1394     1     3     2    14
  6.9140617421327510E-01 a      1395     1     3     2    15
  6.0991943392428127E-01 a      1396     1     4     2     1
  7.3196837379320456E-01 a      1397     1     4     2     2
 -5.0280630802358073E-01 a      1398     1     4     2     3
  3.2421580343900214E-01 a      1399     1     4     2     4
 -2.7055154115818686E-02 a      1400     1     4     2     5
 -1.4729695867884207E+00 a      1401     1     4     2     6
 -1.8520738079970973E+00 a      1402     1     4     2     7
  1.7808054930077994E+00 a      1403     1     4     2     8
  1.3718314043298387E+00 a      1404     1     4     2     9
  3.5727608443193781E-01 a      1405     1     4     2    10
  1.4615047919167994E+00 a      1406     1     4     2    11
  9.2243734504247077E-01 a      1407     1     4     2    12
 -1.2609010458421175E+00 a      1408     1     4     2    13
 -1.3009999669638289E-01 a      1409     1     4     2    14
 -3.3765515278839829E-02 a      1410     1     4     2    15
  5.8236104272138223E-01 a      1411     1     5     2     1
  1.6192664734780490E-01 a      1412     1     5     2     2
 -4.7996762696994204E-02 a      1413     1     5     2     3
 -4.3257110420983480E-01 a      1414     1     5     2     4
  1.1968450220175189E-01 a      1415     1     5     2     5
  9.7616038383530046E-01 a      1416     1     5     2     6
 -8.4076819621112076E-01 a      1417     1     5     2     7
 -2.0581756106130507E+00 a      1418     1     5     2     8
  6.5474487826080530E-01 a      1419     1     5     2     9
  1.5537378430034237E+00 a      1420     1     5     2    10
 -5.0460408259673628E-01 a      1421     1     5     2    11
 -1.2746819699102740E-01 a      1422     1     5     2    12
 -4.0790179593941939E-01 a      1423     1     5     2    13
 -1.2719178625434124E+00 a      1424     1     5     2    14
 -2.3151275630217683E-01 a      1425     1     5     2    15
  4.2764597792974907E-01 a      1426     1     6     2     1
  1.3838085876213174E-01 a      1427     1     6     2     2
  1.9279775678983274E-01 a      1428     1     6     2     3
  1.1070712572084844E+00 a      1429     1     6     2     4
  1.8429102536797404E+00 a      1430     1     6     2     5
  1.9147883063367177E-01 a      1431     1     6     2     6
  9.8956382623162487E-01 a      1432     1     6     2     7
  1.1860576491423975E+00 a      1433     1     6     2     8
  4.2734878689177919E-01 a      1434     1     6     2     9
  1.2847864352153633E+00 a      1435     1     6     2    10
  4.4750685772135784E-01 a      1436     1     6     2    11
  3.9313282481343725E-01 a      1437     1     6     2    12
  2.7554316468246287E-01 a      1438     1     6     2    13
 -1.2435524718862720E+00 a      1439     1     6     2    14
  7.0482849887255616E-01 a      1440     1     6     2    15
  1.1464773207841172E+00 a      1441     1     7     2     1
 -4.2282837002980933E-01 a      1442     1     7     2     2
  4.2111894618923534E-02 a      1443     1     7     2     3
 -4.8516788371928926E-01 a      1444     1     7     2     4
  6.9993276339873101E-01 a      1445     1     7     2     5
  2.5072097171198854E-01 a      1446     1     7     2     6
 -3.0765314175773661E-01 a      1447     1     7     2     7
 -1.3517757676840042E-01 a      1448     1     7     2     8
 -3.1181609088434581E-01 a      1449     1     7     2     9
  8.3697744146310737E-01 a      1450     1     7     2    10
  1.2166811201655499E+00 a      1451     1     7     2    11
  3.5489452799052795E-01 a      1452     1     7     2    12
  6.9199105752159107E-01 a      1453     1     7     2    13
 -1.4857309548700670E+00 a      1454     1     7     2    14
  8.0925377087379324E-01 a      1455     1     7     2    15
 -4.6518033837013570E-02 a      1456     1     8     2     1
  9.6255423629398734E-02 a      1457     1     8     2     2
 -4.3322072192125888E-01 a      1458     1     8     2     3
  2.8162029232690999E-01 a      1459     1     8     2     4
 -1.0488015779369937E+00 a      1460     1     8     2     5
 -1.5512825216452117E-01 a      1461     1     8     2     6
 -4.2814383208557877E-02 a      1462     1     8     2     7
 -2.9404218610188637E-01 a      1463     1     8     2     8
  1.3630708497050431E-01 a      1464     1     8     2     9
  4.1027284382808737E-01 a      1465     1     8     2    10
  5.7644293580613093E-01 a      1466     1     8     2    11
  2.3517423333265705E-01 a      1467     1     8     2    12
 -1.0419698170148148E+00 a      1468     1     8     2    13
  4.4920510776984623E-01 a      1469     1     8     2    14
 -1.5222086899400038E+00 a      1470     1     8     2    15
  7.8936929205228978E-01 a      1471     1     9     2     1
  1.2837790053989423E-01 a      1472     1     9     2     2
 -4.8182790884593607E-01 a      1473     1     9     2     3
 -9.8588686632807865E-01 a      1474     1     9     2     4
 -3.0067229727599258E+00 a      1475     1     9     2     5
 -1.5300887556216671E+00 a      1476     1     9     2     6
 -5.4327754654183505E-03 a      1477     1     9     2     7
  5.4143717411085335E-01 a      1478     1     9     2     8
  1.7813802585537730E+00 a      1479     1     9     2     9
  2.2798162339188313E-01 a      1480     1     9     2    10
  1.6799335978644714E-01 a      1481     1     9     2    11
  1.1094493590518071E+00 a      1482     1     9     2    12
 -2.3930934751812258E-01 a      1483     1     9     2    13
 -6.9412195836357160E-02 a      1484     1     9     2    14
  1.7744529972318179E-01 a      1485     1     9     2    15
 -4.9245279370002154E-01 a      1486     1    10     2     1
  1.1794869358917379E+00 a      1487     1    10     2     2
 -1.1876285022401154E+00 a      1488     1    10     2     3
 -9.9618888381290460E-01 a      1489     1    10     2     4
  1.2502217079189835E+00 a      1490     1    10     2     5
  2.4997046001392418E+00 a      1491     1    10     2     6
  1.4606993158551513E+00 a      1492     1    10     2     7
 -8.5610838693742952E-01 a      1493     1    10     2     8
 -8.1855813349525997E-01 a      1494     1    10     2     9
 -1.3326426232354758E+00 a      1495     1    10     2    10
 -2.0130106438552402E+00 a      1496     1    10     2    11
  8.3805023388585931E-01 a      1497     1    10     2    12
 -8.3756707788079465E-01 a      1498     1    10     2    13
  1.2747203182010206E-01 a      1499     1    10     2    14
 -1.0488814970043470E+00 a      1500     1    10     2    15
 -3.6776711591861005E-01 a      1501     1    11     2     1
 -1.2096962183767632E+00 a      1502     1    11     2     2
  1.0168333244500143E+00 a      1503     1    11     2     3
 -5.0382585266995372E-01 a      1504     1    11     2     4
 -6.5971642571857925E-01 a      1505     1    11     2     5
  7.5129600695591325E-02 a      1506     1    11     2     6
  1.0338898732550046E+00 a      1507     1    11     2     7
 -5.8137412536080291E-02 a      1508     1    11     2     8
 -1.0083362324266298E+00 a      1509     1    11     2     9
  2.3842327049246581E+00 a      1510     1    11     2    10
  1.7439282461436256E+00 a      1511     1    11     2    11
 -2.9295817752190229E-01 a      1512     1    11     2    12
 -2.0670386213153230E-01 a      1513     1    11     2    13
 -9.3607784427572771E-01 a      1514     1    11     2    14
 -6.2802413020867653E-01 a      1515     1    11     2    15
  3.1445041510901173E-01 a      1516     1    12     2     1
  5.1305950902920527E-01 a      1517     1    12     2     2
  5.9725712285421333E-02 a      1518     1    12     2     3
 -8.9679256927625017E-01 a      1519     1    12     2     4
 -4.1054149567841974E-01 a      1520     1    12     2     5
  3.4101709325116525E-01 a      1521     1    12     2     6
  9.3806456378597702E-01 a      1522     1    12     2     7
  1.1428401185011210E+00 a      1523     1    12     2     8
 -3.5687075716567751E-01 a      1524     1    12     2     9
  1.3045101963196799E+00 a      1525     1    12     2    10
 -2.8146338973778984E-01 a      1526     1    12     2    11
  2.9680623482761159E-01 a      1527     1    12     2    12
  3.0436051093875138E-01 a      1528     1    12     2    13
 -7.4252187490694166E-01 a      1529     1    12     2    14
  5.6565388388843341E-01 a      1530     1    12     2    15
  5.1321906508823356E-01 a      1531     1    13     2     1
 -5.5728624061206822E-01 a      1532     1    13     2     2
 -6.8985976777164848E-01 a      1533     1    13     2     3
  8.4308626368621450E-02 a      1534     1    13     2     4
 -1.1714789270849564E+00 a      1535     1    13     2     5
 -4.9606275725055798E-01 a      1536     1    13     2     6
 -8.6713529102654718E-01 a      1537     1    13     2     7
  1.6983106757015700E+00 a      1538     1    13     2     8
  8.2237649526750189E-01 a      1539     1    13     2     9
 -1.0008956464813621E+00 a      1540     1    13     2    10
 -2.3333952883192433E-01 a      1541     1    13     2    11
  6.4237824617871842E-01 a      1542     1    13     2    12
  5.3938954251306459E-01 a      1543     1    13     2    13
 -1.1872332451804221E-01 a      1544     1    13     2    14
  2.7123759300704281E-01 a      1545     1    13     2    15
  4.8447658035824542E-01 a      1546     1    14     2     1
  1.4611136127760593E+00 a      1547     1    14     2     2
  1.4195335823476338E-01 a      1548     1    14     2     3
  8.4022443733690597E-02 a      1549     1    14     2     4
  2.2021754651174730E-04 a      1550     1    14     2     5
 -5.2895735856661763E-01 a      1551     1    14     2     6
 -6.9926884212651896E-01 a      1552     1    14     2     7
  1.2888183431340428E+00 a      1553     1    14     2     8
 -2.2767132735994600E-01 a      1554     1    14     2     9
 -6.1929324737906954E-01 a      1555     1    14     2    10
  3.1165306969955814E-02 a      1556     1    14     2    11
 -5.0178068093117678E-01 a      1557     1    14     2    12
 -2.6008985563029774E-01 a      1558     1    14     2    13
  6.1458137621290265E-02 a      1559     1    14     2    14
 -2.6385580489157895E-01 a      1560     1    14     2    15
 -4.1551470414405456E-01 a      1561     1    15     2     1
 -3.4186094104162046E-01 a      1562     1    15     2     2
  4.2308766539776199E-01 a      1563     1    15     2     3
  6.1294083722960058E-01 a      1564     1    15     2     4
  7.6067859266941906E-01 a      1565     1    15     2     5
  2.5535919601350678E+00 a      1566     1    15     2     6
  4.0582432226103854E-01 a      1567     1    15     2     7
 -9.1564409094032917E-01 a      1568     1    15     2     8
 -3.5371361872539497E-01 a      1569     1    15     2     9
  1.3880376386048554E+00 a      1570     1    15     2    10
  1.3828673076390097E+00 a      1571     1    15     2    11
 -8.8747469937221624E-01 a      1572     1    15     2    12
 -4.7174314945042317E-01 a      1573     1    15     2    13
 -2.6372595114233874E+00 a      1574     1    15     2    14
  6.4475733670502378E-01 a      1575     1    15     2    15
 -9.9592336319835673E-01 b      1576     2     1
  1.0876258736422164E+00 b      1577     2     2
 -1.9158378458448311E+00 b      1578     2     3
  3.5282826027759397E+00 b      1579     2     4
  1.9825078092104089E+00 b      1580     2     5
  6.4840803023904070E-01 b      1581     2     6
  1.4305747871179906E+00 b      1582     2     7
  4.7109545415196727E+00 b      1583     2     8
 -3.2434942958694108E+00 b      1584     2     9
 -1.3641518691810832E+00 b      1585     2    10
  5.6041758470737246E-01 b      1586     2    11
  1.6906355919749116E+00 b      1587     2    12
  8.6546236080504257E-01 b      1588     2    13
  2.2805025688068720E-01 b      1589     2    14
 -3.6564864311630874E-01 b      1590     2    15
  4.6175783146795280E-01 a      1591     2     1     3     1
  8.7904212246738764E-02 a      1592     2     2     3     1
 -2.7131725173151044E-01 a      1593     2     3     3     1
 -1.0839367033700632E-01 a      1594     2     4     3     1
  6.6342767883555059E-02 a      1595     2     5     3     1
  3.5875074660335696E-02 a      1596     2     6     3     1
  8.3764412008041231E-02 a      1597     2     7     3     1
 -2.4426196066560445E-02 a      1598     2     8     3     1
  7.3048648725991844E-02 a      1599     2     9     3     1
 -2.9290885057071936E-01 a      1600     2    10     3     1
 -1.4574568953358114E-01 a      1601     2    11     3     1
  6.5057940034405826E-01 a      1602     2    12     3     1
  8.1589145689769230E-02 a      1603     2    13     3     1
  7.1271914436008066E-01 a      1604     2    14     3     1
 -2.9535792628871160E-01 a      1605     2    15     3     1
 -2.5526215724125279E+00 b      1606     3     1
