################################################################################
# Neural network connection values (weights and biases).
################################################################################
# Col  Name       Description
################################################################################
# 1    connection Neural network connection value.
# 2    t          Connection type (a = weight, b = bias).
# 3    index      Index enumerating weights.
# 4    l_s        Starting point layer (end point layer for biases).
# 5    n_s        Starting point neuron in starting layer (end point neuron for biases).
# 6    l_e        End point layer.
# 7    n_e        End point neuron in end layer.
################################################################################
#                      1 2         3     4     5     6     7
#             connection t     index   l_s   n_s   l_e   n_e
############################################################
 -1.5941437496224733E+00 a         1     0     1     1     1
 -2.5095418339774489E+00 a         2     0     1     1     2
 -1.5698459637201769E+00 a         3     0     1     1     3
 -8.8230386220269863E-01 a         4     0     1     1     4
 -4.3435391442712262E-01 a         5     0     1     1     5
 -6.9551242261073776E-01 a         6     0     1     1     6
  2.1879917837712752E+00 a         7     0     1     1     7
 -2.7453155011659618E+00 a         8     0     1     1     8
 -1.3766587792006457E+00 a         9     0     1     1     9
  4.8500224942365035E-02 a        10     0     1     1    10
 -1.2562150966148711E+00 a        11     0     1     1    11
 -7.9245171163942280E-02 a        12     0     1     1    12
 -2.8566765234812919E+00 a        13     0     1     1    13
  7.3544197137461054E-01 a        14     0     1     1    14
  2.3703313986179850E+00 a        15     0     1     1    15
  3.5256050572924047E+00 a        16     0     2     1     1
  1.3573313070730697E+00 a        17     0     2     1     2
 -1.0482265120475831E+00 a        18     0     2     1     3
  9.5839367124493191E-01 a        19     0     2     1     4
 -2.1266472199822966E+00 a        20     0     2     1     5
  1.1606083949637358E+00 a        21     0     2     1     6
 -9.4305199069683543E-01 a        22     0     2     1     7
  1.0984697445865050E+00 a        23     0     2     1     8
  1.5273381783550457E+00 a        24     0     2     1     9
 -7.9133719991263984E-01 a        25     0     2     1    10
  1.1342480635102080E-01 a        26     0     2     1    11
 -5.6670930451737456E-01 a        27     0     2     1    12
  1.7294682861856268E+00 a        28     0     2     1    13
 -2.5404414019928017E+00 a        29     0     2     1    14
 -6.2408945038040073E+00 a        30     0     2     1    15
  2.2822556844383204E+00 a        31     0     3     1     1
  4.8289203364465716E-01 a        32     0     3     1     2
 -2.0187200415500652E+00 a        33     0     3     1     3
 -3.6848217961486873E-01 a        34     0     3     1     4
  2.0867487773207714E+00 a        35     0     3     1     5
 -8.4250290170190034E-01 a        36     0     3     1     6
 -4.2609881833261531E-01 a        37     0     3     1     7
  2.5802526111500357E-01 a        38     0     3     1     8
  5.5013672263895996E-01 a        39     0     3     1     9
 -8.8892484065660682E-01 a        40     0     3     1    10
 -3.3995779647347946E-01 a        41     0     3     1    11
 -9.0369600655329019E-01 a        42     0     3     1    12
  1.4552658798993885E+00 a        43     0     3     1    13
  5.0778132089589800E-01 a        44     0     3     1    14
 -3.5915768525630560E+00 a        45     0     3     1    15
 -2.5858801862979802E-01 a        46     0     4     1     1
 -8.0994154816806685E-01 a        47     0     4     1     2
 -1.5324937057838153E+00 a        48     0     4     1     3
 -1.6732207045670786E+00 a        49     0     4     1     4
  1.8297286240643977E+00 a        50     0     4     1     5
  8.1394117925568166E-01 a        51     0     4     1     6
  8.7168474382528371E-01 a        52     0     4     1     7
  7.7001526321145874E-01 a        53     0     4     1     8
  1.0988960882105518E+00 a        54     0     4     1     9
  4.9318388062735796E-01 a        55     0     4     1    10
 -9.8091997702592226E-01 a        56     0     4     1    11
  2.7386055966061273E+00 a        57     0     4     1    12
  1.8476988329758970E+00 a        58     0     4     1    13
 -1.1821374282468646E+00 a        59     0     4     1    14
  1.2939180359619282E+00 a        60     0     4     1    15
  3.7235982623594031E+00 a        61     0     5     1     1
 -8.3510178132064505E-01 a        62     0     5     1     2
  2.6661965399493304E+00 a        63     0     5     1     3
 -1.4558405211317009E+00 a        64     0     5     1     4
  3.7544675081896434E-02 a        65     0     5     1     5
  2.0059860793861346E+00 a        66     0     5     1     6
 -4.4751417942890093E-01 a        67     0     5     1     7
  1.1831680774504667E+00 a        68     0     5     1     8
 -1.5598275402374338E+00 a        69     0     5     1     9
  1.9031868605913158E+00 a        70     0     5     1    10
 -5.0485107433815657E-01 a        71     0     5     1    11
  4.9443295163887707E-02 a        72     0     5     1    12
 -2.0960545301764125E-01 a        73     0     5     1    13
 -1.5255665248205477E+00 a        74     0     5     1    14
 -1.9043596275511796E+00 a        75     0     5     1    15
  4.7255995232912418E-01 a        76     0     6     1     1
 -1.6345141355227313E+00 a        77     0     6     1     2
 -1.1695591212708811E+00 a        78     0     6     1     3
  1.3602141434777186E+00 a        79     0     6     1     4
 -2.5952679108548982E-01 a        80     0     6     1     5
  5.5142463198573799E-01 a        81     0     6     1     6
  7.2688611825284166E-01 a        82     0     6     1     7
 -1.0413762438053642E+00 a        83     0     6     1     8
 -1.5470750454288178E+00 a        84     0     6     1     9
  5.7819812242633106E-01 a        85     0     6     1    10
  8.4346636948445064E-01 a        86     0     6     1    11
  2.2690842273529743E-01 a        87     0     6     1    12
 -1.0235932112395962E+00 a        88     0     6     1    13
  1.9226712944313062E-01 a        89     0     6     1    14
 -3.3762175083426977E+00 a        90     0     6     1    15
 -1.4493311942279419E+00 a        91     0     7     1     1
 -1.6225322583406876E-01 a        92     0     7     1     2
 -1.0357350049923322E+00 a        93     0     7     1     3
 -3.5409715904516706E-02 a        94     0     7     1     4
  1.2021841688414467E-01 a        95     0     7     1     5
  4.3201648805692822E-01 a        96     0     7     1     6
  8.3890712175203952E-01 a        97     0     7     1     7
  2.1397315951268383E+00 a        98     0     7     1     8
  1.7492521224894539E+00 a        99     0     7     1     9
 -5.5927489128750885E-01 a       100     0     7     1    10
 -1.0405746599979679E+00 a       101     0     7     1    11
  6.1079672745012492E-01 a       102     0     7     1    12
  3.9179172573687854E-01 a       103     0     7     1    13
  9.6420656801128923E-01 a       104     0     7     1    14
 -8.8521049381095951E-01 a       105     0     7     1    15
 -3.4517230480934696E-01 a       106     0     8     1     1
  9.2268356017604281E-01 a       107     0     8     1     2
 -1.4551753266156113E+00 a       108     0     8     1     3
  6.9997647031693255E-01 a       109     0     8     1     4
  1.1227979581599214E+00 a       110     0     8     1     5
  5.3965427978869651E-01 a       111     0     8     1     6
  5.3785842563058250E-01 a       112     0     8     1     7
  9.9637856617198584E-01 a       113     0     8     1     8
 -1.5787738872574064E-01 a       114     0     8     1     9
  6.9744121815293464E-02 a       115     0     8     1    10
 -1.4352838685734556E-01 a       116     0     8     1    11
  5.5298427729797886E-02 a       117     0     8     1    12
  1.0652711749591395E+00 a       118     0     8     1    13
 -2.4373718253314644E-01 a       119     0     8     1    14
  4.8378565295890458E-01 a       120     0     8     1    15
 -6.3221562303435966E-02 a       121     0     9     1     1
 -7.3160978043443992E-01 a       122     0     9     1     2
  2.1127776238505596E+00 a       123     0     9     1     3
  1.1841068477530596E-01 a       124     0     9     1     4
  3.5243866775715960E-01 a       125     0     9     1     5
  8.1655592342390892E-02 a       126     0     9     1     6
 -1.1646574943933568E+00 a       127     0     9     1     7
 -3.3572631911848144E-01 a       128     0     9     1     8
  8.2531511802132607E-01 a       129     0     9     1     9
 -3.4484482740617306E-01 a       130     0     9     1    10
  1.0029305723712575E-01 a       131     0     9     1    11
 -2.3225060282029180E+00 a       132     0     9     1    12
 -1.4775807440708039E-01 a       133     0     9     1    13
 -2.3065768897515465E-01 a       134     0     9     1    14
 -1.1929782061619134E+00 a       135     0     9     1    15
  8.7930978967183368E-02 a       136     0    10     1     1
 -1.0073873256069805E-01 a       137     0    10     1     2
  1.7449290978720484E+00 a       138     0    10     1     3
  6.6000063633880690E-01 a       139     0    10     1     4
  6.8757319036892894E-01 a       140     0    10     1     5
 -1.3573546121966984E-01 a       141     0    10     1     6
  7.8060347343052372E-01 a       142     0    10     1     7
  1.9686111339037486E+00 a       143     0    10     1     8
  1.8171316690482162E+00 a       144     0    10     1     9
 -1.4991510014266221E+00 a       145     0    10     1    10
  3.2614232928302248E-02 a       146     0    10     1    11
  2.7158431051122200E-01 a       147     0    10     1    12
  5.3832764784701370E-01 a       148     0    10     1    13
 -1.9845868447019741E+00 a       149     0    10     1    14
 -2.5810843535911392E+00 a       150     0    10     1    15
 -1.7273215716972499E+00 a       151     0    11     1     1
 -7.2726020730376129E-01 a       152     0    11     1     2
 -7.3688758984131064E-01 a       153     0    11     1     3
 -1.6757222096039246E+00 a       154     0    11     1     4
  1.2405490927855253E-01 a       155     0    11     1     5
  1.0336646561965095E+00 a       156     0    11     1     6
 -5.9435402712943508E-02 a       157     0    11     1     7
  1.7222662250577137E-01 a       158     0    11     1     8
  1.7320818964873588E-01 a       159     0    11     1     9
 -4.5720936862003936E-01 a       160     0    11     1    10
 -1.0013125416011133E+00 a       161     0    11     1    11
  9.5541905749537293E-01 a       162     0    11     1    12
  3.5490487472209231E-01 a       163     0    11     1    13
 -1.2477189392833368E+00 a       164     0    11     1    14
 -1.2290816412007057E+00 a       165     0    11     1    15
 -8.0797034983880123E-01 a       166     0    12     1     1
  1.2129503817223246E+00 a       167     0    12     1     2
 -8.9066065168536357E-01 a       168     0    12     1     3
  1.5321483096410824E+00 a       169     0    12     1     4
 -3.7052693688818927E-01 a       170     0    12     1     5
 -7.2722096818363891E-01 a       171     0    12     1     6
 -4.7830582262779577E+00 a       172     0    12     1     7
 -5.9503763556739075E-01 a       173     0    12     1     8
 -1.3869338568127496E+00 a       174     0    12     1     9
  8.0748246074600349E-01 a       175     0    12     1    10
  1.8846037279371060E+00 a       176     0    12     1    11
  1.6452141185092086E+00 a       177     0    12     1    12
  1.6011298782067118E+00 a       178     0    12     1    13
  1.4647148453364056E+00 a       179     0    12     1    14
  3.6091369691195574E-01 a       180     0    12     1    15
 -1.5641028347618724E+00 a       181     0    13     1     1
 -2.2546368516230719E-01 a       182     0    13     1     2
  1.2214653844518870E+00 a       183     0    13     1     3
  5.5381015451855351E+00 a       184     0    13     1     4
 -8.1054874063638627E-01 a       185     0    13     1     5
  2.3248900789375507E-01 a       186     0    13     1     6
  3.0608066894612851E-01 a       187     0    13     1     7
 -2.1723228295029529E+00 a       188     0    13     1     8
 -4.1997828599524600E-01 a       189     0    13     1     9
 -1.1250204481376412E-01 a       190     0    13     1    10
 -6.3677036815374510E-01 a       191     0    13     1    11
  7.2495539959408856E-02 a       192     0    13     1    12
  3.6778180406971334E-01 a       193     0    13     1    13
  6.8120281089860646E-01 a       194     0    13     1    14
 -5.8739067960842561E-01 a       195     0    13     1    15
  1.6170162240886637E-01 a       196     0    14     1     1
  6.7290241818003693E-01 a       197     0    14     1     2
  7.5789441744602426E-01 a       198     0    14     1     3
  9.0523927215755473E-02 a       199     0    14     1     4
 -2.8158589207472146E-01 a       200     0    14     1     5
 -8.4275966555434456E-02 a       201     0    14     1     6
  1.3059430777652947E-01 a       202     0    14     1     7
  1.0079253442024809E+00 a       203     0    14     1     8
  1.5001805144288546E-01 a       204     0    14     1     9
 -5.3498371220263385E-01 a       205     0    14     1    10
 -1.6176491425454078E+00 a       206     0    14     1    11
 -2.6128567698466885E+00 a       207     0    14     1    12
  8.2510006894820936E-02 a       208     0    14     1    13
 -3.4052014599422498E-01 a       209     0    14     1    14
 -5.9260063815279507E-01 a       210     0    14     1    15
 -2.8119073922885168E-01 a       211     0    15     1     1
  1.0994769184273478E-01 a       212     0    15     1     2
  3.1166389064361694E-01 a       213     0    15     1     3
 -2.6185498587125915E+00 a       214     0    15     1     4
 -2.1739275538621944E-01 a       215     0    15     1     5
  8.2560991756083735E-01 a       216     0    15     1     6
  8.1969668753635616E-01 a       217     0    15     1     7
  9.0880460592963563E-01 a       218     0    15     1     8
  1.8624805255126902E+00 a       219     0    15     1     9
 -3.7856611085540925E-01 a       220     0    15     1    10
 -7.8781188123492951E-01 a       221     0    15     1    11
  9.6779399386237086E-01 a       222     0    15     1    12
 -2.0007636003842777E-01 a       223     0    15     1    13
 -4.0398289376352825E-01 a       224     0    15     1    14
 -1.7714150525883224E-01 a       225     0    15     1    15
 -7.7308435054308000E-01 a       226     0    16     1     1
  4.2040046334169601E-01 a       227     0    16     1     2
 -3.9375981264994159E-01 a       228     0    16     1     3
  1.0100780285807691E+00 a       229     0    16     1     4
 -1.6224867861890322E+00 a       230     0    16     1     5
 -1.5276123306664215E+00 a       231     0    16     1     6
 -1.9793708823496199E+00 a       232     0    16     1     7
 -2.9793915148906952E-01 a       233     0    16     1     8
  4.9675051115397362E-01 a       234     0    16     1     9
 -5.3717591030403145E-01 a       235     0    16     1    10
  1.0801947370186369E+00 a       236     0    16     1    11
  2.6931153303100657E+00 a       237     0    16     1    12
 -1.8076427967287073E-01 a       238     0    16     1    13
 -7.3483846471733019E-02 a       239     0    16     1    14
  5.0892611155269574E-01 a       240     0    16     1    15
  2.8096806315850906E-02 a       241     0    17     1     1
  8.4796682094666220E-01 a       242     0    17     1     2
 -2.8803019441642963E-01 a       243     0    17     1     3
  3.1420590589687492E+00 a       244     0    17     1     4
 -3.7365522490674069E-01 a       245     0    17     1     5
 -1.5827924822964279E+00 a       246     0    17     1     6
  1.0726853229258855E+00 a       247     0    17     1     7
 -2.1869224260366087E+00 a       248     0    17     1     8
 -2.6066913617877070E+00 a       249     0    17     1     9
  8.8373470022765088E-01 a       250     0    17     1    10
 -2.3884958371630033E-01 a       251     0    17     1    11
  4.1945430845175719E-01 a       252     0    17     1    12
 -9.9625825154381320E-01 a       253     0    17     1    13
 -6.0469509146898515E-01 a       254     0    17     1    14
  3.7401291139885706E-01 a       255     0    17     1    15
  2.1545774612131918E+00 a       256     0    18     1     1
  1.1529546031385107E-01 a       257     0    18     1     2
  6.3321780902431057E-01 a       258     0    18     1     3
 -3.3726940130757466E-01 a       259     0    18     1     4
 -3.4350412735591990E-01 a       260     0    18     1     5
  3.2644129994854010E-01 a       261     0    18     1     6
 -2.9600543664636197E-01 a       262     0    18     1     7
  8.6023314965768838E-01 a       263     0    18     1     8
  9.0070438986523438E-01 a       264     0    18     1     9
 -1.3326065378765795E+00 a       265     0    18     1    10
 -1.0021760129675192E+00 a       266     0    18     1    11
 -7.8339941759744502E-01 a       267     0    18     1    12
 -4.8172074295998812E-01 a       268     0    18     1    13
 -1.3443792044767848E+00 a       269     0    18     1    14
  9.9988491796847656E-02 a       270     0    18     1    15
  1.4363250585187706E+00 a       271     0    19     1     1
 -2.7453635175432400E-01 a       272     0    19     1     2
 -2.1115716437183436E+00 a       273     0    19     1     3
 -6.5863860555635356E-01 a       274     0    19     1     4
 -1.0054556323142456E-01 a       275     0    19     1     5
 -2.3454148148609018E+00 a       276     0    19     1     6
  1.9453709776838723E+00 a       277     0    19     1     7
 -1.9614463791257581E+00 a       278     0    19     1     8
 -1.3712914410408650E+00 a       279     0    19     1     9
  7.5276434041025919E-01 a       280     0    19     1    10
 -3.2044794610190552E-01 a       281     0    19     1    11
 -4.8759903535637583E-01 a       282     0    19     1    12
  6.9503287406506387E-01 a       283     0    19     1    13
  1.9174032027234844E+00 a       284     0    19     1    14
 -1.1255836190037101E+00 a       285     0    19     1    15
  1.1957992844040705E-01 a       286     0    20     1     1
 -3.9994993253303640E-01 a       287     0    20     1     2
 -2.6568716250944031E+00 a       288     0    20     1     3
  1.1372779463192122E+00 a       289     0    20     1     4
  3.2849947210769359E-01 a       290     0    20     1     5
 -1.3640652771499155E+00 a       291     0    20     1     6
 -1.7804626049655998E+00 a       292     0    20     1     7
  1.6371513221111489E-01 a       293     0    20     1     8
  2.2699891717259077E-01 a       294     0    20     1     9
 -6.3213628512909281E-01 a       295     0    20     1    10
  1.5019480328978885E+00 a       296     0    20     1    11
  5.3553891256579567E-01 a       297     0    20     1    12
 -1.0146739955984139E+00 a       298     0    20     1    13
  2.6568031275024873E-01 a       299     0    20     1    14
 -8.6494761479500104E-01 a       300     0    20     1    15
  1.3170980611354559E+00 a       301     0    21     1     1
  2.4206853028976036E+00 a       302     0    21     1     2
 -1.2576502289819779E-02 a       303     0    21     1     3
  1.1982562368789613E+00 a       304     0    21     1     4
 -1.5404040486396349E+00 a       305     0    21     1     5
  3.0594578898288888E-01 a       306     0    21     1     6
 -2.8460576631910234E-02 a       307     0    21     1     7
  1.2189582897618980E+00 a       308     0    21     1     8
 -1.0297295776297171E+00 a       309     0    21     1     9
 -2.7162166267794579E+00 a       310     0    21     1    10
 -9.3360757855282928E-01 a       311     0    21     1    11
  6.4064874090377977E-02 a       312     0    21     1    12
  1.3235684087167487E+00 a       313     0    21     1    13
  1.8726061418160073E-01 a       314     0    21     1    14
 -1.5001867461147519E-01 a       315     0    21     1    15
  1.6215671674210743E+00 a       316     0    22     1     1
  8.8614385296471632E-01 a       317     0    22     1     2
  4.3323094930641293E-01 a       318     0    22     1     3
  1.6511787911939533E+00 a       319     0    22     1     4
  1.3141470095787680E+00 a       320     0    22     1     5
  1.8344424648270949E+00 a       321     0    22     1     6
 -1.0556228289862291E+00 a       322     0    22     1     7
 -4.1446802010304923E-01 a       323     0    22     1     8
 -6.9280869898040470E-02 a       324     0    22     1     9
  7.5376534684461327E-01 a       325     0    22     1    10
 -7.6083767660957369E-02 a       326     0    22     1    11
 -1.9534460211679541E+00 a       327     0    22     1    12
  1.1245146712316432E+00 a       328     0    22     1    13
 -1.4148312930430880E+00 a       329     0    22     1    14
  6.3859629742267021E-01 a       330     0    22     1    15
 -1.6723258531835943E+00 a       331     0    23     1     1
 -1.3304153523916231E+00 a       332     0    23     1     2
  8.1259218523029164E-01 a       333     0    23     1     3
  2.2762750681196282E+00 a       334     0    23     1     4
 -1.1222088909810837E+00 a       335     0    23     1     5
 -1.9565680663079965E+00 a       336     0    23     1     6
  1.5104918616348517E+00 a       337     0    23     1     7
 -3.9001093517644991E-01 a       338     0    23     1     8
 -1.0719194342773815E+00 a       339     0    23     1     9
  1.5357134787536988E+00 a       340     0    23     1    10
 -1.3536986218120513E+00 a       341     0    23     1    11
  1.4346005762391203E+00 a       342     0    23     1    12
 -1.0006131419308257E+00 a       343     0    23     1    13
 -1.4349234350047926E+00 a       344     0    23     1    14
  1.9959026396627260E+00 a       345     0    23     1    15
  9.6292874950370672E-02 a       346     0    24     1     1
  2.4436235536858031E-01 a       347     0    24     1     2
 -1.9187450171471299E+00 a       348     0    24     1     3
 -9.1643183008701345E-01 a       349     0    24     1     4
 -6.6653678477273981E-01 a       350     0    24     1     5
 -6.3372007332282687E-01 a       351     0    24     1     6
  2.7982628730789449E-01 a       352     0    24     1     7
 -9.5783246850529680E-01 a       353     0    24     1     8
 -2.7399524579397949E-01 a       354     0    24     1     9
 -1.1096604132812706E+00 a       355     0    24     1    10
  9.8815131114563770E-01 a       356     0    24     1    11
 -4.5508892339941565E-01 a       357     0    24     1    12
  5.2778500995466038E-01 a       358     0    24     1    13
 -5.8523834546039888E-01 a       359     0    24     1    14
 -2.0389978664026711E+00 a       360     0    24     1    15
  1.6145265920756051E+00 a       361     0    25     1     1
  9.8432007280946265E-01 a       362     0    25     1     2
  6.7640190565080949E-01 a       363     0    25     1     3
  6.8468255485919849E-01 a       364     0    25     1     4
  3.3034326976800982E-01 a       365     0    25     1     5
 -3.7240380164926057E-01 a       366     0    25     1     6
  1.1232219892305431E+00 a       367     0    25     1     7
  1.3769044362379146E+00 a       368     0    25     1     8
 -1.2928275217322813E-01 a       369     0    25     1     9
  7.4087232761540830E-03 a       370     0    25     1    10
 -5.0477267393160230E-01 a       371     0    25     1    11
  1.5188920281319968E-01 a       372     0    25     1    12
  1.3534908361183264E+00 a       373     0    25     1    13
  2.0675872416381932E-01 a       374     0    25     1    14
 -1.6547048753113726E-02 a       375     0    25     1    15
 -6.7251610926878258E-01 a       376     0    26     1     1
  6.5888792801729723E-01 a       377     0    26     1     2
  2.4961496142985357E-01 a       378     0    26     1     3
 -3.5149891837148228E-01 a       379     0    26     1     4
 -2.9604227893398105E-01 a       380     0    26     1     5
 -1.6240376877287028E+00 a       381     0    26     1     6
  8.5090084764046137E-01 a       382     0    26     1     7
  5.9384317301639433E-01 a       383     0    26     1     8
  3.7817151104462116E-01 a       384     0    26     1     9
  1.1710173792738045E-01 a       385     0    26     1    10
 -9.0021949140927415E-01 a       386     0    26     1    11
 -7.0367024784021892E-01 a       387     0    26     1    12
 -1.0060265620722393E+00 a       388     0    26     1    13
 -6.6486003735346311E-01 a       389     0    26     1    14
  1.3147728961980063E+00 a       390     0    26     1    15
  7.4671434060072761E-01 a       391     0    27     1     1
  8.2724651619022249E-01 a       392     0    27     1     2
  1.9223062357203460E+00 a       393     0    27     1     3
 -1.6158686974008645E+00 a       394     0    27     1     4
  1.5482104511429371E+00 a       395     0    27     1     5
 -1.2217574953098562E-01 a       396     0    27     1     6
  6.5296641369252784E-01 a       397     0    27     1     7
 -4.7889165234119746E-01 a       398     0    27     1     8
  1.8332839122370768E+00 a       399     0    27     1     9
 -7.2896179110399928E-01 a       400     0    27     1    10
 -9.1305385268691930E-01 a       401     0    27     1    11
 -2.0388571548308452E+00 a       402     0    27     1    12
 -1.0102195546157871E+00 a       403     0    27     1    13
  5.9450181182757944E-01 a       404     0    27     1    14
  1.0806485795417240E+00 a       405     0    27     1    15
  1.6593698794505221E+00 a       406     0    28     1     1
 -2.3080382261676071E+00 a       407     0    28     1     2
  8.1731528446370616E-01 a       408     0    28     1     3
  1.4221611130389105E+00 a       409     0    28     1     4
 -1.9343426042978937E+00 a       410     0    28     1     5
 -1.8169031002472138E+00 a       411     0    28     1     6
 -2.4409450887444695E-01 a       412     0    28     1     7
  1.5539079398057243E-01 a       413     0    28     1     8
 -9.3425294016112359E-01 a       414     0    28     1     9
  8.1985024605907775E-01 a       415     0    28     1    10
 -3.8619949740919646E-01 a       416     0    28     1    11
  1.3638324072314907E+00 a       417     0    28     1    12
 -1.6311419397252835E+00 a       418     0    28     1    13
  3.4748675892678249E+00 a       419     0    28     1    14
  1.0977200136381073E+00 a       420     0    28     1    15
  1.0422140891660507E+00 a       421     0    29     1     1
 -2.2417702412226750E-01 a       422     0    29     1     2
 -2.5953851776661874E-01 a       423     0    29     1     3
  2.9744346081346223E-01 a       424     0    29     1     4
  1.4447013177882662E+00 a       425     0    29     1     5
 -1.2288347052338444E-01 a       426     0    29     1     6
 -1.4044320318997777E-01 a       427     0    29     1     7
  4.1512135647120540E-01 a       428     0    29     1     8
  1.8187704942709830E+00 a       429     0    29     1     9
 -3.9666902072542837E-01 a       430     0    29     1    10
  2.2401443682699571E+00 a       431     0    29     1    11
  3.8397881938370743E-01 a       432     0    29     1    12
 -1.3688339041046266E-01 a       433     0    29     1    13
  8.2097163138640994E-01 a       434     0    29     1    14
 -1.0764921652869341E+00 a       435     0    29     1    15
 -3.1465320221656601E-01 a       436     0    30     1     1
  1.7883835831021805E-01 a       437     0    30     1     2
  7.4291759792472267E-01 a       438     0    30     1     3
  5.2967689203136881E-01 a       439     0    30     1     4
 -6.1827765987214034E-01 a       440     0    30     1     5
  3.4121167722944151E-01 a       441     0    30     1     6
  4.9278102040079574E-01 a       442     0    30     1     7
  1.2357895314155769E+00 a       443     0    30     1     8
  6.2987379688920675E-01 a       444     0    30     1     9
  9.0609138051544980E-01 a       445     0    30     1    10
  4.7911950507718398E-01 a       446     0    30     1    11
 -4.0005375148412869E-01 a       447     0    30     1    12
 -1.5137032814294693E+00 a       448     0    30     1    13
  6.9266458963858379E-01 a       449     0    30     1    14
  4.3294442216911511E-01 a       450     0    30     1    15
 -3.3980319525583460E+00 a       451     0    31     1     1
  1.0698664032720189E+00 a       452     0    31     1     2
 -2.4972644802200553E-01 a       453     0    31     1     3
  5.8915036009608901E-01 a       454     0    31     1     4
  2.3099433719484884E-02 a       455     0    31     1     5
  3.6141762338173522E-01 a       456     0    31     1     6
  1.8538067171689296E+00 a       457     0    31     1     7
 -8.5473467064985087E-01 a       458     0    31     1     8
  1.7025096456738498E-01 a       459     0    31     1     9
  9.6979063138329491E-01 a       460     0    31     1    10
  2.5332008894327546E-02 a       461     0    31     1    11
 -1.3122686655512468E+00 a       462     0    31     1    12
 -7.7886866309025860E-02 a       463     0    31     1    13
 -1.5078570284487972E-01 a       464     0    31     1    14
 -1.5581126339549551E+00 a       465     0    31     1    15
 -5.9675990455721162E-01 a       466     0    32     1     1
 -5.6860307985663372E-01 a       467     0    32     1     2
 -1.6423151667061588E+00 a       468     0    32     1     3
  1.1599597603733958E+00 a       469     0    32     1     4
  2.1268790541243321E-01 a       470     0    32     1     5
 -1.7221614705975590E+00 a       471     0    32     1     6
 -1.4157150689602347E+00 a       472     0    32     1     7
 -3.8307484168154210E-01 a       473     0    32     1     8
  1.7228631318649863E+00 a       474     0    32     1     9
  1.4846636460569473E+00 a       475     0    32     1    10
  9.0871870886876249E-01 a       476     0    32     1    11
 -1.5964617218744345E-01 a       477     0    32     1    12
 -9.7015627063097493E-02 a       478     0    32     1    13
  3.1410543158898718E-01 a       479     0    32     1    14
 -5.0091174237931502E-01 a       480     0    32     1    15
  1.2218475517696028E+00 a       481     0    33     1     1
  1.0483236563689782E+00 a       482     0    33     1     2
  1.5214558880351914E-01 a       483     0    33     1     3
  1.6549190661146607E+00 a       484     0    33     1     4
 -2.6933053909356404E+00 a       485     0    33     1     5
 -4.8641611211494884E-01 a       486     0    33     1     6
 -7.9316720733580737E-01 a       487     0    33     1     7
  7.7327147506215510E-01 a       488     0    33     1     8
  7.1315369025981101E-01 a       489     0    33     1     9
 -3.0292131272852649E+00 a       490     0    33     1    10
 -1.2777651931935305E-01 a       491     0    33     1    11
 -7.3677895784370284E-01 a       492     0    33     1    12
  4.7536922151753952E-01 a       493     0    33     1    13
 -8.6602365090410127E-01 a       494     0    33     1    14
 -2.4350693009979780E+00 a       495     0    33     1    15
 -2.6177132157360239E-01 a       496     0    34     1     1
  4.4209456701019872E-01 a       497     0    34     1     2
  7.0183428197949682E-01 a       498     0    34     1     3
  2.8949116546225623E-01 a       499     0    34     1     4
  1.5098525145025699E+00 a       500     0    34     1     5
  2.1154074974227575E+00 a       501     0    34     1     6
  4.0817725035402402E-01 a       502     0    34     1     7
  5.3310343352382966E-02 a       503     0    34     1     8
 -7.0252789016092976E-01 a       504     0    34     1     9
 -8.2618171636558779E-01 a       505     0    34     1    10
 -1.2656423825120573E+00 a       506     0    34     1    11
 -1.8763344741894918E+00 a       507     0    34     1    12
 -2.3388245778175720E-01 a       508     0    34     1    13
 -2.9450867360261306E+00 a       509     0    34     1    14
  7.9426654721789047E-01 a       510     0    34     1    15
 -1.3897705651433331E-01 a       511     0    35     1     1
  1.3849824392737091E+00 a       512     0    35     1     2
  1.3032859007048940E+00 a       513     0    35     1     3
  1.6636239560446611E+00 a       514     0    35     1     4
 -1.2107318242399083E+00 a       515     0    35     1     5
 -2.1184550107410778E+00 a       516     0    35     1     6
  2.0930617050790706E-01 a       517     0    35     1     7
 -1.8694120210872194E+00 a       518     0    35     1     8
 -6.2986666133499303E-01 a       519     0    35     1     9
  2.1468427218352133E+00 a       520     0    35     1    10
 -1.8663617410019768E+00 a       521     0    35     1    11
  9.6914423658306248E-01 a       522     0    35     1    12
 -1.7763394606413346E-01 a       523     0    35     1    13
 -1.0800621112484905E+00 a       524     0    35     1    14
  9.1784079216841641E-01 a       525     0    35     1    15
 -4.1598417799134696E-01 a       526     0    36     1     1
 -2.4712504080582706E-01 a       527     0    36     1     2
  9.3634805734776316E-01 a       528     0    36     1     3
 -2.6316195363862076E-02 a       529     0    36     1     4
  3.6135395880961096E-01 a       530     0    36     1     5
 -2.1304264876233997E-01 a       531     0    36     1     6
  1.0369273504072576E+00 a       532     0    36     1     7
  4.9487560590704510E-01 a       533     0    36     1     8
  1.0244528752665877E-01 a       534     0    36     1     9
 -2.3017003995820815E+00 a       535     0    36     1    10
 -4.2364585191435689E-01 a       536     0    36     1    11
  1.0978755229593753E+00 a       537     0    36     1    12
  5.7947709280046866E-01 a       538     0    36     1    13
  3.1133094152035917E-01 a       539     0    36     1    14
  8.7449050609214496E-01 a       540     0    36     1    15
 -1.0326665743136709E+00 a       541     0    37     1     1
 -1.0734193727654451E+00 a       542     0    37     1     2
  4.5489095761359899E-03 a       543     0    37     1     3
  6.9880186895385721E-01 a       544     0    37     1     4
 -3.3592493007337026E-01 a       545     0    37     1     5
 -2.8877309295643794E-01 a       546     0    37     1     6
 -8.9300585293599277E-01 a       547     0    37     1     7
 -5.0097409786611447E-01 a       548     0    37     1     8
  1.2022465434467576E-02 a       549     0    37     1     9
  7.4428624614842376E-01 a       550     0    37     1    10
 -1.4507104381944771E-01 a       551     0    37     1    11
  1.6368753384199003E-01 a       552     0    37     1    12
  9.4022448298515915E-01 a       553     0    37     1    13
  9.7438118094452664E-01 a       554     0    37     1    14
 -5.3925075900288866E-01 a       555     0    37     1    15
  2.0047358602629290E+00 a       556     0    38     1     1
 -1.4420790379764773E-02 a       557     0    38     1     2
 -1.8073597598107238E+00 a       558     0    38     1     3
  2.3794429251798466E-01 a       559     0    38     1     4
  1.4341669589153931E+00 a       560     0    38     1     5
 -1.4203555981722229E+00 a       561     0    38     1     6
  2.8107097515665078E-02 a       562     0    38     1     7
 -2.5814789372914627E-02 a       563     0    38     1     8
 -2.4667718984767628E-01 a       564     0    38     1     9
  2.2356584462977094E+00 a       565     0    38     1    10
  4.5167496565340870E-01 a       566     0    38     1    11
  1.3207276744234162E+00 a       567     0    38     1    12
 -3.2124187638189650E-01 a       568     0    38     1    13
 -2.5150623989311711E+00 a       569     0    38     1    14
 -2.0887124800846308E+00 a       570     0    38     1    15
 -3.5087587494562493E+00 a       571     0    39     1     1
 -3.3198945812748676E-01 a       572     0    39     1     2
 -6.2774681122881582E-01 a       573     0    39     1     3
 -1.1436556923480834E+00 a       574     0    39     1     4
 -1.0439967620525936E+00 a       575     0    39     1     5
  1.5897616024472330E+00 a       576     0    39     1     6
  1.7931418774665644E+00 a       577     0    39     1     7
 -1.6757560901067420E-01 a       578     0    39     1     8
  9.3935804939580547E-01 a       579     0    39     1     9
 -1.5332748578007185E+00 a       580     0    39     1    10
 -5.8230485289185296E-01 a       581     0    39     1    11
 -2.4086721165016072E+00 a       582     0    39     1    12
 -8.1932167333855874E-02 a       583     0    39     1    13
  9.7189004189571127E-01 a       584     0    39     1    14
 -8.6708296437373808E-02 a       585     0    39     1    15
 -1.7814651148831029E+00 a       586     0    40     1     1
 -4.3635859469192789E-01 a       587     0    40     1     2
 -4.5180920551010256E-01 a       588     0    40     1     3
 -4.2942748224542904E-01 a       589     0    40     1     4
  1.2841228694074165E+00 a       590     0    40     1     5
  1.0901462012995422E+00 a       591     0    40     1     6
  6.7559610272261517E-01 a       592     0    40     1     7
 -1.8374502392381940E-02 a       593     0    40     1     8
  7.3000241250076603E-01 a       594     0    40     1     9
 -1.6999153168127683E+00 a       595     0    40     1    10
 -2.2576762652179432E+00 a       596     0    40     1    11
  1.6094614640973632E+00 a       597     0    40     1    12
 -1.9115397468262683E+00 a       598     0    40     1    13
  5.8841449128190892E-01 a       599     0    40     1    14
 -8.2400875457575817E-01 a       600     0    40     1    15
 -1.0550704011385479E+00 a       601     0    41     1     1
  1.9063264597091760E+00 a       602     0    41     1     2
  9.7994850135247458E-01 a       603     0    41     1     3
  7.1306607512617548E-01 a       604     0    41     1     4
  5.9629290588788209E-01 a       605     0    41     1     5
 -1.4926067018057172E+00 a       606     0    41     1     6
 -3.5643309447847160E-02 a       607     0    41     1     7
 -1.6414113721634491E+00 a       608     0    41     1     8
  7.5996489049143501E-01 a       609     0    41     1     9
  1.0806075950892200E+00 a       610     0    41     1    10
  1.0387827270026539E+00 a       611     0    41     1    11
 -1.0458184531577954E+00 a       612     0    41     1    12
  7.6956128846636640E-01 a       613     0    41     1    13
  2.0360011935871207E+00 a       614     0    41     1    14
  3.8362616462154120E-01 a       615     0    41     1    15
 -4.4028870066659509E-01 a       616     0    42     1     1
 -1.6215329229231407E-01 a       617     0    42     1     2
  3.3856423469532870E-01 a       618     0    42     1     3
 -6.6532431333548891E-01 a       619     0    42     1     4
 -1.7556182615759716E-01 a       620     0    42     1     5
  1.0710216902590579E+00 a       621     0    42     1     6
 -7.2495039568765052E-01 a       622     0    42     1     7
  6.5493447766712998E-01 a       623     0    42     1     8
  3.5660618819930406E-02 a       624     0    42     1     9
  3.0684219113011975E+00 a       625     0    42     1    10
  1.8928743419952390E+00 a       626     0    42     1    11
  1.5907541392356146E+00 a       627     0    42     1    12
  1.0247544537627544E+00 a       628     0    42     1    13
  4.9037564343156148E-01 a       629     0    42     1    14
 -4.2105820533499871E-01 a       630     0    42     1    15
 -1.4397115244738599E+00 a       631     0    43     1     1
 -7.6549685927622824E-01 a       632     0    43     1     2
  1.5690056844185278E+00 a       633     0    43     1     3
  1.6719273791332026E+00 a       634     0    43     1     4
  3.3272545427440592E-01 a       635     0    43     1     5
  3.0037565908651076E+00 a       636     0    43     1     6
  2.4444175570294152E-01 a       637     0    43     1     7
  1.2843589096920931E+00 a       638     0    43     1     8
  1.6413731884981548E+00 a       639     0    43     1     9
 -1.9543392569124024E-01 a       640     0    43     1    10
  2.2311307838368051E+00 a       641     0    43     1    11
  4.3074145754617910E-01 a       642     0    43     1    12
  2.1144333742005955E-01 a       643     0    43     1    13
 -6.1680622739359581E-01 a       644     0    43     1    14
  4.2869499596275782E+00 a       645     0    43     1    15
  3.6591331673819649E-01 a       646     0    44     1     1
  4.5316304042141553E-01 a       647     0    44     1     2
  4.9126121876874779E-01 a       648     0    44     1     3
  4.3213590518898176E-01 a       649     0    44     1     4
 -1.0260183539836214E+00 a       650     0    44     1     5
 -5.4440913536301339E-01 a       651     0    44     1     6
  6.7805966070992407E-01 a       652     0    44     1     7
 -3.9973178127003889E-01 a       653     0    44     1     8
  1.2033934235274482E+00 a       654     0    44     1     9
  1.2194435022628973E+00 a       655     0    44     1    10
  1.8466465359495552E+00 a       656     0    44     1    11
 -2.6682337407805163E+00 a       657     0    44     1    12
  3.4625578943910568E-01 a       658     0    44     1    13
 -1.2480751766463367E+00 a       659     0    44     1    14
  1.1297090997112633E+00 a       660     0    44     1    15
 -1.7180968496576426E-01 a       661     0    45     1     1
 -1.0714188950488499E+00 a       662     0    45     1     2
 -6.4027522014824467E-01 a       663     0    45     1     3
 -5.4610267449510153E-01 a       664     0    45     1     4
  1.6949340502999297E+00 a       665     0    45     1     5
  1.1122965070836931E-01 a       666     0    45     1     6
  1.6294910117063313E-01 a       667     0    45     1     7
 -1.2361119495868773E+00 a       668     0    45     1     8
  5.1820951879607779E-02 a       669     0    45     1     9
 -1.1382271679107392E+00 a       670     0    45     1    10
 -6.4796032138829340E-01 a       671     0    45     1    11
 -1.2502736097501106E+00 a       672     0    45     1    12
 -1.1042986162900703E+00 a       673     0    45     1    13
 -4.4144682291521931E-01 a       674     0    45     1    14
  1.3813581262354584E+00 a       675     0    45     1    15
  2.0690174992936949E+00 a       676     0    46     1     1
 -5.2417431790362090E-01 a       677     0    46     1     2
 -1.0149345058311183E+00 a       678     0    46     1     3
  1.3955783089318030E+00 a       679     0    46     1     4
 -1.7496710545841800E+00 a       680     0    46     1     5
  7.7148245514954727E-01 a       681     0    46     1     6
 -1.0590406797292884E+00 a       682     0    46     1     7
  1.4579264425932894E+00 a       683     0    46     1     8
  9.8269071660706619E-01 a       684     0    46     1     9
  1.1162673223847357E+00 a       685     0    46     1    10
  4.2902472120608142E+00 a       686     0    46     1    11
 -7.5887598304450288E-01 a       687     0    46     1    12
 -1.3292683199369275E+00 a       688     0    46     1    13
  1.3400360612050397E+00 a       689     0    46     1    14
 -2.0116560294341048E+00 a       690     0    46     1    15
 -4.4600276631314356E-01 a       691     0    47     1     1
 -2.4771533652640594E+00 a       692     0    47     1     2
 -5.1826973333910342E-01 a       693     0    47     1     3
 -2.6291734155164814E+00 a       694     0    47     1     4
  1.5078455111347515E+00 a       695     0    47     1     5
  1.7756382269058307E-01 a       696     0    47     1     6
  1.1541879550427128E+00 a       697     0    47     1     7
  1.7523797647809971E+00 a       698     0    47     1     8
  1.7987316257486105E-01 a       699     0    47     1     9
  4.2861870822221648E-01 a       700     0    47     1    10
 -3.3999417546298449E-01 a       701     0    47     1    11
 -1.2161350795965226E-02 a       702     0    47     1    12
 -2.0617485829734714E+00 a       703     0    47     1    13
  1.0892371164925403E+00 a       704     0    47     1    14
 -1.3428427395545479E+00 a       705     0    47     1    15
  1.0818845823415444E+00 a       706     0    48     1     1
 -1.7128302843079179E+00 a       707     0    48     1     2
  8.6808995098376251E-01 a       708     0    48     1     3
  5.7379626241240633E-01 a       709     0    48     1     4
  1.7853393208077577E+00 a       710     0    48     1     5
  2.1086926495161165E+00 a       711     0    48     1     6
 -1.4192788265976537E+00 a       712     0    48     1     7
  1.5859031560105532E+00 a       713     0    48     1     8
  5.9647171602965232E-01 a       714     0    48     1     9
 -1.7631119138088056E-02 a       715     0    48     1    10
 -8.7797397247672726E-01 a       716     0    48     1    11
  1.5240005457734511E+00 a       717     0    48     1    12
  8.1291716911319190E-01 a       718     0    48     1    13
 -2.8196464877015448E-01 a       719     0    48     1    14
  1.1121117142597319E+00 a       720     0    48     1    15
 -3.9099270376499157E-01 a       721     0    49     1     1
 -6.9885389511089779E-01 a       722     0    49     1     2
  8.5244844188706281E-01 a       723     0    49     1     3
 -2.0752412413626913E+00 a       724     0    49     1     4
  4.3533087634795609E-01 a       725     0    49     1     5
  9.3293777633713837E-01 a       726     0    49     1     6
 -2.2360483036216703E+00 a       727     0    49     1     7
  8.8927566110970885E-02 a       728     0    49     1     8
  8.9838907815915847E-01 a       729     0    49     1     9
  4.4830379538386422E-03 a       730     0    49     1    10
  9.2095012100710771E-01 a       731     0    49     1    11
  1.4887154054466716E+00 a       732     0    49     1    12
 -1.4247832504988585E+00 a       733     0    49     1    13
 -2.1247932535120206E-01 a       734     0    49     1    14
  7.6362976192216092E-01 a       735     0    49     1    15
 -4.3676600766781576E-01 a       736     0    50     1     1
 -6.6402232594481414E-01 a       737     0    50     1     2
  2.3266512675641100E+00 a       738     0    50     1     3
 -7.7879072355062740E-01 a       739     0    50     1     4
 -6.5646153849503563E-01 a       740     0    50     1     5
  1.0634292152961389E+00 a       741     0    50     1     6
 -4.0910104742991482E-01 a       742     0    50     1     7
  1.5033568265595781E-01 a       743     0    50     1     8
 -1.1735726133470405E+00 a       744     0    50     1     9
 -1.2909533137503577E+00 a       745     0    50     1    10
 -1.2658813031158258E+00 a       746     0    50     1    11
 -4.0252411334947941E-01 a       747     0    50     1    12
  1.1749068412856145E+00 a       748     0    50     1    13
  9.7721820817002436E-01 a       749     0    50     1    14
  4.6598166963158483E-01 a       750     0    50     1    15
  5.6030258943799460E-01 a       751     0    51     1     1
  3.2478877525699201E-01 a       752     0    51     1     2
 -5.3724038715288769E-01 a       753     0    51     1     3
 -6.4084685397790841E-01 a       754     0    51     1     4
  7.8038710960229574E-01 a       755     0    51     1     5
  1.2201901496386522E+00 a       756     0    51     1     6
 -1.5259874702665706E+00 a       757     0    51     1     7
 -1.6243165957505670E+00 a       758     0    51     1     8
 -1.2487062943338272E+00 a       759     0    51     1     9
  1.0921916301256449E+00 a       760     0    51     1    10
  5.3163931249634255E-01 a       761     0    51     1    11
  1.2621525051417777E+00 a       762     0    51     1    12
  5.7615840907672933E-01 a       763     0    51     1    13
  6.3472795802959658E-01 a       764     0    51     1    14
 -2.0352979871411223E-01 a       765     0    51     1    15
 -1.0348842969519221E+00 a       766     0    52     1     1
  5.1366784811340760E-01 a       767     0    52     1     2
  1.0702144445422297E+00 a       768     0    52     1     3
 -3.7726432636227107E+00 a       769     0    52     1     4
  1.2267483770198231E+00 a       770     0    52     1     5
 -1.4246984505011606E+00 a       771     0    52     1     6
  1.6227967513944777E+00 a       772     0    52     1     7
 -1.3075102376806929E+00 a       773     0    52     1     8
 -9.9842570880317116E-01 a       774     0    52     1     9
  2.3290692601203897E+00 a       775     0    52     1    10
 -1.4667805957063624E+00 a       776     0    52     1    11
  1.9993673704955869E-01 a       777     0    52     1    12
  1.6284487948761115E+00 a       778     0    52     1    13
 -1.3919567662585528E+00 a       779     0    52     1    14
  3.8013164051575199E-01 a       780     0    52     1    15
 -2.8130327499137076E-03 a       781     0    53     1     1
  1.1178059219659373E+00 a       782     0    53     1     2
  7.4843083991597159E-01 a       783     0    53     1     3
 -3.0122391962073286E-01 a       784     0    53     1     4
 -9.7624715544795482E-01 a       785     0    53     1     5
 -3.9474629293185559E-01 a       786     0    53     1     6
 -1.1302909064648465E+00 a       787     0    53     1     7
 -7.4358896840901134E-01 a       788     0    53     1     8
 -6.5090975934283968E-01 a       789     0    53     1     9
 -1.7812864431952263E-01 a       790     0    53     1    10
 -1.7636122793832001E+00 a       791     0    53     1    11
  4.0535540417860932E-01 a       792     0    53     1    12
  1.0062407301772099E-01 a       793     0    53     1    13
  9.1519732417699984E-01 a       794     0    53     1    14
  5.0402156476109428E-01 a       795     0    53     1    15
 -6.7549651953479617E-02 a       796     0    54     1     1
 -7.6891750940355608E-01 a       797     0    54     1     2
  6.4329908817391712E-01 a       798     0    54     1     3
  9.9635013068755263E-01 a       799     0    54     1     4
 -1.6374995567383723E+00 a       800     0    54     1     5
 -1.3022423549264166E+00 a       801     0    54     1     6
 -8.2730165126412847E-02 a       802     0    54     1     7
  8.3465680261053915E-02 a       803     0    54     1     8
 -5.1480603722671070E-01 a       804     0    54     1     9
  1.6523765353289850E+00 a       805     0    54     1    10
  1.5479692287445119E+00 a       806     0    54     1    11
  8.3957744725480776E-01 a       807     0    54     1    12
  5.7322032771486708E-01 a       808     0    54     1    13
  3.1185410080540903E+00 a       809     0    54     1    14
 -1.6642118554591432E+00 a       810     0    54     1    15
  9.6077583574997250E-01 a       811     0    55     1     1
  1.1852668699881014E-01 a       812     0    55     1     2
  7.6320119220852123E-01 a       813     0    55     1     3
 -1.7268499026568018E+00 a       814     0    55     1     4
  2.5661837640457907E-01 a       815     0    55     1     5
  1.2824669038064251E+00 a       816     0    55     1     6
 -5.5873474866572370E-01 a       817     0    55     1     7
  1.0645160243336973E+00 a       818     0    55     1     8
 -7.9180049142685949E-02 a       819     0    55     1     9
 -2.4267842523486416E-01 a       820     0    55     1    10
  8.8408036164404336E-01 a       821     0    55     1    11
  1.3787548061303532E+00 a       822     0    55     1    12
  1.8826654950473578E+00 a       823     0    55     1    13
 -1.5158999496172720E+00 a       824     0    55     1    14
  4.9225896825981641E-01 a       825     0    55     1    15
 -1.8968203838011066E-02 a       826     0    56     1     1
 -5.5894157357487240E-01 a       827     0    56     1     2
  1.5132983105370037E+00 a       828     0    56     1     3
 -9.3337114243813835E-01 a       829     0    56     1     4
 -8.6779257816816979E-01 a       830     0    56     1     5
  8.8137451619168983E-01 a       831     0    56     1     6
 -6.2421263269997307E-01 a       832     0    56     1     7
 -1.2936977360743454E-01 a       833     0    56     1     8
  7.9212069629533710E-01 a       834     0    56     1     9
 -2.4657609392897561E+00 a       835     0    56     1    10
 -1.7232735335984068E+00 a       836     0    56     1    11
 -1.3216185203349803E-01 a       837     0    56     1    12
 -8.1135256590518390E-01 a       838     0    56     1    13
  5.3063203135481585E-01 a       839     0    56     1    14
  1.8956893124117230E-01 a       840     0    56     1    15
 -4.1650384740128228E+00 a       841     0    57     1     1
  8.4171029642254380E-01 a       842     0    57     1     2
  5.6719007941230282E-01 a       843     0    57     1     3
  6.3747715793514759E-01 a       844     0    57     1     4
  1.3041954939773208E+00 a       845     0    57     1     5
 -1.6017682996998812E+00 a       846     0    57     1     6
 -2.8022025227670451E+00 a       847     0    57     1     7
 -1.4383214908185462E+00 a       848     0    57     1     8
 -8.5234017168739251E-01 a       849     0    57     1     9
 -6.4123448894181556E-01 a       850     0    57     1    10
 -1.7291330882639880E-01 a       851     0    57     1    11
  1.1716032187491296E+00 a       852     0    57     1    12
 -9.0518789144501940E-02 a       853     0    57     1    13
 -1.1016168703954867E+00 a       854     0    57     1    14
  1.0663832591157454E+00 a       855     0    57     1    15
  1.0550206794584791E+00 a       856     0    58     1     1
  6.0146780657209142E-01 a       857     0    58     1     2
  1.3986461820618732E+00 a       858     0    58     1     3
 -6.2894561882780187E-01 a       859     0    58     1     4
 -9.2912512198864017E-01 a       860     0    58     1     5
 -3.2168229488216193E-01 a       861     0    58     1     6
 -4.1575677716752774E-01 a       862     0    58     1     7
  1.8333712983728088E+00 a       863     0    58     1     8
 -5.3044706453153168E-01 a       864     0    58     1     9
  1.7036317812124274E-01 a       865     0    58     1    10
  1.7674363968122370E-01 a       866     0    58     1    11
 -7.7183863635257510E-01 a       867     0    58     1    12
  1.2691546011492925E+00 a       868     0    58     1    13
  9.8832061844211405E-01 a       869     0    58     1    14
  8.8827104036042970E-01 a       870     0    58     1    15
 -1.8915691539361668E+00 a       871     0    59     1     1
  5.6025916055772351E-01 a       872     0    59     1     2
  1.1667657917798708E+00 a       873     0    59     1     3
 -6.6602484348345226E-01 a       874     0    59     1     4
  1.7683713104806861E-02 a       875     0    59     1     5
  1.9904364410126774E+00 a       876     0    59     1     6
 -2.8471542183376608E-01 a       877     0    59     1     7
  4.2825858528159277E-01 a       878     0    59     1     8
  3.2390919462484435E-01 a       879     0    59     1     9
 -1.3911702012363700E+00 a       880     0    59     1    10
 -7.9577839190143806E-01 a       881     0    59     1    11
  6.6160101104147728E-01 a       882     0    59     1    12
 -6.8594726667680439E-01 a       883     0    59     1    13
 -4.8782912598659689E-03 a       884     0    59     1    14
  1.6818854321762478E+00 a       885     0    59     1    15
 -7.2728274086922928E-01 a       886     0    60     1     1
 -4.6543205803171700E-01 a       887     0    60     1     2
  4.4630402171031791E-01 a       888     0    60     1     3
 -2.0949438796805073E+00 a       889     0    60     1     4
  2.0135486882861646E+00 a       890     0    60     1     5
 -3.8207046721556082E-01 a       891     0    60     1     6
 -7.7742356792653700E-01 a       892     0    60     1     7
 -6.8124942684099254E-01 a       893     0    60     1     8
  8.1535874323392032E-01 a       894     0    60     1     9
 -3.5066978438200447E-01 a       895     0    60     1    10
  1.3939005766517139E+00 a       896     0    60     1    11
 -3.8330081397795518E-01 a       897     0    60     1    12
 -4.5305123816138099E-01 a       898     0    60     1    13
 -7.7261489469594480E-01 a       899     0    60     1    14
 -9.8105337096561232E-02 a       900     0    60     1    15
 -4.7939512950180552E-01 a       901     0    61     1     1
  1.2119714336399125E-01 a       902     0    61     1     2
 -5.6295043432400660E-02 a       903     0    61     1     3
 -1.0018966803006322E+00 a       904     0    61     1     4
  1.8486895552822422E+00 a       905     0    61     1     5
  5.2343660430528605E-01 a       906     0    61     1     6
 -1.7048220495737811E+00 a       907     0    61     1     7
 -1.4500118180357620E+00 a       908     0    61     1     8
  1.4343087666475938E+00 a       909     0    61     1     9
  1.6398084929292680E+00 a       910     0    61     1    10
 -1.3668207934164180E+00 a       911     0    61     1    11
 -9.0264978319290012E-01 a       912     0    61     1    12
 -1.9762322202038549E+00 a       913     0    61     1    13
  1.5821628516700519E+00 a       914     0    61     1    14
  4.5995473890926752E-01 a       915     0    61     1    15
  7.5339041277039309E-01 a       916     0    62     1     1
  8.5594234631361010E-02 a       917     0    62     1     2
 -2.8992505714463218E-01 a       918     0    62     1     3
 -1.5972652111486199E-03 a       919     0    62     1     4
 -1.1388935881384682E-01 a       920     0    62     1     5
 -1.3987246239689528E+00 a       921     0    62     1     6
  1.3097153809430688E+00 a       922     0    62     1     7
 -2.5481122688834390E-01 a       923     0    62     1     8
 -1.6328799407681220E+00 a       924     0    62     1     9
  1.9890873064934065E+00 a       925     0    62     1    10
 -1.4671009668360352E-01 a       926     0    62     1    11
  5.7990276805610907E-01 a       927     0    62     1    12
  1.5451467135056424E-01 a       928     0    62     1    13
  1.9254203962495358E+00 a       929     0    62     1    14
  2.2508205675468962E+00 a       930     0    62     1    15
  4.9912765246009947E+00 a       931     0    63     1     1
 -4.5551609208959509E-01 a       932     0    63     1     2
 -5.8747948708441233E-01 a       933     0    63     1     3
 -3.1287853263078746E-01 a       934     0    63     1     4
  9.0662991998483444E-01 a       935     0    63     1     5
 -5.2312897802613278E-03 a       936     0    63     1     6
  2.1672003198288814E+00 a       937     0    63     1     7
  2.8224609669053219E-01 a       938     0    63     1     8
  4.9786628154781298E-01 a       939     0    63     1     9
  7.4865623536594228E-01 a       940     0    63     1    10
 -1.0842768643274947E+00 a       941     0    63     1    11
  4.4468797237530344E-01 a       942     0    63     1    12
 -1.1179119908360962E+00 a       943     0    63     1    13
 -1.7705078748306169E+00 a       944     0    63     1    14
 -1.8301899320988004E+00 a       945     0    63     1    15
  1.1023625023801749E+00 a       946     0    64     1     1
  1.7976065433139210E-01 a       947     0    64     1     2
 -1.5295164733013946E+00 a       948     0    64     1     3
  1.6922552550662342E+00 a       949     0    64     1     4
 -2.2643454979563278E+00 a       950     0    64     1     5
 -1.4435458091495730E+00 a       951     0    64     1     6
 -2.6380769334607796E+00 a       952     0    64     1     7
 -5.3927565450983361E-01 a       953     0    64     1     8
  5.2580174100141042E-01 a       954     0    64     1     9
  9.8722295216095457E-01 a       955     0    64     1    10
  2.2681017302664732E+00 a       956     0    64     1    11
 -1.5174895810217122E+00 a       957     0    64     1    12
  3.2873504694279045E+00 a       958     0    64     1    13
  1.1372840770496837E-01 a       959     0    64     1    14
  2.5757870189825810E-01 a       960     0    64     1    15
  2.9443207194663024E-01 a       961     0    65     1     1
 -1.0312028940587969E+00 a       962     0    65     1     2
 -2.8848594706233097E+00 a       963     0    65     1     3
 -7.2451676084915995E-01 a       964     0    65     1     4
  1.5356207747971917E+00 a       965     0    65     1     5
  1.0996438584662185E-01 a       966     0    65     1     6
  1.2302487154421449E+00 a       967     0    65     1     7
  2.4610171068573861E+00 a       968     0    65     1     8
 -7.5614529605902281E-01 a       969     0    65     1     9
  1.7303703738749951E-01 a       970     0    65     1    10
  1.8018942611077093E+00 a       971     0    65     1    11
 -6.2429269725570669E-01 a       972     0    65     1    12
 -2.3947090936013304E-01 a       973     0    65     1    13
 -2.4424828174440560E+00 a       974     0    65     1    14
 -5.8339366018999972E-01 a       975     0    65     1    15
  1.2635716043568483E+00 a       976     0    66     1     1
 -1.8024068157505263E-01 a       977     0    66     1     2
 -6.0360619500745227E-01 a       978     0    66     1     3
  1.0655790126500549E-01 a       979     0    66     1     4
 -1.1784723976182276E+00 a       980     0    66     1     5
 -2.2441260376163545E+00 a       981     0    66     1     6
 -1.0461526500058418E+00 a       982     0    66     1     7
  4.3158836716294174E-01 a       983     0    66     1     8
 -4.2289382848412577E-01 a       984     0    66     1     9
  1.7524743171004549E+00 a       985     0    66     1    10
 -7.2189248042143139E-01 a       986     0    66     1    11
 -9.4631376159092492E-02 a       987     0    66     1    12
  5.7032030194519656E-01 a       988     0    66     1    13
  2.0834208453135448E+00 a       989     0    66     1    14
 -3.5354939941184815E-01 a       990     0    66     1    15
  1.2444194306479224E+00 a       991     0    67     1     1
 -1.1494459907233692E-01 a       992     0    67     1     2
  4.5974849919230720E-01 a       993     0    67     1     3
 -1.7658182257715467E+00 a       994     0    67     1     4
  1.9820636145161246E+00 a       995     0    67     1     5
  1.1794790272830777E+00 a       996     0    67     1     6
 -1.0079332138345860E+00 a       997     0    67     1     7
  5.3707423989595782E-01 a       998     0    67     1     8
  9.1106922457389861E-01 a       999     0    67     1     9
 -1.1104880272827409E+00 a      1000     0    67     1    10
  7.7429754847256727E-01 a      1001     0    67     1    11
  3.5517152139191860E-01 a      1002     0    67     1    12
  1.8412467075963459E+00 a      1003     0    67     1    13
 -2.9070469068507054E+00 a      1004     0    67     1    14
 -2.0003090006966129E-01 a      1005     0    67     1    15
 -1.2911729314518763E-01 a      1006     0    68     1     1
 -3.5137957011806331E-01 a      1007     0    68     1     2
 -1.5499170956626854E-01 a      1008     0    68     1     3
 -6.6060441934084868E-01 a      1009     0    68     1     4
 -9.5278917768340465E-01 a      1010     0    68     1     5
 -3.1674608483461798E-02 a      1011     0    68     1     6
 -1.1449819355311242E+00 a      1012     0    68     1     7
  8.9752413196170178E-01 a      1013     0    68     1     8
  1.2531859714385059E+00 a      1014     0    68     1     9
 -2.5298993455239644E+00 a      1015     0    68     1    10
 -2.1086471142931802E+00 a      1016     0    68     1    11
 -2.2573017451998853E-01 a      1017     0    68     1    12
 -1.2260237006439854E+00 a      1018     0    68     1    13
 -4.9400538350717405E-01 a      1019     0    68     1    14
 -1.0035296594170084E+00 a      1020     0    68     1    15
 -3.4456462647871851E+00 a      1021     0    69     1     1
  8.8779744880356337E-01 a      1022     0    69     1     2
  1.9621880206130726E-01 a      1023     0    69     1     3
  1.4222590054913851E+00 a      1024     0    69     1     4
  9.9017930539614196E-01 a      1025     0    69     1     5
 -1.0418812973202782E+00 a      1026     0    69     1     6
 -1.2395356686669450E+00 a      1027     0    69     1     7
 -2.6711868960578522E-01 a      1028     0    69     1     8
 -1.6564321222314393E+00 a      1029     0    69     1     9
 -1.4664497027429174E-01 a      1030     0    69     1    10
 -9.3671007114102378E-01 a      1031     0    69     1    11
 -2.5678277489504986E-01 a      1032     0    69     1    12
  1.7949900940866292E-02 a      1033     0    69     1    13
 -9.0224358855108955E-01 a      1034     0    69     1    14
  1.9822810283840948E+00 a      1035     0    69     1    15
 -6.0982972226189702E-01 a      1036     0    70     1     1
  3.1583266023008350E-01 a      1037     0    70     1     2
  8.9184097527911121E-01 a      1038     0    70     1     3
 -1.0798811037633538E+00 a      1039     0    70     1     4
 -7.0090595001514377E-01 a      1040     0    70     1     5
 -1.0911508130873331E-01 a      1041     0    70     1     6
  1.2282875909417046E+00 a      1042     0    70     1     7
  3.1252057462698429E-01 a      1043     0    70     1     8
 -2.2322900009353025E-01 a      1044     0    70     1     9
  8.0585509445363901E-01 a      1045     0    70     1    10
  9.3730559551935921E-01 a      1046     0    70     1    11
  6.3671133710195438E-01 a      1047     0    70     1    12
  2.6694059677350979E-01 a      1048     0    70     1    13
  8.8618764324044019E-01 a      1049     0    70     1    14
  1.7180402306386684E+00 a      1050     0    70     1    15
 -4.8010409447273106E-01 a      1051     0    71     1     1
  1.1703591105073887E+00 a      1052     0    71     1     2
  1.4339551363187586E+00 a      1053     0    71     1     3
  9.9414016967462848E-01 a      1054     0    71     1     4
 -1.6578989883995430E+00 a      1055     0    71     1     5
  1.4880371859553314E+00 a      1056     0    71     1     6
  1.0066309444559143E+00 a      1057     0    71     1     7
 -4.9830870703037447E-02 a      1058     0    71     1     8
  6.5547320532036513E-01 a      1059     0    71     1     9
 -2.1769521207410980E+00 a      1060     0    71     1    10
 -1.2512934088303505E+00 a      1061     0    71     1    11
 -3.9625825396653247E-01 a      1062     0    71     1    12
 -7.9478091546480278E-02 a      1063     0    71     1    13
 -1.9612450042965521E-01 a      1064     0    71     1    14
 -4.1171509687759705E-01 a      1065     0    71     1    15
 -6.7963771040315635E-01 a      1066     0    72     1     1
 -5.9018140075006928E-03 a      1067     0    72     1     2
 -1.1264659539438697E+00 a      1068     0    72     1     3
 -1.3728119799938654E+00 a      1069     0    72     1     4
 -2.3995487306582758E-01 a      1070     0    72     1     5
  4.7337319998823474E-01 a      1071     0    72     1     6
  7.0258396842401682E-01 a      1072     0    72     1     7
  1.3397045019104383E+00 a      1073     0    72     1     8
  1.1083270095279780E+00 a      1074     0    72     1     9
 -1.0526887159253577E+00 a      1075     0    72     1    10
 -2.7887523848447626E-01 a      1076     0    72     1    11
  9.2324515999651510E-02 a      1077     0    72     1    12
 -9.7454258684347361E-01 a      1078     0    72     1    13
  5.6374311388232834E-01 a      1079     0    72     1    14
  7.9180026411549143E-01 a      1080     0    72     1    15
  1.3389953298045185E+00 a      1081     0    73     1     1
 -1.3357739511705052E-01 a      1082     0    73     1     2
 -7.1809151894702283E-01 a      1083     0    73     1     3
 -1.6921712856916731E+00 a      1084     0    73     1     4
  6.0629345575700988E-01 a      1085     0    73     1     5
  4.6789645882371866E-01 a      1086     0    73     1     6
  2.6083235658746201E-01 a      1087     0    73     1     7
 -2.0184546122805269E+00 a      1088     0    73     1     8
  3.7020542465842188E-01 a      1089     0    73     1     9
 -6.8487760674825282E-01 a      1090     0    73     1    10
  1.1909527042596677E+00 a      1091     0    73     1    11
  2.1631345672882446E-01 a      1092     0    73     1    12
  1.7079567452415184E-01 a      1093     0    73     1    13
  5.4791357561894094E-01 a      1094     0    73     1    14
  6.5661717302965916E-01 a      1095     0    73     1    15
 -7.3399598116514309E-01 a      1096     0    74     1     1
  2.6616131518773428E-01 a      1097     0    74     1     2
 -3.6215747998642533E-01 a      1098     0    74     1     3
 -3.9263946837782926E-01 a      1099     0    74     1     4
 -9.1282421140260417E-01 a      1100     0    74     1     5
 -1.3285743242586936E+00 a      1101     0    74     1     6
  3.9734792891176002E-01 a      1102     0    74     1     7
 -4.5881697287183115E-01 a      1103     0    74     1     8
  4.0032992964316499E-01 a      1104     0    74     1     9
  1.7823718517200506E+00 a      1105     0    74     1    10
 -1.2911602706496583E+00 a      1106     0    74     1    11
  5.8673113992701675E-01 a      1107     0    74     1    12
 -8.3531927192793354E-01 a      1108     0    74     1    13
 -2.7747980204479317E-01 a      1109     0    74     1    14
 -2.8081110576243580E+00 a      1110     0    74     1    15
 -1.8172379932046467E-01 a      1111     0    75     1     1
 -1.4883879391361041E+00 a      1112     0    75     1     2
 -2.2118533333265336E+00 a      1113     0    75     1     3
  3.8279267267376260E-01 a      1114     0    75     1     4
 -9.6143072510254823E-01 a      1115     0    75     1     5
  8.6960438586215849E-01 a      1116     0    75     1     6
  3.0501265126004062E+00 a      1117     0    75     1     7
  1.3787139180252619E-02 a      1118     0    75     1     8
 -9.2797025732765970E-01 a      1119     0    75     1     9
  2.5718314091151351E-01 a      1120     0    75     1    10
 -1.2853321161821085E+00 a      1121     0    75     1    11
  2.6397467798734500E+00 a      1122     0    75     1    12
 -1.1455368776106718E+00 a      1123     0    75     1    13
 -1.7075777742877982E-01 a      1124     0    75     1    14
  5.3191640268991180E-01 a      1125     0    75     1    15
  3.7181556554493456E-01 a      1126     0    76     1     1
  4.5751626949226371E-01 a      1127     0    76     1     2
 -7.8941895984300448E-01 a      1128     0    76     1     3
 -5.7812850092976942E-01 a      1129     0    76     1     4
  1.0926563645795309E+00 a      1130     0    76     1     5
  9.4928913934392081E-02 a      1131     0    76     1     6
 -1.0622353095712902E+00 a      1132     0    76     1     7
 -8.3030030522204634E-01 a      1133     0    76     1     8
  1.7905078270913679E+00 a      1134     0    76     1     9
 -2.9856369583012460E-01 a      1135     0    76     1    10
  8.8235351858160593E-01 a      1136     0    76     1    11
 -1.1942034768424552E+00 a      1137     0    76     1    12
  2.0609668543758772E+00 a      1138     0    76     1    13
 -2.2693740655968475E+00 a      1139     0    76     1    14
 -1.4554574192976819E+00 a      1140     0    76     1    15
  1.3708187694214296E+00 a      1141     0    77     1     1
 -1.3312488648493999E+00 a      1142     0    77     1     2
 -2.4745933146307997E+00 a      1143     0    77     1     3
  8.8188184523643409E-02 a      1144     0    77     1     4
 -3.1211603709828545E-01 a      1145     0    77     1     5
 -6.6155822835622449E-02 a      1146     0    77     1     6
  1.7709923980053692E+00 a      1147     0    77     1     7
  1.0642484697670647E+00 a      1148     0    77     1     8
 -2.2896799177112825E+00 a      1149     0    77     1     9
 -7.3839800737577799E-01 a      1150     0    77     1    10
  2.3797008806746827E+00 a      1151     0    77     1    11
 -1.2004228240146086E+00 a      1152     0    77     1    12
 -1.5757603444625841E+00 a      1153     0    77     1    13
 -8.2659959278547412E-01 a      1154     0    77     1    14
 -2.0040665565115590E-01 a      1155     0    77     1    15
 -2.2678990445554201E+00 a      1156     0    78     1     1
 -5.3048939700901210E-01 a      1157     0    78     1     2
 -1.5202327103129967E+00 a      1158     0    78     1     3
 -1.4433535411233178E+00 a      1159     0    78     1     4
 -2.8723549622551781E-01 a      1160     0    78     1     5
  3.0824236469437244E-02 a      1161     0    78     1     6
  4.3955860892012380E-02 a      1162     0    78     1     7
 -3.2024990696394570E-02 a      1163     0    78     1     8
 -4.9661698781750740E-01 a      1164     0    78     1     9
  1.7857689905702809E-01 a      1165     0    78     1    10
  2.1779802767743286E-02 a      1166     0    78     1    11
  5.9400956763858903E-01 a      1167     0    78     1    12
 -3.0440526820196011E-02 a      1168     0    78     1    13
  7.1191990248404324E-01 a      1169     0    78     1    14
  2.0380913420555732E-01 a      1170     0    78     1    15
  1.2474262998205257E+00 a      1171     0    79     1     1
  2.2514037476663269E+00 a      1172     0    79     1     2
 -1.2147313920310014E+00 a      1173     0    79     1     3
  6.3197269231231123E-01 a      1174     0    79     1     4
  2.8724044420202999E-01 a      1175     0    79     1     5
 -1.0422102586353446E+00 a      1176     0    79     1     6
  1.2255413611522117E-01 a      1177     0    79     1     7
 -1.2959516572586094E-01 a      1178     0    79     1     8
  6.0168348152089524E-01 a      1179     0    79     1     9
 -1.5966525254409512E+00 a      1180     0    79     1    10
 -5.7821706362044989E-01 a      1181     0    79     1    11
  2.5908380020000883E+00 a      1182     0    79     1    12
  7.2273330607670805E-01 a      1183     0    79     1    13
 -2.1343310353940506E-01 a      1184     0    79     1    14
  1.8463808083379298E+00 a      1185     0    79     1    15
 -2.9168653094888581E+00 a      1186     0    80     1     1
 -7.8559635014247009E-01 a      1187     0    80     1     2
 -5.9825736945493674E-02 a      1188     0    80     1     3
  5.6641521052869304E-01 a      1189     0    80     1     4
  3.0725776733913024E-01 a      1190     0    80     1     5
 -1.0379281837495805E-01 a      1191     0    80     1     6
 -1.5489111361392960E+00 a      1192     0    80     1     7
  2.6826303936968984E-02 a      1193     0    80     1     8
  1.6998572602830699E+00 a      1194     0    80     1     9
 -2.3014951450876890E+00 a      1195     0    80     1    10
 -9.6531176487544390E-01 a      1196     0    80     1    11
 -1.0205612492726461E+00 a      1197     0    80     1    12
 -1.2110764494654145E+00 a      1198     0    80     1    13
  3.0178429059554195E+00 a      1199     0    80     1    14
  2.7106570020224070E+00 a      1200     0    80     1    15
  2.4720907568298539E-01 a      1201     0    81     1     1
  6.8527180300708132E-02 a      1202     0    81     1     2
  1.0571379737341029E+00 a      1203     0    81     1     3
  4.8202095620194979E-01 a      1204     0    81     1     4
  1.5522011683404680E+00 a      1205     0    81     1     5
 -6.3812899129982514E-01 a      1206     0    81     1     6
  4.9091151187852883E-01 a      1207     0    81     1     7
  3.1463085804305846E-01 a      1208     0    81     1     8
 -1.9632942176291019E+00 a      1209     0    81     1     9
  8.1684661746029130E-01 a      1210     0    81     1    10
  3.1185126439119797E-02 a      1211     0    81     1    11
 -2.3575790860474637E+00 a      1212     0    81     1    12
 -5.1315710314976537E-01 a      1213     0    81     1    13
  2.3569932670676849E-01 a      1214     0    81     1    14
  1.0627673182498809E+00 a      1215     0    81     1    15
 -1.8784080851364764E+00 a      1216     0    82     1     1
 -9.7120228798801467E-01 a      1217     0    82     1     2
  1.0487589610595061E+00 a      1218     0    82     1     3
  5.6103249645362963E-01 a      1219     0    82     1     4
 -6.1189922327030222E-01 a      1220     0    82     1     5
 -2.6518326781574064E-01 a      1221     0    82     1     6
  6.5920244972068098E-01 a      1222     0    82     1     7
 -7.8268024228271971E-01 a      1223     0    82     1     8
  5.1608263947104316E-01 a      1224     0    82     1     9
 -4.1641694574657678E-01 a      1225     0    82     1    10
 -8.7328750901872432E-01 a      1226     0    82     1    11
 -3.4196403891808025E-01 a      1227     0    82     1    12
 -9.2719618010901741E-02 a      1228     0    82     1    13
 -7.9570101710283697E-02 a      1229     0    82     1    14
 -9.4041690719897175E-01 a      1230     0    82     1    15
  1.5754477158298665E+00 a      1231     0    83     1     1
  4.2995994702453078E-01 a      1232     0    83     1     2
 -3.3708761873378568E+00 a      1233     0    83     1     3
 -1.1419453611976818E+00 a      1234     0    83     1     4
  1.9658932821471413E+00 a      1235     0    83     1     5
  1.5550040091510953E+00 a      1236     0    83     1     6
 -2.4006771120123953E+00 a      1237     0    83     1     7
 -9.6823307419927784E-01 a      1238     0    83     1     8
  2.0791320179333121E+00 a      1239     0    83     1     9
 -1.4247001483815016E+00 a      1240     0    83     1    10
  2.6118423091881100E+00 a      1241     0    83     1    11
 -1.2789013363080468E+00 a      1242     0    83     1    12
  1.9220748832312702E+00 a      1243     0    83     1    13
 -1.2699569745749246E+00 a      1244     0    83     1    14
 -2.7546218914623379E+00 a      1245     0    83     1    15
  2.5852518369542139E+00 a      1246     0    84     1     1
 -1.0819988384853685E-01 a      1247     0    84     1     2
  6.4123324365965417E-01 a      1248     0    84     1     3
  3.7793536582186076E+00 a      1249     0    84     1     4
 -8.0298937955973781E-01 a      1250     0    84     1     5
 -3.8336674393298181E-01 a      1251     0    84     1     6
 -7.3914298202758610E-01 a      1252     0    84     1     7
  7.7057639538274891E-01 a      1253     0    84     1     8
 -2.3080911788678155E-01 a      1254     0    84     1     9
  1.0957498438244246E+00 a      1255     0    84     1    10
 -1.3209828896961886E+00 a      1256     0    84     1    11
 -3.2653589905919622E-01 a      1257     0    84     1    12
  1.3449792785821835E+00 a      1258     0    84     1    13
  7.6144264947659790E-01 a      1259     0    84     1    14
 -9.0439151069881163E-01 a      1260     0    84     1    15
 -1.2322551592804007E+00 a      1261     0    85     1     1
  2.6884175283640815E-02 a      1262     0    85     1     2
  7.9137306184397527E-01 a      1263     0    85     1     3
  6.8949818583449918E-01 a      1264     0    85     1     4
 -2.1881670969233991E+00 a      1265     0    85     1     5
 -5.5912689786308167E-01 a      1266     0    85     1     6
  1.9925015604725220E+00 a      1267     0    85     1     7
 -2.2465726396413926E-01 a      1268     0    85     1     8
 -3.4869695143321794E-01 a      1269     0    85     1     9
 -2.9905251674728744E-01 a      1270     0    85     1    10
  1.4940377608452058E+00 a      1271     0    85     1    11
  1.0127104299407863E+00 a      1272     0    85     1    12
  7.8406996031537468E-01 a      1273     0    85     1    13
 -1.4907942271444949E+00 a      1274     0    85     1    14
 -1.5771579311647037E+00 a      1275     0    85     1    15
 -6.2466237128622937E-01 a      1276     0    86     1     1
 -1.4695900839767340E-01 a      1277     0    86     1     2
  3.9209819215086517E-01 a      1278     0    86     1     3
  1.9495602721287906E+00 a      1279     0    86     1     4
 -1.0214210186130450E+00 a      1280     0    86     1     5
  2.3983977109852503E+00 a      1281     0    86     1     6
  8.8154654003948385E-01 a      1282     0    86     1     7
 -3.3761365577671631E-01 a      1283     0    86     1     8
 -1.0265556114470589E+00 a      1284     0    86     1     9
 -1.7229459798156539E+00 a      1285     0    86     1    10
 -8.9066141610644978E-01 a      1286     0    86     1    11
  1.1872828180485357E+00 a      1287     0    86     1    12
  8.7644731115585406E-01 a      1288     0    86     1    13
  3.1939005768209550E-01 a      1289     0    86     1    14
 -1.8061084277050937E-01 a      1290     0    86     1    15
  5.2897787126098894E-01 a      1291     0    87     1     1
 -2.0903618895292349E+00 a      1292     0    87     1     2
  7.3920634692388965E-01 a      1293     0    87     1     3
  4.2353442917948814E-01 a      1294     0    87     1     4
 -1.1443668507442541E+00 a      1295     0    87     1     5
  7.1701652854541487E-01 a      1296     0    87     1     6
  8.4950354529265815E-01 a      1297     0    87     1     7
 -9.5254886801610961E-01 a      1298     0    87     1     8
  1.6381771342670590E-01 a      1299     0    87     1     9
  3.0900840375202678E+00 a      1300     0    87     1    10
  9.1333233311103168E-01 a      1301     0    87     1    11
 -1.0026842655198407E+00 a      1302     0    87     1    12
 -1.4729625348156445E+00 a      1303     0    87     1    13
 -7.0666807594016179E-01 a      1304     0    87     1    14
  3.4038205422823861E-02 a      1305     0    87     1    15
 -2.9204169694780990E+00 a      1306     0    88     1     1
 -6.4827795959201095E-01 a      1307     0    88     1     2
  1.1216020659678083E+00 a      1308     0    88     1     3
  7.1707015474126856E-01 a      1309     0    88     1     4
 -6.3590972175800875E-01 a      1310     0    88     1     5
  4.8982807349632884E-01 a      1311     0    88     1     6
  5.5354418344607748E-01 a      1312     0    88     1     7
 -5.6769136951110688E-01 a      1313     0    88     1     8
 -1.4578798546268816E+00 a      1314     0    88     1     9
 -1.5941566120731714E+00 a      1315     0    88     1    10
 -1.7472220993417422E+00 a      1316     0    88     1    11
 -1.8198257948772045E+00 a      1317     0    88     1    12
 -3.7319165101730181E+00 a      1318     0    88     1    13
  2.5552639360805331E+00 a      1319     0    88     1    14
  1.0834489919349712E+00 a      1320     0    88     1    15
  7.7402645640110967E-01 a      1321     0    89     1     1
  9.3012820853323053E-01 a      1322     0    89     1     2
  6.7194643988766889E-01 a      1323     0    89     1     3
  1.8263304829984475E+00 a      1324     0    89     1     4
 -1.3818843885511598E+00 a      1325     0    89     1     5
  2.6333427929235196E+00 a      1326     0    89     1     6
  2.5745810502585187E-01 a      1327     0    89     1     7
 -7.1502305633757501E-01 a      1328     0    89     1     8
 -2.0320273913836395E+00 a      1329     0    89     1     9
 -1.4534907339416718E+00 a      1330     0    89     1    10
 -1.9398848523724713E-01 a      1331     0    89     1    11
 -8.3906124160556761E-02 a      1332     0    89     1    12
  2.3905340753935156E+00 a      1333     0    89     1    13
  3.7459132407358675E-01 a      1334     0    89     1    14
  1.0140503518229338E-01 a      1335     0    89     1    15
  1.0505572732462727E+00 b      1336     1     1
 -3.3413704528034821E-01 b      1337     1     2
 -2.5345889849912040E-01 b      1338     1     3
  1.1793256115062416E+00 b      1339     1     4
  4.7453492367940248E-01 b      1340     1     5
 -2.3037799187960845E-01 b      1341     1     6
  8.9815935462475197E-02 b      1342     1     7
  1.3290888281829945E+00 b      1343     1     8
  1.0653297317483583E+00 b      1344     1     9
  6.8575356603937410E-01 b      1345     1    10
  7.2124378448262483E-01 b      1346     1    11
 -3.1893810640071518E-01 b      1347     1    12
 -8.0982477492004823E-01 b      1348     1    13
  6.2317010441444443E-01 b      1349     1    14
  1.3728699991005804E+00 b      1350     1    15
  1.8677213665307710E+00 a      1351     1     1     2     1
  1.5017006636426311E+00 a      1352     1     1     2     2
  7.8246791898178736E-01 a      1353     1     1     2     3
  7.1534715023521167E-01 a      1354     1     1     2     4
 -2.6541550416189845E+00 a      1355     1     1     2     5
 -6.5075891707869582E-01 a      1356     1     1     2     6
 -3.8605741662609866E-01 a      1357     1     1     2     7
  3.2184153630132084E-01 a      1358     1     1     2     8
  1.7618727564071004E-01 a      1359     1     1     2     9
  1.2071870833103784E-01 a      1360     1     1     2    10
  1.4111247100657676E+00 a      1361     1     1     2    11
 -7.5882960458203941E-01 a      1362     1     1     2    12
 -7.3754798146775669E-01 a      1363     1     1     2    13
  2.1303811366442182E-01 a      1364     1     1     2    14
 -7.3115557949571541E-01 a      1365     1     1     2    15
  4.9032582244717254E-01 a      1366     1     2     2     1
 -5.3192296158573649E-01 a      1367     1     2     2     2
  5.8872702152799783E-01 a      1368     1     2     2     3
 -7.6401044557017406E-02 a      1369     1     2     2     4
 -1.6581460396833523E+00 a      1370     1     2     2     5
  1.1552720835623205E+00 a      1371     1     2     2     6
  6.2427990845340542E-01 a      1372     1     2     2     7
 -2.4949993304671272E-01 a      1373     1     2     2     8
  2.8178306745079507E-01 a      1374     1     2     2     9
 -4.8008313769287042E-01 a      1375     1     2     2    10
 -8.7230498312674354E-01 a      1376     1     2     2    11
  6.9242160852993218E-01 a      1377     1     2     2    12
  5.3866080009793460E-01 a      1378     1     2     2    13
 -5.6934960430261583E-01 a      1379     1     2     2    14
  1.0411002300280610E+00 a      1380     1     2     2    15
  1.3291239178176373E+00 a      1381     1     3     2     1
 -6.0740363078526471E-01 a      1382     1     3     2     2
 -5.5181113391020953E-01 a      1383     1     3     2     3
  8.9172414357810137E-01 a      1384     1     3     2     4
 -9.4308071857805786E-01 a      1385     1     3     2     5
  4.0712155262621796E-01 a      1386     1     3     2     6
 -9.4748880891430920E-01 a      1387     1     3     2     7
  4.1454752239150211E-02 a      1388     1     3     2     8
  4.4374567709193741E-01 a      1389     1     3     2     9
 -1.0307030747594432E+00 a      1390     1     3     2    10
 -1.0438186283487427E+00 a      1391     1     3     2    11
 -1.2719980822020163E-01 a      1392     1     3     2    12
  1.0726550819185172E+00 a      1393     1     3     2    13
  1.1997339420431776E+00 a      1394     1     3     2    14
 -9.5328758523432500E-01 a      1395     1     3     2    15
 -2.7331431946122325E-01 a      1396     1     4     2     1
  1.7712848853904231E+00 a      1397     1     4     2     2
 -9.5760037051245375E-02 a      1398     1     4     2     3
  2.4782812996104164E-01 a      1399     1     4     2     4
  6.2513036212275352E-01 a      1400     1     4     2     5
 -1.9132970504181573E-01 a      1401     1     4     2     6
 -2.5359515969967228E-01 a      1402     1     4     2     7
  9.7328059420170698E-02 a      1403     1     4     2     8
  2.3573443568519886E-01 a      1404     1     4     2     9
 -5.8638502417170923E-01 a      1405     1     4     2    10
  7.1639881981668874E-02 a      1406     1     4     2    11
  3.9723133344354278E-01 a      1407     1     4     2    12
 -7.0571235703518931E-01 a      1408     1     4     2    13
  4.8181367848971124E-01 a      1409     1     4     2    14
 -3.8857381182081430E-01 a      1410     1     4     2    15
 -3.3662438521012833E-02 a      1411     1     5     2     1
  7.6266929575323450E-01 a      1412     1     5     2     2
  1.4441817607404099E+00 a      1413     1     5     2     3
  6.2540619680923545E-02 a      1414     1     5     2     4
  5.7941238688945418E-01 a      1415     1     5     2     5
  7.1844155062718040E-01 a      1416     1     5     2     6
 -1.2500519670990887E-01 a      1417     1     5     2     7
 -1.1752430088006820E+00 a      1418     1     5     2     8
 -1.3688024391137790E+00 a      1419     1     5     2     9
  8.5817777381155336E-01 a      1420     1     5     2    10
  4.9608311190951149E-01 a      1421     1     5     2    11
 -5.0916551148154821E-01 a      1422     1     5     2    12
  3.6060889013835690E-01 a      1423     1     5     2    13
  5.6904826862757951E-01 a      1424     1     5     2    14
 -1.2930108427290183E+00 a      1425     1     5     2    15
  3.8148195675273155E-01 a      1426     1     6     2     1
  1.9445217696287728E-01 a      1427     1     6     2     2
  1.1168009819776661E+00 a      1428     1     6     2     3
  1.1595764369657149E+00 a      1429     1     6     2     4
 -2.2504388129299843E-01 a      1430     1     6     2     5
  1.2297524108626565E+00 a      1431     1     6     2     6
  5.1963973917527340E-01 a      1432     1     6     2     7
 -8.2702970548325316E-01 a      1433     1     6     2     8
 -1.5028059895718147E+00 a      1434     1     6     2     9
  9.7367721829839204E-01 a      1435     1     6     2    10
  1.0480829830699459E+00 a      1436     1     6     2    11
  2.4010560829234867E-01 a      1437     1     6     2    12
 -5.4021276009898911E-01 a      1438     1     6     2    13
 -1.6810223690685500E-01 a      1439     1     6     2    14
 -7.2079345973934161E-01 a      1440     1     6     2    15
  1.0112317171530043E+00 a      1441     1     7     2     1
  4.1492657767021421E-02 a      1442     1     7     2     2
 -8.9838512099389478E-01 a      1443     1     7     2     3
  9.1921527506858414E-01 a      1444     1     7     2     4
 -2.0839117411211966E-01 a      1445     1     7     2     5
 -1.0164560829767972E+00 a      1446     1     7     2     6
 -2.6324357181936686E-01 a      1447     1     7     2     7
  1.3826445121292358E-01 a      1448     1     7     2     8
  1.3542430084921500E+00 a      1449     1     7     2     9
  5.0097956567517787E-01 a      1450     1     7     2    10
 -5.6566200064060301E-01 a      1451     1     7     2    11
 -7.7228410795805447E-01 a      1452     1     7     2    12
 -3.7275454337253683E-02 a      1453     1     7     2    13
 -5.6215677392531260E-01 a      1454     1     7     2    14
  4.3936996802525369E-01 a      1455     1     7     2    15
  3.9881898744896732E-01 a      1456     1     8     2     1
 -9.0162732698433213E-03 a      1457     1     8     2     2
 -2.1703661163376997E-01 a      1458     1     8     2     3
  1.0621543718935376E+00 a      1459     1     8     2     4
 -5.0222084574014259E-01 a      1460     1     8     2     5
 -6.8696364323350675E-02 a      1461     1     8     2     6
  2.9736514844867157E-01 a      1462     1     8     2     7
 -8.5489909192965496E-01 a      1463     1     8     2     8
  1.8614089161560459E+00 a      1464     1     8     2     9
 -4.3855084465894167E-01 a      1465     1     8     2    10
  2.5270243691239191E-01 a      1466     1     8     2    11
 -1.0176473702343250E-01 a      1467     1     8     2    12
  1.3115977976059112E-01 a      1468     1     8     2    13
  5.8640720269617419E-01 a      1469     1     8     2    14
 -2.3452229932284316E-01 a      1470     1     8     2    15
  4.0361166915763302E-01 a      1471     1     9     2     1
 -3.3761717960431575E-01 a      1472     1     9     2     2
  1.7402048071392498E-01 a      1473     1     9     2     3
 -2.7533098630259123E-01 a      1474     1     9     2     4
 -6.4247193400408298E-01 a      1475     1     9     2     5
 -1.1054123368628495E+00 a      1476     1     9     2     6
  2.3293340458701198E-02 a      1477     1     9     2     7
  1.5955513207987482E-01 a      1478     1     9     2     8
  1.3839155185555044E-01 a      1479     1     9     2     9
  2.8896463772029458E-02 a      1480     1     9     2    10
 -7.0756321818148449E-01 a      1481     1     9     2    11
  1.3557993745304164E-01 a      1482     1     9     2    12
  2.8102452147744800E-01 a      1483     1     9     2    13
 -1.7992715170193763E-01 a      1484     1     9     2    14
  3.4649088336554806E-02 a      1485     1     9     2    15
 -6.8148416551750213E-01 a      1486     1    10     2     1
 -2.2315902449688807E-01 a      1487     1    10     2     2
 -9.7818005196206415E-01 a      1488     1    10     2     3
 -4.2870286004707442E-01 a      1489     1    10     2     4
  2.8383005640635190E-02 a      1490     1    10     2     5
  1.0485953584013015E-01 a      1491     1    10     2     6
 -7.6417997865032066E-03 a      1492     1    10     2     7
 -1.6341522280643873E-02 a      1493     1    10     2     8
 -1.8761942284818756E-01 a      1494     1    10     2     9
 -4.9789113529596468E-01 a      1495     1    10     2    10
  3.9290050391067194E-01 a      1496     1    10     2    11
  2.9738686192415570E-01 a      1497     1    10     2    12
  7.6629161198763784E-01 a      1498     1    10     2    13
  3.6955093531660277E-01 a      1499     1    10     2    14
 -1.0297668256413890E+00 a      1500     1    10     2    15
  2.8532770395278555E-02 a      1501     1    11     2     1
 -1.1044896892780716E+00 a      1502     1    11     2     2
 -4.8834715608302615E-01 a      1503     1    11     2     3
  3.4454589059299628E-01 a      1504     1    11     2     4
 -8.9485754287163632E-01 a      1505     1    11     2     5
  1.0868276342833914E+00 a      1506     1    11     2     6
  3.0419354545168864E-01 a      1507     1    11     2     7
  1.0055479705817680E+00 a      1508     1    11     2     8
 -2.9726554580601150E-01 a      1509     1    11     2     9
  1.5936120747995436E-01 a      1510     1    11     2    10
  5.3003255284548589E-01 a      1511     1    11     2    11
 -6.4678073871095898E-01 a      1512     1    11     2    12
  2.9481685988031547E-01 a      1513     1    11     2    13
 -8.6152685332455259E-01 a      1514     1    11     2    14
  1.1041796101862095E-01 a      1515     1    11     2    15
  4.9723549669669470E-01 a      1516     1    12     2     1
  9.5906376088406819E-01 a      1517     1    12     2     2
  9.5409438329238616E-01 a      1518     1    12     2     3
  1.6949170939549499E-01 a      1519     1    12     2     4
 -7.2837517666918900E-02 a      1520     1    12     2     5
 -1.0419971344294559E+00 a      1521     1    12     2     6
  2.8181047466933251E-01 a      1522     1    12     2     7
 -3.8500456053335264E-01 a      1523     1    12     2     8
 -8.8820456023500471E-01 a      1524     1    12     2     9
  8.0369586750330027E-02 a      1525     1    12     2    10
 -6.8949846910555362E-02 a      1526     1    12     2    11
  5.3056058855252786E-01 a      1527     1    12     2    12
  2.7512337089868388E-01 a      1528     1    12     2    13
 -5.3733639273150602E-01 a      1529     1    12     2    14
  1.4325780182358465E-02 a      1530     1    12     2    15
  1.6422859538198573E+00 a      1531     1    13     2     1
 -1.1089613741184132E-01 a      1532     1    13     2     2
 -3.1191354128862259E-01 a      1533     1    13     2     3
  6.5773968872556754E-01 a      1534     1    13     2     4
  1.8858176996879907E+00 a      1535     1    13     2     5
 -1.0857955988903212E+00 a      1536     1    13     2     6
  4.4088698057663078E-01 a      1537     1    13     2     7
  3.2255356691461340E-01 a      1538     1    13     2     8
 -1.0545988719528574E+00 a      1539     1    13     2     9
  8.4124626811863534E-01 a      1540     1    13     2    10
  1.1411637412711456E-01 a      1541     1    13     2    11
  5.8467966351496670E-01 a      1542     1    13     2    12
  8.6392692509843716E-01 a      1543     1    13     2    13
  5.1372375505455048E-01 a      1544     1    13     2    14
  2.8070249863666613E-01 a      1545     1    13     2    15
 -6.8700016399550146E-02 a      1546     1    14     2     1
 -2.4829307114943522E-01 a      1547     1    14     2     2
 -2.2266087528658929E-01 a      1548     1    14     2     3
  1.5193028980147488E-01 a      1549     1    14     2     4
  2.9074507925180421E-01 a      1550     1    14     2     5
  1.2080364371454044E+00 a      1551     1    14     2     6
 -4.0420843038542309E-01 a      1552     1    14     2     7
 -2.0089202973851511E-01 a      1553     1    14     2     8
  2.7449063805578516E-01 a      1554     1    14     2     9
  8.0078866418517902E-01 a      1555     1    14     2    10
  8.1047914341705474E-01 a      1556     1    14     2    11
  2.4452934503161408E-01 a      1557     1    14     2    12
  1.9844249441744796E-01 a      1558     1    14     2    13
 -1.0886387259078254E+00 a      1559     1    14     2    14
  5.3729049266973805E-01 a      1560     1    14     2    15
 -5.8854813709839721E-02 a      1561     1    15     2     1
  1.9578205104540128E-01 a      1562     1    15     2     2
 -1.2636772933490845E-01 a      1563     1    15     2     3
  1.8788105901890062E+00 a      1564     1    15     2     4
 -1.4789955535822534E+00 a      1565     1    15     2     5
  8.9089557881306003E-01 a      1566     1    15     2     6
  4.1650556082524398E-01 a      1567     1    15     2     7
  2.9834478617322924E-01 a      1568     1    15     2     8
 -4.8944095300778817E-01 a      1569     1    15     2     9
  1.6863690009420329E+00 a      1570     1    15     2    10
  4.3798626211245850E-01 a      1571     1    15     2    11
  4.8951830468906737E-01 a      1572     1    15     2    12
  1.4795039891441084E+00 a      1573     1    15     2    13
 -1.6744531807118984E-01 a      1574     1    15     2    14
  2.9337569995994006E-01 a      1575     1    15     2    15
  1.2953731684689357E-02 b      1576     2     1
  9.0980111293774435E-01 b      1577     2     2
  3.7602040197975029E-01 b      1578     2     3
 -3.7097343888311829E+00 b      1579     2     4
  3.2472010294894296E+00 b      1580     2     5
  1.1687510889693182E+00 b      1581     2     6
  1.4061159906204418E-01 b      1582     2     7
 -1.4992827740692238E+00 b      1583     2     8
  8.6144265333035974E-01 b      1584     2     9
  7.4775827229526348E-01 b      1585     2    10
 -7.4273647749416705E-01 b      1586     2    11
 -3.4933712957997315E-01 b      1587     2    12
  1.5194598370102606E+00 b      1588     2    13
  1.0025299981502314E+00 b      1589     2    14
  1.0132486635216238E+00 b      1590     2    15
 -7.6434582095220815E-01 a      1591     2     1     3     1
 -3.6397194286946696E-02 a      1592     2     2     3     1
  2.3100969715210831E-01 a      1593     2     3     3     1
  6.0096105824173107E-01 a      1594     2     4     3     1
  9.5581055316235328E-02 a      1595     2     5     3     1
  9.5667343654325554E-02 a      1596     2     6     3     1
 -1.1189765335246817E+00 a      1597     2     7     3     1
  2.2039827361752917E-01 a      1598     2     8     3     1
  3.4635122044863922E-02 a      1599     2     9     3     1
  2.9387482729433811E-01 a      1600     2    10     3     1
 -2.8059658776228691E-01 a      1601     2    11     3     1
  4.2643420587070902E-01 a      1602     2    12     3     1
  4.9056793807286708E-01 a      1603     2    13     3     1
 -1.6009480617553720E-01 a      1604     2    14     3     1
  3.2940355232453256E-01 a      1605     2    15     3     1
 -8.3815586606522063E-01 b      1606     3     1
