################################################################################
# Neural network connection values (weights and biases).
################################################################################
# Col  Name       Description
################################################################################
# 1    connection Neural network connection value.
# 2    t          Connection type (a = weight, b = bias).
# 3    index      Index enumerating weights.
# 4    l_s        Starting point layer (end point layer for biases).
# 5    n_s        Starting point neuron in starting layer (end point neuron for biases).
# 6    l_e        End point layer.
# 7    n_e        End point neuron in end layer.
################################################################################
#                      1 2         3     4     5     6     7
#             connection t     index   l_s   n_s   l_e   n_e
############################################################
 -4.7214739329231992E-01 a         1     0     1     1     1
 -1.0971341900590148E+00 a         2     0     1     1     2
 -3.6721103072872652E-01 a         3     0     1     1     3
 -8.4632331181437526E-01 a         4     0     1     1     4
 -5.6017465550855639E-01 a         5     0     1     1     5
 -2.7303329060450028E+00 a         6     0     1     1     6
 -1.0248445209437167E+00 a         7     0     1     1     7
  6.7680953124781795E-01 a         8     0     1     1     8
 -1.0399033431116438E+00 a         9     0     1     1     9
 -9.7577095694386895E-01 a        10     0     1     1    10
  6.9057658193297267E-01 a        11     0     1     1    11
 -5.8535251113779352E-01 a        12     0     1     1    12
  1.7356634579461269E-01 a        13     0     1     1    13
  3.3162025865325900E-01 a        14     0     1     1    14
 -3.5945516063251204E-01 a        15     0     1     1    15
 -9.0100986502779767E-01 a        16     0     2     1     1
  9.2258420944171160E-01 a        17     0     2     1     2
  3.3812100158094625E+00 a        18     0     2     1     3
  5.7225721646646370E+00 a        19     0     2     1     4
 -2.2897175593741239E+00 a        20     0     2     1     5
 -1.1211447718034651E+00 a        21     0     2     1     6
 -2.0800747434193476E+00 a        22     0     2     1     7
  7.1512676637614725E-01 a        23     0     2     1     8
  5.9968665269094568E-01 a        24     0     2     1     9
 -2.1471397149431470E+00 a        25     0     2     1    10
 -5.9989157687463568E-01 a        26     0     2     1    11
 -3.3360962024747693E+00 a        27     0     2     1    12
  9.7669708485578888E-01 a        28     0     2     1    13
 -3.4565983627446810E+00 a        29     0     2     1    14
  3.9044279516266972E-01 a        30     0     2     1    15
  1.1909715887280463E+00 a        31     0     3     1     1
  3.7355727166285924E-01 a        32     0     3     1     2
  6.5477298281036200E-01 a        33     0     3     1     3
  1.4056328664105897E+00 a        34     0     3     1     4
 -2.0575986078638053E-01 a        35     0     3     1     5
  1.4186876452405317E+00 a        36     0     3     1     6
 -1.4074468904278221E+00 a        37     0     3     1     7
 -5.2447847496790068E-01 a        38     0     3     1     8
  9.5703303573555651E-02 a        39     0     3     1     9
 -2.5582477337104859E-01 a        40     0     3     1    10
  4.4343128664939235E-01 a        41     0     3     1    11
 -1.7254784969690575E+00 a        42     0     3     1    12
  4.4784094895334348E-01 a        43     0     3     1    13
 -8.0117477267310069E-02 a        44     0     3     1    14
  1.1554453274000243E+00 a        45     0     3     1    15
 -1.5294602477287007E+00 a        46     0     4     1     1
 -2.5742916733554244E+00 a        47     0     4     1     2
  1.5458156838064649E-01 a        48     0     4     1     3
 -5.9452954579688688E+00 a        49     0     4     1     4
 -2.7660661194663763E+00 a        50     0     4     1     5
  2.3227430818139891E-01 a        51     0     4     1     6
 -1.7970051282704425E+00 a        52     0     4     1     7
 -1.6438069559969122E+00 a        53     0     4     1     8
 -1.0194080118850626E-01 a        54     0     4     1     9
  2.3060236864329671E+00 a        55     0     4     1    10
  9.5051716964623523E-01 a        56     0     4     1    11
 -1.2828815660075958E+00 a        57     0     4     1    12
  7.2466019898576406E-01 a        58     0     4     1    13
 -2.5543527976649911E+00 a        59     0     4     1    14
  7.4974294483987614E-01 a        60     0     4     1    15
  1.1956104829565767E-01 a        61     0     5     1     1
  1.2636629993334678E+00 a        62     0     5     1     2
 -1.2205680266693078E-01 a        63     0     5     1     3
 -3.8889447936698024E-01 a        64     0     5     1     4
  1.4098924241885118E+00 a        65     0     5     1     5
  2.5443597972176870E+00 a        66     0     5     1     6
 -1.8991970913569636E+00 a        67     0     5     1     7
  7.9595683285718855E-01 a        68     0     5     1     8
  1.3247780002834447E-01 a        69     0     5     1     9
  8.5714570242141874E-01 a        70     0     5     1    10
 -9.6588561237918125E-01 a        71     0     5     1    11
 -2.4508189007196995E-01 a        72     0     5     1    12
 -5.9200312462794558E-01 a        73     0     5     1    13
  7.1645751797758717E-01 a        74     0     5     1    14
  1.0557614991279409E+00 a        75     0     5     1    15
  5.8754000976280175E-02 a        76     0     6     1     1
  2.4960620846878196E+00 a        77     0     6     1     2
  1.6052591895366788E+00 a        78     0     6     1     3
  4.4407648969113014E+00 a        79     0     6     1     4
 -3.5708427825491657E-01 a        80     0     6     1     5
 -1.5496380601345772E+00 a        81     0     6     1     6
  4.4548704440417863E-01 a        82     0     6     1     7
 -6.9769772506089178E-01 a        83     0     6     1     8
  8.5071302205746913E-01 a        84     0     6     1     9
 -1.8766016563427870E+00 a        85     0     6     1    10
 -8.5336566619113896E-01 a        86     0     6     1    11
 -8.7924353470969119E-01 a        87     0     6     1    12
  3.5646733191560498E-01 a        88     0     6     1    13
 -1.0818795095111291E+00 a        89     0     6     1    14
 -9.8386263130081908E-01 a        90     0     6     1    15
 -8.2133862269169366E-01 a        91     0     7     1     1
 -7.9892254564407572E-02 a        92     0     7     1     2
  1.3642233530860526E-01 a        93     0     7     1     3
  1.6791503761302016E+00 a        94     0     7     1     4
  4.5523950200173036E-01 a        95     0     7     1     5
 -3.4980430341540431E-01 a        96     0     7     1     6
 -2.1727100127498775E+00 a        97     0     7     1     7
  1.2724743184185403E-01 a        98     0     7     1     8
  3.4234403981488493E-01 a        99     0     7     1     9
 -1.4009297138766581E+00 a       100     0     7     1    10
 -7.4139320311738466E-01 a       101     0     7     1    11
  1.0421435226319711E+00 a       102     0     7     1    12
 -3.2709619824586139E-01 a       103     0     7     1    13
 -7.2804430506465045E-01 a       104     0     7     1    14
  1.4137400364700847E+00 a       105     0     7     1    15
  8.6441872600275127E-01 a       106     0     8     1     1
 -1.6635133057942992E+00 a       107     0     8     1     2
  6.6704582099125831E-01 a       108     0     8     1     3
 -6.1339513811454494E-01 a       109     0     8     1     4
  1.2148333117316845E+00 a       110     0     8     1     5
 -7.9654862997430698E-01 a       111     0     8     1     6
 -2.7498568209862500E+00 a       112     0     8     1     7
  1.7107770244000844E+00 a       113     0     8     1     8
 -1.9600155572198397E-01 a       114     0     8     1     9
 -1.1222884035467100E+00 a       115     0     8     1    10
 -1.4667081712493000E+00 a       116     0     8     1    11
 -2.4607689331245516E-01 a       117     0     8     1    12
  7.0149615958448841E-01 a       118     0     8     1    13
  9.7068379545320660E-01 a       119     0     8     1    14
 -3.6654308859729268E-01 a       120     0     8     1    15
 -1.7797050279990584E-01 a       121     0     9     1     1
  8.9988022549250191E-01 a       122     0     9     1     2
 -1.6189800936607037E+00 a       123     0     9     1     3
  4.1793569135332795E+00 a       124     0     9     1     4
 -4.5516185699219586E-01 a       125     0     9     1     5
 -3.8592683532621153E+00 a       126     0     9     1     6
 -6.7569681899767942E-01 a       127     0     9     1     7
  8.9061234038891557E-01 a       128     0     9     1     8
  2.1034674181120699E-01 a       129     0     9     1     9
 -4.3282185781223514E-01 a       130     0     9     1    10
 -1.0523606918861916E+00 a       131     0     9     1    11
  4.1707409827769992E-01 a       132     0     9     1    12
  5.1218052102933598E-01 a       133     0     9     1    13
  7.8351577458761618E-02 a       134     0     9     1    14
  1.1350279747276675E+00 a       135     0     9     1    15
  6.4794405192748672E-01 a       136     0    10     1     1
  1.6990002104487374E+00 a       137     0    10     1     2
  1.1932048199029159E+00 a       138     0    10     1     3
  5.5462559734528316E+00 a       139     0    10     1     4
 -1.8206960731886792E+00 a       140     0    10     1     5
  3.6556897212397732E-01 a       141     0    10     1     6
  1.7357711412471790E+00 a       142     0    10     1     7
 -1.1451893890834750E+00 a       143     0    10     1     8
 -9.7468241069805994E-01 a       144     0    10     1     9
  1.9259064808011888E+00 a       145     0    10     1    10
 -3.1519445366479643E-01 a       146     0    10     1    11
 -6.6862323947460223E-01 a       147     0    10     1    12
 -5.5510767269915084E-01 a       148     0    10     1    13
 -1.2343425896221902E-01 a       149     0    10     1    14
  5.7054712537262464E-01 a       150     0    10     1    15
  3.4256041077697413E-01 a       151     0    11     1     1
  7.9818739511038350E-01 a       152     0    11     1     2
 -2.0576493554125785E+00 a       153     0    11     1     3
 -1.1431454400811463E+00 a       154     0    11     1     4
 -2.5614246670502698E+00 a       155     0    11     1     5
 -7.5747351408107469E-02 a       156     0    11     1     6
  5.2076050634975579E-01 a       157     0    11     1     7
  1.2138971083819392E+00 a       158     0    11     1     8
  1.9899733709964391E+00 a       159     0    11     1     9
 -2.0242430701586586E-01 a       160     0    11     1    10
  1.2347296144119044E+00 a       161     0    11     1    11
  1.5231490839312636E+00 a       162     0    11     1    12
  1.4922987974998045E-01 a       163     0    11     1    13
 -2.8455995083965702E-01 a       164     0    11     1    14
  1.0163332570160037E+00 a       165     0    11     1    15
 -1.4646580002068892E+00 a       166     0    12     1     1
 -2.3016031448326835E-01 a       167     0    12     1     2
 -7.8147658730489400E-01 a       168     0    12     1     3
 -1.7433525488882817E-01 a       169     0    12     1     4
  1.0757267264939654E+00 a       170     0    12     1     5
  4.9577716322933790E-01 a       171     0    12     1     6
 -1.6964311610583822E+00 a       172     0    12     1     7
 -7.8344897049486850E-01 a       173     0    12     1     8
 -1.5843062800396621E+00 a       174     0    12     1     9
 -1.0407201450121382E+00 a       175     0    12     1    10
  6.2276637799730095E-01 a       176     0    12     1    11
 -1.2347250622183681E+00 a       177     0    12     1    12
  5.5056709153507011E-01 a       178     0    12     1    13
 -1.7875121850697334E-01 a       179     0    12     1    14
 -6.6124583961721639E-01 a       180     0    12     1    15
 -1.4122990257678649E+00 a       181     0    13     1     1
  7.9372980532553405E-01 a       182     0    13     1     2
  4.0038064754074737E-01 a       183     0    13     1     3
  4.9578504694899961E-01 a       184     0    13     1     4
  1.6964150387963748E+00 a       185     0    13     1     5
  2.1218894082572709E-01 a       186     0    13     1     6
  6.0236667029060043E-01 a       187     0    13     1     7
 -5.2042891460045781E-01 a       188     0    13     1     8
  1.1520938323067595E+00 a       189     0    13     1     9
 -4.0742185698327449E-01 a       190     0    13     1    10
  1.2491703120224926E+00 a       191     0    13     1    11
  1.1622420472937776E+00 a       192     0    13     1    12
  7.9900226443886191E-01 a       193     0    13     1    13
 -4.8935725869256452E-01 a       194     0    13     1    14
 -1.2346625173116255E+00 a       195     0    13     1    15
  2.2636220322598346E+00 a       196     0    14     1     1
 -1.4950166655968455E+00 a       197     0    14     1     2
 -5.7163054006074895E-02 a       198     0    14     1     3
 -6.4726170898543767E-02 a       199     0    14     1     4
 -7.9229572506846180E-01 a       200     0    14     1     5
  1.9752854981108234E+00 a       201     0    14     1     6
 -4.5606669939242356E-01 a       202     0    14     1     7
  9.1172846597656465E-01 a       203     0    14     1     8
  8.4448965146546950E-01 a       204     0    14     1     9
 -6.0524705741482698E-01 a       205     0    14     1    10
  1.7690678250821870E+00 a       206     0    14     1    11
 -9.6889609711554370E-01 a       207     0    14     1    12
 -5.1266731482932892E-01 a       208     0    14     1    13
  2.7168635318298051E+00 a       209     0    14     1    14
 -2.1317743528186620E-01 a       210     0    14     1    15
  1.3607032569954525E+00 a       211     0    15     1     1
  1.2954175568150343E+00 a       212     0    15     1     2
 -9.5837755329426969E-02 a       213     0    15     1     3
 -9.5580518676647341E-01 a       214     0    15     1     4
 -2.9378783377447579E+00 a       215     0    15     1     5
 -5.8570421349131740E-01 a       216     0    15     1     6
 -9.3511224656361058E-01 a       217     0    15     1     7
 -1.6855343811633658E-02 a       218     0    15     1     8
 -5.5228594140638987E-01 a       219     0    15     1     9
 -2.7643452438652349E-01 a       220     0    15     1    10
 -8.5481994192251193E-02 a       221     0    15     1    11
 -8.4623487602248593E-01 a       222     0    15     1    12
 -4.9853257518892602E-01 a       223     0    15     1    13
 -1.3320807402806565E+00 a       224     0    15     1    14
 -1.8300360091699053E-01 a       225     0    15     1    15
 -2.3035028499023888E+00 a       226     0    16     1     1
  1.2517462793472489E+00 a       227     0    16     1     2
 -7.3386397705941420E-01 a       228     0    16     1     3
  4.6934309015650766E-01 a       229     0    16     1     4
 -9.6632966955261768E-01 a       230     0    16     1     5
  1.0810401943462694E-01 a       231     0    16     1     6
  1.9366561234981039E+00 a       232     0    16     1     7
 -2.3591757954507178E+00 a       233     0    16     1     8
 -4.5464565558653378E+00 a       234     0    16     1     9
  2.2752775841963082E+00 a       235     0    16     1    10
 -2.2812567963835614E-01 a       236     0    16     1    11
  1.6226900734848708E+00 a       237     0    16     1    12
  1.0106637352755512E+00 a       238     0    16     1    13
 -3.2981853574928928E+00 a       239     0    16     1    14
 -1.7764758464405466E+00 a       240     0    16     1    15
 -1.0774368700589967E+00 a       241     0    17     1     1
  4.6875887957937246E-01 a       242     0    17     1     2
 -3.9733933209016481E-01 a       243     0    17     1     3
 -1.2990404584413298E-01 a       244     0    17     1     4
 -8.1228011329966399E-01 a       245     0    17     1     5
 -3.7389447388095581E-01 a       246     0    17     1     6
  1.5378363417048377E-01 a       247     0    17     1     7
 -6.5819680989774310E-01 a       248     0    17     1     8
 -3.6695240486178704E-01 a       249     0    17     1     9
 -1.1396094884224608E+00 a       250     0    17     1    10
 -5.2023727395351416E-01 a       251     0    17     1    11
 -4.9475990994229391E-01 a       252     0    17     1    12
  1.7474503109912332E-01 a       253     0    17     1    13
 -1.3893537882891311E+00 a       254     0    17     1    14
  4.8179004032331318E-01 a       255     0    17     1    15
  4.0534856844457079E-01 a       256     0    18     1     1
 -7.1036538266865890E-01 a       257     0    18     1     2
 -8.5217995405625413E-02 a       258     0    18     1     3
 -1.4261352012776504E-01 a       259     0    18     1     4
 -3.4168501708647409E-01 a       260     0    18     1     5
  1.0266979848685045E+00 a       261     0    18     1     6
 -3.0290356460593748E-01 a       262     0    18     1     7
  5.0170358403023189E-02 a       263     0    18     1     8
  5.1555997260543121E-02 a       264     0    18     1     9
 -1.0992140728602136E+00 a       265     0    18     1    10
  6.7514920897867703E-02 a       266     0    18     1    11
 -6.4159291934516124E-02 a       267     0    18     1    12
 -1.7851593440645002E-02 a       268     0    18     1    13
  1.2325270428827417E+00 a       269     0    18     1    14
 -1.4257476769170898E+00 a       270     0    18     1    15
  1.7872820610841511E+00 a       271     0    19     1     1
  1.7125801496960593E+00 a       272     0    19     1     2
  2.5439696838692422E-01 a       273     0    19     1     3
 -6.7761149227198736E-01 a       274     0    19     1     4
 -5.6349685192085253E-01 a       275     0    19     1     5
  1.0815319980936229E+00 a       276     0    19     1     6
 -2.1687242483943208E+00 a       277     0    19     1     7
 -2.0365197334842788E+00 a       278     0    19     1     8
  2.2216999101285548E-01 a       279     0    19     1     9
  8.7100234790489295E-01 a       280     0    19     1    10
 -4.6995844728647546E-01 a       281     0    19     1    11
 -3.4447943219421162E-01 a       282     0    19     1    12
  2.5180387011330532E+00 a       283     0    19     1    13
 -1.1163169773036778E-01 a       284     0    19     1    14
 -1.0485937689819860E-01 a       285     0    19     1    15
  9.5735033761790556E-01 a       286     0    20     1     1
 -1.0490498493320410E+00 a       287     0    20     1     2
 -2.9731189876752129E-01 a       288     0    20     1     3
 -7.6298658101801975E-01 a       289     0    20     1     4
  3.3361921880309078E-02 a       290     0    20     1     5
  9.9107623924376664E-01 a       291     0    20     1     6
  2.6669371994162421E+00 a       292     0    20     1     7
  2.3551746970988308E-01 a       293     0    20     1     8
  9.4417592140584983E-01 a       294     0    20     1     9
 -7.0457512224474161E-01 a       295     0    20     1    10
  1.3351045034012898E-01 a       296     0    20     1    11
 -6.0374329350168576E-01 a       297     0    20     1    12
  1.3011621492805538E+00 a       298     0    20     1    13
 -1.8701594966322297E+00 a       299     0    20     1    14
  1.3439302930219881E+00 a       300     0    20     1    15
  1.5623344155423140E+00 a       301     0    21     1     1
 -1.2286162128465563E+00 a       302     0    21     1     2
 -9.7898859912269476E-01 a       303     0    21     1     3
  2.4527406893021548E+00 a       304     0    21     1     4
 -4.7787437678178774E-01 a       305     0    21     1     5
  3.9715812668944479E+00 a       306     0    21     1     6
  6.4763564737033330E-01 a       307     0    21     1     7
 -9.0003791470950223E-01 a       308     0    21     1     8
  6.9262332131167725E-01 a       309     0    21     1     9
 -2.7011208306715190E-01 a       310     0    21     1    10
  4.6658066592068101E-02 a       311     0    21     1    11
 -6.6771826298728201E-02 a       312     0    21     1    12
  8.0955963330156100E-01 a       313     0    21     1    13
  6.4545900537081979E-01 a       314     0    21     1    14
 -1.5149132693282292E+00 a       315     0    21     1    15
  5.5382857013504150E-01 a       316     0    22     1     1
  2.9385119205635490E-01 a       317     0    22     1     2
  1.0407447521186042E+00 a       318     0    22     1     3
 -5.3145971896136635E-01 a       319     0    22     1     4
 -4.0796324159207198E-01 a       320     0    22     1     5
  3.0515227050874533E-01 a       321     0    22     1     6
 -2.7582971264310627E-02 a       322     0    22     1     7
 -9.4407754411719735E-01 a       323     0    22     1     8
 -5.0323605263727167E-01 a       324     0    22     1     9
  2.7989841427520867E-01 a       325     0    22     1    10
 -2.3235343065918959E+00 a       326     0    22     1    11
 -8.1490526082213488E-01 a       327     0    22     1    12
 -1.9371919577893113E-02 a       328     0    22     1    13
  1.1568035951260929E+00 a       329     0    22     1    14
 -1.5977574638277874E+00 a       330     0    22     1    15
 -1.1124979828307184E+00 a       331     0    23     1     1
 -6.9629248485982687E-01 a       332     0    23     1     2
  5.2598740501113039E-01 a       333     0    23     1     3
  1.3333065443662966E+00 a       334     0    23     1     4
 -7.2527370398133462E-01 a       335     0    23     1     5
  1.5602351986819123E+00 a       336     0    23     1     6
  1.0489853806487404E-01 a       337     0    23     1     7
  8.4134071479830463E-01 a       338     0    23     1     8
 -8.0745824578187442E-01 a       339     0    23     1     9
 -7.6942907302106867E-01 a       340     0    23     1    10
  1.3141608756790818E-01 a       341     0    23     1    11
 -1.8519767459986147E-01 a       342     0    23     1    12
 -1.8020275030105488E+00 a       343     0    23     1    13
  5.1024014503626244E-02 a       344     0    23     1    14
  1.2388087672935373E+00 a       345     0    23     1    15
 -2.9132166718535524E-01 a       346     0    24     1     1
  1.4058617263127376E-01 a       347     0    24     1     2
 -1.1919214929355684E+00 a       348     0    24     1     3
 -4.8202770347720847E+00 a       349     0    24     1     4
  2.2080249747613880E+00 a       350     0    24     1     5
  6.7176057677530543E-01 a       351     0    24     1     6
 -1.9007936803070398E+00 a       352     0    24     1     7
  5.9274499731316999E-01 a       353     0    24     1     8
  1.6574068591433975E+00 a       354     0    24     1     9
  9.8480994039388647E-02 a       355     0    24     1    10
 -7.1391498442938711E-02 a       356     0    24     1    11
  1.0643687737803389E+00 a       357     0    24     1    12
 -7.3642188664704411E-01 a       358     0    24     1    13
 -7.3709406900464336E-01 a       359     0    24     1    14
 -2.0949078622379660E+00 a       360     0    24     1    15
 -1.3851735915194003E+00 a       361     0    25     1     1
  4.7433937186535069E-01 a       362     0    25     1     2
  7.4578418106913569E-01 a       363     0    25     1     3
 -3.8468199103077444E-01 a       364     0    25     1     4
  3.0812489223455546E+00 a       365     0    25     1     5
  4.0948886545840013E-01 a       366     0    25     1     6
  1.7698151704243310E+00 a       367     0    25     1     7
  2.0218367932624171E-01 a       368     0    25     1     8
 -1.4367369316178022E+00 a       369     0    25     1     9
  1.5834865520738857E+00 a       370     0    25     1    10
  4.5681947276676882E-01 a       371     0    25     1    11
  7.5936605494876297E-01 a       372     0    25     1    12
  2.2519779075962454E-01 a       373     0    25     1    13
  4.8133038996915256E-01 a       374     0    25     1    14
 -1.4481331157546662E+00 a       375     0    25     1    15
 -1.0809787795687644E+00 a       376     0    26     1     1
 -6.8473422130862271E-01 a       377     0    26     1     2
  1.5591605008497150E-01 a       378     0    26     1     3
  2.0105781547070269E+00 a       379     0    26     1     4
  6.1084485423709867E-01 a       380     0    26     1     5
  1.9492055691629463E-02 a       381     0    26     1     6
  1.9476456400406299E+00 a       382     0    26     1     7
 -2.0551718963894920E+00 a       383     0    26     1     8
 -2.1755597050270055E+00 a       384     0    26     1     9
  2.7695019690889133E-01 a       385     0    26     1    10
  1.0438113796632638E+00 a       386     0    26     1    11
 -2.8178404918598199E-01 a       387     0    26     1    12
  1.0879032412283312E+00 a       388     0    26     1    13
  1.8113486516818924E+00 a       389     0    26     1    14
  1.5023108810147341E+00 a       390     0    26     1    15
  1.9178412863113030E+00 a       391     0    27     1     1
 -1.0325440793460237E+00 a       392     0    27     1     2
  1.3372468104813500E+00 a       393     0    27     1     3
  1.0005644464927157E+00 a       394     0    27     1     4
  3.8572772674729283E-01 a       395     0    27     1     5
  8.0070155666708054E-01 a       396     0    27     1     6
  1.5834278400194377E+00 a       397     0    27     1     7
  1.5693101423130063E+00 a       398     0    27     1     8
  2.0505418243037821E-01 a       399     0    27     1     9
 -7.6492086566725848E-01 a       400     0    27     1    10
 -2.2560897252704510E+00 a       401     0    27     1    11
 -8.1556302218289511E-01 a       402     0    27     1    12
  8.2585960874425357E-01 a       403     0    27     1    13
  8.6969272377214343E-02 a       404     0    27     1    14
  1.0280538927821528E+00 a       405     0    27     1    15
 -1.1169398119788709E+00 a       406     0    28     1     1
  9.6487732258259551E-01 a       407     0    28     1     2
 -3.4004531285994510E-01 a       408     0    28     1     3
  1.3462391890656542E+00 a       409     0    28     1     4
  1.4254845449488460E+00 a       410     0    28     1     5
  1.9860906555254245E+00 a       411     0    28     1     6
  2.4561702806103112E+00 a       412     0    28     1     7
  2.1386380170730455E+00 a       413     0    28     1     8
 -7.1753070822225440E-01 a       414     0    28     1     9
  2.2967700550540404E+00 a       415     0    28     1    10
 -1.9522067631157867E+00 a       416     0    28     1    11
  1.9080575971180029E+00 a       417     0    28     1    12
 -6.5844553376354975E-01 a       418     0    28     1    13
 -8.3652885959223555E-01 a       419     0    28     1    14
 -4.8451492859992201E-01 a       420     0    28     1    15
  9.8475574361266627E-01 a       421     0    29     1     1
 -1.4875002666740853E+00 a       422     0    29     1     2
  5.5521631528333582E-01 a       423     0    29     1     3
 -1.0409825212259283E-01 a       424     0    29     1     4
  1.1772942600689876E-01 a       425     0    29     1     5
 -2.6027449248740625E-01 a       426     0    29     1     6
 -1.1356999073404148E+00 a       427     0    29     1     7
 -2.7022102718146948E+00 a       428     0    29     1     8
 -9.1601235691486915E-01 a       429     0    29     1     9
 -4.5652608557155916E-01 a       430     0    29     1    10
 -1.1102716705703259E+00 a       431     0    29     1    11
  9.2492121868545873E-01 a       432     0    29     1    12
 -5.4508590585782779E-01 a       433     0    29     1    13
  3.9689099715366233E-01 a       434     0    29     1    14
  5.4134875532220972E-01 a       435     0    29     1    15
 -1.3297584452706448E+00 a       436     0    30     1     1
 -2.3835696542444962E-01 a       437     0    30     1     2
  1.7734049580058795E+00 a       438     0    30     1     3
  6.7958328906552756E-01 a       439     0    30     1     4
 -1.9263248638354136E-01 a       440     0    30     1     5
  2.1213908611778396E+00 a       441     0    30     1     6
 -4.8860449776103204E-01 a       442     0    30     1     7
 -1.5230708613349894E-01 a       443     0    30     1     8
  3.3459736867935852E-01 a       444     0    30     1     9
  9.8965952451039518E-01 a       445     0    30     1    10
 -1.2356865661842515E+00 a       446     0    30     1    11
 -1.8173195213228288E+00 a       447     0    30     1    12
  8.0114713081975053E-01 a       448     0    30     1    13
  5.9344797434453178E-01 a       449     0    30     1    14
  4.7476308136620349E-01 a       450     0    30     1    15
 -1.2440670075615216E-02 a       451     0    31     1     1
  1.2275553105035657E+00 a       452     0    31     1     2
 -3.6584182836219614E-01 a       453     0    31     1     3
 -1.1843861971800333E-01 a       454     0    31     1     4
 -8.3443831046285810E-01 a       455     0    31     1     5
  2.0827182727868028E+00 a       456     0    31     1     6
 -8.6569578002301673E-01 a       457     0    31     1     7
 -1.7542648549841415E+00 a       458     0    31     1     8
  2.0303144660328104E-01 a       459     0    31     1     9
 -3.0314187544276605E-01 a       460     0    31     1    10
 -1.0823981211893874E+00 a       461     0    31     1    11
 -1.9856457038283406E+00 a       462     0    31     1    12
  1.0908856376822107E+00 a       463     0    31     1    13
 -2.5968591872794722E-01 a       464     0    31     1    14
 -9.5466202309992898E-01 a       465     0    31     1    15
  1.3255569216130794E+00 a       466     0    32     1     1
 -3.8037466355574590E-01 a       467     0    32     1     2
 -2.6383887899772902E+00 a       468     0    32     1     3
 -1.7253827722568758E+00 a       469     0    32     1     4
 -4.9806853006679364E-01 a       470     0    32     1     5
  3.4407484515420279E+00 a       471     0    32     1     6
  2.2775285368124569E+00 a       472     0    32     1     7
 -1.0579408395596415E+00 a       473     0    32     1     8
 -1.6519851769294522E-01 a       474     0    32     1     9
  6.2693016731157658E-01 a       475     0    32     1    10
  4.3148697984743634E-01 a       476     0    32     1    11
 -2.5506202771734438E-01 a       477     0    32     1    12
 -6.1957868062759947E-01 a       478     0    32     1    13
 -1.2479088436100130E+00 a       479     0    32     1    14
  2.1349940026598166E+00 a       480     0    32     1    15
 -6.2047888714956279E-01 a       481     0    33     1     1
 -7.9870109582860005E-01 a       482     0    33     1     2
 -7.0120284919618725E-01 a       483     0    33     1     3
  1.0152904179048006E+00 a       484     0    33     1     4
  1.7418732314105416E+00 a       485     0    33     1     5
  1.1039338720351597E+00 a       486     0    33     1     6
 -5.0301389260016849E-01 a       487     0    33     1     7
  2.3280651859511672E-01 a       488     0    33     1     8
  1.9110208255454042E+00 a       489     0    33     1     9
  6.2826484310021746E-01 a       490     0    33     1    10
 -3.9072219683018550E-02 a       491     0    33     1    11
 -3.0942424481113656E-01 a       492     0    33     1    12
  1.0121613291312277E+00 a       493     0    33     1    13
  2.0848305520506524E-01 a       494     0    33     1    14
 -8.2569193172576738E-01 a       495     0    33     1    15
 -9.8594002935329006E-01 a       496     0    34     1     1
  5.0463778270033322E-01 a       497     0    34     1     2
  8.0104792507642819E-01 a       498     0    34     1     3
 -8.8502690648334881E-02 a       499     0    34     1     4
  6.0738146326623665E-02 a       500     0    34     1     5
  1.2747864860824805E+00 a       501     0    34     1     6
  6.4741775793534118E-01 a       502     0    34     1     7
  6.5725472579011057E-01 a       503     0    34     1     8
  3.0298847911618537E-01 a       504     0    34     1     9
  8.4258771989147341E-01 a       505     0    34     1    10
 -1.6427638922283514E+00 a       506     0    34     1    11
 -1.4759719339749877E+00 a       507     0    34     1    12
  1.0181467122290673E+00 a       508     0    34     1    13
  1.3689892441467064E+00 a       509     0    34     1    14
 -7.0537850227858367E-01 a       510     0    34     1    15
 -1.1688524783374279E+00 a       511     0    35     1     1
 -7.2663511265441194E-01 a       512     0    35     1     2
 -2.8177182200930517E-01 a       513     0    35     1     3
 -4.8916838890195280E-01 a       514     0    35     1     4
 -3.4902594984423807E-01 a       515     0    35     1     5
  1.0089785952035775E+00 a       516     0    35     1     6
 -1.9368845740175070E-01 a       517     0    35     1     7
  8.1244711617486212E-02 a       518     0    35     1     8
 -4.0312132474491308E-01 a       519     0    35     1     9
 -8.4040379326656789E-01 a       520     0    35     1    10
 -3.0802343266796262E-01 a       521     0    35     1    11
 -3.3123063609975217E-01 a       522     0    35     1    12
 -6.2766620483208180E-01 a       523     0    35     1    13
  4.4520327459624986E-01 a       524     0    35     1    14
  9.8672359972458401E-01 a       525     0    35     1    15
 -2.8570782715851486E+00 a       526     0    36     1     1
 -1.0732768286195284E+00 a       527     0    36     1     2
 -1.2506033629830589E+00 a       528     0    36     1     3
 -6.0490235458761115E+00 a       529     0    36     1     4
  1.9038178558930334E+00 a       530     0    36     1     5
  7.2960204581132115E-01 a       531     0    36     1     6
 -1.7278248209543137E+00 a       532     0    36     1     7
  1.3814136477403280E+00 a       533     0    36     1     8
  9.2219930733347211E-01 a       534     0    36     1     9
  1.2147401862585614E+00 a       535     0    36     1    10
  1.0571262174466733E+00 a       536     0    36     1    11
  1.2536342111692993E+00 a       537     0    36     1    12
  6.3277556219732731E-02 a       538     0    36     1    13
 -1.6238589943579900E+00 a       539     0    36     1    14
 -1.7432176068187577E+00 a       540     0    36     1    15
 -2.2978053486946387E-01 a       541     0    37     1     1
  1.1435909792112857E+00 a       542     0    37     1     2
 -6.4374581039494908E-02 a       543     0    37     1     3
  4.1622957269669691E-02 a       544     0    37     1     4
 -3.0056026517567297E-01 a       545     0    37     1     5
 -3.3912064078212478E-01 a       546     0    37     1     6
  5.0427729054999711E-03 a       547     0    37     1     7
 -1.4308389488572359E-01 a       548     0    37     1     8
 -7.1381851104193617E-01 a       549     0    37     1     9
 -3.8883046635192697E-01 a       550     0    37     1    10
 -1.4555727761633785E-01 a       551     0    37     1    11
  7.1551463776709068E-01 a       552     0    37     1    12
  1.3403892240654474E+00 a       553     0    37     1    13
 -1.2907741635674779E+00 a       554     0    37     1    14
  5.5280590899044790E-01 a       555     0    37     1    15
  1.3891130510705438E+00 a       556     0    38     1     1
  2.0088825770894352E+00 a       557     0    38     1     2
  1.4927198439795056E-01 a       558     0    38     1     3
 -1.7927010473265668E+00 a       559     0    38     1     4
  5.5919092760782474E-01 a       560     0    38     1     5
  1.0240971676200223E+00 a       561     0    38     1     6
  1.7106457483354114E+00 a       562     0    38     1     7
  7.8302626755128155E-02 a       563     0    38     1     8
  1.4303510177789589E+00 a       564     0    38     1     9
  4.7397487060777033E-01 a       565     0    38     1    10
 -2.4287540133937115E-02 a       566     0    38     1    11
  4.5122094617734490E-02 a       567     0    38     1    12
  6.3840139115258354E-01 a       568     0    38     1    13
 -1.1732088260973996E+00 a       569     0    38     1    14
  6.9139900159906742E-01 a       570     0    38     1    15
 -2.9312032086615325E-01 a       571     0    39     1     1
 -1.0820857127397305E+00 a       572     0    39     1     2
  1.1844566057296908E+00 a       573     0    39     1     3
 -1.0585284402133552E+00 a       574     0    39     1     4
  1.8086859741810728E+00 a       575     0    39     1     5
  4.5987442892984653E-01 a       576     0    39     1     6
 -3.3143680746234819E-02 a       577     0    39     1     7
  2.5116029759160380E-01 a       578     0    39     1     8
  1.0092969871412167E+00 a       579     0    39     1     9
 -8.8437259686436909E-01 a       580     0    39     1    10
  7.4130352027610680E-01 a       581     0    39     1    11
 -1.5834875689673844E-02 a       582     0    39     1    12
 -1.3725860200497303E-01 a       583     0    39     1    13
  1.4039618419122726E+00 a       584     0    39     1    14
  9.1673263410979300E-01 a       585     0    39     1    15
 -1.0375919673343830E+00 a       586     0    40     1     1
  8.1303819644280173E-01 a       587     0    40     1     2
  6.0235591310491676E-01 a       588     0    40     1     3
  3.1410608286275499E-01 a       589     0    40     1     4
  1.6038121065524293E+00 a       590     0    40     1     5
  1.8384468292581149E+00 a       591     0    40     1     6
  4.1218774107498826E+00 a       592     0    40     1     7
  3.4892148802659467E-01 a       593     0    40     1     8
  7.6866350553617624E-01 a       594     0    40     1     9
  1.8569561913290993E+00 a       595     0    40     1    10
 -2.0664894305810833E-01 a       596     0    40     1    11
  1.3463694136897939E+00 a       597     0    40     1    12
 -9.2952711803564481E-01 a       598     0    40     1    13
 -5.4381585143511957E-01 a       599     0    40     1    14
 -9.1743589568971584E-01 a       600     0    40     1    15
 -1.5526519670585462E-01 a       601     0    41     1     1
 -1.2847265210547254E+00 a       602     0    41     1     2
  7.3478033358643377E-02 a       603     0    41     1     3
 -1.3143661151642352E+00 a       604     0    41     1     4
 -6.1697554683799949E-01 a       605     0    41     1     5
 -2.2388319443964513E-01 a       606     0    41     1     6
 -1.1611643172204116E+00 a       607     0    41     1     7
 -3.0742802507440512E+00 a       608     0    41     1     8
 -5.4626112742934385E-01 a       609     0    41     1     9
 -8.8255616147634797E-01 a       610     0    41     1    10
  3.3861198116686714E-01 a       611     0    41     1    11
  2.0544136049403716E-01 a       612     0    41     1    12
 -1.0041225484188157E+00 a       613     0    41     1    13
 -3.3404813884496509E-01 a       614     0    41     1    14
  8.5074121281868165E-01 a       615     0    41     1    15
 -1.8567542106778379E-01 a       616     0    42     1     1
 -5.8029099357423231E-01 a       617     0    42     1     2
  1.6185585630119725E+00 a       618     0    42     1     3
  1.0212137323909853E+00 a       619     0    42     1     4
 -3.9503583676601550E-01 a       620     0    42     1     5
  2.3679451328620176E+00 a       621     0    42     1     6
  7.9819406131394544E-02 a       622     0    42     1     7
  9.1858041847787085E-03 a       623     0    42     1     8
  5.0645302231362133E-01 a       624     0    42     1     9
  2.2592639512318704E+00 a       625     0    42     1    10
  9.5603663047832466E-01 a       626     0    42     1    11
  6.9739652342839598E-01 a       627     0    42     1    12
  8.7922426574912127E-01 a       628     0    42     1    13
  1.7636581423944981E+00 a       629     0    42     1    14
 -3.0952122233353180E-01 a       630     0    42     1    15
 -1.3261461886312911E+00 a       631     0    43     1     1
 -4.8606244678130789E-01 a       632     0    43     1     2
 -2.7388602164038289E-01 a       633     0    43     1     3
 -1.2258743117018960E+00 a       634     0    43     1     4
  9.9588879426594312E-01 a       635     0    43     1     5
 -6.3522837484920358E-01 a       636     0    43     1     6
 -5.1165266423661515E-01 a       637     0    43     1     7
 -8.7390527779634380E-02 a       638     0    43     1     8
 -1.3219805814331187E+00 a       639     0    43     1     9
  6.2516974509506418E-01 a       640     0    43     1    10
 -2.7577579676869479E-01 a       641     0    43     1    11
 -2.1908493431281614E-01 a       642     0    43     1    12
 -1.8276196903486377E+00 a       643     0    43     1    13
 -1.9445773425732098E+00 a       644     0    43     1    14
  7.4677167849064663E-01 a       645     0    43     1    15
 -1.0224431823571680E+00 a       646     0    44     1     1
  3.1892925943814832E+00 a       647     0    44     1     2
 -5.7796229593842885E-01 a       648     0    44     1     3
 -1.0469175703579490E+00 a       649     0    44     1     4
  1.9350570034059569E+00 a       650     0    44     1     5
 -3.7366240647917376E-01 a       651     0    44     1     6
  8.2890571924777579E-01 a       652     0    44     1     7
 -6.0277983366326493E-01 a       653     0    44     1     8
  1.3171542812086308E+00 a       654     0    44     1     9
  1.9750395840103652E+00 a       655     0    44     1    10
  2.2366437800525285E-01 a       656     0    44     1    11
  3.6127822740906457E-01 a       657     0    44     1    12
 -1.7633134507977397E+00 a       658     0    44     1    13
 -7.4951485204116108E-01 a       659     0    44     1    14
  8.4949706270253478E-01 a       660     0    44     1    15
  1.9899150754050454E-01 a       661     0    45     1     1
 -6.5586561992555859E-01 a       662     0    45     1     2
 -1.3918186404231656E+00 a       663     0    45     1     3
 -1.8523748643873195E+00 a       664     0    45     1     4
  1.0138446520603037E+00 a       665     0    45     1     5
 -1.4829405833624336E+00 a       666     0    45     1     6
  1.4529868708880529E+00 a       667     0    45     1     7
  8.7466795276110076E-01 a       668     0    45     1     8
  5.8679364480941476E-01 a       669     0    45     1     9
  9.9118617675389753E-01 a       670     0    45     1    10
 -6.0516034239584893E-01 a       671     0    45     1    11
  1.4016586172431205E+00 a       672     0    45     1    12
 -6.9350348503095893E-01 a       673     0    45     1    13
 -1.0752820393284159E+00 a       674     0    45     1    14
 -3.3236430156525132E-01 a       675     0    45     1    15
 -7.7112058816431750E-01 a       676     0    46     1     1
 -3.0454188761319401E-01 a       677     0    46     1     2
 -7.9135977201365915E-01 a       678     0    46     1     3
 -1.5940354787315614E-01 a       679     0    46     1     4
 -5.4745300833284327E-01 a       680     0    46     1     5
 -1.5185093129684577E+00 a       681     0    46     1     6
 -1.1829675644056294E+00 a       682     0    46     1     7
 -3.6017742322908008E-01 a       683     0    46     1     8
 -9.0681351073049909E-01 a       684     0    46     1     9
 -7.0958727032582569E-01 a       685     0    46     1    10
  6.1964839974662000E-01 a       686     0    46     1    11
  1.6054929150140129E-01 a       687     0    46     1    12
 -9.3018360587387083E-01 a       688     0    46     1    13
 -1.3321926759976852E+00 a       689     0    46     1    14
  5.8648100085834209E-01 a       690     0    46     1    15
 -1.7199406316003194E+00 a       691     0    47     1     1
  2.6504515177171872E+00 a       692     0    47     1     2
  1.2068111292493373E-01 a       693     0    47     1     3
  3.2305122150560173E-01 a       694     0    47     1     4
 -2.9641759388831596E-01 a       695     0    47     1     5
 -6.2525503470989441E-01 a       696     0    47     1     6
 -4.7463289736376330E-01 a       697     0    47     1     7
  7.8389657573729055E-01 a       698     0    47     1     8
  4.6256042996263907E-01 a       699     0    47     1     9
 -8.6973499712246916E-01 a       700     0    47     1    10
 -2.0090777151067690E-01 a       701     0    47     1    11
  1.6050633673156658E+00 a       702     0    47     1    12
  1.7014628366364720E-01 a       703     0    47     1    13
 -2.6340261128831903E+00 a       704     0    47     1    14
 -2.2667807058672755E+00 a       705     0    47     1    15
 -2.3108941646169071E-01 a       706     0    48     1     1
  1.2707722212260937E+00 a       707     0    48     1     2
  6.3363231250920415E-01 a       708     0    48     1     3
  3.4854464870987667E+00 a       709     0    48     1     4
 -2.3768360346259021E+00 a       710     0    48     1     5
 -1.8420825278514679E+00 a       711     0    48     1     6
  1.7198219057451591E+00 a       712     0    48     1     7
 -6.9354354040183264E-01 a       713     0    48     1     8
  8.7287556126664223E-01 a       714     0    48     1     9
  4.4369143951483725E-03 a       715     0    48     1    10
 -3.2100591345786929E+00 a       716     0    48     1    11
 -7.6703462000448572E-02 a       717     0    48     1    12
 -1.4215883281752260E+00 a       718     0    48     1    13
  1.2689640358379961E+00 a       719     0    48     1    14
  1.2785955673021980E+00 a       720     0    48     1    15
  2.2634695005449870E-01 a       721     0    49     1     1
 -2.7741419250126320E+00 a       722     0    49     1     2
 -1.9702416026365399E+00 a       723     0    49     1     3
  1.0788841674919775E-01 a       724     0    49     1     4
 -3.6121052946898452E-01 a       725     0    49     1     5
 -9.0219792302260793E-01 a       726     0    49     1     6
  1.3644808956856230E-01 a       727     0    49     1     7
 -9.3288499868848196E-01 a       728     0    49     1     8
  2.0444235585215580E+00 a       729     0    49     1     9
 -3.3346387341637933E+00 a       730     0    49     1    10
 -1.2542565141339961E+00 a       731     0    49     1    11
 -1.2022388692925645E+00 a       732     0    49     1    12
 -2.5866070995599261E-01 a       733     0    49     1    13
 -5.0955921334822796E-01 a       734     0    49     1    14
 -1.0981205823598905E+00 a       735     0    49     1    15
  9.1501461580578269E-01 a       736     0    50     1     1
 -7.3245347140741679E-01 a       737     0    50     1     2
  2.9542379922170692E-01 a       738     0    50     1     3
  1.2407853353149409E-01 a       739     0    50     1     4
 -6.2649173547008474E-01 a       740     0    50     1     5
 -3.5667626620118453E-01 a       741     0    50     1     6
  1.1953655260049441E+00 a       742     0    50     1     7
  1.6102668583908959E+00 a       743     0    50     1     8
  1.7534666048251211E+00 a       744     0    50     1     9
  1.3687133289599354E+00 a       745     0    50     1    10
 -2.4894619049750499E+00 a       746     0    50     1    11
  1.5843728317897314E+00 a       747     0    50     1    12
 -5.0708437075628787E-01 a       748     0    50     1    13
  1.8030988543631705E+00 a       749     0    50     1    14
 -3.1361922172349155E-01 a       750     0    50     1    15
 -1.5007322799032423E+00 a       751     0    51     1     1
  2.5479526026900587E+00 a       752     0    51     1     2
 -7.0854928775996129E-01 a       753     0    51     1     3
 -1.5232719345755155E-01 a       754     0    51     1     4
 -1.1879693384716532E+00 a       755     0    51     1     5
 -1.3283778811010711E+00 a       756     0    51     1     6
  3.7700507780311740E-02 a       757     0    51     1     7
 -6.2506164701473310E-01 a       758     0    51     1     8
 -1.1038627646587668E-01 a       759     0    51     1     9
 -4.8941950630157560E-01 a       760     0    51     1    10
 -1.0185901351350335E-01 a       761     0    51     1    11
 -2.7149233400106559E-01 a       762     0    51     1    12
 -2.4346740351649405E+00 a       763     0    51     1    13
  1.5865017174424861E-01 a       764     0    51     1    14
 -2.4526789774406019E+00 a       765     0    51     1    15
  9.6528674249486013E-01 a       766     0    52     1     1
  6.6485966399824115E-01 a       767     0    52     1     2
  4.2196436339168619E-01 a       768     0    52     1     3
  1.0402762441449197E-01 a       769     0    52     1     4
 -2.7880821819634933E+00 a       770     0    52     1     5
 -8.9130709101951935E-02 a       771     0    52     1     6
  8.0780475426909637E-01 a       772     0    52     1     7
 -6.8582042760480133E-02 a       773     0    52     1     8
  4.2476786536784161E-01 a       774     0    52     1     9
 -1.6036320931989811E+00 a       775     0    52     1    10
  1.5173167381965993E+00 a       776     0    52     1    11
  2.9144168381393193E-01 a       777     0    52     1    12
  1.1822738849010135E+00 a       778     0    52     1    13
  2.3991377598391783E-01 a       779     0    52     1    14
 -6.3262065637856879E-01 a       780     0    52     1    15
  5.9277432546245645E-01 a       781     0    53     1     1
  2.0786560809121677E+00 a       782     0    53     1     2
 -9.7302906236887254E-01 a       783     0    53     1     3
 -1.3193255528239936E+00 a       784     0    53     1     4
 -2.6868029608578287E-02 a       785     0    53     1     5
  6.9719075432525024E-01 a       786     0    53     1     6
  2.0385435432830712E+00 a       787     0    53     1     7
  1.1776058725532224E+00 a       788     0    53     1     8
  2.7707787035047069E+00 a       789     0    53     1     9
  7.2715277901703401E-02 a       790     0    53     1    10
  1.1960663771678737E+00 a       791     0    53     1    11
  3.7943383067785907E-01 a       792     0    53     1    12
  2.0529831729607650E-01 a       793     0    53     1    13
 -1.0561409350857389E+00 a       794     0    53     1    14
  1.0870111403893306E-02 a       795     0    53     1    15
  9.8544285821557487E-01 a       796     0    54     1     1
 -1.0088866864443644E+00 a       797     0    54     1     2
  1.9746923100332430E+00 a       798     0    54     1     3
  4.5852726695818575E-03 a       799     0    54     1     4
  1.0550306016069382E+00 a       800     0    54     1     5
  7.8488590101781319E-01 a       801     0    54     1     6
  2.4922868596866737E-01 a       802     0    54     1     7
  1.0309544690492585E+00 a       803     0    54     1     8
 -1.8622134748643431E+00 a       804     0    54     1     9
  3.2761739816023283E-01 a       805     0    54     1    10
  9.0572081594177889E-01 a       806     0    54     1    11
  8.3306394861440891E-01 a       807     0    54     1    12
  6.2170074947856935E-01 a       808     0    54     1    13
 -6.5258320188882091E-01 a       809     0    54     1    14
 -4.4095334133680864E-01 a       810     0    54     1    15
  8.1467406488360961E-01 a       811     0    55     1     1
 -3.5451672752355717E-01 a       812     0    55     1     2
  1.0132876620316096E+00 a       813     0    55     1     3
 -1.8813553218312848E+00 a       814     0    55     1     4
 -1.1311464989918185E+00 a       815     0    55     1     5
 -2.0312019051709922E+00 a       816     0    55     1     6
 -6.4793663054068085E-01 a       817     0    55     1     7
  3.9279375216866019E-01 a       818     0    55     1     8
 -1.1110394334987657E+00 a       819     0    55     1     9
  7.5800245468017546E-01 a       820     0    55     1    10
  6.2030610148694565E-01 a       821     0    55     1    11
 -5.0032390251718839E-01 a       822     0    55     1    12
 -1.4558039783405405E+00 a       823     0    55     1    13
 -9.7736634237450271E-03 a       824     0    55     1    14
 -1.3263218489470925E+00 a       825     0    55     1    15
 -7.9178981053382697E-02 a       826     0    56     1     1
 -1.9483588823615303E+00 a       827     0    56     1     2
  7.1834082170080682E-01 a       828     0    56     1     3
 -1.0701944196852844E+00 a       829     0    56     1     4
  7.1895460076874321E-02 a       830     0    56     1     5
  7.8400901481668328E-01 a       831     0    56     1     6
 -3.3798106112728032E-01 a       832     0    56     1     7
 -2.0881796102170536E-01 a       833     0    56     1     8
 -2.7439857058351821E-02 a       834     0    56     1     9
 -8.6147576230709622E-01 a       835     0    56     1    10
  1.1450435559763947E+00 a       836     0    56     1    11
 -3.4121520307161896E-01 a       837     0    56     1    12
  1.9699688552802956E+00 a       838     0    56     1    13
  1.0407339959007660E+00 a       839     0    56     1    14
  1.9204667839124365E-01 a       840     0    56     1    15
  1.2221795820036756E+00 a       841     0    57     1     1
  5.3547710754201339E-01 a       842     0    57     1     2
 -8.4587267545659461E-01 a       843     0    57     1     3
 -2.3027821330317386E+00 a       844     0    57     1     4
 -6.9470864152311063E-01 a       845     0    57     1     5
 -3.1532789170673409E-01 a       846     0    57     1     6
  2.1231339820550996E-01 a       847     0    57     1     7
  7.6315413124889320E-01 a       848     0    57     1     8
 -7.2380429686166103E-01 a       849     0    57     1     9
  6.2490902213084809E-01 a       850     0    57     1    10
 -3.4242289616423416E-01 a       851     0    57     1    11
  1.2521432208484797E+00 a       852     0    57     1    12
  1.2875054629991226E-01 a       853     0    57     1    13
  5.6319477243646394E-02 a       854     0    57     1    14
  8.9957636245912875E-01 a       855     0    57     1    15
  2.4992507756738398E+00 a       856     0    58     1     1
  8.4042622726035410E-02 a       857     0    58     1     2
 -1.4190699798639101E+00 a       858     0    58     1     3
  3.6255238246826238E+00 a       859     0    58     1     4
 -9.2720065980759780E-01 a       860     0    58     1     5
 -8.0706368224425129E-01 a       861     0    58     1     6
  6.4066023993416088E-01 a       862     0    58     1     7
  3.3833540000565165E-01 a       863     0    58     1     8
 -3.9478672691379835E-01 a       864     0    58     1     9
 -7.2078726219505396E-01 a       865     0    58     1    10
 -4.2428996373274769E-01 a       866     0    58     1    11
  9.8772722612125691E-02 a       867     0    58     1    12
  1.1231327064342846E+00 a       868     0    58     1    13
 -1.0180996109944545E+00 a       869     0    58     1    14
  5.9245383071198920E-01 a       870     0    58     1    15
  1.9774932082434915E-01 a       871     0    59     1     1
 -1.2138091670945097E+00 a       872     0    59     1     2
  2.1386476972695698E+00 a       873     0    59     1     3
 -1.2199487218083593E+00 a       874     0    59     1     4
 -7.4157103117454104E-01 a       875     0    59     1     5
 -1.1338962926690737E+00 a       876     0    59     1     6
  1.1030532973523127E-01 a       877     0    59     1     7
  1.3034395509928298E+00 a       878     0    59     1     8
 -7.6106142846144187E-01 a       879     0    59     1     9
 -2.1800058064157166E-01 a       880     0    59     1    10
 -7.7728939814225484E-01 a       881     0    59     1    11
 -1.4182402355739254E-01 a       882     0    59     1    12
 -5.2258994404963555E-01 a       883     0    59     1    13
  6.0703551866009120E-01 a       884     0    59     1    14
  6.8950337912256987E-01 a       885     0    59     1    15
  1.6632215866225519E+00 a       886     0    60     1     1
  1.6206054971356801E-01 a       887     0    60     1     2
 -6.3637352912176509E-02 a       888     0    60     1     3
  1.3707089282874858E+00 a       889     0    60     1     4
 -1.0346238592235752E+00 a       890     0    60     1     5
 -8.8778880882590172E-01 a       891     0    60     1     6
  2.4367219307004730E-02 a       892     0    60     1     7
 -1.0931741369920267E+00 a       893     0    60     1     8
 -1.3293347451164536E-01 a       894     0    60     1     9
 -2.2278736386663850E-01 a       895     0    60     1    10
 -4.9621439731006822E-01 a       896     0    60     1    11
 -1.0272741645100314E+00 a       897     0    60     1    12
  2.3398775365285007E-02 a       898     0    60     1    13
 -7.1591715596783423E-01 a       899     0    60     1    14
 -1.0104215590237631E+00 a       900     0    60     1    15
 -1.3974483008958669E-01 a       901     0    61     1     1
  1.7016004607182995E+00 a       902     0    61     1     2
  2.0175848359559074E+00 a       903     0    61     1     3
  6.1979815660458459E-01 a       904     0    61     1     4
 -6.0917009183113002E-01 a       905     0    61     1     5
  6.8261079170733463E-01 a       906     0    61     1     6
 -2.8117731411671909E-01 a       907     0    61     1     7
 -7.9802036089221473E-01 a       908     0    61     1     8
 -3.5074048881400588E-01 a       909     0    61     1     9
 -7.6749511144722526E-01 a       910     0    61     1    10
  1.5100677973533543E+00 a       911     0    61     1    11
  1.5241816238897249E-01 a       912     0    61     1    12
 -5.3850541336918623E-01 a       913     0    61     1    13
  3.3522312224058076E-01 a       914     0    61     1    14
 -1.0194944532379326E+00 a       915     0    61     1    15
 -1.8166125228642092E+00 a       916     0    62     1     1
 -1.7298473263251424E+00 a       917     0    62     1     2
 -1.2684933994915160E+00 a       918     0    62     1     3
 -1.2518159841756802E+00 a       919     0    62     1     4
  1.6295015258160832E+00 a       920     0    62     1     5
 -2.4770961368447475E+00 a       921     0    62     1     6
  9.2316817027712383E-02 a       922     0    62     1     7
 -8.9060284910566212E-01 a       923     0    62     1     8
 -1.2720889370114787E+00 a       924     0    62     1     9
 -1.1191392689102257E+00 a       925     0    62     1    10
 -1.3188147713191274E+00 a       926     0    62     1    11
 -1.8312685588285982E+00 a       927     0    62     1    12
 -7.0629125716404739E-01 a       928     0    62     1    13
 -2.0941082440167356E+00 a       929     0    62     1    14
  5.2336014771601691E-01 a       930     0    62     1    15
 -1.3905561697598812E-01 a       931     0    63     1     1
  5.2897824711862274E-01 a       932     0    63     1     2
  3.8144801587115991E+00 a       933     0    63     1     3
  1.5872686090189605E+00 a       934     0    63     1     4
 -1.1639294158422218E+00 a       935     0    63     1     5
  1.8256805318554969E+00 a       936     0    63     1     6
  5.3876142275900019E-01 a       937     0    63     1     7
  9.8212673731269540E-01 a       938     0    63     1     8
 -4.1441564034091716E-01 a       939     0    63     1     9
 -3.1680997504610180E+00 a       940     0    63     1    10
  7.6118192245566307E-01 a       941     0    63     1    11
  1.6754905313378692E+00 a       942     0    63     1    12
 -7.9885785482873384E-01 a       943     0    63     1    13
  1.2150485559453410E+00 a       944     0    63     1    14
  5.8534130996966116E-01 a       945     0    63     1    15
  1.0114407082841630E+00 a       946     0    64     1     1
  1.6019610311200032E+00 a       947     0    64     1     2
  1.4311489525847454E+00 a       948     0    64     1     3
  8.4400037633780331E-02 a       949     0    64     1     4
 -2.2519268300358844E-01 a       950     0    64     1     5
 -1.7508592497807638E+00 a       951     0    64     1     6
 -7.9588135803607973E-01 a       952     0    64     1     7
 -1.2160385939535527E+00 a       953     0    64     1     8
  1.4860592879411519E-01 a       954     0    64     1     9
 -8.4314525221988540E-02 a       955     0    64     1    10
 -1.5207685051437649E+00 a       956     0    64     1    11
 -8.4764454147004020E-01 a       957     0    64     1    12
  1.4158821740973571E+00 a       958     0    64     1    13
  4.5591346978168806E-01 a       959     0    64     1    14
  7.4875087625395997E-01 a       960     0    64     1    15
  7.8279646038087888E-02 a       961     0    65     1     1
  4.0416159641047097E-02 a       962     0    65     1     2
 -1.2221231491932885E+00 a       963     0    65     1     3
  1.9209272740165086E+00 a       964     0    65     1     4
 -8.5427156888896350E-01 a       965     0    65     1     5
 -2.3077134522977288E-01 a       966     0    65     1     6
 -1.0515335612966734E+00 a       967     0    65     1     7
  4.1428589884410322E-01 a       968     0    65     1     8
 -6.1608827073993556E-03 a       969     0    65     1     9
  3.7687793950098120E-01 a       970     0    65     1    10
  4.6057419491904922E-01 a       971     0    65     1    11
  5.3986422982419269E-01 a       972     0    65     1    12
 -2.7120988058536571E-01 a       973     0    65     1    13
  5.4690769919821436E-01 a       974     0    65     1    14
  7.9596568028881276E-01 a       975     0    65     1    15
  7.8263786069167463E-01 a       976     0    66     1     1
  2.5589800711014230E+00 a       977     0    66     1     2
  8.8210699582678442E-01 a       978     0    66     1     3
  3.7792944531888080E+00 a       979     0    66     1     4
  4.5736102899992227E-02 a       980     0    66     1     5
 -4.1859437354375757E+00 a       981     0    66     1     6
  1.9502464781102518E+00 a       982     0    66     1     7
  2.4417490099885458E-01 a       983     0    66     1     8
 -4.0856160520797158E-02 a       984     0    66     1     9
  1.0005561756716554E+00 a       985     0    66     1    10
 -1.6452328194210688E+00 a       986     0    66     1    11
 -1.4694593921170998E-01 a       987     0    66     1    12
 -1.5660648482798656E+00 a       988     0    66     1    13
 -8.2917913180884284E-01 a       989     0    66     1    14
  1.5485044594140280E+00 a       990     0    66     1    15
 -1.7619933792299872E-01 a       991     0    67     1     1
 -1.4432681266380443E+00 a       992     0    67     1     2
 -9.6220495771453612E-02 a       993     0    67     1     3
 -3.2017367196724602E+00 a       994     0    67     1     4
 -2.1275236916280121E-01 a       995     0    67     1     5
 -4.2916976239526211E-01 a       996     0    67     1     6
 -2.8624203975428714E-01 a       997     0    67     1     7
  6.4048260079017405E-01 a       998     0    67     1     8
 -1.1590395089862433E+00 a       999     0    67     1     9
  9.0101109077816377E-01 a      1000     0    67     1    10
  1.7592967761938025E+00 a      1001     0    67     1    11
  8.4604075532824197E-01 a      1002     0    67     1    12
 -6.5756642033747659E-01 a      1003     0    67     1    13
 -4.9832819775799342E-01 a      1004     0    67     1    14
 -6.9825810457893489E-01 a      1005     0    67     1    15
 -3.0751557314473543E-01 a      1006     0    68     1     1
 -2.6947151871809272E-01 a      1007     0    68     1     2
  1.0725815430052574E+00 a      1008     0    68     1     3
 -1.6100819307678740E+00 a      1009     0    68     1     4
  1.6215427045955972E+00 a      1010     0    68     1     5
  2.4319337985334938E-01 a      1011     0    68     1     6
 -1.6949393252937155E+00 a      1012     0    68     1     7
  1.5930459812241355E+00 a      1013     0    68     1     8
  1.1777058498120845E+00 a      1014     0    68     1     9
  9.7724466539905380E-02 a      1015     0    68     1    10
  3.7796502066647297E-01 a      1016     0    68     1    11
  1.5615757671666346E+00 a      1017     0    68     1    12
  5.5178378399470351E-01 a      1018     0    68     1    13
  8.0024498503166841E-01 a      1019     0    68     1    14
 -1.4116876864798962E+00 a      1020     0    68     1    15
  1.2169243754926142E+00 a      1021     0    69     1     1
  1.5853301578933081E+00 a      1022     0    69     1     2
 -4.3950317956602092E-01 a      1023     0    69     1     3
 -3.7078958265086182E+00 a      1024     0    69     1     4
 -1.6337418397490666E+00 a      1025     0    69     1     5
  3.5378753254549741E-02 a      1026     0    69     1     6
 -6.0456730528662239E-01 a      1027     0    69     1     7
 -3.9427906847957600E-01 a      1028     0    69     1     8
 -8.0703025325879207E-01 a      1029     0    69     1     9
 -8.1981000639289736E-01 a      1030     0    69     1    10
 -1.7015985785121392E+00 a      1031     0    69     1    11
  2.3947650717592214E-01 a      1032     0    69     1    12
  9.9208878881238061E-01 a      1033     0    69     1    13
  2.7469823863827969E-01 a      1034     0    69     1    14
  1.3981711128336933E+00 a      1035     0    69     1    15
  2.8764998131722042E+00 a      1036     0    70     1     1
  2.3973583347731464E-01 a      1037     0    70     1     2
 -7.2913817065109288E-01 a      1038     0    70     1     3
  3.1513006405906814E+00 a      1039     0    70     1     4
 -1.2843230556265850E-01 a      1040     0    70     1     5
 -4.9786500921945143E-01 a      1041     0    70     1     6
 -3.8111789495576703E-01 a      1042     0    70     1     7
  1.2054198211104368E+00 a      1043     0    70     1     8
 -2.1070994522542077E-01 a      1044     0    70     1     9
  2.4140484884006698E-02 a      1045     0    70     1    10
  2.2942196379137156E-01 a      1046     0    70     1    11
 -3.7329741755253742E-01 a      1047     0    70     1    12
  1.6097674038328920E+00 a      1048     0    70     1    13
 -8.9484431196935416E-02 a      1049     0    70     1    14
  1.3073776794589231E-01 a      1050     0    70     1    15
 -1.0040782395292718E+00 a      1051     0    71     1     1
 -2.8078483003504295E-01 a      1052     0    71     1     2
  1.9065717972824179E+00 a      1053     0    71     1     3
 -1.2766504328597046E+00 a      1054     0    71     1     4
 -1.7169379944477488E-02 a      1055     0    71     1     5
 -1.1902197537951402E+00 a      1056     0    71     1     6
 -5.6927330996448311E-01 a      1057     0    71     1     7
  9.1378526134636362E-01 a      1058     0    71     1     8
 -9.6872940049803791E-01 a      1059     0    71     1     9
 -1.4344365652458904E+00 a      1060     0    71     1    10
 -2.4303200914541356E-01 a      1061     0    71     1    11
  4.5729291372850800E-01 a      1062     0    71     1    12
 -3.1667736971148536E-01 a      1063     0    71     1    13
 -7.1147501033695881E-01 a      1064     0    71     1    14
  9.1426449319429656E-03 a      1065     0    71     1    15
  1.6394900569658668E+00 a      1066     0    72     1     1
 -7.0803678800745659E-02 a      1067     0    72     1     2
 -1.5804941651479008E+00 a      1068     0    72     1     3
  1.5876846212160365E+00 a      1069     0    72     1     4
  5.1762160459571410E-02 a      1070     0    72     1     5
 -4.0362189928650805E-01 a      1071     0    72     1     6
  8.2535980077689608E-01 a      1072     0    72     1     7
 -1.1931325496178820E+00 a      1073     0    72     1     8
  1.1289406008679162E-01 a      1074     0    72     1     9
  5.9641243248368681E-01 a      1075     0    72     1    10
  1.3996119398730560E+00 a      1076     0    72     1    11
 -1.0168144559735184E+00 a      1077     0    72     1    12
  9.4659031357754742E-01 a      1078     0    72     1    13
 -9.6512516511650270E-01 a      1079     0    72     1    14
 -1.1578755401887995E+00 a      1080     0    72     1    15
 -2.5514635759464971E-01 a      1081     0    73     1     1
  7.5849736575837023E-01 a      1082     0    73     1     2
  1.2421234239828514E+00 a      1083     0    73     1     3
 -7.7333872216312305E-01 a      1084     0    73     1     4
 -2.9236339965075442E-01 a      1085     0    73     1     5
  8.5940680766232014E-01 a      1086     0    73     1     6
 -1.8205666823278177E+00 a      1087     0    73     1     7
 -2.5927811628086816E-01 a      1088     0    73     1     8
  1.0551253592035040E-01 a      1089     0    73     1     9
  1.2019762408001171E+00 a      1090     0    73     1    10
  9.0538907061687812E-01 a      1091     0    73     1    11
  1.0498507913178066E+00 a      1092     0    73     1    12
 -1.5780450434969415E+00 a      1093     0    73     1    13
 -1.8560641002927100E-01 a      1094     0    73     1    14
 -1.3926516015565698E+00 a      1095     0    73     1    15
 -3.2354449555971425E+00 a      1096     0    74     1     1
 -1.5439107373047918E+00 a      1097     0    74     1     2
 -1.1796963246222818E+00 a      1098     0    74     1     3
 -1.7930792851997635E+00 a      1099     0    74     1     4
  6.5794141757039581E-01 a      1100     0    74     1     5
 -1.0852658671494173E+00 a      1101     0    74     1     6
  2.5257768416844129E-01 a      1102     0    74     1     7
 -4.5187821643840337E-01 a      1103     0    74     1     8
 -1.3791843889438680E+00 a      1104     0    74     1     9
 -1.3447785672397679E+00 a      1105     0    74     1    10
  3.3157041359577821E-01 a      1106     0    74     1    11
 -1.3572708183200595E+00 a      1107     0    74     1    12
 -4.6474680573074523E-01 a      1108     0    74     1    13
 -1.2408347337725214E+00 a      1109     0    74     1    14
  8.1355598113901229E-01 a      1110     0    74     1    15
 -1.0073582384672670E+00 a      1111     0    75     1     1
  1.4324552521103266E+00 a      1112     0    75     1     2
  1.8099900127394588E+00 a      1113     0    75     1     3
 -3.7795559374302590E+00 a      1114     0    75     1     4
 -4.1831575025948808E-01 a      1115     0    75     1     5
  9.8826899991371797E-01 a      1116     0    75     1     6
  5.6649325908577008E-01 a      1117     0    75     1     7
  9.0722084846553153E-01 a      1118     0    75     1     8
  8.3606894589398606E-01 a      1119     0    75     1     9
 -2.0725542588329504E+00 a      1120     0    75     1    10
 -2.2339696217402569E-01 a      1121     0    75     1    11
  1.8694316678422993E+00 a      1122     0    75     1    12
 -5.4055177788058151E-01 a      1123     0    75     1    13
  6.4779648975648463E-01 a      1124     0    75     1    14
  1.7878070266596755E+00 a      1125     0    75     1    15
  8.5344028691918183E-01 a      1126     0    76     1     1
  1.0539863991738403E+00 a      1127     0    76     1     2
  1.2564221441215724E+00 a      1128     0    76     1     3
 -9.3028000110154674E-01 a      1129     0    76     1     4
  7.1861930271556562E-01 a      1130     0    76     1     5
 -1.4167593236119316E+00 a      1131     0    76     1     6
 -1.3924678160942955E-01 a      1132     0    76     1     7
 -3.6861702740814661E-01 a      1133     0    76     1     8
  6.5707130027081728E-01 a      1134     0    76     1     9
 -1.1896044312725100E+00 a      1135     0    76     1    10
 -3.3082950018939183E-01 a      1136     0    76     1    11
 -2.9828969837886410E-02 a      1137     0    76     1    12
  2.6178139759847119E-01 a      1138     0    76     1    13
  1.0634847333303268E+00 a      1139     0    76     1    14
 -4.7801097043680529E-01 a      1140     0    76     1    15
 -1.7538342625252727E+00 a      1141     0    77     1     1
 -1.2068817278424777E+00 a      1142     0    77     1     2
 -5.2814932601373932E-01 a      1143     0    77     1     3
  7.4162769462778999E-01 a      1144     0    77     1     4
 -1.9167411445508467E-01 a      1145     0    77     1     5
  1.0900240581523013E+00 a      1146     0    77     1     6
 -1.4044754622208948E+00 a      1147     0    77     1     7
  9.2728935458427830E-01 a      1148     0    77     1     8
  1.2185440090528350E+00 a      1149     0    77     1     9
  4.4327871567609384E-01 a      1150     0    77     1    10
  7.0666213950608320E-02 a      1151     0    77     1    11
 -3.5653266386205124E-01 a      1152     0    77     1    12
 -7.1057968477373334E-01 a      1153     0    77     1    13
  9.8011427601178036E-01 a      1154     0    77     1    14
  3.9214823630084067E-01 a      1155     0    77     1    15
  1.3911244504769571E+00 a      1156     0    78     1     1
  1.0168956951851644E+00 a      1157     0    78     1     2
 -2.3321646794479678E+00 a      1158     0    78     1     3
  2.2351155919424133E+00 a      1159     0    78     1     4
 -2.1854497858049263E-01 a      1160     0    78     1     5
 -2.4167627797784363E+00 a      1161     0    78     1     6
  1.4904103282811751E+00 a      1162     0    78     1     7
 -1.0272982873670993E+00 a      1163     0    78     1     8
 -7.9980954538417914E-02 a      1164     0    78     1     9
  1.4903035520013030E+00 a      1165     0    78     1    10
  3.8901549538898084E-01 a      1166     0    78     1    11
 -4.6281389391245747E-01 a      1167     0    78     1    12
 -2.3636303367188609E+00 a      1168     0    78     1    13
 -2.9566470892333357E-01 a      1169     0    78     1    14
  6.1556263695230062E-01 a      1170     0    78     1    15
 -6.2496705986207479E-01 a      1171     0    79     1     1
 -2.1124491921011570E+00 a      1172     0    79     1     2
  2.4095334168142946E-01 a      1173     0    79     1     3
 -3.0212138201232364E+00 a      1174     0    79     1     4
  4.5787881496992611E-01 a      1175     0    79     1     5
 -2.8852223670273882E+00 a      1176     0    79     1     6
 -9.3400645604869909E-02 a      1177     0    79     1     7
  4.6816379412742415E-01 a      1178     0    79     1     8
 -1.7118991607248437E+00 a      1179     0    79     1     9
  1.2425402147196871E+00 a      1180     0    79     1    10
  6.2861229139978425E-01 a      1181     0    79     1    11
  1.4998067192677256E+00 a      1182     0    79     1    12
 -4.2005462307049362E+00 a      1183     0    79     1    13
  1.6540809251842337E+00 a      1184     0    79     1    14
 -2.5992021875800891E-01 a      1185     0    79     1    15
 -2.9757794571954099E-01 a      1186     0    80     1     1
  2.4921399377890743E-02 a      1187     0    80     1     2
  1.5637747313114532E+00 a      1188     0    80     1     3
 -2.3689172714506032E-01 a      1189     0    80     1     4
  5.1842444703020810E-02 a      1190     0    80     1     5
  5.4028653926204084E-01 a      1191     0    80     1     6
 -8.0089681058253004E-01 a      1192     0    80     1     7
  2.2700238448407588E+00 a      1193     0    80     1     8
  1.0027335208911035E+00 a      1194     0    80     1     9
  5.5249556935712141E-01 a      1195     0    80     1    10
  2.6784440275966683E+00 a      1196     0    80     1    11
  1.8124085814629385E+00 a      1197     0    80     1    12
  1.7218798418123189E+00 a      1198     0    80     1    13
  1.2595331173372064E+00 a      1199     0    80     1    14
 -1.5390936978898495E-01 a      1200     0    80     1    15
 -7.7974752333594566E-01 a      1201     0    81     1     1
  1.5670324781239648E+00 a      1202     0    81     1     2
 -1.7514172392796263E+00 a      1203     0    81     1     3
 -9.1523875739114924E-01 a      1204     0    81     1     4
 -1.8207519554133389E-01 a      1205     0    81     1     5
 -9.4098553024675524E-01 a      1206     0    81     1     6
 -1.6493730820335187E-02 a      1207     0    81     1     7
  1.0258857988326554E-01 a      1208     0    81     1     8
 -2.8873759536882884E+00 a      1209     0    81     1     9
  9.8291841433802773E-01 a      1210     0    81     1    10
 -3.0158836041380710E-01 a      1211     0    81     1    11
  2.9994896728856006E+00 a      1212     0    81     1    12
  2.9770229056185327E-01 a      1213     0    81     1    13
  1.4499266545397311E+00 a      1214     0    81     1    14
  2.6010197609317842E+00 a      1215     0    81     1    15
  2.1200666220459302E-01 a      1216     0    82     1     1
 -1.7831936043093095E+00 a      1217     0    82     1     2
 -1.0490213868554612E+00 a      1218     0    82     1     3
  1.6134744588279404E+00 a      1219     0    82     1     4
  1.0266825468746923E+00 a      1220     0    82     1     5
 -6.5288404378824105E-01 a      1221     0    82     1     6
  1.1454977560061965E+00 a      1222     0    82     1     7
  1.2807928864306506E+00 a      1223     0    82     1     8
  2.9392306702919097E-01 a      1224     0    82     1     9
 -1.9338122328178164E-01 a      1225     0    82     1    10
  7.1761486458967449E-01 a      1226     0    82     1    11
 -8.8825881909530247E-01 a      1227     0    82     1    12
 -2.5885104510104826E+00 a      1228     0    82     1    13
  3.4316277570246162E-01 a      1229     0    82     1    14
  6.1815169991011576E-01 a      1230     0    82     1    15
 -1.1000326281401467E-01 a      1231     0    83     1     1
 -1.0620144047972107E+00 a      1232     0    83     1     2
  3.4366366135941806E-01 a      1233     0    83     1     3
  2.0078558644894033E+00 a      1234     0    83     1     4
  2.7627542218828887E+00 a      1235     0    83     1     5
 -1.5000697897314508E+00 a      1236     0    83     1     6
 -9.9134097644093222E-01 a      1237     0    83     1     7
 -1.6189962966014049E-01 a      1238     0    83     1     8
 -2.6289917057687373E-01 a      1239     0    83     1     9
 -9.3831916299721707E-01 a      1240     0    83     1    10
  6.5667124390455667E-01 a      1241     0    83     1    11
 -1.1983937218651266E+00 a      1242     0    83     1    12
 -8.7475467569033172E-01 a      1243     0    83     1    13
  1.1804832734468531E+00 a      1244     0    83     1    14
  2.7379387106696551E-01 a      1245     0    83     1    15
  2.9634851888659386E-01 a      1246     0    84     1     1
 -1.8687358457730625E+00 a      1247     0    84     1     2
 -4.4458196061459615E-01 a      1248     0    84     1     3
  3.0791273559122163E+00 a      1249     0    84     1     4
  1.6616087473479318E-01 a      1250     0    84     1     5
  3.3899386449205204E-01 a      1251     0    84     1     6
  2.4888277136215065E-01 a      1252     0    84     1     7
  8.3720413091692936E-01 a      1253     0    84     1     8
  1.2546059118833115E+00 a      1254     0    84     1     9
  1.3977310879381557E+00 a      1255     0    84     1    10
  1.3484362026554022E+00 a      1256     0    84     1    11
  6.1581668962972458E-01 a      1257     0    84     1    12
  1.2259741710377630E+00 a      1258     0    84     1    13
  1.2229978047779899E+00 a      1259     0    84     1    14
 -4.7842894013995163E-01 a      1260     0    84     1    15
  9.9498456148928438E-02 a      1261     0    85     1     1
  6.0689668175884413E-02 a      1262     0    85     1     2
 -6.1462434076606676E-01 a      1263     0    85     1     3
  2.6721079292792029E+00 a      1264     0    85     1     4
  1.0007837167963476E+00 a      1265     0    85     1     5
  8.1441276143997299E-01 a      1266     0    85     1     6
  2.8581108675880151E+00 a      1267     0    85     1     7
 -8.3620713938140001E-01 a      1268     0    85     1     8
 -1.6305474297950622E+00 a      1269     0    85     1     9
  2.6146133996272232E+00 a      1270     0    85     1    10
 -1.3070479709181260E+00 a      1271     0    85     1    11
  1.4796735500780516E+00 a      1272     0    85     1    12
  2.7325721529326619E+00 a      1273     0    85     1    13
  4.5638572118968684E-02 a      1274     0    85     1    14
 -2.4432522195730275E+00 a      1275     0    85     1    15
  1.7299592689828729E+00 a      1276     0    86     1     1
  1.7132925479318015E+00 a      1277     0    86     1     2
  5.5802381536971080E-01 a      1278     0    86     1     3
 -5.6133616657657248E-01 a      1279     0    86     1     4
 -4.3395589568735602E+00 a      1280     0    86     1     5
  1.7256600760618848E+00 a      1281     0    86     1     6
  9.9715333511986826E-01 a      1282     0    86     1     7
 -5.7042406441016213E-01 a      1283     0    86     1     8
  2.3120443149986207E+00 a      1284     0    86     1     9
 -1.5271937210328124E+00 a      1285     0    86     1    10
  3.1369641054823743E+00 a      1286     0    86     1    11
  2.6369123980415787E-01 a      1287     0    86     1    12
  3.7423318416667315E+00 a      1288     0    86     1    13
 -7.2380207160075249E-01 a      1289     0    86     1    14
  8.0434853331176226E-01 a      1290     0    86     1    15
  2.1605923450351114E+00 a      1291     0    87     1     1
  7.2632342674264183E-01 a      1292     0    87     1     2
 -1.9590126851945830E+00 a      1293     0    87     1     3
  2.4604736746465767E+00 a      1294     0    87     1     4
  2.1319916970378392E+00 a      1295     0    87     1     5
 -2.4031642714224222E+00 a      1296     0    87     1     6
 -9.1494943261746886E-01 a      1297     0    87     1     7
 -1.8395180248968168E+00 a      1298     0    87     1     8
 -3.5177580397288750E+00 a      1299     0    87     1     9
 -4.5248368287210189E-01 a      1300     0    87     1    10
 -5.2634084301613038E-01 a      1301     0    87     1    11
 -1.6158603813121901E+00 a      1302     0    87     1    12
  4.6336407907673105E-01 a      1303     0    87     1    13
  4.6064954217960263E-01 a      1304     0    87     1    14
 -1.6601576935752080E+00 a      1305     0    87     1    15
 -2.7985304808586403E-01 a      1306     0    88     1     1
  1.3245115336295465E-01 a      1307     0    88     1     2
 -1.2699087338278146E+00 a      1308     0    88     1     3
  5.2980873060594025E-01 a      1309     0    88     1     4
  9.2034089392030760E-01 a      1310     0    88     1     5
  8.4977500132855899E-01 a      1311     0    88     1     6
 -1.0313210075722932E+00 a      1312     0    88     1     7
 -1.3057673999124675E+00 a      1313     0    88     1     8
  1.0084575041832995E+00 a      1314     0    88     1     9
 -7.1421837476004735E-01 a      1315     0    88     1    10
  6.9710738398900496E-01 a      1316     0    88     1    11
 -1.2041535648068105E+00 a      1317     0    88     1    12
  1.5557824571411485E+00 a      1318     0    88     1    13
 -1.2527973745827564E-01 a      1319     0    88     1    14
 -2.8840509453496010E-01 a      1320     0    88     1    15
  2.0076585199452954E+00 a      1321     0    89     1     1
 -3.0892188111286467E-01 a      1322     0    89     1     2
  2.1282253935810738E-01 a      1323     0    89     1     3
  9.8691634380850946E-01 a      1324     0    89     1     4
 -2.1730125273936499E-01 a      1325     0    89     1     5
  2.8422046458311206E-01 a      1326     0    89     1     6
 -1.2530011448858962E+00 a      1327     0    89     1     7
 -6.6801509959484348E-02 a      1328     0    89     1     8
  4.3395962729817444E-01 a      1329     0    89     1     9
  2.2494702342998257E-01 a      1330     0    89     1    10
  1.5706665570867926E+00 a      1331     0    89     1    11
 -2.7068573780524927E+00 a      1332     0    89     1    12
 -8.5494249549217671E-01 a      1333     0    89     1    13
  2.2352345869147210E+00 a      1334     0    89     1    14
 -8.8161999862330587E-01 a      1335     0    89     1    15
 -2.5118543759595618E-01 a      1336     0    90     1     1
  1.1422931919154591E+00 a      1337     0    90     1     2
 -3.9994420893748175E+00 a      1338     0    90     1     3
 -3.0681927946763561E+00 a      1339     0    90     1     4
  2.2060408126747437E+00 a      1340     0    90     1     5
  1.4205814319653305E+00 a      1341     0    90     1     6
 -8.4696593664779274E-01 a      1342     0    90     1     7
 -1.2782875611303510E+00 a      1343     0    90     1     8
 -9.3084235753996247E-01 a      1344     0    90     1     9
 -6.3233722099358958E-01 a      1345     0    90     1    10
  2.2583771094464939E+00 a      1346     0    90     1    11
 -1.2366062465376793E+00 a      1347     0    90     1    12
  3.4950662435001068E-01 a      1348     0    90     1    13
  1.0262319485587261E+00 a      1349     0    90     1    14
 -2.7982670733528292E+00 a      1350     0    90     1    15
 -2.6482784678675381E-01 b      1351     1     1
 -2.0438724284562761E+00 b      1352     1     2
 -4.1214631028564691E-01 b      1353     1     3
  1.6521197895391531E+00 b      1354     1     4
 -1.4193615326977413E-01 b      1355     1     5
  1.7120968295855984E-01 b      1356     1     6
 -5.3677322458451049E-01 b      1357     1     7
 -1.6476646883609902E-01 b      1358     1     8
 -8.1015282329322080E-01 b      1359     1     9
  3.3713872947768286E-01 b      1360     1    10
  3.6921828092764258E-01 b      1361     1    11
  6.1273459221463533E-01 b      1362     1    12
  7.6773701770716885E-01 b      1363     1    13
 -7.3823619909413307E-01 b      1364     1    14
  4.9413082231279513E-02 b      1365     1    15
 -9.4465745346404131E-02 a      1366     1     1     2     1
 -2.1806102620812933E+00 a      1367     1     1     2     2
  5.1268899599028206E-01 a      1368     1     1     2     3
  7.1621338154367808E-01 a      1369     1     1     2     4
  6.2946234963939662E-01 a      1370     1     1     2     5
 -9.3285664739065177E-01 a      1371     1     1     2     6
 -2.6627785199202619E-01 a      1372     1     1     2     7
 -2.9220355658650154E-01 a      1373     1     1     2     8
 -9.2037984396122219E-01 a      1374     1     1     2     9
  4.7393198860496027E-01 a      1375     1     1     2    10
 -8.8700006721221880E-01 a      1376     1     1     2    11
 -8.2997006384441319E-01 a      1377     1     1     2    12
  8.9885490348968011E-01 a      1378     1     1     2    13
 -9.7045696868962317E-01 a      1379     1     1     2    14
  7.0804505840338527E-01 a      1380     1     1     2    15
  5.1394729943700874E-02 a      1381     1     2     2     1
  7.9252154976786199E-02 a      1382     1     2     2     2
 -1.6156848787697502E+00 a      1383     1     2     2     3
  1.7471629081208573E+00 a      1384     1     2     2     4
  2.1600508244358776E-01 a      1385     1     2     2     5
 -6.6903021486927905E-01 a      1386     1     2     2     6
  1.2585032280112558E+00 a      1387     1     2     2     7
  4.1531180647163002E-01 a      1388     1     2     2     8
  1.1480752947322026E-01 a      1389     1     2     2     9
  1.3587728575707101E+00 a      1390     1     2     2    10
  1.0850623248892668E+00 a      1391     1     2     2    11
  6.2298987399638118E-03 a      1392     1     2     2    12
  3.9299560474098205E-01 a      1393     1     2     2    13
 -1.9120149928317817E-01 a      1394     1     2     2    14
  5.3201179202125393E-01 a      1395     1     2     2    15
 -3.5674541530293188E-02 a      1396     1     3     2     1
 -7.4785072389036900E-01 a      1397     1     3     2     2
 -7.2903457661561566E-01 a      1398     1     3     2     3
  1.0914525325802031E+00 a      1399     1     3     2     4
 -9.6997074525689564E-02 a      1400     1     3     2     5
  9.4660898266020851E-02 a      1401     1     3     2     6
  9.5494980110714656E-01 a      1402     1     3     2     7
 -1.3367610590177212E+00 a      1403     1     3     2     8
 -1.7203479365475276E+00 a      1404     1     3     2     9
 -1.2033221224091675E-01 a      1405     1     3     2    10
  1.4178765916907496E+00 a      1406     1     3     2    11
  6.1115281797115339E-01 a      1407     1     3     2    12
 -1.3524262726221268E+00 a      1408     1     3     2    13
  3.2772116223677844E-01 a      1409     1     3     2    14
 -7.0486297355367755E-01 a      1410     1     3     2    15
  1.3533445245089677E+00 a      1411     1     4     2     1
 -1.5120535625921958E+00 a      1412     1     4     2     2
  1.4452136959352355E+00 a      1413     1     4     2     3
  6.0792167250792684E-01 a      1414     1     4     2     4
 -2.8173794034753030E-01 a      1415     1     4     2     5
 -2.5715904209444390E-01 a      1416     1     4     2     6
  8.6207828791240348E-01 a      1417     1     4     2     7
  1.1984986426764310E-01 a      1418     1     4     2     8
  3.3065343246025591E-01 a      1419     1     4     2     9
  3.5612344591888423E-01 a      1420     1     4     2    10
 -7.9566591026653077E-01 a      1421     1     4     2    11
 -6.8412683976837307E-01 a      1422     1     4     2    12
  7.1115524918973572E-01 a      1423     1     4     2    13
 -1.7321454844064310E+00 a      1424     1     4     2    14
 -6.9922599178607736E-01 a      1425     1     4     2    15
 -7.6407781977776409E-02 a      1426     1     5     2     1
  5.1718161344002700E-01 a      1427     1     5     2     2
 -1.0766090321508675E+00 a      1428     1     5     2     3
 -1.0702280594209213E+00 a      1429     1     5     2     4
 -2.8179123151661600E-01 a      1430     1     5     2     5
  2.4367987973224325E-01 a      1431     1     5     2     6
 -4.5464990782399783E-01 a      1432     1     5     2     7
 -1.4798240880850189E+00 a      1433     1     5     2     8
 -1.5926673624708115E-01 a      1434     1     5     2     9
  7.4307841047197654E-01 a      1435     1     5     2    10
 -5.7619612400987741E-01 a      1436     1     5     2    11
 -7.8811811649126484E-02 a      1437     1     5     2    12
 -5.3190936467404737E-01 a      1438     1     5     2    13
  5.2983738398831126E-01 a      1439     1     5     2    14
 -4.5406286016734043E-01 a      1440     1     5     2    15
 -6.7208471999105956E-01 a      1441     1     6     2     1
 -6.1828337502097708E-01 a      1442     1     6     2     2
  9.4941982188398855E-01 a      1443     1     6     2     3
 -5.9905107312107753E-01 a      1444     1     6     2     4
  1.2087717474837635E-01 a      1445     1     6     2     5
 -4.3457742112090636E-01 a      1446     1     6     2     6
  1.0687538810239301E-01 a      1447     1     6     2     7
 -2.9761789839008235E-01 a      1448     1     6     2     8
  7.5551797872473891E-01 a      1449     1     6     2     9
 -2.5212814438045146E+00 a      1450     1     6     2    10
 -2.8348069998147807E-01 a      1451     1     6     2    11
  1.6503629711299445E-01 a      1452     1     6     2    12
  1.3604063436688785E+00 a      1453     1     6     2    13
  2.8348202661959210E-01 a      1454     1     6     2    14
  9.4801131802702665E-01 a      1455     1     6     2    15
 -2.2035455579905489E-01 a      1456     1     7     2     1
 -1.0703942230229221E-01 a      1457     1     7     2     2
 -1.3167716858286096E+00 a      1458     1     7     2     3
  5.3523615630007082E-01 a      1459     1     7     2     4
  7.7496728803532047E-02 a      1460     1     7     2     5
 -3.3909538016096374E-01 a      1461     1     7     2     6
  2.0378314919765121E+00 a      1462     1     7     2     7
  3.2988191904476372E-01 a      1463     1     7     2     8
  3.2154227811881436E-01 a      1464     1     7     2     9
 -2.1324389007751137E+00 a      1465     1     7     2    10
  5.6435737953983456E-01 a      1466     1     7     2    11
 -4.5328037190645920E-01 a      1467     1     7     2    12
  1.3170562517471041E+00 a      1468     1     7     2    13
 -8.8933778501286964E-01 a      1469     1     7     2    14
  3.8734344957549977E-01 a      1470     1     7     2    15
 -3.5657960258456056E-01 a      1471     1     8     2     1
  1.0902800317502448E-01 a      1472     1     8     2     2
  4.4718206672676225E-01 a      1473     1     8     2     3
  1.3421950389905701E+00 a      1474     1     8     2     4
 -3.4013153457879186E-01 a      1475     1     8     2     5
  1.4743549261714986E-01 a      1476     1     8     2     6
 -1.8166602405908907E+00 a      1477     1     8     2     7
  6.5083315096041289E-02 a      1478     1     8     2     8
  5.3923019557014973E-01 a      1479     1     8     2     9
 -8.9635319605609487E-01 a      1480     1     8     2    10
  4.3027011763351591E-01 a      1481     1     8     2    11
  1.0176105375452149E-01 a      1482     1     8     2    12
  1.7479799341882446E-01 a      1483     1     8     2    13
 -1.3574810514999999E-01 a      1484     1     8     2    14
 -4.9401465813012196E-01 a      1485     1     8     2    15
 -6.5437424440443009E-02 a      1486     1     9     2     1
  2.5984017165329087E-01 a      1487     1     9     2     2
  4.1316066299533921E-01 a      1488     1     9     2     3
  9.9873083852861522E-01 a      1489     1     9     2     4
  1.5746004826554505E-01 a      1490     1     9     2     5
 -1.0837693357573870E-01 a      1491     1     9     2     6
  2.2692873720457798E+00 a      1492     1     9     2     7
  4.3519017707365315E-01 a      1493     1     9     2     8
 -4.8444281819054968E-01 a      1494     1     9     2     9
  9.7047393966366380E-01 a      1495     1     9     2    10
  2.4445372134416710E-01 a      1496     1     9     2    11
 -1.4431256071666670E-01 a      1497     1     9     2    12
 -1.0566799980547643E+00 a      1498     1     9     2    13
  5.2157335974662022E-01 a      1499     1     9     2    14
 -2.3666502816660984E-01 a      1500     1     9     2    15
  3.9818170330621205E-01 a      1501     1    10     2     1
 -4.1249031335338926E-01 a      1502     1    10     2     2
 -1.0118046658311661E+00 a      1503     1    10     2     3
  2.3061860085451777E-01 a      1504     1    10     2     4
  3.7676310947537350E-01 a      1505     1    10     2     5
 -3.4361344615733141E-01 a      1506     1    10     2     6
 -2.4637357187532904E-01 a      1507     1    10     2     7
  1.6457546394710689E+00 a      1508     1    10     2     8
 -3.3050549862537762E-02 a      1509     1    10     2     9
 -2.1599604785683115E+00 a      1510     1    10     2    10
 -7.0293134110121758E-01 a      1511     1    10     2    11
  8.3225192651411498E-02 a      1512     1    10     2    12
 -7.0266187298526883E-01 a      1513     1    10     2    13
  1.1144054127125611E+00 a      1514     1    10     2    14
 -4.7535068464501923E-02 a      1515     1    10     2    15
 -3.8141421758702482E-01 a      1516     1    11     2     1
  6.0431536398231323E-01 a      1517     1    11     2     2
  2.2409626945386925E+00 a      1518     1    11     2     3
  1.1514229086458123E+00 a      1519     1    11     2     4
  1.7372649280409941E-01 a      1520     1    11     2     5
  2.1041746200177902E-01 a      1521     1    11     2     6
 -1.5361161988876224E+00 a      1522     1    11     2     7
  1.4523877411608359E+00 a      1523     1    11     2     8
 -2.4057403641125522E-01 a      1524     1    11     2     9
  7.4289661552207453E-01 a      1525     1    11     2    10
  6.6698862508972701E-01 a      1526     1    11     2    11
 -1.7007622048935633E-01 a      1527     1    11     2    12
 -6.3183833450137922E-02 a      1528     1    11     2    13
  1.9281442159033921E-03 a      1529     1    11     2    14
  1.7317554082735584E-01 a      1530     1    11     2    15
 -1.0287138539459698E-01 a      1531     1    12     2     1
  1.6083785891147393E+00 a      1532     1    12     2     2
  4.5292615434251937E-01 a      1533     1    12     2     3
 -7.0445152266134714E-01 a      1534     1    12     2     4
  5.9618984158879340E-02 a      1535     1    12     2     5
  5.2334589238209606E-02 a      1536     1    12     2     6
 -1.2748690821402644E+00 a      1537     1    12     2     7
  2.2496152469130277E+00 a      1538     1    12     2     8
  1.2351656720763578E-01 a      1539     1    12     2     9
 -6.6483887539493602E-01 a      1540     1    12     2    10
 -1.5638821336827358E-01 a      1541     1    12     2    11
 -4.4952228846809814E-02 a      1542     1    12     2    12
 -4.2850155504871568E-01 a      1543     1    12     2    13
  5.4242876680066365E-01 a      1544     1    12     2    14
 -3.6755825468015957E-01 a      1545     1    12     2    15
  5.1580846642541922E-01 a      1546     1    13     2     1
  9.2270357407546555E-01 a      1547     1    13     2     2
 -2.1312426942648607E-01 a      1548     1    13     2     3
 -1.1678836895679034E+00 a      1549     1    13     2     4
 -1.4224279513289131E-01 a      1550     1    13     2     5
 -1.3938640012609746E-01 a      1551     1    13     2     6
 -8.1177057170228384E-01 a      1552     1    13     2     7
  1.0909331629850081E+00 a      1553     1    13     2     8
 -1.1837505998377588E-01 a      1554     1    13     2     9
  1.8296578441596358E+00 a      1555     1    13     2    10
  6.3311071918489337E-02 a      1556     1    13     2    11
 -1.0209935642566997E-01 a      1557     1    13     2    12
 -4.6360761049572713E-01 a      1558     1    13     2    13
  8.5344573361567189E-01 a      1559     1    13     2    14
  2.3127627626847275E-01 a      1560     1    13     2    15
  6.5796650948706892E-01 a      1561     1    14     2     1
 -1.1456875888740949E+00 a      1562     1    14     2     2
  4.3192897782182293E-01 a      1563     1    14     2     3
  2.9912417619324150E-01 a      1564     1    14     2     4
  2.5006736172861192E-02 a      1565     1    14     2     5
 -4.5845488676982948E-01 a      1566     1    14     2     6
  1.7886544909180551E+00 a      1567     1    14     2     7
  1.1379532631713534E+00 a      1568     1    14     2     8
  1.1771837164640007E+00 a      1569     1    14     2     9
  1.3179627097468147E+00 a      1570     1    14     2    10
  9.9948650147151696E-01 a      1571     1    14     2    11
 -2.4273377848892658E-01 a      1572     1    14     2    12
  4.6562113888594253E-01 a      1573     1    14     2    13
  1.9582540237837601E-01 a      1574     1    14     2    14
 -1.3413771435104960E-01 a      1575     1    14     2    15
  6.9587211804516902E-01 a      1576     1    15     2     1
 -8.3183344640498114E-01 a      1577     1    15     2     2
 -4.4693757774515586E-01 a      1578     1    15     2     3
  6.1786141922877502E-01 a      1579     1    15     2     4
  6.4511232796311435E-02 a      1580     1    15     2     5
  3.4195981959406714E-02 a      1581     1    15     2     6
  1.7877426060407233E+00 a      1582     1    15     2     7
  9.5810716637198279E-01 a      1583     1    15     2     8
  4.3599446321110946E-01 a      1584     1    15     2     9
  7.2561639564773484E-01 a      1585     1    15     2    10
  8.7628030318452843E-02 a      1586     1    15     2    11
 -2.2917542695618306E-01 a      1587     1    15     2    12
  2.1756721034684140E-01 a      1588     1    15     2    13
  1.8424186086705061E-01 a      1589     1    15     2    14
  4.9322838963553711E-01 a      1590     1    15     2    15
 -3.8040146339134751E-01 b      1591     2     1
  1.3036865284720549E+00 b      1592     2     2
 -2.5376043927805614E+00 b      1593     2     3
 -3.8929291123090164E+00 b      1594     2     4
 -1.5113390050844648E+00 b      1595     2     5
 -1.4674224015697053E+00 b      1596     2     6
 -2.3721111188698534E+00 b      1597     2     7
 -1.0930457652620329E+00 b      1598     2     8
  1.1718890575560568E+00 b      1599     2     9
 -2.0585195186945588E+00 b      1600     2    10
 -6.9079674802323943E-01 b      1601     2    11
  1.6393804101415630E+00 b      1602     2    12
 -1.2675965100329870E-02 b      1603     2    13
 -1.2790508389220960E+00 b      1604     2    14
  1.7882901787075205E+00 b      1605     2    15
  8.9764394154440708E-01 a      1606     2     1     3     1
 -1.9067191034355821E-01 a      1607     2     2     3     1
 -3.2240650038121779E-02 a      1608     2     3     3     1
 -8.5610019818810876E-02 a      1609     2     4     3     1
 -1.8986351706437057E+00 a      1610     2     5     3     1
 -2.7994344974946275E+00 a      1611     2     6     3     1
 -1.9710568403723615E-02 a      1612     2     7     3     1
  4.6837064890586130E-02 a      1613     2     8     3     1
 -5.0666405368358647E-01 a      1614     2     9     3     1
  5.2985246827048846E-02 a      1615     2    10     3     1
  1.7575943795630847E-01 a      1616     2    11     3     1
 -7.6695716463529306E-01 a      1617     2    12     3     1
  5.1731081343558605E-01 a      1618     2    13     3     1
 -2.3996373483671221E-01 a      1619     2    14     3     1
 -7.0644749549188623E-01 a      1620     2    15     3     1
 -4.1907793303318924E-01 b      1621     3     1
